tree
version=v4
num_class=1
num_tree_per_iteration=1
label_index=0
max_feature_idx=100
objective=binary sigmoid:1
feature_names=p1_rank p2_rank p1_elo_overall p2_elo_overall p1_elo_surface p2_elo_surface elo_diff_overall elo_diff_surface p1_win_pct_5 p1_win_pct_10 p1_win_pct_20 p2_win_pct_5 p2_win_pct_10 p2_win_pct_20 p1_win_pct_surface_10 p2_win_pct_surface_10 h2h_p1_wins h2h_p2_wins h2h_total h2h_p1_win_pct h2h_surface_p1_wins h2h_surface_p2_wins p1_current_win_streak p2_current_win_streak p1_current_lose_streak p2_current_lose_streak p1_streak_5 p2_streak_5 p1_tournament_wins_current p2_tournament_wins_current p1_title_count_12m p2_title_count_12m p1_is_home p2_is_home home_advantage_flag p1_home_win_pct p2_home_win_pct p1_days_since_last_match p2_days_since_last_match p1_matches_last_14d p2_matches_last_14d p1_sets_played_last_7d p2_sets_played_last_7d p1_ace_pct p2_ace_pct p1_1st_serve_pct p2_1st_serve_pct p1_bp_save_pct p2_bp_save_pct p1_1st_serve_win_pct p2_1st_serve_win_pct p1_2nd_serve_win_pct p2_2nd_serve_win_pct p1_service_points_won_pct p2_service_points_won_pct p1_return_points_won_pct p2_return_points_won_pct p1_ace_pct_surface p2_ace_pct_surface p1_1st_serve_pct_surface p2_1st_serve_pct_surface p1_1st_serve_win_pct_surface p2_1st_serve_win_pct_surface p1_2nd_serve_win_pct_surface p2_2nd_serve_win_pct_surface p1_service_points_won_pct_surface p2_service_points_won_pct_surface p1_return_points_won_pct_surface p2_return_points_won_pct_surface p1_bp_save_pct_surface p2_bp_save_pct_surface p1_matches_played_before p2_matches_played_before surface_Carpet surface_Clay surface_Grass surface_Hard surface_Unknown surface_NA tournament_level_davis_or_equivalent tournament_level_finals tournament_level_grand_slam tournament_level_masters tournament_level_other tournament_level_team_event tournament_level_tour tournament_level_NA round_BR round_F round_QF round_R128 round_R16 round_R32 round_R64 round_RR round_SF round_NA best_of_1 best_of_3 best_of_5 best_of_NA
feature_infos=[1:1556] [1:1503] [1235.749376:2989.1885889999999] [1245.664732:2986.1499079999999] [1132.7310299999999:2670.8317299999999] [1169.4941240000001:2660.4954499999999] [-1436.74629:1455.5084099999999] [-1128.1538899999998:1157.5206740000001] [0:1] [0:1] [0:1] [0:1] [0:1] [0:1] [0:1] [0:1] [0:40] [0:43] [0:80] [0:1] [0:19] [0:18] [0:73] [0:67] [0:29] [0:28] [-5:5] [-5:5] [0:6] [0:6] [0:25] [0:22] [0:1] [0:1] [-1:1] [0:1] [0:1] [0:19011] [0:20138] [0:18] [0:17] [0:40] [0:40] [0:0.22580645161290319] [0:0.17857142857142849] [0.320754716981132:0.88268643751359455] [0.28888888888888881:0.95999999999999996] [0:1] [0:1] [0.1666666666666666:1] [0:0.94999999999999996] [0.058823529411764698:0.82352941176470584] [0:0.88888888888888884] [0.1111111111111111:0.83333333333333337] [0.0769230769230769:0.87878787878787878] [0.1111111111111111:0.85714285714285721] [0.1111111111111111:0.85714285714285721] [0:0.22580645161290319] [0:0.20000000000000001] [0.32653061224489788:0.91304347826086962] [0.28888888888888881:0.95999999999999996] [0.1666666666666666:1] [0:0.95833333333333337] [0.0454545454545454:0.91666666666666663] [0:0.88888888888888884] [0.1111111111111111:0.88888888888888884] [0.0769230769230769:0.87878787878787878] [0.1111111111111111:0.85714285714285721] [0.066666666666666596:0.85714285714285721] [0:1] [0:1] [0:1709] [0:1705] [0:1] [0:1] [0:1] [0:1] [0:1] none [0:1] [0:1] [0:1] [0:1] [0:1] [0:1] [0:1] none [0:1] [0:1] [0:1] [0:1] [0:1] [0:1] [0:1] [0:1] [0:1] none [0:1] [0:1] none none
tree_sizes=3451 3555 3543 3557 3551 3550 3545 3522 3566 3536 3538 3557 3561 3558 3558 3539 3550 3557 3558 3575 3557 3543 3552 3531 3566 3566 3547 3571 3574 3560 3563 3565 3555 3564 3554 3557 3546 3531 3556 3570 3524 3568 3572 3542 3558 3512 3550 3570 3554 3560 3557 3577 3537 3571 3572 3536 3564 3553 3582 3572 3570 3580 3587 3538 3535 3558 3588 3558 3579 3595 3554 3579 3572 3568 3575 3555 3558 3564 3521 3579 3560 3536 3560 3559 3548 3552 3555 3570 3560 3549 3525 3546 3580 3589 3541 3524 3582 3521 3554 3561 3568 3577 3549 3542 3553 3579 3538 3560 3527 3589 3574 3533 3564 3532 3561 3535 3587 3543 3539 3575 3535 3548 3571 3520 3559 3536 3525 3575 3556 3517 3526 3584 3529 3565 3557 3522 3563 3579 3537 3573 3539 3566 3561 3567 3532 3565 3545 3527 3585 3544 3542 3523 3554 3609 3534 3522 3536 3534 3563 3569 3538 3535 3578 3510 3511 3550 3513 3549 3532 3518 3525 3532 3502 3524 3544 3535 3529 3557 3498 3506 3518 3543 3517 3511 3522 3539 3510 3568 3527 3517 3563 3511 3470 3532 3545 3567 3545 3537 3493 3501 3572 3459 3540 3480 3534 3578 3539 3530 3519 3469 3520 3512 3523 3573 3536 3506 3499 3489 3481 3510 3531 3514 3519 3467 3497 3488 3511 3513 3549 3503 3528 3515 3526 3524 3531 3509 3496 3524 3502 3535 3500 3507 3490 3532 3460 3449 3542 3487 3476 3528 3546 3482 3555 3482 3499 3509 3499 3517 3490 3449 3516 3534 3511 3460 3503 3509 3470 3564 3531 2956 3472 3523 3488 3478 3453 3538 3524 3519 3471 3512 3488 3555 3434 3494 3511 3495 3462 3507 3500 3511 3488 3538 3509 3466 3535 3468 3520 3502 3468 3528 3508 3551 3540 3371 3502 3499 3462 3534 3466 3494 3506 3514 3482 3492 3457 3514 3531 3470 3473 3458 3471 3501 3521 3475

Tree=0
num_leaves=31
num_cat=0
split_feature=6 6 38 23 37 6 37 38 37 37 72 22 6 6 38 23 37 37 22 6 6 72 38 37 22 37 7 23 7 94
split_gain=20166.8 4640.64 2992.16 3893.85 2718.91 2101.89 1459.88 1174.34 1347.28 911.709 789.805 749.029 683.091 350.593 322.535 1011.02 378.6 365.239 321.195 308.907 296.506 234.114 188.242 263.259 576.615 226.449 177.814 148.283 141.357 129.187
threshold=-37.551152999999992 218.44285950000008 1.0000000180025095e-35 1.0000000180025095e-35 1.0000000180025095e-35 -185.3045139999999 1.0000000180025095e-35 1.0000000180025095e-35 1.0000000180025095e-35 1.5000000000000002 5.5000000000000009 1.0000000180025095e-35 378.78257100000002 97.663709000000054 1.0000000180025095e-35 1.0000000180025095e-35 1.0000000180025095e-35 1.0000000180025095e-35 1.0000000180025095e-35 42.918054499999933 -353.27202800000003 5.5000000000000009 1.0000000180025095e-35 1.0000000180025095e-35 1.0000000180025095e-35 1.0000000180025095e-35 -2.306843999999955 1.0000000180025095e-35 -4.8633589999999449 1.0000000180025095e-35
decision_type=2 2 2 2 2 2 2 2 2 2 2 2 2 2 2 2 2 2 2 2 2 2 2 2 2 2 2 2 2 2
left_child=5 2 3 6 18 20 -2 9 11 -7 -6 -9 14 28 15 16 -3 -16 -4 -5 -1 -10 25 24 -24 -22 -21 -11 -12 -8
right_child=1 12 4 19 10 7 29 8 21 27 13 -13 -14 -15 17 -17 -18 -19 -20 26 22 -23 23 -25 -26 -27 -28 -29 -30 -31
leaf_value=0.28527630009847799 0.36887677213343351 0.39716984078110157 0.4268650546793793 0.35139923537796081 0.39120867780640239 0.32827642883442987 0.26903218004855295 0.42581771686788922 0.3695703272954643 0.26931796229714605 0.34711295214974403 0.34297221614741397 0.41447245895486801 0.3760322816075754 0.42410963604728613 0.39087470061641538 0.27340333811262379 0.39311007007461884 0.39422851936460612 0.35745541875335485 0.30585094401653412 0.33214996325743895 0.42254557250007851 0.30705286875565374 0.31112111572275253 0.27305248738571958 0.3762692421268386 0.30625257202365963 0.36278749061985976 0.34460585672398858
leaf_weight=1628.7988085746765 291.54821217060089 48.147796034812927 1781.7104020118713 1900.0233279466629 2224.4765665531158 2066.7259986400604 1074.2523336410522 451.96021604537964 279.20882725715637 580.19303965568542 1425.5618805885315 257.19149339199066 4280.0729238986969 2273.8341062068939 818.27058386802673 2103.986102104187 162.10564494132996 1887.9258917570114 607.29129672050476 1072.074795126915 1124.3357194662094 2495.4591372013092 103.07015633583069 1078.3654619455338 215.81826162338257 439.86277985572815 2547.2361640930176 227.18985164165497 2194.2329760789871 35.082564949989319
leaf_count=6732 1205 199 7364 7853 9194 8542 4440 1868 1154 2398 5892 1063 17690 9398 3382 8696 670 7803 2510 4431 4647 10314 426 4457 892 1818 10528 939 9069 145
internal_value=0.362845 0.380992 0.369195 0.349407 0.382227 0.318543 0.291704 0.332971 0.3481 0.314634 0.371533 0.395772 0.403097 0.364106 0.3934 0.382777 0.301746 0.402483 0.418569 0.364053 0.298558 0.335915 0.305863 0.316201 0.347135 0.296628 0.370696 0.279711 0.356614 0.271422
internal_weight=37676 26727.8 17427.3 6920.22 10507.1 10948.2 1400.88 6357.93 3483.82 2874.11 8118.11 709.152 9300.51 5893.63 5020.44 2314.24 210.253 2706.2 2389 5519.33 4590.25 2774.67 2961.45 1397.25 318.888 1564.2 3619.31 807.383 3619.79 1109.33
internal_count=155719 110469 72029 28602 43427 45250 5790 26278 14399 11879 33553 2931 38440 24359 20750 9565 869 11185 9874 22812 18972 11468 12240 5775 1318 6465 14959 3337 14961 4585
is_linear=0
shrinkage=1


Tree=1
num_leaves=31
num_cat=0
split_feature=6 6 37 29 6 42 40 6 37 37 22 3 23 29 6 94 22 37 29 94 41 6 79 42 37 22 1 29 6 94
split_gain=18555.4 4341.7 2008.02 2356.92 1921.56 1918.35 708.041 646.605 516.983 447.704 470.713 401.629 392.699 659.823 381.207 344.72 364.825 300.166 299.933 297.914 277.312 241.896 238.546 209.069 193.967 694.016 181.376 173.554 170.829 170.406
threshold=-37.551152999999992 218.44285950000008 4.5000000000000009 1.0000000180025095e-35 -150.71912800000004 1.0000000180025095e-35 1.0000000180025095e-35 386.22916950000007 1.5000000000000002 2.5000000000000004 1.0000000180025095e-35 1500.0011810000003 1.0000000180025095e-35 1.0000000180025095e-35 -284.92417949999998 1.0000000180025095e-35 1.0000000180025095e-35 6.5000000000000009 1.0000000180025095e-35 1.0000000180025095e-35 2.5000000000000004 86.454552499999991 1.0000000180025095e-35 1.5000000000000002 2.5000000000000004 1.0000000180025095e-35 65.500000000000014 1.0000000180025095e-35 111.06079049999995 1.0000000180025095e-35
decision_type=2 2 2 2 2 2 2 2 2 2 2 2 2 2 2 2 2 2 2 2 2 2 2 2 2 2 2 2 2 2
left_child=4 2 3 15 14 11 8 17 -6 10 19 26 13 20 -1 16 -2 18 -3 -8 22 -5 -7 -19 25 29 -4 -11 -13 -16
right_child=1 7 5 21 6 12 9 -9 -10 27 -12 28 -14 -15 24 -17 -18 23 -20 -21 -22 -23 -24 -25 -26 -27 -28 -29 -30 -31
leaf_value=-0.069104514905137429 0.059755207037933786 0.054760243145311374 0.031110174544971256 -0.0062880345543645027 0.043034534063171967 -0.042885294174633271 0.047029584683131037 0.05049378955344512 -0.014413876037593766 -0.04156694539045034 -0.029446979631432717 -0.0071062546335092947 -0.0073385127868148348 -0.089237487641158519 0.05196074576030596 0.02550189097418349 0.026120647337449565 0.029897851460650247 0.028666747412537469 -0.026499188469534651 -0.010816419365539641 0.011021427611082478 0.014352253313092428 0.0063348492336557111 -0.058205224691700842 -0.048316582481217334 0.0083276934631372913 -0.071323400588918007 0.012530046348371519 -0.051191636452046357
leaf_weight=2546.0575914680958 1859.3576418459415 1045.2536134123802 1217.6155786812305 2588.2118853479624 311.16119614243507 1444.1443160623312 220.46026445925236 4091.742457151413 964.72579191625118 1519.8051708936691 1833.4446754306555 2026.8614178597927 995.93294358253479 307.63550984859467 142.36930581927299 1166.383757635951 654.98504358530045 1268.9405714124441 1802.7584600746632 132.50628690421581 828.67292800545692 2281.5170577019453 118.32250316441059 1020.335975676775 1625.413655936718 1337.463491499424 922.48275488615036 365.11923167109489 990.66109485924244 28.943910285830498
leaf_count=10404 7774 4366 5052 10688 1296 5933 919 17080 3971 6238 7535 8373 4118 1253 594 4836 2721 5275 7491 546 3418 9444 490 4228 6654 5483 3824 1491 4105 119
internal_value=6.67433e-06 0.0175118 0.00611648 0.0195113 -0.042269 -0.00682158 -0.0255951 0.0389995 -0.000403453 -0.0334897 -0.021557 0.00844809 -0.0281372 -0.0358126 -0.0579653 0.0429154 0.0509934 0.0298445 0.0382434 0.0194263 -0.0289392 0.00182162 -0.0385508 0.0193958 -0.0489164 -0.0389095 0.0212899 -0.0473309 -0.000659602 0.0345328
internal_weight=37659.3 26631.8 17402.8 8550.46 11027.5 8852.33 5347.22 9229.03 1275.89 4071.34 2186.41 5157.62 3694.71 2698.78 5680.25 3680.73 2514.34 5137.29 2848.01 352.967 2391.14 4869.73 1562.47 2289.28 3134.19 1508.78 2140.1 1884.92 3017.52 171.313
internal_count=155719 110469 72029 35463 45250 36566 21996 38440 5267 16729 9000 21354 15212 11094 23254 15331 10495 21360 11857 1465 9841 20132 6423 9503 12850 6196 8876 7729 12478 713
is_linear=0
shrinkage=0.0387551


Tree=2
num_leaves=31
num_cat=0
split_feature=7 38 23 2 94 28 7 1 38 23 1 10 2 1 1 72 13 7 39 19 39 2 13 2 38 28 2 22 19 1
split_gain=10780 2416.64 5939.72 1291.8 1197.66 1084.98 1083.22 755.72 749.825 989.679 661.055 575.758 431.7 397.014 380.242 371.568 369.96 368.621 365.293 335.191 283.038 274.934 242.362 239.969 214.59 202.223 185.229 183.474 167.798 160.276
threshold=-42.065876500000051 1.0000000180025095e-35 1.0000000180025095e-35 2015.0535940000002 1.0000000180025095e-35 1.0000000180025095e-35 -143.16705949999991 63.500000000000007 1.0000000180025095e-35 1.0000000180025095e-35 32.500000000000007 0.55277777777777792 1822.3140420000002 389.50000000000006 27.500000000000004 5.5000000000000009 0.64852941176470602 88.651270999999966 1.0000000180025095e-35 0.49603174603174605 1.0000000180025095e-35 1800.5312695000002 0.53589743589743599 1819.0562780000002 1.0000000180025095e-35 1.0000000180025095e-35 1941.0250070000002 1.0000000180025095e-35 0.41885964912280704 29.500000000000004
decision_type=2 2 2 2 2 2 2 2 2 2 2 2 2 2 2 2 2 2 2 2 2 2 2 2 2 2 2 2 2 2
left_child=6 2 4 10 13 7 16 12 9 -8 -4 15 -3 -2 -7 -9 21 -12 -17 -5 -10 24 -22 -11 25 -1 -18 -16 -25 -21
right_child=1 5 3 19 -6 14 8 11 20 23 17 -13 -14 -15 27 18 26 -19 -20 29 22 -23 -24 28 -26 -27 -28 -29 -30 -31
leaf_value=-0.079139693835908215 -0.082277995786109934 -0.015771273253271649 -0.027328587865557124 -0.0067355141452252066 0.018999737115885283 -0.003771167387287199 -0.079813030062443543 0.030254595975424577 -0.024144346455192728 -0.033934786686913042 -0.0017256521078424165 0.037285222837936886 0.018645221965194803 -0.0038631642460541299 0.062738627970268468 -0.0024758425203559443 -0.061767556478222338 0.018163780446387185 0.019275861345562306 0.021688669637181159 0.01073980617502196 -0.0079360704037357011 -0.015587431763421969 -0.03449677936746403 -0.030762470652870161 -0.039188595211071812 -0.035125716312836258 0.04038100753998615 0.00246718809651512 0.0432853048968612
leaf_weight=347.39750625193119 1456.5228367298841 1308.1769806146622 956.1462512165308 283.31037853658199 222.78954337537289 200.17432518303394 606.07849951088428 2341.4690132290125 1171.4256727993488 1459.3222012370825 3008.5019926130772 3138.6489243209362 941.27371308207512 103.89396753907204 1148.9152412861586 1793.0124636590481 1961.5428151488304 2616.9974396526814 3282.5842719823122 700.32300589978695 1234.1418082118034 456.34873209893703 914.23178401589394 261.19127751886845 1141.6466824263334 420.80228394269943 489.83604988455772 1059.8443064391613 627.82726708054543 1962.2855778038502
leaf_count=1408 5919 5375 3914 1169 926 828 2460 9785 4809 5973 12423 13134 3919 431 4864 7409 7972 10875 13651 2922 5124 1892 3763 1070 4679 1720 2009 4445 2603 8248
internal_value=1.17255e-05 0.0134277 -0.000139373 0.0120106 -0.065056 0.0235139 -0.0320711 0.0190251 -0.0214585 -0.0356605 0.00246334 0.0233713 -0.00136983 -0.0770571 0.0473753 0.0174834 -0.0458925 0.00752697 0.0115918 0.0333407 -0.00881963 -0.0349612 -0.000463645 -0.0242653 -0.0414188 -0.0572554 -0.056444 0.0520106 -0.00839273 0.0376049
internal_weight=37616.7 26524.9 11310.8 9527.56 1783.21 15214.1 11091.8 12805.2 6274.22 2954.42 6581.65 10555.7 2249.45 1560.42 2408.93 7417.07 4817.57 5625.5 5075.6 2945.92 3319.8 2366.2 2148.37 2348.34 1909.85 768.2 2451.38 2208.76 889.019 2662.61
internal_count=155719 110237 46827 39551 7276 63410 45482 53273 25802 12106 27212 43979 9294 6350 10137 30845 19680 23298 21060 12339 13696 9699 8887 9646 7807 3128 9981 9309 3673 11170
is_linear=0
shrinkage=0.0387551


Tree=3
num_leaves=31
num_cat=0
split_feature=6 6 38 23 6 41 38 23 79 6 41 72 6 6 41 28 38 28 3 38 23 6 22 79 38 3 28 28 41 72
split_gain=16183.5 3851.29 2468.15 3342.65 1716.27 1053.39 822.425 627.214 546.181 481.175 437.613 401.625 348.805 315.656 293.382 292.58 264.312 265.366 256.482 225.213 766.948 215.959 211.087 200.853 160.667 138.593 137.316 133.294 133.254 129.409
threshold=-35.350294999999953 239.1810370000002 1.0000000180025095e-35 1.0000000180025095e-35 -146.05284500000002 1.0000000180025095e-35 1.0000000180025095e-35 1.0000000180025095e-35 1.0000000180025095e-35 434.61107650000014 11.500000000000002 5.5000000000000009 -353.27202800000003 104.37839350000003 1.0000000180025095e-35 1.0000000180025095e-35 1.0000000180025095e-35 1.0000000180025095e-35 1502.4498245000002 1.0000000180025095e-35 1.0000000180025095e-35 97.663709000000054 1.0000000180025095e-35 1.0000000180025095e-35 7.5000000000000009 1532.0771245000003 1.0000000180025095e-35 1.0000000180025095e-35 1.5000000000000002 5.5000000000000009
decision_type=2 2 2 2 2 2 2 2 2 2 2 2 2 2 2 2 2 2 2 2 2 2 2 2 2 2 2 2 2 2
left_child=4 2 3 8 12 11 7 -6 10 19 -2 -4 -1 25 29 18 17 -14 -7 20 23 -13 -17 27 -16 -5 -21 -3 -18 -8
right_child=1 9 5 13 6 15 14 -9 -10 -11 -12 21 16 -15 24 22 28 -19 -20 26 -22 -23 -24 -25 -26 -27 -28 -29 -30 -31
leaf_value=-0.068271223917282131 -0.075829215756585078 -0.080796459451963107 0.023527256031108747 0.010066525860400365 -0.076575930425955618 0.036376915759378493 0.010064398621401209 -0.029183120562937696 0.012283178545790946 0.050541560579211157 0.024649021048702327 -0.0090189347850761735 -0.077085277147333944 0.012655345354091399 -0.0096308512443485424 0.061242434433068968 -0.046934726568922891 -0.047779594343342072 0.017576697484855304 0.034372068473091155 0.029148829919977252 0.010141589749169936 0.029314820613686843 0.041562157414463542 0.016112116292884497 -0.0096184653553901787 0.055687018785589272 0.026054993527535878 -0.027060503978564097 -0.025344211259504319
leaf_weight=1670.5503376871347 1260.8395285010338 144.85143588483334 1343.9199055284262 676.88935506343842 542.94441711902618 1818.6230630427599 175.02770541608334 1843.517866641283 131.0573565363884 3153.4644432961941 68.648007422685623 2176.6583370566368 666.11333301663399 2534.0236592888832 742.48464016616344 664.14756597578526 1041.4086050540209 1530.1621858924627 2720.0121895819902 2098.5452419668436 2198.416206330061 1487.1524303555489 584.94723035395145 29.741920858621597 714.6064795255661 2602.89201413095 579.25667828321457 19.950125023722649 986.88375750184059 1356.5999155193567
leaf_count=6732 5085 588 5639 2795 2186 7651 723 7514 545 13420 284 8975 2681 10531 3055 2855 4222 6201 11349 8842 9236 6181 2463 125 2975 10731 2480 83 4029 5543
internal_value=1.52776e-05 0.0166692 0.00666286 -0.0107858 -0.0388389 0.0184203 -0.0230008 -0.0399655 -0.0632001 0.0386545 -0.070641 0.00540558 -0.0532801 0.00238175 -0.00945467 0.0296811 -0.047352 -0.0566678 0.0251099 0.031262 0.0226221 -0.00124162 0.0462908 -0.0511328 0.00299437 -0.00555583 0.0389829 -0.0678615 -0.0372647 -0.0212979
internal_weight=37564.3 26294 18069.8 7274.35 11270.3 10795.5 5375.18 2386.46 1460.54 8224.23 1329.49 5007.73 5895.12 5813.81 2988.72 5787.73 4224.57 2196.28 4538.64 5070.76 2392.96 3663.81 1249.09 194.543 1457.09 3279.78 2677.8 164.802 2028.29 1531.63
internal_count=155719 109858 75084 29971 45861 45113 21996 9700 5914 34774 5369 20795 23865 24057 12296 24318 17133 8882 19000 21354 10032 15156 5318 796 6030 13526 11322 671 8251 6266
is_linear=0
shrinkage=0.0387551


Tree=4
num_leaves=31
num_cat=0
split_feature=6 6 38 23 6 41 38 23 94 6 41 72 41 38 23 28 3 6 6 94 24 40 6 28 38 28 7 72 38 6
split_gain=14941.6 3660.39 2267.95 2878.5 1516.31 946.219 859.973 632.756 606.286 568.949 391.478 379.238 309.573 262.844 763.824 259.295 253.214 247.213 226.156 222.937 208.928 189.534 178.107 150.294 148 180.005 145.311 135.373 106.479 98.8269
threshold=-37.551152999999992 218.44285950000008 1.0000000180025095e-35 1.0000000180025095e-35 -179.99511100000004 1.0000000180025095e-35 1.0000000180025095e-35 1.0000000180025095e-35 1.0000000180025095e-35 371.73803400000003 11.500000000000002 5.5000000000000009 1.0000000180025095e-35 1.0000000180025095e-35 1.0000000180025095e-35 1.0000000180025095e-35 1509.0935970000003 42.918054499999933 -386.49679899999995 1.0000000180025095e-35 1.0000000180025095e-35 1.0000000180025095e-35 97.663709000000054 1.0000000180025095e-35 1.0000000180025095e-35 1.0000000180025095e-35 -2.306843999999955 5.5000000000000009 214.50000000000003 526.24950000000013
decision_type=2 2 2 2 2 2 2 2 2 2 2 2 2 2 2 2 2 2 2 2 2 2 2 2 2 2 2 2 2 2
left_child=4 2 3 8 18 11 7 -6 10 13 -2 -4 27 14 19 16 -7 -5 -1 -3 -17 -14 28 -15 25 -20 -19 -8 -13 -11
right_child=1 9 5 17 6 15 12 -9 -10 29 -12 22 21 23 -16 20 -18 26 24 -21 -22 -23 -24 -25 -26 -27 -28 -29 -30 -31
leaf_value=-0.067131259002536622 -0.074281415174498419 -0.072037937588840528 0.022335336282192503 -0.010149698856219988 -0.074267219123146516 0.034443337172279896 0.01027584234486994 -0.03080068377859841 0.01107666937251385 0.040766363126684156 0.024052361666062359 -0.01139500238596138 0.01832015566011359 0.030580330155299824 0.024342147654818611 0.027005386683040155 0.015537183035766412 -0.0048457723659235136 -0.074604929966995234 0.033646796683352749 0.059891981114423253 -0.0092905150062033929 0.0091929740295226704 0.054203398511573832 -0.040094369463226941 -0.048193242055088216 0.012165442626259284 -0.026669269866329334 0.018881669249967991 0.052608202246932349
leaf_weight=1373.2744279354811 1213.2076653540134 172.07348316907883 1311.0276218056679 1910.1890452802181 650.96926264464855 1865.2149193584919 164.24677293002605 2213.2215153425932 158.20462855696678 2274.5279232114553 64.016368672251701 2024.1936609447002 564.48402391374111 2047.0065299719572 2000.7481515705585 552.99236504733562 2476.9377016872168 1074.4503385573626 552.61609248816967 36.303650587797165 610.42268496751785 1103.1930985152721 1321.2989396154881 504.1263410449028 1641.1089589595795 1297.6626459211111 2530.3562233895063 1600.6835824251175 190.9187994748354 1979.9059802591801
leaf_count=5508 4867 693 5529 7853 2609 7907 679 8978 657 9760 266 8330 2357 8671 8431 2342 10364 4431 2214 153 2669 4534 5497 2192 6635 5227 10528 6509 789 8540
internal_value=1.89007e-05 0.0159543 0.00552214 -0.0116019 -0.0375559 0.0170183 -0.0250006 -0.0406797 -0.0604883 0.0359785 -0.0693528 0.00453189 -0.0119178 0.0267741 0.0169878 0.028012 0.0236585 0.00112213 -0.0538075 -0.0536254 0.0442604 5.52884e-05 -0.00206824 0.0352485 -0.0485668 -0.0560815 0.00709507 -0.0232311 -0.00878548 0.0462773
internal_weight=37479.6 26318.1 17303.4 6950.42 11161.5 10353 6296.8 2864.19 1435.43 9014.69 1277.22 4847.44 3432.61 4760.26 2209.13 5505.57 4342.15 5515 4864.66 208.377 1163.42 1667.68 3536.41 2551.13 3491.39 1850.28 3604.81 1764.93 2215.11 4254.43
internal_count=155719 110469 72029 28602 45250 43427 25666 11587 5790 38440 5133 20145 14079 20140 9277 23282 18271 22812 19584 846 5011 6891 14616 10863 14076 7441 14959 7188 9119 18300
is_linear=0
shrinkage=0.0387551


Tree=5
num_leaves=31
num_cat=0
split_feature=6 6 38 23 37 6 37 38 37 37 72 22 6 6 6 22 6 37 38 23 38 72 38 37 22 37 3 23 9 7
split_gain=13806.4 3206.25 2038.8 2739.55 2158.46 1718.53 1035.64 806.626 1086.96 664.474 557.186 517.039 440.877 302.528 280.893 254.301 248.581 209.043 265.098 672.829 256.895 204.188 195.871 313.03 518.563 224.753 124.63 121.769 100.575 94.8433
threshold=-25.831004500000059 239.1810370000002 1.0000000180025095e-35 1.0000000180025095e-35 1.0000000180025095e-35 -146.05284500000002 1.5000000000000002 1.0000000180025095e-35 1.0000000180025095e-35 1.5000000000000002 9.5000000000000018 1.0000000180025095e-35 443.84692999999987 -284.92417949999998 111.06079049999995 1.0000000180025095e-35 104.37839350000003 6.5000000000000009 1.0000000180025095e-35 1.0000000180025095e-35 2.5000000000000004 2.5000000000000004 1.0000000180025095e-35 1.0000000180025095e-35 1.0000000180025095e-35 1.0000000180025095e-35 1532.0771245000003 1.0000000180025095e-35 0.5277777777777779 1.2462944999999765
decision_type=2 2 2 2 2 2 2 2 2 2 2 2 2 2 2 2 2 2 2 2 2 2 2 2 2 2 2 2 2 2
left_child=5 2 3 6 15 13 -2 9 11 -7 28 -9 17 -1 29 -4 26 20 19 -19 -3 -10 25 24 -24 -15 -5 -11 -6 -12
right_child=1 12 4 16 10 7 -8 8 21 27 14 -13 -14 22 -16 -17 -18 18 -20 -21 -22 -23 23 -25 -26 -27 -28 -29 -30 -31
leaf_value=-0.058863435190808625 0.0081441859797287859 0.028552247687116498 0.058609888794832386 0.010563426923982541 0.018295101636960995 -0.023490285860786053 -0.074846446552193718 0.0592947805534444 0.01318278702586162 -0.076053634659029132 -0.014128924151183726 -0.012722544420166945 0.048457454564129997 -0.041381297353405289 0.012136511351314928 0.029179168959373628 0.01183749488650419 -0.075386608392439436 0.028111696986479834 0.02334247101570423 0.053309415005744001 -0.021700332035699099 0.06037105599300515 -0.040421052937870704 -0.036951760593654917 -0.072213914781431549 -0.0085885660389429797 -0.041729201477731612 0.03555814449015738 -0.00058839869632950844
leaf_weight=2596.8509895801544 283.64497990906239 1955.2929883003235 1699.8502101749182 645.75850595533848 2022.7942390441895 1922.0350807309151 1108.2434533238411 468.32846754789352 280.51836952567101 544.38756591081619 1332.066310107708 220.09572698175907 2930.8857122063637 1227.8819657564163 2054.1244348287582 595.42501118779182 2522.4100695997477 142.04491101205349 1722.1480953842402 383.79566150903702 928.43969905376434 2481.9830252230167 135.28315106034279 1268.5168025642633 209.68140871822834 499.56112122535706 2433.3596836775541 217.15642081201077 676.37963038682938 1864.3764379620552
leaf_count=10404 1171 8335 7420 2671 8556 7791 4439 1998 1172 2178 5486 912 12810 4938 8599 2542 10531 572 7362 1630 4065 10124 565 5111 848 1999 10014 876 2873 7727
internal_value=2.18452e-05 0.0162928 0.00685768 -0.00927396 0.0178694 -0.0340787 -0.0579343 -0.0196929 -0.00730024 -0.0356291 0.008311 0.0362702 0.0364657 -0.0489412 0.00095461 0.0509752 0.00281733 0.0296169 0.0207576 -0.00332714 0.036523 -0.0181581 -0.0412288 -0.0315192 0.00121488 -0.0502978 -0.00457197 -0.0662659 0.022621 -0.0062312
internal_weight=37373.3 25301 17238.4 6993.42 10245 12072.3 1391.89 6134.5 3450.93 2683.58 7949.74 688.424 8062.61 5937.78 5250.57 2295.28 5601.53 5131.72 2247.99 525.841 2883.73 2762.5 3340.92 1613.48 344.965 1727.44 3079.12 761.544 2699.17 3196.44
internal_count=155719 106803 72029 28826 43203 48916 5610 25051 14206 10845 33241 2910 34774 23865 21812 9962 23216 21964 9564 2202 12400 11296 13461 6524 1413 6937 12685 3054 11429 13213
is_linear=0
shrinkage=0.0387551


Tree=6
num_leaves=31
num_cat=0
split_feature=6 6 38 37 37 6 23 6 38 37 72 37 22 38 23 37 37 22 6 6 38 37 22 37 1 72 72 6 71 71
split_gain=12782.8 3233.05 1882.1 2250.44 1967.86 1295.49 863.314 683.749 633.531 865.67 554.203 519.698 468.542 335.033 886.087 422.409 346.348 288.199 269.711 205.85 201.47 303.394 618.522 217.517 166.682 146.605 144.783 150.462 110.858 96.2971
threshold=-37.551152999999992 185.9419404999999 1.0000000180025095e-35 1.5000000000000002 1.0000000180025095e-35 -150.71912800000004 1.0000000180025095e-35 371.73803400000003 1.0000000180025095e-35 1.0000000180025095e-35 5.5000000000000009 1.5000000000000002 1.0000000180025095e-35 1.0000000180025095e-35 1.0000000180025095e-35 1.5000000000000002 1.0000000180025095e-35 1.0000000180025095e-35 -353.27202800000003 21.209090500000006 1.0000000180025095e-35 1.0000000180025095e-35 1.0000000180025095e-35 1.0000000180025095e-35 83.500000000000014 2.5000000000000004 3.5000000000000004 44.701402499999979 57.500000000000007 85.500000000000014
decision_type=2 2 2 2 2 2 2 2 2 2 2 2 2 2 2 2 2 2 2 2 2 2 2 2 2 2 2 2 2 2
left_child=5 2 3 26 17 18 -5 13 11 12 24 -7 -10 14 16 -15 -3 -4 -1 -12 23 22 -22 -20 -6 -11 -2 -28 -21 -29
right_child=1 7 4 6 10 8 -8 -9 9 25 19 -13 -14 15 -16 -17 -18 -19 20 28 21 -23 -24 -25 -26 -27 27 29 -30 -31
leaf_value=-0.060400845649846421 0.025945097751358372 0.028220291425753555 0.057143639404358522 -0.072081723495014544 0.030582289558681617 -0.024473550956827086 -0.012514308590039514 0.043973184039119394 0.05836344304608497 0.013315623152119696 -0.012586673478236204 -0.064432049859985865 -0.014576293324515377 0.05298126194941593 0.021244283510396034 0.022851896362983935 -0.071973777129206662 0.023799201444044574 -0.042437205541439718 0.015985980268977344 0.058713501004465748 -0.041084345785881576 -0.038506361915260585 -0.069847539690917324 0.0072455259914107617 -0.02213374302394874 -0.0097115401728678757 0.018813774374209762 0.00027999680692929521 0.0010765546064042488
leaf_weight=1682.5376945734024 328.48360188305378 66.832777097821236 1512.5801985114813 1072.3792239874601 1357.4349987208843 1746.4764860868454 554.33337742090225 4146.6665969491005 384.08852201700211 190.35857309401035 1611.2996923774481 678.90076673030853 201.75712835788727 1002.0481463074684 2529.3659149855375 2310.1130583286285 230.65947760641575 524.25096337497234 1531.1153888851404 882.63728421926498 151.63112746179104 1542.0915766656399 279.39325495064259 607.30457870662212 695.06991222500801 2203.6692082285881 1705.8962929546833 592.51094661653042 2869.0606310516596 2051.3808272778988
leaf_count=6732 1362 281 6714 4301 5809 7051 2289 18300 1657 791 6644 2722 831 4451 10739 9855 924 2250 6138 3691 637 6190 1124 2433 2958 8944 6993 2465 11918 8525
internal_value=2.4877e-05 0.0149142 0.0038819 -0.0125178 0.014821 -0.0345988 -0.051783 0.0318152 -0.0209519 -0.00898187 0.00555348 -0.0356586 0.033244 0.023603 0.013803 0.0319671 -0.0494648 0.0485613 -0.0473299 -0.00100089 -0.041981 -0.03305 -0.00430515 -0.0502217 0.0226794 -0.019315 0.00113534 -0.000738217 0.00397504 0.00505156
internal_weight=37242.3 26043 15757.3 6304.98 9452.33 11199.3 1626.71 10285.7 5405.25 2979.87 7415.5 2425.38 585.846 6139.02 2826.86 3312.16 297.492 2036.83 5794.07 5363 4111.54 1973.12 431.024 2138.42 2052.5 2394.03 4678.27 4349.79 3751.7 2643.89
internal_count=155719 110469 65919 25935 39984 45250 6590 44550 21996 12223 31020 9773 2488 26250 11944 14306 1205 8964 23254 22253 16522 7951 1761 8571 8767 9735 19345 17983 15609 10990
is_linear=0
shrinkage=0.0387551


Tree=7
num_leaves=31
num_cat=0
split_feature=7 37 38 23 38 3 37 38 38 10 2 3 2 3 22 22 3 23 2 3 3 3 3 2 37 3 2 3 2 3
split_gain=7747.79 1654.26 2229.35 2720.33 1966.98 1152.31 959.923 1123.13 765.615 629.388 593.141 676.501 503.786 450.587 323.268 309.584 288.095 287.475 280.916 269.243 228.531 217.067 212.212 234.23 208.865 182.043 175.847 167.782 200.928 167.341
threshold=-26.437017500000021 6.5000000000000009 1.0000000180025095e-35 1.0000000180025095e-35 2.5000000000000004 1767.4456975000001 1.5000000000000002 2.5000000000000004 1.0000000180025095e-35 0.55277777777777792 2042.8129165000003 1758.3428475000003 1927.8102655000002 1500.0011810000003 1.0000000180025095e-35 1.0000000180025095e-35 2074.3593890000006 1.0000000180025095e-35 1884.0441325000004 2145.6460215000002 2087.2485875000007 1776.9195625000002 1530.7536485000003 1755.7020035000003 1.0000000180025095e-35 1767.4456975000001 1838.7881640000003 1538.2100260000002 2057.4138925000002 1506.2774655000003
decision_type=2 2 2 2 2 2 2 2 2 2 2 2 2 2 2 2 2 2 2 2 2 2 2 2 2 2 2 2 2 2
left_child=5 4 3 -3 10 6 7 26 17 13 11 22 20 -4 -9 24 -12 -8 -5 -14 -7 -17 -2 -24 -6 -15 -1 -11 -29 -10
right_child=1 2 9 18 15 12 8 14 29 27 16 -13 19 25 -16 21 -18 -19 -20 -21 -22 -23 23 -25 -26 -27 -28 28 -30 -31
leaf_value=-0.017298396836896032 0.022941655339153787 -0.06985474821082252 0.017159225203851079 -0.0082599906757134141 0.056700320541411005 -0.039315047747024927 -0.07095593084465307 0.055252533837029855 0.0042540316573537714 0.037653513981115154 0.036823884464618852 -0.015994531496437307 -0.003142743022142173 -0.0008700130120799257 -0.002901675107036236 0.037733721106547997 0.0038421593080366283 -0.026682614592113709 0.029504305933723399 -0.038844795166792088 -0.06149755807746634 -0.00076343873725247193 -0.0035241249312469463 0.018053862906141575 0.020256703554298292 -0.024799674126850309 0.017713173296387236 0.0096528659848980746 0.036379393550060264 -0.020096538468568539
leaf_weight=1574.3420226573944 2010.8627583533525 1276.5190861821175 2361.6454878896475 561.1365958750248 2297.398439899087 3582.1554632633924 633.33239975571632 634.64553931355476 502.76812656223774 1090.9002366364002 1740.7697703838348 1564.0847560912371 841.11381563544273 3235.4387264400721 185.54035617411137 1171.2399213314056 515.60387641191483 337.7527279406786 625.78182227909565 509.40121692419052 866.24539719521999 270.85871669650078 1594.1070505827665 1436.3968500941992 263.2664308398962 560.1496442258358 249.62375243008137 1264.5184955000877 634.46754994988441 2701.3649906367064
leaf_count=6408 8526 5147 10042 2323 10391 14440 2550 2805 2103 4773 7684 6368 3514 13424 780 5151 2161 1382 2735 2060 3472 1143 6568 6114 1130 2268 1066 5344 2805 11042
internal_value=2.74073e-05 0.012745 0.00213934 -0.0305844 0.0223169 -0.0246405 -0.0138407 0.0044307 -0.0254119 0.0109523 0.0121322 0.00627215 -0.0373407 0.00386823 0.042097 0.0448652 0.0292872 -0.0555572 0.0116506 -0.0166092 -0.0436347 0.0305031 0.0131804 0.0067034 0.0529535 -0.00440153 -0.0125068 0.0255408 0.0185824 -0.0162756
internal_weight=37093.4 24475.1 11610.6 2463.44 12864.6 12618.3 6819.37 2644.15 4175.22 9147.12 8861.83 6605.45 5798.92 6157.23 820.186 4002.76 2256.37 971.085 1186.92 1350.52 4448.4 1442.1 5041.37 3030.5 2560.66 3795.59 1823.97 2989.89 1898.99 3204.13
internal_count=155719 104097 48861 10205 55236 51622 28136 11059 17077 38656 37421 27576 23486 25734 3585 17815 9845 3932 5058 5574 17912 6294 21208 12682 11521 15692 7474 12922 8149 13145
is_linear=0
shrinkage=0.0387551


Tree=8
num_leaves=31
num_cat=0
split_feature=6 6 38 37 37 6 38 37 37 29 22 72 42 6 6 6 22 6 1 72 79 38 37 22 37 72 37 38 29 38
split_gain=11191.8 2741.52 1681.16 2131.41 1942.53 1382.78 633.993 881.648 543.701 526.073 447.051 445.445 366.779 299.875 281.301 251.036 237.591 210.258 206.451 162.892 159.792 158.321 251.407 433.136 191.482 126.634 124.995 175.066 273.491 155.883
threshold=-25.831004500000059 276.26876450000003 1.0000000180025095e-35 1.0000000180025095e-35 1.0000000180025095e-35 -146.05284500000002 1.0000000180025095e-35 1.0000000180025095e-35 1.5000000000000002 1.0000000180025095e-35 1.0000000180025095e-35 9.5000000000000018 3.5000000000000004 111.06079049999995 464.06904200000014 -284.92417949999998 1.0000000180025095e-35 143.728891 65.500000000000014 2.5000000000000004 1.0000000180025095e-35 1.0000000180025095e-35 1.0000000180025095e-35 1.0000000180025095e-35 1.0000000180025095e-35 5.5000000000000009 4.5000000000000009 1.0000000180025095e-35 1.0000000180025095e-35 2.5000000000000004
decision_type=2 2 2 2 2 2 2 2 2 2 2 2 2 2 2 2 2 2 2 2 2 2 2 2 2 2 2 2 2 2
left_child=5 2 3 17 16 15 8 10 -7 20 -8 18 -11 -13 26 -1 -4 25 -6 -9 -5 24 23 -23 -17 -2 29 28 -28 -3
right_child=1 14 4 9 11 6 7 19 -10 12 -12 13 -14 -15 -16 21 -18 -19 -20 -21 -22 22 -24 -25 -26 -27 27 -29 -30 -31
leaf_value=-0.052976236915738488 0.020030232434744104 0.029400865767008746 0.055266488544636672 -0.06896258017758046 0.029649618866560465 -0.020885568110530908 0.055628065890377297 0.011843224898370719 -0.059641209686711404 0.0020384404945985582 -0.011785604098064766 -0.0058134113422583008 -0.044605458689145165 0.012257325226192493 0.046456391865681929 -0.036893212419385583 0.027626578374586021 0.015374391579171495 0.008073319215226445 -0.019420078427210299 0.00064219147829883009 0.056812213430030171 -0.036101620405263678 -0.032984979850105463 -0.065426518174590595 -0.0028717515963453161 -0.064433016768969578 0.029107464177909107 0.015515813793943855 0.051776304142630847
leaf_weight=2591.8609101623297 407.40636828541756 1556.4598949104548 1746.8859158158302 812.9688019156456 1654.1234268695116 1933.4739020168781 446.54923886060715 278.19154037535191 756.37437462806702 459.27119843661785 220.80235999822617 3200.8824498653412 564.33219307661057 2423.5705745816231 2546.3023824244738 1233.6046978980303 637.59013862907887 1946.8931741118431 1115.0832149386406 2498.0856704711914 52.752006828784943 130.57283867895603 1275.8678150475025 211.13249821960926 494.99126887321472 3299.3470126241446 79.031177803874016 1367.4278969168663 343.96546976268291 668.49045404791832
leaf_count=10404 1701 6809 8059 3287 7153 7791 1998 1172 3054 1908 912 13213 2316 10251 11590 4938 2799 8249 4758 10124 215 565 5111 848 1999 13614 321 5994 1488 3078
internal_value=2.93129e-05 0.0148845 0.00718597 -0.00684728 0.017007 -0.0305914 -0.0176854 -0.00667318 -0.0317835 -0.0424843 0.0333233 0.00823777 -0.0236772 0.00197325 0.0363798 -0.0439222 0.0478758 0.00506184 0.0209614 -0.0162874 -0.0647213 -0.0369091 -0.0281947 0.00132843 -0.0450639 -0.000354612 0.0299898 0.0223673 0.000578461 0.0361236
internal_weight=36954.3 24882.8 18321.1 7542.97 10778.1 12071.5 6133.48 3443.63 2689.85 1889.32 667.352 8393.66 1023.6 5624.45 6561.68 5938.03 2384.48 5653.65 2769.21 2776.28 865.721 3346.17 1617.57 341.705 1728.6 3706.75 4015.37 1790.42 422.997 2224.95
internal_count=155719 106803 77523 31290 46233 48916 25051 14206 10845 7726 2910 35375 4224 23464 29280 23865 10858 23564 11911 11296 3502 13461 6524 1413 6937 15315 17690 7803 1809 9887
is_linear=0
shrinkage=0.0387551


Tree=9
num_leaves=31
num_cat=0
split_feature=7 10 38 23 37 3 37 38 38 37 17 3 22 2 3 7 22 23 3 3 3 2 1 2 2 2 3 2 13 30
split_gain=6760.57 1492.7 1997.87 1983.72 1728.43 982.982 824.044 988.938 662.826 645.643 548.486 529.241 440.197 432.529 375.184 311.646 296.304 263.824 229.576 221.938 196.249 188.723 187.678 163.109 157.264 149.572 147.025 162.569 143.144 140.703
threshold=-26.437017500000021 0.6132478632478634 1.0000000180025095e-35 1.0000000180025095e-35 1.0000000180025095e-35 1767.4456975000001 1.5000000000000002 2.5000000000000004 1.0000000180025095e-35 1.0000000180025095e-35 1.0000000180025095e-35 1534.9850290000002 1.0000000180025095e-35 1985.2718410000002 1752.5453405000001 90.367275999999961 1.0000000180025095e-35 1.0000000180025095e-35 2061.5736065000006 2087.2485875000007 1700.0118825000002 1720.8064605000002 69.500000000000014 1730.1440120000004 1651.7694695000002 1838.7881640000003 1547.6588455000003 1691.5650700000003 0.65833333333333344 2.5000000000000004
decision_type=2 2 2 2 2 2 2 2 2 2 2 2 2 2 2 2 2 2 2 2 2 2 2 2 2 2 2 2 2 2
left_child=5 2 3 9 12 6 7 25 17 -2 15 22 -4 19 -5 -3 -9 -8 -15 21 -14 -7 -6 -13 -24 -1 -10 -28 -12 -17
right_child=1 10 4 14 11 13 8 16 26 -11 28 23 20 18 -16 29 -18 -19 -20 -21 -22 -23 24 -25 -26 -27 27 -29 -30 -31
leaf_value=-0.016106445786931746 0.0069019209084277859 0.017596893374222825 0.054547666187376803 0.0060226365907465303 0.024249848659175427 -0.042847091227791782 -0.066845094099102456 0.053007698984756657 -0.0024250468608046382 -0.065806998360376817 0.016030837036180873 -0.010970710570616143 0.030917085407082889 0.0077992694519441923 -0.021053445358597059 0.030721641757255266 -0.002946588803194432 -0.024354539556770971 -0.029102210123713432 -0.056193408027251326 -0.016100295668498681 -0.0253850739682762 -0.00011640924873816627 0.0057466256332761043 0.021808029922590098 0.016330285660928163 -0.027050754304285423 -0.0038586352094548385 -0.0053385170039876714 0.04472576661392736
leaf_weight=1578.2453095465899 218.23123125731945 1954.5893878638744 1714.4264925867319 3193.1135986447334 2046.2595303058624 2184.4165166914463 624.48590524494648 612.26789402961731 946.54021511971951 1150.3179279863834 1116.8592131137848 2203.6512550860643 441.69945931434631 476.8826699256897 1012.3466188162565 2808.1267264038324 185.12122432887554 338.40972098708153 539.89922554790974 968.8960637152195 190.99032019078732 1618.2594166845083 1358.7633232921362 1455.651656806469 769.78791783750057 246.92329363524914 1635.6246088892221 628.35130149126053 813.91936928033829 1748.5715141445398
leaf_count=6408 911 8476 8059 13385 8834 8791 2550 2805 3931 4693 4827 9009 1972 2024 4108 12463 780 1382 2197 3910 792 6564 5730 6129 3343 1066 6600 2614 3390 7976
internal_value=3.13128e-05 0.0120135 0.0049675 -0.0136841 0.0151788 -0.0230082 -0.0130119 0.00401205 -0.0237097 -0.0542127 0.0251633 0.00643855 0.0443519 -0.0347446 -0.000495171 0.0305425 0.0400174 -0.0519118 -0.011795 -0.039635 0.0167239 -0.035416 0.0158692 -0.00432064 0.00781254 -0.0117181 -0.0152514 -0.0206139 0.00702259 0.0360955
internal_weight=36781.6 24197.3 15755.2 5574.01 10181.2 12584.3 6795.97 2622.56 4173.41 1368.55 8442.07 7834.11 2347.12 5788.35 4205.46 6511.29 797.389 962.896 1016.78 4771.57 632.69 3802.68 4174.81 3659.3 2128.55 1825.17 3210.52 2263.98 1930.78 4556.7
internal_count=155719 104097 66965 23097 43868 51622 28136 11059 17077 5604 37132 33045 10823 23486 17493 28915 3585 3932 4221 19265 2764 15355 17907 15138 9073 7474 13145 9214 8217 20439
is_linear=0
shrinkage=0.0387551


Tree=10
num_leaves=31
num_cat=0
split_feature=7 7 37 29 3 37 22 72 30 3 2 2 29 37 22 37 29 3 3 25 30 3 17 2 2 94 3 3 2 2
split_gain=6286.56 1695.33 1168.05 1317.11 662.474 588.01 805.068 573.174 488.604 361.933 339.179 298.76 302.468 285.843 437.769 241.134 265.608 236.336 219.696 185.67 174.036 167.061 158.095 155.811 151.656 145.954 143.595 142.065 137.206 125.429
threshold=-48.995740999999946 130.087277 6.5000000000000009 1.0000000180025095e-35 1767.4456975000001 1.0000000180025095e-35 1.0000000180025095e-35 2.5000000000000004 1.5000000000000002 1722.6241325000003 1780.2037630000002 1815.9681385000001 1.0000000180025095e-35 1.0000000180025095e-35 1.0000000180025095e-35 4.5000000000000009 1.0000000180025095e-35 2087.2485875000007 1648.9753460000004 1.0000000180025095e-35 1.0000000180025095e-35 1776.9195625000002 1.0000000180025095e-35 1685.1475165000004 2021.4578230000002 1.0000000180025095e-35 1609.2854015000003 1773.6578535000001 1768.9199885000003 1815.9681385000001
decision_type=2 2 2 2 2 2 2 2 2 2 2 2 2 2 2 2 2 2 2 2 2 2 2 2 2 2 2 2 2 2
left_child=4 2 3 13 5 6 -1 -4 9 15 -6 12 18 14 25 16 -3 24 -9 -14 21 -5 -10 26 -12 -2 -7 -16 -8 -17
right_child=1 8 7 20 10 23 28 11 22 -11 17 -13 19 -15 27 29 -18 -19 -20 -21 -22 -23 -24 -25 -26 -27 -28 -29 -30 -31
leaf_value=0.045160615288645921 0.052543957816178329 0.046941174801149253 0.017011228165484577 -0.00053599934139546062 -0.04351729348382271 -0.020471270883179044 -0.019892562164386642 -0.007725540998322445 0.040258644385998021 -0.00034606888773352487 -0.021200867234395154 0.0043924078128420186 -0.02198824075767377 0.014724915196372363 0.023547131731482627 0.0076067002581076439 0.019417317122879495 -0.039482743464956657 -0.025998099561359084 -0.065706780295245695 0.0089757639562001515 -0.021647360318281329 0.018755906131176496 -0.010634562066462174 0.0081794037211282405 0.0079060289361518321 -0.038982909579235045 -0.01522575900647 0.0089968921663626557 0.025408039548800283
leaf_weight=481.57233525812626 1564.9286821484566 963.89406669139862 1243.1543598473072 2174.6543573886156 3000.1621129661798 1228.0660011023283 1048.1355249136686 3844.6606472581625 2529.788643181324 1376.7211052924395 1065.2987104207277 1426.3100040405989 323.11922368407249 1130.0132820755243 599.2234405875206 1600.1005343794823 1160.7401559501886 881.64605356752872 1330.2162593007088 266.03056961297989 1932.8830777406693 759.65455563366413 644.36196602880955 834.28202472627163 350.76660080254078 118.33752371370792 1290.9834256321192 185.98825043439865 323.01282006502151 945.95013773441315
leaf_count=2206 7429 4521 5389 9045 12115 5013 4241 16043 11607 5795 4329 6133 1321 4874 2643 6770 5033 3572 5397 1100 8213 3081 2794 3466 1494 518 5214 771 1376 4216
internal_value=3.24575e-05 0.0102144 0.00292098 0.0130905 -0.0252876 -0.0154694 0.00205326 -0.00728731 0.0235802 0.0171172 -0.0349357 -0.0114883 -0.015418 0.0308687 0.0382589 0.0222646 0.0319042 -0.0237306 -0.0124226 -0.0417293 -5.36299e-05 -0.00600146 0.0358935 -0.0251507 -0.0139232 0.0494058 -0.0299583 0.0143632 -0.0130868 0.0142205
internal_weight=36624.7 26120.7 16899.2 8465.68 10503.9 5206.05 1852.72 8433.49 9221.56 6047.41 5297.87 7190.34 5764.03 3598.49 2468.48 4670.68 2124.63 2297.71 5174.88 589.15 4867.19 2934.31 3174.15 3353.33 1416.07 1683.27 2519.05 785.212 1371.15 2546.05
internal_count=155719 112693 71957 36574 43026 21516 7823 35383 40736 26335 21510 29994 23861 16235 11361 20540 9554 9395 21440 2421 20339 12126 14401 13693 5823 7947 10227 3414 5617 10986
is_linear=0
shrinkage=0.0387551


Tree=11
num_leaves=31
num_cat=0
split_feature=6 6 38 23 37 6 37 40 37 72 37 38 38 6 22 6 7 6 22 38 37 22 37 23 37 38 23 38 22 6
split_gain=9274.01 2246.03 1377.36 2037.66 1540.14 1351.02 740.688 609.123 374.824 370.944 363.41 383.041 347.374 261.777 257.671 251.571 224.383 202.93 196.539 159.678 238.444 410.209 193.579 114.21 112.73 158.101 391.738 142.621 103.134 102.264
threshold=-15.279678500000044 276.26876450000003 1.0000000180025095e-35 1.0000000180025095e-35 1.0000000180025095e-35 -133.06067649999997 1.5000000000000002 1.0000000180025095e-35 1.0000000180025095e-35 5.5000000000000009 2.5000000000000004 1.0000000180025095e-35 5.5000000000000009 464.06904200000014 1.0000000180025095e-35 -275.69036499999987 23.720208499999902 125.73627150000006 1.0000000180025095e-35 1.5000000000000002 1.0000000180025095e-35 1.0000000180025095e-35 1.0000000180025095e-35 1.0000000180025095e-35 4.5000000000000009 1.0000000180025095e-35 1.0000000180025095e-35 2.5000000000000004 1.0000000180025095e-35 111.06079049999995
decision_type=2 2 2 2 2 2 2 2 2 2 2 2 2 2 2 2 2 2 2 2 2 2 2 2 2 2 2 2 2 2
left_child=5 2 3 6 18 15 -2 8 28 -6 12 23 -9 24 -14 -1 -11 -5 -4 22 21 -21 -17 -12 27 26 -26 -3 -7 -18
right_child=1 13 4 17 9 7 -8 10 -10 16 11 -13 14 -15 -16 19 29 -19 -20 20 -22 -23 -24 -25 25 -27 -28 -29 -30 -31
leaf_value=-0.048083062049938272 0.0075514823558314112 0.027434700390292339 0.052752150139916708 -0.0022196107233238499 0.023082506875232243 0.051076183997180336 -0.063411559973958934 -0.016711945021929884 -0.0038363825628325806 -0.0054804861057374506 -0.064552025688386055 -0.020883948166483826 0.053939028811095045 0.044092785794241036 -0.015848342097709356 -0.032338753196384309 0.0029799760452074494 0.012356383670499913 0.026636847132339457 0.054494453919836053 -0.031380125377381822 -0.029641190029258611 -0.059632715703033481 -0.03210329169849023 -0.06743242139501418 0.027137751819434595 0.020757869949792496 0.049292284697280621 0.0030506095359674802 0.016142927119273807
leaf_weight=2715.0271679759026 278.51029962301254 1524.8561437875032 1555.9853011667728 3281.4868062585592 1976.7881411314011 288.82853081822395 1068.2988630533218 2261.5575964450836 1347.669284760952 2389.6401941776276 537.50202479958534 1442.8207706362009 197.30581536889076 2444.8793504089117 133.04802985489368 1341.6232160180807 1691.8614036589861 2548.9129160940647 599.62593449652195 144.83103649318218 1376.0365859270096 218.11130560934544 550.39956031739712 233.77442879974842 99.175893321633339 1339.3271269053221 318.91920118033886 635.11958658695221 87.508696794509888 1862.2835083603859
leaf_count=11016 1169 6809 7626 13540 8671 1384 4405 9140 5531 9889 2224 5827 922 11590 548 5377 7041 10848 2694 651 5514 876 2264 940 403 5994 1406 3078 368 7974
internal_value=3.37224e-05 0.0144601 0.00720226 -0.00577211 0.0164438 -0.0264253 -0.0487369 -0.0140498 0.00571288 0.00853944 -0.0211391 -0.0326696 -0.0112894 0.034142 0.0258326 -0.0391596 0.0037027 0.00415267 0.0454877 -0.0324872 -0.0240099 0.00393288 -0.0402787 -0.0547168 0.0279316 0.0206432 -0.000161655 0.0338617 0.0399089 0.00987703
internal_weight=36491.7 23615.7 17253.4 7177.21 10076.2 12876 1346.81 6530.02 1724.01 7920.57 4806.01 2214.1 2591.91 6362.28 330.354 6346.03 5943.79 5830.4 2155.61 3631 1738.98 362.942 1892.02 771.276 3917.4 1757.42 418.095 2159.98 376.337 3554.14
internal_count=155719 103137 73857 29962 43895 52582 5574 26884 7283 33575 19601 8991 10610 29280 1470 25698 24904 24388 10320 14682 7041 1527 7641 3164 17690 7803 1809 9887 1752 15015
is_linear=0
shrinkage=0.0387551


Tree=12
num_leaves=31
num_cat=0
split_feature=6 6 6 38 23 37 37 40 37 37 38 38 72 24 6 6 6 6 38 37 24 37 24 94 23 38 24 71 94 1
split_gain=8618.43 2035.23 1379.8 1247.02 1897.84 1435.86 703.572 625.742 382.924 373.189 394.254 355.47 265.742 253.102 242.727 218.691 214.513 182.985 173.583 248.506 505.88 212.125 164.648 189.373 121.539 117.511 114.006 102.419 97.3553 95.063
threshold=-8.3628675000001049 289.73047350000007 -133.06067649999997 1.0000000180025095e-35 1.0000000180025095e-35 1.5000000000000002 1.0000000180025095e-35 1.0000000180025095e-35 1.0000000180025095e-35 2.5000000000000004 1.0000000180025095e-35 5.5000000000000009 4.5000000000000009 1.0000000180025095e-35 -339.24374549999999 464.06904200000014 111.06079049999995 125.73627150000006 1.0000000180025095e-35 1.0000000180025095e-35 1.0000000180025095e-35 1.0000000180025095e-35 1.0000000180025095e-35 1.0000000180025095e-35 1.0000000180025095e-35 14.500000000000002 1.0000000180025095e-35 87.500000000000014 1.0000000180025095e-35 84.500000000000014
decision_type=2 2 2 2 2 2 2 2 2 2 2 2 2 2 2 2 2 2 2 2 2 2 2 2 2 2 2 2 2 2
left_child=2 3 14 4 6 22 -2 8 26 11 24 -9 29 -13 -1 -3 -14 27 21 20 -20 -16 -5 -24 -11 -10 -4 -6 -8 -7
right_child=1 15 7 5 17 12 28 9 25 10 -12 13 16 -15 18 -17 -18 -19 19 -21 -22 -23 23 -25 -26 -27 -28 -29 -30 -31
leaf_value=-0.049862205601650854 0.0086320537114525156 0.027946907172234425 0.0018395636237767358 0.028494621680560189 0.00826535045011202 0.030275836970729157 -0.063827580363999006 -0.015549707812627397 0.020437080883768922 -0.062730105277787038 -0.019707745923276811 -0.014148990723792776 -0.003207524644950591 0.052878111800489264 -0.033148961521922607 0.04315968047973167 0.011782033774935627 0.012148159380416482 -0.030112288309912166 -0.031920913549258363 0.054612082373490994 -0.05926990088272989 0.053045019890980045 0.01197921944669237 -0.030242755441302574 -0.008050267303139097 0.05031299238503522 -0.0066036441115326864 0.0027291194955915967 0.0098232428981492835
leaf_weight=1793.3594042062759 270.39300730824471 3469.559187233448 94.620854377746582 1004.6005642414093 1047.5520801544189 894.46228808164597 994.74311985075474 2461.372612953186 264.02712316811085 573.10077974200249 1550.0985519140959 141.05159473419189 3029.2937367558479 211.48291963338852 1688.8855045288801 2401.7863495349884 2722.8225158601999 2715.6811116784811 296.97798219323158 1731.6701313853264 164.46997983753681 645.39410717785358 1477.0531445145607 190.40225556492805 247.72085975110531 1233.7752411514521 317.08594687283039 2072.0033338069916 34.142003446817398 551.95409847795963
leaf_count=7344 1138 15860 400 4507 4345 3987 4153 9955 1139 2401 6260 582 12519 1012 6785 11590 11649 11619 1193 6950 742 2684 7415 849 997 5027 1555 8528 137 2397
internal_value=3.49004e-05 0.0144974 -0.0246276 0.00770502 -0.00463923 0.0166275 -0.046999 -0.0128957 0.00607032 -0.0198807 -0.0312079 -0.0103367 0.00762189 0.0260601 -0.0377954 0.03417 0.00388793 0.00479263 -0.0330155 -0.0251866 8.52999e-05 -0.040371 0.0408887 0.0483558 -0.0529255 -0.00302862 0.0391725 -0.00161061 -0.061619 0.0224711
internal_weight=36291.5 22876.4 13415.1 17005.1 7134.51 9870.59 1299.28 7094.34 1909.51 5184.83 2370.92 2813.91 7198.53 352.535 6320.76 5871.35 5752.12 5835.24 4527.4 2193.12 461.448 2334.28 2672.06 1667.46 820.822 1497.8 411.707 3119.56 1028.89 1446.42
internal_count=155719 100693 55026 73243 29920 43323 5428 29328 8121 21207 9658 11549 30552 1594 25698 27450 24168 24492 18354 8885 1935 9469 12771 8264 3398 6166 1955 12873 4290 6384
is_linear=0
shrinkage=0.0387551


Tree=13
num_leaves=31
num_cat=0
split_feature=6 6 38 25 37 6 37 6 72 38 37 22 37 22 38 25 37 37 7 6 6 1 71 94 38 37 22 37 6 72
split_gain=8024.78 2435.84 1291.1 1531.35 1466.47 638.209 591.715 527.882 401.231 351.426 489.131 418.288 352.291 269.344 244.507 601.076 329.271 240.799 189.936 150.01 145.099 143.544 119.123 97.7901 93.692 148.228 369.934 126.169 89.4937 80.5404
threshold=-54.05268899999998 185.9419404999999 1.0000000180025095e-35 1.0000000180025095e-35 1.0000000180025095e-35 -185.3045139999999 1.0000000180025095e-35 371.73803400000003 5.5000000000000009 1.0000000180025095e-35 1.0000000180025095e-35 1.0000000180025095e-35 1.5000000000000002 1.0000000180025095e-35 1.0000000180025095e-35 1.0000000180025095e-35 1.5000000000000002 1.0000000180025095e-35 23.720208499999902 42.918054499999933 -386.49679899999995 83.500000000000014 95.500000000000014 1.0000000180025095e-35 1.0000000180025095e-35 1.0000000180025095e-35 1.0000000180025095e-35 1.0000000180025095e-35 635.66681400000016 3.5000000000000004
decision_type=2 2 2 2 2 2 2 2 2 2 2 2 2 2 2 2 2 2 2 2 2 2 2 2 2 2 2 2 2 2
left_child=5 2 3 19 13 20 -5 14 21 12 11 -11 -7 23 15 -3 -16 -17 -10 29 -1 -6 -21 -4 27 26 -26 -22 -9 -2
right_child=1 7 4 6 8 9 -8 28 18 10 -12 -13 -14 -15 16 17 -18 -19 -20 22 24 -23 -24 -25 25 -27 -28 -29 -30 -31
leaf_value=-0.050782885066658463 0.01570589979154241 0.017295300562036674 0.0524468901946347 0.0028316081783079589 0.025690260564291079 -0.022024429580592038 -0.06023730373782573 0.034562882752443971 -0.0086351694233045076 0.052036031612074388 -0.018750289949388727 -0.017276554951587621 -0.054558934074405339 0.01816484524401166 0.046896523832584774 0.023887714152540596 0.019006756787211303 -0.061109309187706518 0.00544904271323362 0.01734402920530172 -0.035437321658963648 0.0042681962306091448 -0.0002709182902362493 -0.0065355996876448772 0.055542777599662724 -0.035167474121053872 -0.032039413232928519 -0.058854716068927282 0.048133454491269392 -0.011139631532843071
leaf_weight=1331.3158563524485 182.64553187787533 2448.1168695539236 1344.9225518405437 280.88311010599136 1375.7233578264713 1819.3742374628782 1092.2992441058159 2800.4071492254734 2820.538803473115 305.35725547373295 2340.3941588103771 228.72031205892563 689.26609574258327 532.02252633869648 888.75333070755005 64.598834991455078 2233.8954004496336 222.4573669731617 2934.239903151989 775.00726862251759 1275.0587098300457 713.45095792412758 2252.5949528664351 43.587060540914536 102.1682550907135 1205.1482500880957 248.90086287260056 474.04511235654354 987.17476369440556 2072.3869547694921
leaf_count=5508 757 10739 6893 1173 6134 7292 4628 13420 11567 1478 9414 929 2888 2384 4451 281 9855 924 12286 3259 5155 3087 9392 211 451 4861 1003 1994 4880 8425
internal_value=3.57095e-05 0.0113668 0.00228679 -0.0108758 0.0112589 -0.0294414 -0.0473366 0.0268247 0.00382725 -0.0203639 -0.0111133 0.0223527 -0.0309635 0.0416115 0.0195343 0.0110742 0.0269446 -0.0419817 -0.00145393 -0.00139808 -0.0399804 0.0183746 0.00423817 0.0505954 -0.0356293 -0.0287119 -0.00655121 -0.0417839 0.0380998 -0.00896529
internal_weight=36085.5 26065.7 16420.3 6655.82 9764.49 10019.7 1373.18 9645.4 7843.95 5383.11 2874.47 534.078 2508.64 1920.53 5857.82 2735.17 3122.65 287.056 5754.78 5282.63 4636.64 2089.17 3027.6 1388.51 3305.32 1556.22 351.069 1749.1 3787.58 2255.03
internal_count=155719 114746 70196 27634 42562 40973 5801 44550 33074 22001 11821 2407 10180 9488 26250 11944 14306 1205 23853 21833 18972 9221 12651 7104 13464 6315 1454 7149 18300 9182
is_linear=0
shrinkage=0.0387551


Tree=14
num_leaves=31
num_cat=0
split_feature=7 10 38 23 7 40 41 94 1 41 1 41 40 2 7 38 23 1 72 40 39 38 23 41 28 40 13 38 2 41
split_gain=4909.51 1001.33 1343.87 1404.23 922.279 482.661 468.231 394.937 371.859 303.81 253.237 222.808 206.402 200.107 195.908 173.455 189.927 166.443 162.894 154.972 145.973 144.696 193.655 139.593 130.419 129.732 129.491 121.173 114.022 111.392
threshold=-6.1798605000000171 0.60555555555555574 1.0000000180025095e-35 1.0000000180025095e-35 -114.07237750000012 1.0000000180025095e-35 1.0000000180025095e-35 1.0000000180025095e-35 40.500000000000007 1.5000000000000002 58.500000000000007 1.5000000000000002 3.5000000000000004 2197.9740740000002 209.03678400000004 1.0000000180025095e-35 1.0000000180025095e-35 32.500000000000007 4.5000000000000009 2.5000000000000004 1.5000000000000002 1.0000000180025095e-35 1.0000000180025095e-35 11.500000000000002 1.0000000180025095e-35 1.5000000000000002 0.57518796992481214 194.50000000000003 1849.2501550000002 3.5000000000000004
decision_type=2 2 2 2 2 2 2 2 2 2 2 2 2 2 2 2 2 2 2 2 2 2 2 2 2 2 2 2 2 2
left_child=4 2 3 7 12 11 18 23 13 15 -8 -6 20 -3 21 16 -7 -5 -4 -11 -1 22 -10 -2 -12 -19 -22 -20 -21 -14
right_child=1 8 6 17 5 9 10 -9 14 19 24 -13 29 -15 -16 -17 -18 25 27 28 26 -23 -24 -25 -26 -27 -28 -29 -30 -31
leaf_value=-0.030290796691416828 -0.058643061766073569 -0.0017674385974613775 0.019790704953386449 -0.020609008988904012 -0.0038576668187400571 -0.059667643619938752 0.0026477286638340487 0.018555452238044282 -0.028115988625260498 -0.0014464650762898413 0.023413541330940309 0.020703057550151501 -0.047115154869996498 0.025720890980875693 0.035956378227986509 -0.018433508592179147 -0.018199529227828203 0.014969211506584092 -0.00099018079022078986 -0.021727685426617262 -0.0029550269164932683 0.030172904960995811 0.018022382918018449 0.023766781931011251 0.04054737155578448 -0.0015414861976500542 -0.024243690792029829 0.025786496262038064 -0.0033510544839972568 -0.029911968797779308
leaf_weight=2073.8211490362883 994.32403762638569 1185.4988911598921 911.00717474520206 476.87387244403362 1368.970840036869 423.07213768362999 747.52490837872028 118.80020953714848 148.4074828773737 2033.9650394320488 2916.3871229141951 932.74349364638329 1077.8445685654879 598.60878516733646 2477.2439671754837 1044.6645784080029 272.88892361521721 1068.0367117673159 3007.8879408985376 1635.1987413316965 752.56426453590393 1624.1699883937836 1722.4596920609474 31.861133679747581 865.20060436427593 2161.0799721628428 998.55288948118687 277.22934748232365 735.1034122556448 1188.8698301613331
leaf_count=8557 4263 5041 4066 1931 5679 1822 3244 504 631 8586 13269 4288 4471 2786 11947 4262 1128 4546 12604 6730 3175 7575 7672 137 4405 9082 4116 1184 3122 4896
internal_value=3.64534e-05 0.0118726 0.00552611 -0.0108267 -0.0173313 -0.00904173 0.0146178 -0.04834 0.0229811 -0.0147117 0.0232593 0.00609529 -0.0288254 0.00745552 0.0276191 -0.0284191 -0.0434078 0.000763222 0.00529057 -0.00929429 -0.0233337 0.0217097 0.0143624 -0.0560844 0.0273336 0.00391946 -0.0150946 0.00126949 -0.0160285 -0.0380922
internal_weight=35870.9 21332.6 13576.2 4850.98 14538.3 8446.61 8725.24 1144.99 7756.39 6144.89 4529.11 2301.71 6091.65 1784.11 5972.28 1740.63 695.961 3705.99 4196.12 4404.27 3824.94 3495.04 1870.87 1026.19 3781.59 3229.12 1751.12 3285.12 2370.3 2266.71
internal_count=155719 94887 59235 20463 60832 35617 38772 4904 35652 25650 20918 9967 25215 7827 27825 7212 2950 15559 17854 18438 15848 15878 8303 4400 17674 13628 7291 13788 9852 9367
is_linear=0
shrinkage=0.0387551


Tree=15
num_leaves=31
num_cat=0
split_feature=6 6 6 38 23 41 40 94 41 6 6 41 38 41 68 38 23 72 6 40 6 71 38 41 23 38 3 41 24 6
split_gain=7134.94 1748.89 1160.26 1019.5 1564.61 537.328 516.937 416.619 228.483 216.866 203.743 203.432 196.769 194.058 174.344 155.814 179.055 155.543 153.815 137.339 102.481 91.9538 86.0779 83.5591 79.9662 78.8027 78.6952 74.5619 76.4716 66.9858
threshold=-8.3628675000001049 289.73047350000007 -133.06067649999997 1.0000000180025095e-35 1.0000000180025095e-35 1.0000000180025095e-35 1.0000000180025095e-35 1.0000000180025095e-35 11.500000000000002 -353.27202800000003 464.06904200000014 1.5000000000000002 1.0000000180025095e-35 1.0000000180025095e-35 0.38721221574846604 1.5000000000000002 1.0000000180025095e-35 4.5000000000000009 143.728891 2.5000000000000004 108.9240030000001 87.500000000000014 14.500000000000002 3.5000000000000004 1.0000000180025095e-35 214.50000000000003 1509.0935970000003 1.5000000000000002 1.0000000180025095e-35 104.37839350000003
decision_type=2 2 2 2 2 2 2 2 2 2 2 2 2 2 2 2 2 2 2 2 2 2 2 2 2 2 2 2 2 2
left_child=2 3 9 4 7 17 13 8 -2 -1 23 12 24 22 26 16 -11 -5 21 -13 25 -6 -4 -3 -8 -19 -7 -17 -29 -28
right_child=1 10 6 5 18 14 11 -9 -10 15 -12 19 -14 -15 -16 27 -18 20 -20 -21 -22 -23 -24 -25 -26 -27 29 28 -30 -31
leaf_value=-0.046931640812080233 -0.056011442543659778 0.019790800832217997 0.019768144646123843 0.019030288790892438 0.0084030957591026932 0.033342455376561268 -0.058223174308776021 0.016212355953150664 0.020155216996412626 -0.057898000157761212 0.040910799001281022 -0.0049955479810067111 -0.019189959141299624 0.0215274498422399 0.010091329562613303 -0.029773036148715487 -0.031824761206775756 -0.0066296101196271452 0.012062752610967507 -0.020049385710726422 0.008964877141955296 -0.0051116764251451776 -0.0086854706746972363 0.031986711648443411 -0.026822595885222233 0.020465020113274043 0.015268494138268883 -0.028548812319450244 -0.0071874859192993861 0.029122350582128254
leaf_weight=1605.0650229305029 1039.7551604956388 1675.8798725903034 190.63304588198662 1018.5965442955494 1110.4903303086758 1907.2892910689116 383.01248505711555 154.82794293761253 62.722089022397995 498.58120767772198 2288.3710006922483 1680.7761922478676 930.8302768021822 716.34831123054028 1078.7490284442902 1157.092362165451 1915.2174347192049 1766.8169777244329 2332.3265006542206 1985.5056668967009 1654.7340868264437 2369.7728307843208 983.75660449266434 1699.3482514023781 178.61852915585041 177.41399508714676 1008.7090723067522 413.18205197155476 644.08768022060394 1091.3492476195097
leaf_count=6732 4505 7779 827 4572 4632 9116 1677 654 269 2154 11590 6972 3745 3299 4842 4672 7777 7250 10093 8091 7102 9767 3995 8081 722 749 4559 1665 2698 5133
internal_value=3.6283e-05 0.0133632 -0.0224755 0.00707593 -0.00411768 0.0152314 -0.0117049 -0.0433179 -0.0516782 -0.0346565 0.0319837 -0.0180583 -0.0301206 0.0056302 0.0239209 -0.0303995 -0.0372103 0.00566016 0.00436162 -0.0131481 0.00187608 -0.000799352 -0.00406673 0.0259312 -0.0482367 -0.00415718 0.0276437 -0.0229752 -0.0155355 0.022468
internal_weight=35719.9 22437.2 13282.7 16773.6 7069.89 9703.66 7049.48 1257.31 1102.48 6233.23 5663.6 5158.74 1492.46 1890.74 5086.1 4628.16 2413.8 4617.56 5812.59 3666.28 3598.97 3480.26 1174.39 3375.23 561.631 1944.23 4007.35 2214.36 1057.27 2100.06
internal_count=155719 100693 55026 73243 29920 43323 29328 5428 4774 25698 27450 21207 6144 8121 23650 18966 9931 19673 24492 15063 15101 14399 4822 15860 2399 7999 18808 9035 4363 9692
is_linear=0
shrinkage=0.0387551


Tree=16
num_leaves=31
num_cat=0
split_feature=3 2 37 38 25 38 3 3 37 22 38 10 19 30 2 3 2 2 40 3 25 4 37 2 22 79 79 1 2 2
split_gain=2515.29 2312.66 1376.87 1426.43 1188.37 1140.98 687.943 573.253 473.834 859.174 512.983 473.018 363.315 331.281 326.292 258.449 179.482 174.005 161.712 161.467 143.614 140.631 133.703 133.532 130.508 122.072 120.017 109.129 108.939 105.286
threshold=1642.5042770000002 1895.0152280000002 6.5000000000000009 1.0000000180025095e-35 1.0000000180025095e-35 5.5000000000000009 1959.3467565000003 1851.2750265000002 1.0000000180025095e-35 1.0000000180025095e-35 1.0000000180025095e-35 0.55277777777777792 0.6708333333333335 1.0000000180025095e-35 2175.8211195000003 1500.0011810000003 1660.7035485000004 1620.6726895000002 1.5000000000000002 2087.2485875000007 1.0000000180025095e-35 1667.9033995000002 1.0000000180025095e-35 1737.6545955000004 1.0000000180025095e-35 1.0000000180025095e-35 1.0000000180025095e-35 69.500000000000014 2209.5567370000003 1658.5867740000001
decision_type=2 2 2 2 2 2 2 2 2 2 2 2 2 2 2 2 2 2 2 2 2 2 2 2 2 2 2 2 2 2
left_child=2 7 5 4 21 13 14 8 9 26 20 15 -8 18 -3 27 -12 -17 -1 29 -10 -4 24 -11 -7 -6 -2 -5 -14 -9
right_child=1 6 3 11 25 22 12 19 10 23 16 -13 28 -15 -16 17 -18 -19 -20 -21 -22 -23 -24 -25 -26 -27 -28 -29 -30 -31
leaf_value=0.015383543185005174 0.050108717596525611 0.011032973875366817 -0.0073423426107414331 0.019055789024591194 -0.059080449443505434 0.050046746115410386 -0.020159737260989099 -0.038823770020444223 -0.027611134522616255 -0.018691543727587152 -0.025029294536359079 0.024975868992161893 -0.0072481819036748123 0.026788008940417107 0.035537257763158331 -0.011670479667003655 -0.0063819305335157559 0.0052885484442301758 -0.0013494918551701263 -0.047372128617689538 -0.058724567741192474 0.026064286389415176 0.021245275614205212 -0.0011412666421439608 0.030491495283564617 0.010648004642522683 -0.039963721286474303 0.0033549883789344066 0.023728419416030769 -0.023484246773302096
leaf_weight=1379.4497666358948 437.42689901590347 2866.5883553624153 469.3507077395916 1419.5814937502146 1036.9877550005913 1820.1663709133863 1462.7104615271091 1018.4623827040195 343.09042181074619 1633.7034029066563 1539.0569279938936 1811.2240198105574 261.13414545357227 1434.2584791183472 1141.0406852215528 2045.3407056778669 1562.1278462558985 1635.1500031203032 2337.2162662297487 906.28968641161919 635.64797496795654 317.16064645349979 433.38031175732613 1082.649625942111 713.53085704147816 39.132710441946983 23.407559797167778 1250.6843267083168 491.39489682018757 1975.8644512742758
leaf_count=5937 2182 12756 1970 6279 4595 9766 6053 4260 1417 6612 6209 8489 1084 6597 5736 8332 6413 6948 9933 3841 2817 1498 1981 4510 3480 162 99 5412 2269 8082
internal_value=3.59784e-05 -0.0105002 0.0101296 0.00052202 -0.0300803 0.0219937 0.00842953 -0.0210577 -0.0146175 -0.00339564 -0.0233564 0.00750573 -0.00890223 0.0109665 0.0180098 0.00252328 -0.0156363 -0.00413601 0.00486102 -0.0330397 -0.047818 0.00612888 0.0411372 -0.0116966 0.0445397 -0.0565448 0.0455336 0.0117019 0.0129793 -0.0287017
internal_weight=35523.2 17380.6 18142.6 10024.6 1862.63 8118 6222.87 11157.7 7257.11 3177.19 4079.92 8161.98 2215.24 5150.92 4007.63 6350.76 3101.18 3680.49 3716.67 3900.62 978.738 786.511 2967.08 2716.35 2533.7 1076.12 460.834 2670.27 752.529 2994.33
internal_count=155719 74340 81379 43685 8225 37694 27898 46442 30259 13403 16856 35460 9406 22467 18492 26971 12622 15280 15870 16183 4234 3468 15227 11122 13246 4757 2281 11691 3353 12342
is_linear=0
shrinkage=0.0387551


Tree=17
num_leaves=31
num_cat=0
split_feature=6 6 6 38 23 37 37 38 37 37 24 6 7 24 94 6 38 37 24 37 6 5 23 68 94 37 38 23 38 5
split_gain=6251.69 1536.93 1107.18 863.197 1424.73 1202.51 577.25 497.197 715.735 478.839 363.332 199.736 183.994 152.635 174.58 152.265 144.147 205.845 432.41 180.441 140.092 133.209 111.95 107.003 90.6634 81.8377 102.842 303.573 84.5794 79.9894
threshold=-1.4274084999999557 318.88967700000006 -133.06067649999997 1.0000000180025095e-35 1.0000000180025095e-35 1.5000000000000002 1.0000000180025095e-35 1.0000000180025095e-35 1.0000000180025095e-35 1.5000000000000002 1.0000000180025095e-35 -353.27202800000003 -1.0000000180025095e-35 1.0000000180025095e-35 1.0000000180025095e-35 160.01173400000008 1.5000000000000002 1.0000000180025095e-35 1.0000000180025095e-35 2.5000000000000004 526.24950000000013 1502.652268 1.0000000180025095e-35 0.38000459691220584 1.0000000180025095e-35 4.5000000000000009 1.0000000180025095e-35 1.0000000180025095e-35 1.0000000180025095e-35 1519.3446355000003
decision_type=2 2 2 2 2 2 2 2 2 2 2 2 2 2 2 2 2 2 2 2 2 2 2 2 2 2 2 2 2 2
left_child=2 3 11 4 6 13 -2 9 10 -4 -9 -1 -7 -5 -15 29 19 18 -18 -13 25 -10 -11 -14 -8 28 27 -27 -3 -6
right_child=1 20 7 5 15 12 24 8 21 22 -12 16 23 14 -16 -17 17 -19 -20 -21 -22 -23 -24 -25 -26 26 -28 -29 -30 -31
leaf_value=-0.044508225267901422 0.009458006096433446 0.027633250532126556 -0.013125242951316739 0.026133177140936055 0.01144630447679367 -0.003433571237252945 -0.057692908381572879 -0.0072363325214243037 0.0021606778103192008 -0.056793178580498885 0.048973491461916235 -0.028736786942017648 0.013949590003384273 0.050397234642630497 0.0092485348391321241 0.012817273581361675 -0.025731233953320467 -0.027523465755916705 0.052370652906569483 -0.052935739086193943 0.041763945459013518 -0.014188685369629087 -0.026361071752967161 0.0012803153163194697 0.0073623927030790149 -0.070543305807512988 0.026734062846378793 0.020588086919324466 0.046141338089560432 -0.0027759998078733276
leaf_weight=1573.0847788155079 264.40048532187939 1210.1397588998079 2331.2205438166857 971.30869954824448 747.894974604249 1871.2214817404747 904.32921755313873 252.8333081305027 1058.9675510972738 577.24005956947803 545.0690845400095 1758.1625501662493 3921.0827191025019 1369.0556537210941 174.61074006557465 2346.077630892396 306.49654230475426 1734.5567267090082 163.14337332546711 628.15926505625248 1622.0099067240953 2552.9923612326384 264.86659102141857 1344.6159442812204 33.362395405769348 68.773071527481079 1039.6922527849674 272.19099923968315 534.71457934379578 2885.5201369673014
leaf_count=6732 1122 5823 9383 4571 3151 7803 4065 1063 4473 2600 2866 7153 17236 7561 802 10322 1240 7030 765 2778 8540 10314 1073 5757 134 286 5013 1288 2840 11935
internal_value=3.60909e-05 0.0130478 -0.0203909 0.00755534 -0.00261868 0.0151254 -0.0411175 -0.0104751 -0.00205702 -0.0221734 0.0311621 -0.0325905 0.00700499 0.0381693 0.0457427 0.00512096 -0.0285065 -0.0213609 0.00139978 -0.0351068 0.0325226 -0.00939532 -0.0472214 0.0107144 -0.0553783 0.0277267 0.0206768 0.00220672 0.0333051 0.000151491
internal_weight=35327.8 21581 13746.8 16833.5 7181.58 9651.9 1202.09 7583.19 4409.86 3173.33 797.902 6163.6 7136.92 2514.98 1543.67 5979.49 4590.52 2204.2 469.64 2386.32 4747.52 3611.96 842.107 5265.7 937.692 3125.51 1380.66 340.964 1744.85 3633.42
internal_count=155719 98249 57470 74459 30729 43730 5321 31772 18716 13056 3929 25698 30796 12934 8363 25408 18966 9035 2005 9931 23790 14787 3673 22993 4199 15250 6587 1574 8663 15086
is_linear=0
shrinkage=0.0387551


Tree=18
num_leaves=31
num_cat=0
split_feature=6 6 38 23 6 6 41 38 23 94 38 23 41 72 94 3 38 7 41 41 7 6 22 38 41 39 40 6 49 1
split_gain=5827.64 1872.92 902.485 1145.38 502.893 439.505 427.637 301.086 354.261 294.329 197.355 446.068 193.529 184.297 164.584 155.995 128.035 118.812 114.193 108.963 90.6992 86.7515 77.179 98.3703 77.0626 76.1395 76.4036 75.8923 72.7547 62.8938
threshold=-54.05268899999998 185.9419404999999 1.0000000180025095e-35 1.0000000180025095e-35 -250.59916250000001 371.73803400000003 1.0000000180025095e-35 1.0000000180025095e-35 1.0000000180025095e-35 1.0000000180025095e-35 1.0000000180025095e-35 1.0000000180025095e-35 10.500000000000002 1.5000000000000002 1.0000000180025095e-35 1500.0011810000003 214.50000000000003 2.3607554999999825 1.0000000180025095e-35 1.5000000000000002 68.162817999999916 635.66681400000016 1.0000000180025095e-35 7.5000000000000009 3.5000000000000004 3.5000000000000004 1.5000000000000002 -517.16171500000019 0.67744575463141377 74.500000000000014
decision_type=2 2 2 2 2 2 2 2 2 2 2 2 2 2 2 2 2 2 2 2 2 2 2 2 2 2 2 2 2 2
left_child=4 2 3 9 27 10 13 8 -6 12 11 14 -2 -4 -3 29 20 -5 -12 -9 -15 24 23 -21 -7 26 -17 -1 -19 -8
right_child=1 5 6 17 7 21 15 19 -10 -11 18 -13 -14 16 -16 25 -18 28 -20 22 -22 -23 -24 -25 -26 -27 -28 -29 -30 -31
leaf_value=-0.051328851410871755 -0.052612973920515199 -0.051519142808362797 0.019029763479995191 -0.0080877527126054661 -0.053177087962695081 0.024067458470293922 0.031946590195507205 -0.018147275705586195 -0.021478840123103644 0.0094511732214211212 0.01540835727809505 0.014832002738575831 0.014969702139907547 -0.0089577965504488571 0.027026201936616055 0.014550867657966151 0.017009317141845431 -0.0051551563712947217 0.030663979628331856 -0.0091367748956380414 0.0042946297525363721 0.044952499747563754 -0.016584677569846728 0.013666396153033764 0.037366296173554789 0.022221093887032441 -7.6872411528767639e-05 -0.035536182241097829 0.0076989303685452591 0.016300940738316085
leaf_weight=561.30122293531895 1072.0410549342632 224.04878561198711 736.48679313063622 2178.6576433628798 668.0114860534668 1252.2134508490562 1182.7863772362471 1872.7118814587593 2554.9183286875486 148.23717360198498 1312.1333791613579 2390.9936903268099 67.656798109412193 2361.0397494137287 48.794991344213486 1314.4057004898787 466.24937319755554 957.33091095089912 1681.1605711877346 631.65498970448971 1155.1513102352619 901.69041588902473 545.45240840315819 516.45872123539448 1370.9428731799126 850.18062895536423 905.96913845837116 2460.2113627791405 2139.1596647500992 572.78186859190464
leaf_count=2448 4886 988 3342 8877 3028 6329 5849 7551 10338 623 5902 10739 292 9718 217 6079 2015 3985 8404 2638 4848 4880 2206 2360 7091 3975 3978 10404 8971 2758
internal_value=3.63816e-05 0.00987176 0.0019091 -0.0091536 -0.0253173 0.0238408 0.00951571 -0.0194638 -0.0280489 -0.0419194 0.0171479 0.00947474 -0.048601 0.00121998 -0.0374722 0.0176272 -0.00207365 -0.00115379 0.0239766 -0.0117052 -0.00460406 0.0345825 -0.00458164 0.00112083 0.0310178 0.0123587 0.00858238 -0.03847 0.00372488 0.0268419
internal_weight=35100.8 25290.1 16108.1 6563.08 9810.72 9181.98 9545.05 6789.21 3222.93 1287.94 5657.13 2663.84 1139.7 4718.93 272.844 4826.12 3982.44 5275.15 2993.29 3566.28 3516.19 3524.85 1693.57 1148.11 2623.16 3070.56 2220.37 3021.51 3096.49 1755.57
internal_count=155719 114746 70196 27634 40973 44550 42562 28121 13366 5801 26250 11944 5178 19923 1205 22639 16581 21833 14306 14755 14566 18300 7204 4998 13420 14032 10057 12852 12956 8607
is_linear=0
shrinkage=0.0387551


Tree=19
num_leaves=31
num_cat=0
split_feature=6 6 6 38 23 37 37 40 37 38 37 38 24 72 24 7 6 6 6 38 37 24 37 24 23 1 38 71 94 37
split_gain=5434.72 1378.93 978.139 749.756 1253.45 1131.43 535.824 458.685 318.66 326.484 315.316 280.922 247.575 240.953 174.197 170.755 166.394 134.332 131.241 122.829 176.326 390.108 166.216 115.345 110.698 97.4091 87.7907 84.8462 82.7248 77.7442
threshold=-1.4274084999999557 318.88967700000006 -146.05284500000002 1.0000000180025095e-35 1.0000000180025095e-35 1.0000000180025095e-35 1.0000000180025095e-35 1.0000000180025095e-35 2.5000000000000004 1.0000000180025095e-35 1.0000000180025095e-35 2.5000000000000004 1.0000000180025095e-35 4.5000000000000009 1.0000000180025095e-35 23.720208499999902 -386.49679899999995 526.24950000000013 160.01173400000008 1.0000000180025095e-35 1.0000000180025095e-35 1.0000000180025095e-35 1.0000000180025095e-35 1.0000000180025095e-35 1.0000000180025095e-35 84.500000000000014 14.500000000000002 87.500000000000014 1.0000000180025095e-35 4.5000000000000009
decision_type=2 2 2 2 2 2 2 2 2 2 2 2 2 2 2 2 2 2 2 2 2 2 2 2 2 2 2 2 2 2
left_child=2 3 16 4 6 14 -2 10 11 24 23 -9 -13 25 -5 -15 -1 29 27 22 21 -21 -18 -4 -10 -7 -12 -6 -8 -3
right_child=1 17 7 5 18 13 28 8 9 -11 26 12 -14 15 -16 -17 19 -19 -20 20 -22 -23 -24 -25 -26 -27 -28 -29 -30 -31
leaf_value=-0.043890616478702502 0.0094572859897677202 0.03183970221724805 0.00010605662983554026 0.022950684398949612 0.0092785672009690484 0.028506723976472373 -0.055630910788029217 -0.012096061187412594 -0.05481016329108173 -0.016361558121324657 0.016995190308522319 -0.012790400859580152 0.048586538804931197 -0.0044559106234730757 0.04841071734917362 0.0090114112686858795 -0.027916062481861115 0.040304422653894049 0.011953307432462609 -0.024441079397724868 -0.027022030907836416 0.052392581193352855 -0.051846200454842298 0.046408634743573103 -0.025209456114491546 0.0087820635161516905 -0.0064302657545697063 -0.0036837734660886321 0.0065525243398417256 0.01938398961681255
leaf_weight=1253.0355925709009 263.68778055906296 1696.5607392787933 107.99865731596947 576.73823130130768 1078.9034889936447 977.34762136638165 870.09913006424904 2812.5637572705746 592.71908582746983 1770.712334677577 289.67356638610363 171.8118939101696 231.98978281021118 2265.1177955716848 1344.732509970665 3763.5955563485622 1668.2400383502245 1557.1980495452881 2328.2248148471117 309.81587217748165 1669.6571700423956 146.03568644821644 590.18228469789028 320.93321512639523 279.10880017280579 611.21252211928368 1409.3762194514275 2553.465257063508 33.364553585648537 1352.7651572972536
leaf_count=5508 1122 8663 463 2828 4532 4611 4065 11361 2776 7138 1290 709 1206 9455 7707 16387 6875 8540 10322 1266 6837 688 2691 1781 1136 2742 5745 10554 134 6587
internal_value=3.58413e-05 0.0122752 -0.0190754 0.00708782 -0.00242121 0.0141934 -0.0391483 -0.0103514 -0.0159487 -0.0259201 0.00505922 -0.00775624 0.0224715 0.00748967 0.0407688 0.00395145 -0.0314361 0.0310434 0.00477038 -0.0278763 -0.0211896 0.000173197 -0.0341696 0.0347503 -0.0453337 0.0209175 -0.00243642 0.000166363 -0.0533345 0.026314
internal_weight=34896.9 21273 13623.9 16666.5 7127.75 9538.74 1167.15 7986.89 5858.91 2642.54 2127.98 3216.37 403.802 7617.27 1921.47 6028.71 5636.97 4606.52 5960.59 4383.93 2125.51 455.852 2258.42 428.932 871.828 1588.56 1699.05 3632.37 903.464 3049.33
internal_count=155719 98249 57470 74459 30729 43730 5321 33605 24326 11050 9279 13276 1915 33195 10535 25842 23865 23790 25408 18357 8791 1954 9566 2244 3912 7353 7035 15086 4199 15250
is_linear=0
shrinkage=0.0387551


Tree=20
num_leaves=31
num_cat=0
split_feature=6 6 6 38 25 37 37 38 37 37 22 6 72 72 6 22 38 37 37 22 6 25 7 94 1 40 51 94 41 94
split_gain=5071.27 1173.36 1102.85 649.176 1086.86 1003.73 469.559 447.472 681.221 479.663 273.858 229.061 186.791 160.675 131.96 129.082 121.497 192.165 181.188 340.184 115.663 114.372 111.477 106.744 96.7547 84.1371 83.3434 78.531 77.3231 74.3857
threshold=14.754820500000053 318.88967700000006 -110.25655299999993 1.0000000180025095e-35 1.0000000180025095e-35 1.5000000000000002 1.0000000180025095e-35 1.0000000180025095e-35 1.0000000180025095e-35 1.5000000000000002 1.0000000180025095e-35 -258.13599649999998 1.5000000000000002 9.5000000000000018 526.24950000000013 1.0000000180025095e-35 1.5000000000000002 1.5000000000000002 1.0000000180025095e-35 1.0000000180025095e-35 111.06079049999995 1.0000000180025095e-35 -14.12317949999999 1.0000000180025095e-35 65.500000000000014 1.5000000000000002 0.48823882602258933 1.0000000180025095e-35 3.5000000000000004 1.0000000180025095e-35
decision_type=2 2 2 2 2 2 2 2 2 2 2 2 2 2 2 2 2 2 2 2 2 2 2 2 2 2 2 2 2 2
left_child=2 3 11 4 22 15 -6 9 10 25 29 -1 -10 24 28 23 17 -13 19 -18 -15 -11 -2 -5 -7 -4 -24 -8 -3 -9
right_child=1 14 7 5 6 13 27 8 12 21 -12 16 -14 20 -16 -17 18 -19 -20 -21 -22 -23 26 -25 -26 -27 -28 -29 -30 -31
leaf_value=-0.036763525752633995 -0.0038580543894263489 0.019301943853084143 0.0043352249242017112 0.04904711224288074 0.010499209558005422 0.026943888544225553 -0.054681291551075234 0.049873710317635676 0.012804908220204537 -0.022972963876218715 -0.001209260159887035 -0.021976777582706344 -0.0099796923199358296 -0.0032640029345565947 0.03958916414152526 0.025977718129859263 0.049283264234788654 -0.048798148748353941 -0.021463183004051173 -0.022626725430394193 0.0089275018564153839 -0.053660709261510585 -0.00016774171045511334 0.012225907542365078 0.0079598645380804262 -0.013355354992316848 0.012131881416098368 0.0083677251828441525 0.031718137493679431 -0.018214455655380206
leaf_weight=2818.9186663925648 1434.7829996794462 1485.7398008853197 511.85322856903076 1176.0401180237532 231.72268605232239 826.06563453376293 761.05081854760647 552.35533730685711 642.4160041809082 269.88548991084099 256.65727986395359 1533.4808631688356 3403.712653785944 2101.2870195508003 1524.5359893888235 854.82107824087143 170.05473910272121 543.37315137684345 1615.4619138091803 235.8399525731802 2633.7722705453634 562.77338740229607 1148.8987888097763 131.47059808671474 787.76347570121288 1912.7027823030949 2957.4885682910681 30.875411748886108 1528.2058751285076 25.198646932840347
leaf_count=12240 5957 7368 2081 6942 991 3869 3628 3125 2914 1097 1107 6239 13901 8698 8540 4149 869 2516 6546 954 11570 2694 4930 617 3491 7707 12841 124 7882 132
internal_value=3.58633e-05 0.0130215 -0.0168829 0.00782069 -0.00133625 0.0148836 -0.0380247 -0.00721199 0.000212432 -0.0183361 0.0321006 -0.02826 -0.00636211 0.00711657 0.0302975 0.0376885 -0.022411 -0.0289941 -0.0156471 0.00750088 0.00351725 -0.043714 0.0054414 0.0453447 0.0176772 -0.00962066 0.00869065 -0.0522232 0.0255975 0.046903
internal_weight=34669.2 19614.5 15054.7 15076 6564.82 8511.22 1023.65 8137.55 4880.34 3257.21 834.211 6917.13 4046.13 6348.89 4538.48 2162.33 4098.21 2076.85 2021.36 405.895 4735.06 832.659 5541.17 1307.51 1613.83 2424.56 4106.39 791.926 3013.95 577.554
internal_count=155719 91597 64122 67807 28471 39336 4743 34758 21179 13579 4364 29364 16815 27628 23790 11708 17124 8755 8369 1823 20268 3791 23728 7559 7360 9788 17771 3752 15250 3257
is_linear=0
shrinkage=0.0387551


Tree=21
num_leaves=31
num_cat=0
split_feature=6 6 6 72 40 6 7 40 28 6 51 72 72 6 40 6 54 28 22 68 42 1 40 71 7 28 28 22 40 28
split_gain=4717.74 1088.37 1064.17 422.412 379.92 217.632 199.917 197.025 176.02 129.678 126.755 106.065 86.0242 118.165 79.1533 70.2911 70.0907 62.5206 63.0157 61.5042 58.7239 56.5294 55.7233 47.1856 45.7295 45.3256 42.8921 85.3475 40.4113 40.0472
threshold=17.654286999999957 318.88967700000006 -110.25655299999993 1.5000000000000002 1.0000000180025095e-35 -258.13599649999998 -1.0586134999999783 1.5000000000000002 1.0000000180025095e-35 526.24950000000013 0.48823882602258933 1.5000000000000002 5.5000000000000009 123.22657149999999 2.5000000000000004 -517.16171500000019 0.59930652337135759 1.0000000180025095e-35 1.0000000180025095e-35 0.38000459691220584 3.5000000000000004 98.500000000000014 3.5000000000000004 101.50000000000001 -92.482068000000126 1.0000000180025095e-35 1.0000000180025095e-35 1.0000000180025095e-35 3.5000000000000004 1.5000000000000002
decision_type=2 2 2 2 2 2 2 2 2 2 2 2 2 2 2 2 2 2 2 2 2 2 2 2 2 2 2 2 2 2
left_child=2 4 5 21 8 15 17 16 11 20 -8 -2 -12 -14 -7 -1 -5 28 -19 -13 25 -4 -17 -15 -9 -3 -26 -28 -6 -22
right_child=1 9 3 7 6 14 10 24 -10 -11 12 19 13 23 -16 22 -18 18 -20 -21 29 -23 -24 -25 26 -27 27 -29 -30 -31
leaf_value=-0.048279577164354978 0.029616208714581732 0.024479515070226721 0.022036692140177318 -0.011277332172976582 -0.0073230574262476474 -0.016464588968434717 -0.00098141503944630432 -0.022882997805830689 0.038557419747408117 0.038894064202698399 0.023016765649422885 0.014974538033404244 0.001139244111710302 0.022964466818356906 -0.027272513740064099 -0.027569542443761072 0.00090713779134952099 0.040117699268842094 -0.00089547537323126096 0.0026696486524072274 0.011067195949913957 -0.0015224969444910595 -0.039945195696406921 0.010821305372824811 -0.017636218670468769 0.036893751384016106 0.044466758817784523 -0.010171188335119624 -0.023456664561855339 0.026278550012054865
leaf_weight=538.46499027311802 590.86371105909348 1227.7738616466522 771.8068546205759 1029.0171394050121 1137.9221473634243 2119.4756234288216 2104.3648261874914 981.48148435354233 523.39593301713467 1492.2782640606165 688.91998246312141 2303.0696878433228 1983.4175515621901 618.1719574034214 1957.9273580163717 1319.9180923402309 2280.7708848714828 58.579504668712616 1425.7533160746098 829.97785836458206 606.71253982186317 190.78511664271355 932.53877817094326 2159.9728886634111 1634.6230872571468 689.97586184740067 44.247692197561264 1452.6110094338655 293.28241148591042 454.82754018902779
leaf_count=2448 2877 6192 3701 4318 4960 8894 9308 4072 3011 8540 3208 10503 8715 2871 8230 5708 9876 320 5966 3634 3037 873 4084 9938 7034 3700 234 5872 1274 2321
internal_value=3.59908e-05 0.012824 -0.0160515 -0.0067872 0.00773659 -0.0273619 0.00377079 -0.00991959 0.017513 0.0295688 0.00709753 0.0145552 0.0102167 0.00836476 -0.0216544 -0.0357003 -0.00288103 -0.00484959 0.000723118 0.0117148 0.0248979 0.0173673 -0.0326932 0.0135233 -0.0155837 0.028946 -0.0132959 -0.00855607 -0.0106292 0.0175847
internal_weight=34442.9 19189.3 15253.7 8385.34 14717.7 6868.32 10470.4 7422.75 4247.31 4471.57 7554.85 3723.91 5450.48 4761.56 4077.4 2790.92 3309.79 2915.54 1484.33 3133.05 2979.29 962.592 2252.46 2778.14 4112.96 1917.75 3131.48 1496.86 1431.2 1061.54
internal_count=155719 90375 65344 35980 66585 29364 46560 31406 20025 23790 34040 17014 24732 21524 17124 12240 14194 12520 6286 14137 15250 4574 9792 12809 17212 9892 13140 6106 6234 5358
is_linear=0
shrinkage=0.0387551


Tree=22
num_leaves=31
num_cat=0
split_feature=6 6 38 37 37 6 6 22 72 38 37 22 37 29 42 37 38 38 29 7 5 1 94 94 6 6 6 39 42 6
split_gain=4389.26 1492.47 733.557 1152.89 1030.83 405.789 305.211 262.327 253.08 242.358 363.703 451.067 341.273 208.725 212.186 152.561 228.027 187.539 233.885 132.595 114.797 112.909 107.362 103.01 73.8971 72.1344 60.6924 58.8015 62.1829 58.6931
threshold=-54.05268899999998 218.44285950000008 1.0000000180025095e-35 1.0000000180025095e-35 1.5000000000000002 -250.59916250000001 464.06904200000014 1.0000000180025095e-35 5.5000000000000009 1.0000000180025095e-35 1.0000000180025095e-35 1.0000000180025095e-35 1.5000000000000002 1.0000000180025095e-35 3.5000000000000004 6.5000000000000009 2.5000000000000004 1.0000000180025095e-35 1.0000000180025095e-35 23.720208499999902 1519.3446355000003 83.500000000000014 1.0000000180025095e-35 1.0000000180025095e-35 44.701402499999979 -517.16171500000019 8.2759194999999881 3.5000000000000004 3.5000000000000004 95.540134500000036
decision_type=2 2 2 2 2 2 2 2 2 2 2 2 2 2 2 2 2 2 2 2 2 2 2 2 2 2 2 2 2 2
left_child=5 2 4 7 20 25 15 23 21 12 11 -11 -7 22 -15 16 -3 18 -17 -10 27 26 -6 -4 -22 -1 -5 28 -2 -21
right_child=1 6 3 8 13 9 -8 -9 19 10 -12 -13 -14 14 -16 17 -18 -19 -20 29 24 -23 -24 -25 -26 -27 -28 -29 -30 -31
leaf_value=-0.047225956439177839 0.014241599525150982 0.017503989823736354 0.048587660563228149 0.012277126416487236 -0.053126617506681295 -0.017265916863290723 0.036040744732828249 0.014540057878642999 -0.0069243926274039124 0.048536447891676736 -0.015875741045286662 -0.016017816751461227 -0.046431303464932863 -0.00048178618400366826 -0.038118231549350873 -0.053189525894016008 0.041231292916835631 0.017182435720250296 0.0054010789976311965 -0.00040180803582314482 -0.008087076684259736 0.0025348483288401939 0.0016152398635429731 -0.012294843288094366 0.0022967471455071389 -0.03140603796747727 0.028857519688803662 0.024124775193587404 -0.0085599304467638779 0.010057031097821903
leaf_weight=529.32422344386578 475.60999603569508 2117.1515425741673 1238.5439281761646 605.06375333666801 696.31899271905422 2348.755832478404 2013.1568891555071 550.02728565037251 2950.8862334042788 324.59184704720974 2888.8566138744354 325.70222623646259 810.54427610337734 406.09279845654964 504.48680339753628 132.52527178823948 853.61957558989525 1912.3597469329834 449.11919623613358 1744.6009414494038 1726.5944975018501 744.30178521573544 58.317263975739479 43.195614740252495 2549.0874467492104 2376.5157508999109 733.64709296822548 389.88426959514618 288.66965921223164 1497.7606112807989
leaf_count=2448 2025 10124 7527 2775 3401 9532 11590 2644 12112 1739 11694 1322 3834 1682 2316 592 4948 9108 2078 7292 6989 3315 238 227 10769 10404 3558 1672 1209 6555
internal_value=3.59503e-05 0.00868605 0.00240275 0.00910757 -0.00714932 -0.022193 0.0231409 0.0369284 0.00295004 -0.0169462 -0.00998128 0.0162042 -0.0247485 -0.0338242 -0.0213334 0.0183887 0.0243218 0.0113215 -0.00794855 -0.000980272 0.00103131 0.0146357 -0.0488962 0.0465359 -0.00189642 -0.0342878 0.0213636 0.0118773 0.00562942 0.0044295
internal_weight=34285.3 24681 17203.1 10108 7095.06 9604.29 7477.93 1831.77 8276.26 6698.45 3539.15 650.294 3159.3 1665.22 910.58 5464.78 2970.77 2494 581.644 6193.25 5429.85 2083.01 754.636 1281.74 4275.68 2905.84 1338.71 1154.16 764.28 3242.36
internal_count=155719 114746 76306 46005 30301 40973 38440 10398 35607 28121 14755 3061 13366 7637 3998 26850 15072 11778 2670 25959 22664 9648 3639 7754 17758 12852 6333 4906 3234 13847
is_linear=0
shrinkage=0.0387551


Tree=23
num_leaves=31
num_cat=0
split_feature=7 7 40 41 40 30 41 41 42 42 3 41 3 41 17 31 3 1 41 48 10 79 23 93 29 42 3 10 29 40
split_gain=2869.33 885.479 511.176 459.723 324.76 277.424 273.448 215.606 189.176 179.832 176.232 166.792 166.564 127.773 99.7331 99.4974 75.8407 74.8188 74.1034 73.6563 73.1776 70.0421 91.5867 114.09 103.652 68.3181 67.0939 62.3796 62.3758 59.8896
threshold=-48.995740999999946 130.087277 1.0000000180025095e-35 3.5000000000000004 2.5000000000000004 1.5000000000000002 1.0000000180025095e-35 3.5000000000000004 3.5000000000000004 3.5000000000000004 1824.2080410000001 1.5000000000000002 1574.2114115000002 1.0000000180025095e-35 1.0000000180025095e-35 3.5000000000000004 1642.5042770000002 26.500000000000004 3.5000000000000004 0.59994904401154414 0.60555555555555574 1.0000000180025095e-35 1.0000000180025095e-35 1.0000000180025095e-35 1.0000000180025095e-35 1.5000000000000002 1678.3878745000002 0.60555555555555574 1.5000000000000002 3.5000000000000004
decision_type=2 2 2 2 2 2 2 2 2 2 2 2 2 2 2 2 2 2 2 2 2 2 2 2 2 2 2 2 2 2
left_child=4 2 6 8 10 12 19 28 13 -5 11 -1 18 20 -7 -9 -8 -14 -3 -2 -4 22 24 -24 -10 -13 -15 29 -6 -11
right_child=1 5 3 9 7 14 16 15 21 27 -12 25 17 26 -16 -17 -18 -19 -20 -21 -22 -23 23 -25 -26 -27 -28 -29 -30 -31
leaf_value=-0.014606654184257229 -0.006006836468714298 0.014446258855697548 -0.01512076757035347 0.01640563597906395 -0.03088855970617033 0.031678352716468516 0.027552270404706675 -0.01368155587101353 -0.023058406210210575 0.0021457837067785411 -0.021648530217495313 0.011508213567618858 -0.0083536355712396423 0.0067443821596881006 0.013691395395096765 -0.03561558342166854 0.0080223588962995782 0.008864212689535779 0.027791960934766491 0.008450494852038061 0.0055992140617086199 0.006174700973616447 -0.0081056255085584054 -0.043513945565586992 -0.053799226195838032 -0.003839467041393587 -0.0092095347359117067 0.006866496598798926 -0.04834719767128505 -0.010865602212383767
leaf_weight=1847.6729551702738 701.92091082036495 1592.7681023776531 1747.7949400097132 1605.5533039867878 1821.6847442835569 2112.2172882705927 1554.180843681097 2036.9474758207798 546.80357155203819 1262.3097080290318 1622.9400663375854 688.88656741380692 447.87358479201794 1307.975380718708 592.98227952420712 366.51287749409676 369.68529100716114 2467.1882589906454 1028.3710699081421 2152.0412165522575 299.94418752193451 137.9163386374712 772.83914136886597 166.04156039655209 235.77720238268375 1184.8841628879309 567.78393952548504 1535.7659624516964 369.74996373057365 917.52800171077251
leaf_count=7734 2969 7664 7574 7509 7950 11607 8320 8663 2435 5486 7067 3269 1913 5902 2794 1605 1754 11418 5340 9543 1391 607 3341 706 1191 5038 2449 6884 1700 3896
internal_value=3.61342e-05 0.00725618 0.00190746 -0.00265331 -0.0174874 0.0175636 0.012507 -0.0250425 -0.0102176 0.00556732 -0.0109917 -0.00634426 0.0125932 -0.00539215 0.0277356 -0.0170264 0.0237995 0.00621884 0.0196823 0.00489477 -0.0120858 -0.0203998 -0.0225288 -0.0143676 -0.0323201 0.00180306 0.0019152 0.00088397 -0.0338343 -0.00333091
internal_weight=34062.5 24123.3 15881.9 11104 9939.28 8241.4 4777.83 4594.9 5782.88 5321.16 5344.38 3721.44 5536.2 3923.5 2705.2 2403.46 1923.87 2915.06 2621.14 2853.96 2047.74 1859.38 1721.46 938.881 782.581 1873.77 1875.76 3715.6 2191.43 2179.84
internal_count=155719 112693 71957 49371 43026 40736 22586 19918 25596 23775 23108 16041 26335 17316 14401 10268 10074 13331 13004 12512 8965 8280 7673 4047 3626 8307 8351 16266 9650 9382
is_linear=0
shrinkage=0.0387551


Tree=24
num_leaves=31
num_cat=0
split_feature=7 7 7 38 23 38 23 56 94 41 72 41 41 40 10 94 53 39 38 23 94 19 41 28 28 15 72 28 38 22
split_gain=2682.72 653.296 541.842 518.933 977.606 360.122 538.102 299.93 255.341 205.185 181.93 164.077 157.908 147.977 125.486 110.954 110.458 110.42 106.358 278.505 139.318 90.7487 81.3366 77.8341 77.0979 76.6696 74.2817 72.8796 72.4754 89.8882
threshold=10.239354499999992 -114.07237750000012 205.53205300000005 1.0000000180025095e-35 1.0000000180025095e-35 1.0000000180025095e-35 1.0000000180025095e-35 0.38000520970560542 1.0000000180025095e-35 1.0000000180025095e-35 1.5000000000000002 1.0000000180025095e-35 11.500000000000002 3.5000000000000004 0.80625000000000013 1.0000000180025095e-35 0.5773624856656322 1.5000000000000002 1.0000000180025095e-35 1.0000000180025095e-35 1.0000000180025095e-35 0.44636015325670503 3.5000000000000004 1.5000000000000002 1.0000000180025095e-35 0.64583333333333337 10.500000000000002 1.5000000000000002 7.5000000000000009 1.0000000180025095e-35
decision_type=2 2 2 2 2 2 2 2 2 2 2 2 2 2 2 2 2 2 2 2 2 2 2 2 2 2 2 2 2 2
left_child=1 13 3 4 8 6 15 9 12 -5 -7 -12 -2 17 18 -3 -6 -1 19 20 -4 -18 -15 26 -20 -19 -11 -9 -13 -30
right_child=2 5 14 7 16 10 -8 27 -10 23 11 28 -14 22 -16 -17 21 25 24 -21 -22 -23 -24 -25 -26 -27 -28 -29 29 -31
leaf_value=-0.023469764539638147 -0.050993011943104856 -0.047876778349267832 -0.058106902261995323 0.0095047622342525392 -0.0076344279381234583 0.017714109916621344 -0.0076099883092230845 -0.00044115056387494279 0.01336962756612394 0.030939865793327422 -0.0089227734953172162 -0.0011396528597806071 0.021267042659934239 -0.038224145261001145 0.035272443583136304 0.00012549179630095956 -0.0074382974576823529 -0.0019416111630781514 0.020819528299146153 0.016338892781015663 0.035561916627098705 0.0096064549846557688 -0.02304249620829063 0.04680170497462114 0.0394553424919349 -0.018527620305803461 0.017893061869377218 0.046890503321711588 0.019335108982346756 -0.0049461445356630352
leaf_weight=1977.4736783653498 761.15004354715347 711.7906651198864 118.44130156934261 2494.2123735845089 915.62410365045071 808.96547035872936 3478.720330491662 2100.1387616246939 122.4382366836071 1049.2483262121677 2562.3584306389093 1272.0196860581636 48.304398134350777 992.77803967893124 835.68048201501369 80.502381846308708 542.95950995385647 867.00994849205017 1659.0114417076111 1554.5584807246923 29.86218573153019 3451.436056599021 1137.1518663018942 218.61309815943241 417.29693931341171 809.3614516556263 1746.3073201328516 50.024553701281548 799.29751434922218 320.93534052371979
leaf_count=8557 3740 3523 559 11157 3873 3975 14619 9376 539 5511 10598 5597 216 4471 4771 342 2289 3774 8228 7503 144 15597 4896 1352 2507 3517 8743 298 4039 1408
internal_value=3.56197e-05 -0.0116256 0.0102182 0.00629949 -0.00240024 -0.00564617 -0.0141749 0.0129356 -0.038791 0.0177273 0.000673924 -0.00210832 -0.0466809 -0.0219996 0.0216823 -0.0429994 0.00450652 -0.0172667 0.0186771 0.011498 -0.0392459 0.00728956 -0.0301188 0.0245314 0.024565 -0.00994943 0.0227899 0.000660042 0.00519069 0.0123788
internal_weight=33933.7 15818.4 18115.3 13500.5 5841.91 10034.6 4271.01 7658.54 931.893 5508.38 5763.58 4954.61 809.454 5783.77 4614.85 792.293 4910.02 3653.85 3779.17 1702.86 148.303 3994.4 2129.93 3014.17 2076.31 1676.37 2795.56 2150.16 2392.25 1120.23
internal_count=155719 69316 86403 62691 26254 44101 18484 36437 4495 26763 25617 21642 3956 25215 23712 3865 21759 15848 18941 8206 703 17886 9367 15606 10735 7291 14254 9674 11044 5447
is_linear=0
shrinkage=0.0387551


Tree=25
num_leaves=31
num_cat=0
split_feature=6 6 6 37 38 38 23 38 37 37 24 6 6 23 38 37 37 24 3 24 37 38 7 39 41 42 1 94 40 42
split_gain=3775.32 924.944 870.551 516.885 801.205 705.652 583.791 392.212 600.603 476.308 344.694 160.181 121.529 119.251 113.774 178.007 167.214 358.889 111.129 109.952 133.208 98.979 88.94 84.0287 82.8342 82.1686 78.6703 75.099 66.8014 64.0192
threshold=17.654286999999957 318.88967700000006 -133.06067649999997 5.5000000000000009 1.0000000180025095e-35 1.0000000180025095e-35 1.0000000180025095e-35 1.0000000180025095e-35 1.0000000180025095e-35 1.5000000000000002 1.0000000180025095e-35 -386.49679899999995 635.66681400000016 1.0000000180025095e-35 1.0000000180025095e-35 1.0000000180025095e-35 1.0000000180025095e-35 1.0000000180025095e-35 1500.0011810000003 1.0000000180025095e-35 1.0000000180025095e-35 203.50000000000003 69.796261500000028 3.5000000000000004 3.5000000000000004 3.5000000000000004 66.500000000000014 1.0000000180025095e-35 1.5000000000000002 3.5000000000000004
decision_type=2 2 2 2 2 2 2 2 2 2 2 2 2 2 2 2 2 2 2 2 2 2 2 2 2 2 2 2 2 2
left_child=2 3 11 4 23 6 -5 9 10 28 -9 -1 24 -11 15 -13 17 -16 26 -6 -21 22 -7 -2 29 -25 -10 -12 -4 -3
right_child=1 12 7 5 19 21 -8 8 18 13 27 14 -14 -15 16 -17 -18 -19 -20 20 -22 -23 -24 25 -26 -27 -28 -29 -30 -31
leaf_value=-0.038969734493518288 0.00090601830849620024 0.02231249153201945 0.0029506850121036048 -0.049717886054411436 0.023660354066440559 -0.00076251242062082975 0.00026818097011903033 -0.0050193093325328056 0.010347763876273753 -0.051008789961474822 0.048511938489553957 -0.022764318104357643 0.041266226816995911 -0.021319045664732011 -0.019892219870816564 -0.047282384192409682 -0.022180900909416653 0.051125235792481849 -0.009666985923449934 0.046502873707963709 0.011393087517858627 0.021314206860867612 0.0092174098696826117 0.024660503050716102 0.030253170077086538 0.0072120361328745297 -0.012303283094103662 -0.017387650028154081 -0.011844768673349833 0.0042716863394471997
leaf_weight=1168.4826283305883 2581.4187021553516 1324.7825801968575 576.92185083031654 709.08131067454815 919.91184741258621 2819.4149284809828 694.7709282040596 306.20247532427311 849.30618685483932 605.70312575995922 572.29607275128365 1787.4415673464537 785.49009877443314 305.76491232216358 325.07680819928646 592.07668755948544 1810.5883374065161 159.22843791544437 3391.4643328338861 1083.2650655955076 190.90875533223152 545.23741470277309 2558.1587840020657 517.46854655444622 1773.1812162697315 1871.2018305510283 315.9799520522356 27.208030551671982 2229.857473641634 380.22146636247635
leaf_count=5508 11125 7041 2349 3596 4626 12067 2955 1323 3883 3138 3458 7541 4880 1258 1353 2945 7560 791 13749 6971 891 2498 11481 2280 9898 8095 1355 144 8989 1971
internal_value=3.47375e-05 0.0116311 -0.0144414 0.00696259 0.0143646 -0.000275246 -0.0249796 -0.00699901 -0.000390159 -0.016708 0.0284344 -0.0261354 0.0274979 -0.0410489 -0.0229272 -0.028865 -0.0167704 0.00345669 -0.00611936 0.0338708 0.0412424 0.0055803 0.00398502 0.00575342 0.0243885 0.010992 0.00420569 0.0455211 -0.00880362 0.0182893
internal_weight=33778.1 18754.5 15023.6 14490.8 7164.17 7326.66 1403.85 9180.7 5462.46 3718.25 905.707 5842.89 4263.68 911.468 4674.41 2379.52 2294.89 484.305 4556.75 2194.09 1274.17 5922.81 5377.57 4970.09 3478.19 2388.67 1165.29 599.504 2806.78 1705
internal_count=155719 90375 65344 66585 33988 32597 6551 39646 23912 15734 4925 25698 23790 4396 20190 10486 9704 2144 18987 12488 7862 26046 23548 21500 18910 10375 5238 3602 11338 9012
is_linear=0
shrinkage=0.0387551


Tree=26
num_leaves=31
num_cat=0
split_feature=6 6 6 38 23 38 23 41 94 72 41 6 6 56 41 38 23 94 38 72 65 1 72 3 41 6 41 38 38 5
split_gain=3513.83 857.83 841.465 444.957 807.828 387.933 441.011 286.3 271.26 190.183 146.159 134.411 120.576 113.774 102.967 96.0625 139.781 93.7247 91.6547 84.5956 84.5466 74.5588 71.7801 71.6439 67.9107 61.6195 59.457 59.4408 56.9315 54.2398
threshold=21.209090500000006 318.88967700000006 -150.71912800000004 1.0000000180025095e-35 1.0000000180025095e-35 1.0000000180025095e-35 1.0000000180025095e-35 1.0000000180025095e-35 1.0000000180025095e-35 2.5000000000000004 10.500000000000002 -386.49679899999995 526.24950000000013 0.38000520970560542 1.0000000180025095e-35 1.0000000180025095e-35 1.0000000180025095e-35 1.0000000180025095e-35 273.50000000000006 1.5000000000000002 0.59861516183924712 103.50000000000001 3.5000000000000004 1519.3775595000002 3.5000000000000004 133.17609949999999 5.5000000000000009 19.500000000000004 150.50000000000003 1503.5441790000002
decision_type=2 2 2 2 2 2 2 2 2 2 2 2 2 2 2 2 2 2 2 2 2 2 2 2 2 2 2 2 2 2
left_child=2 3 11 4 8 6 17 18 10 21 -2 -1 24 29 28 16 -13 26 19 -5 -6 -7 -8 -22 -3 -21 -4 -16 -11 -9
right_child=1 12 5 7 20 9 22 13 -10 14 -12 15 -14 -15 27 -17 -18 -19 -20 25 23 -23 -24 -25 -26 -27 -28 -29 -30 -31
leaf_value=-0.038048789805631901 -0.048338130153136247 0.016270049829503166 -0.050078555400180122 0.023252839594025725 -0.0029319837829463471 0.019715435214747511 0.015054629325250913 0.02925186025555751 0.016740620904209087 -0.011357378433195453 0.013885624417969972 -0.050008590803179667 0.036289653774609486 0.0092623215578531651 -0.0019298521024748228 -0.016967732317577429 -0.024090264556177608 -0.0015393951542243944 0.024647563511572379 -0.0034072351669705318 0.020491883293439487 -0.0058209867592321721 -0.011294572727416094 0.0057107379270370006 0.028265364434202158 0.0074343400610902112 -0.015359947085048259 0.011930252768488761 0.0072049272855488683 0.018872712010312351
leaf_weight=1150.7349210828543 713.73553913831711 1416.2093576192856 652.31743048131466 296.5364163517952 1490.5597961992025 813.64904966950417 163.41582474112511 1479.1753054410219 131.81610785424709 2284.5580206662416 61.59112611413002 383.49725240468979 1366.1468985378742 1073.8388266861439 1662.6620456427336 1991.845910385251 1688.8606764674187 78.313797801733017 336.40291315317154 1702.8375709056854 580.05487443506718 217.6657121181488 3120.4734122902155 3263.5279989540577 1419.3109683841467 1464.6405471265316 83.578083321452141 645.03479844331741 278.41167108714581 1547.2626349776983
