tree
version=v4
num_class=1
num_tree_per_iteration=1
label_index=0
max_feature_idx=78
objective=binary sigmoid:1
feature_names=p1_rank p2_rank p1_elo_overall p2_elo_overall p1_elo_surface p2_elo_surface elo_diff_overall elo_diff_surface p1_win_pct_5 p1_win_pct_10 p1_win_pct_20 p2_win_pct_5 p2_win_pct_10 p2_win_pct_20 p1_win_pct_surface_10 p2_win_pct_surface_10 h2h_p1_wins h2h_p2_wins h2h_total h2h_p1_win_pct h2h_surface_p1_wins h2h_surface_p2_wins p1_current_win_streak p2_current_win_streak p1_current_lose_streak p2_current_lose_streak p1_streak_5 p2_streak_5 p1_tournament_wins_current p2_tournament_wins_current p1_title_count_12m p2_title_count_12m p1_is_home p2_is_home home_advantage_flag p1_home_win_pct p2_home_win_pct p1_days_since_last_match p2_days_since_last_match p1_matches_last_14d p2_matches_last_14d p1_sets_played_last_7d p2_sets_played_last_7d p1_ace_pct p2_ace_pct p1_1st_serve_pct p2_1st_serve_pct p1_bp_save_pct p2_bp_save_pct p1_matches_played_before p2_matches_played_before surface_Carpet surface_Clay surface_Grass surface_Hard surface_Unknown surface_NA tournament_level_davis_or_equivalent tournament_level_finals tournament_level_grand_slam tournament_level_masters tournament_level_other tournament_level_team_event tournament_level_tour tournament_level_NA round_BR round_F round_QF round_R128 round_R16 round_R32 round_R64 round_RR round_SF round_NA best_of_1 best_of_3 best_of_5 best_of_NA
feature_infos=[1:1556] [1:1503] [1235.749376:2989.1885889999999] [1245.664732:2986.1499079999999] [1132.7310299999999:2670.8317299999999] [1169.4941240000001:2660.4954499999999] [-1436.74629:1455.5084099999999] [-1128.1538899999998:1157.5206740000001] [0:1] [0:1] [0:1] [0:1] [0:1] [0:1] [0:1] [0:1] [0:40] [0:43] [0:80] [0:1] [0:19] [0:18] [0:73] [0:67] [0:29] [0:28] [-5:5] [-5:5] [0:6] [0:6] [0:25] [0:22] [0:1] [0:1] [-1:1] [0:1] [0:1] [0:19011] [0:20138] [0:18] [0:17] [0:40] [0:40] [0:0.22580645161290319] [0:0.17857142857142849] [0.320754716981132:0.88268643751359455] [0.28888888888888881:0.95999999999999996] [0:1] [0:1] [0:1709] [0:1705] [0:1] [0:1] [0:1] [0:1] [0:1] none [0:1] [0:1] [0:1] [0:1] [0:1] [0:1] [0:1] none [0:1] [0:1] [0:1] [0:1] [0:1] [0:1] [0:1] [0:1] [0:1] none [0:1] [0:1] none none
tree_sizes=3394 3518 3518 3538 3551 3552 3545 3542 3558 3528 3540 3561 3543 3538 3564 3542 3546 3548 3526 3545 3531 3557 3558 3542 3547 3514 3529 3565 3561 3553 3546 3535 3530 3553 3575 3559 3516 3561 3563 3526 3547 3552 3558 3573 3564 3535 3516 3513 3561 3555 3552 3516 3578 3530 3545 3566 3547 3561 3572 3554 3515 3569 3566 3526 3509 3537 3554 3547 3556 3552 3550 3543 3540 3565 3506 3519 3564 3560 3488 3515 3562 3538 3540 3515 3551 3537 3538 3569 3533 3510 3559 3515 3510 3506 3515 3479 3509 3507 3505 3458 3511 3543 3467 3512 3470 3517 3542 3549 3500 3507 3511 3486 3509 3510 3499 3541 3502 3541 3595 3486 3549 3521 3460 3497 3481 3508 3538 3495 3462 3491 3476 3545 3541 3518 3450 3502 3502 3525 3457 3501 3531 3473 3449 3499 3493 3549 2700 3507 3498 3484 3504 3475 2732 3506 3501 3479 3457 3486 3513 3494 3476 3510 3150 3504 3471 3502 3483 3466 3346 3519 3459 3527 3505 3472 3487 3498 3519 3488 3520 3532 3473 3525 3506 3520 3455 3436 3362 3445 3269 3468 3494 3501 2099 3460 3478 3491 3491 3489 2922 3523 3531 3437 3492 3512 3356 1971 3518 3443 3446 3502 3495 3513 3470 3495 3358 3495 2385 3469 2935 3524 3467 3513 3430 3467 3031 3526 3034 3467 3561 3504 2608 3457 3362 3473 3487 3475 3496 3513 3471 3481 3505 3490 2621 3433 3474 3472 3532 3482 3517 3476 2183 3325 3442 3484 3483 3356 3487 3475 3506 3534 3511 3503 3533 2393 2693 3544 3414 3503 3505 2513 3523 3509 3484 3485 3468

Tree=0
num_leaves=31
num_cat=0
split_feature=7 2 3 37 42 3 37 24 42 3 2 3 37 24 42 2 3 25 72 3 2 3 3 2 2 29 2 2 3 3
split_gain=12335.8 2766.67 3091.81 2112.56 1930.43 1618.44 1208.33 1193.91 1181.17 1046.24 873.222 590.67 533.967 744.336 522.864 499.911 453.851 388.726 375.746 365.314 339.908 328.901 324.472 301.74 293.409 269.558 268.013 233.697 198.872 153.945
threshold=-42.072049499999927 1902.9118685000001 1642.4844365000001 6.5000000000000009 1.5000000000000002 1767.4935560000001 1.5000000000000002 1.0000000180025095e-35 1.0000000180025095e-35 1925.2085885000004 1927.7983440000003 1843.7201335000002 4.5000000000000009 1.0000000180025095e-35 1.0000000180025095e-35 2209.5567370000003 2130.7785250000002 1.0000000180025095e-35 1.0000000180025095e-35 2050.2280525000001 2065.6925825000003 1500.0011810000003 1673.7801345 1768.8824480000001 1720.7436845000002 1.0000000180025095e-35 1660.6158620000003 1732.5531430000003 2278.7157255000006 2180.9598330000003
decision_type=2 2 2 2 2 2 2 2 2 2 2 2 2 2 2 2 2 2 2 2 2 2 2 2 2 2 2 2 2 2
left_child=5 2 3 8 21 6 7 23 -2 20 19 12 13 -4 -8 29 -12 -6 -9 24 22 -5 -3 -1 -7 -10 -16 -14 -17 -11
right_child=1 9 11 4 17 10 14 18 25 15 16 -13 27 -15 26 28 -18 -19 -20 -21 -22 -23 -24 -25 -26 -27 -28 -29 -30 -31
leaf_value=0.32902533219747043 0.43472162047609753 0.41912286504625501 0.3523022548310244 0.39602079044213179 0.36450392487544564 0.28386104034089077 0.33803303822493919 0.4388398952982529 0.40494547468750403 0.35421149583237305 0.36019469938481852 0.30934501708516621 0.31437705245595454 0.43475270156809875 0.28568572691314964 0.41144599781951346 0.2987301447570655 0.31997728179850238 0.3411540598179808 0.26079014697215791 0.42843267395815687 0.36992815234703674 0.38589493205949776 0.38141086972326876 0.31543638046215922 0.37941798481259592 0.32787038670124646 0.34928631759448608 0.34699541744592677 0.30004532751200719
leaf_weight=1159.9058251082897 2125.5262147635221 1674.2904275655746 1509.2808796465397 2607.005687430501 649.15046490728855 1946.2416473031044 1723.4061727672815 552.85457037389278 1683.9684069156647 639.71443504095078 740.1234707981348 1339.4323420524597 1091.676070690155 334.37418654561043 1180.471531227231 633.18179897964001 505.43247155845165 2001.4061295986176 119.76499445736408 978.20176281034946 2971.865508928895 2250.1301988959312 1309.1886565834284 360.26278130710125 1182.8910260647535 2679.8324820399284 552.85457037389278 854.80752609670162 147.58918508887291 165.00954791903496
leaf_count=4794 8785 6920 6238 10775 2683 8044 7123 2285 6960 2644 3059 5536 4512 1382 4879 2617 2089 8272 495 4043 12283 9300 5411 1489 4889 11076 2285 3533 610 682
internal_value=0.362827 0.381206 0.371093 0.383263 0.365204 0.318282 0.336948 0.365981 0.404157 0.406854 0.298581 0.337886 0.347972 0.367256 0.318531 0.37076 0.335253 0.330882 0.421446 0.28746 0.416464 0.383933 0.404542 0.34144 0.295797 0.389269 0.299141 0.329708 0.399263 0.343105
internal_weight=37669.8 26667.4 19126.6 13997 7507.69 11002.4 5649.52 2192.79 6489.33 7540.84 5352.89 5129.57 3790.14 1843.66 3456.73 1585.49 1245.56 2650.56 672.62 4107.33 5955.34 4857.14 2983.48 1520.17 3129.13 4363.8 1733.33 1946.48 780.771 804.724
internal_count=155693 110219 79052 57851 31030 45474 23350 9063 26821 31167 22124 21201 15665 7620 14287 6553 5148 10955 2780 16976 24614 20075 12331 6283 12933 18036 7164 8045 3227 3326
is_linear=0
shrinkage=1


Tree=1
num_leaves=31
num_cat=0
split_feature=6 6 38 25 6 38 72 25 39 6 3 0 50 6 38 25 38 6 72 25 50 39 39 7 6 38 39 44 6 50
split_gain=18455.6 4346.01 2857.88 3769.65 1880.6 976.475 785.133 747.094 656.594 633.617 429.361 407.109 388.872 379.493 318.243 983.08 304.363 292.542 285.283 275.473 253.549 187.753 168.944 164.265 142.11 129.235 118.637 104.304 92.2055 90.9467
threshold=-37.555097000000039 218.47017299999996 1.0000000180025095e-35 1.0000000180025095e-35 -150.74761650000002 1.0000000180025095e-35 1.0000000180025095e-35 1.0000000180025095e-35 1.0000000180025095e-35 378.7612565 1502.4525225000002 229.50000000000003 5.5000000000000009 -353.27202800000003 1.0000000180025095e-35 1.0000000180025095e-35 1.0000000180025095e-35 42.923884000000051 1.0000000180025095e-35 1.0000000180025095e-35 2.5000000000000004 2.5000000000000004 1.0000000180025095e-35 -2.306843999999955 108.9493835000001 19.500000000000004 1.0000000180025095e-35 0.057716409589236954 526.24950000000013 5.5000000000000009
decision_type=2 2 2 2 2 2 2 2 2 2 2 2 2 2 2 2 2 2 2 2 2 2 2 2 2 2 2 2 2 2
left_child=4 2 3 17 13 7 11 -6 12 14 27 -5 -4 -1 15 -3 19 29 -17 -15 -7 -12 -22 -19 -14 -24 -18 -10 -11 -2
right_child=1 9 8 6 5 20 -8 -9 10 28 21 -13 24 16 -16 18 26 23 -20 -21 22 -23 25 -25 -26 -27 -28 -29 -30 -31
leaf_value=-0.094595102703780271 0.014983093081205299 0.034936325474404437 0.030543793370223712 -0.11342888192919809 -0.041883538972164784 0.03341494509059343 0.014637521061676824 -0.10905935260549318 0.02506010394367857 0.057393774201466186 0.014464572574523923 -0.021341005225457867 -0.01416128694149818 -0.069844347347036415 0.049900702323390618 -0.10557540941614017 -0.068576963629781995 -0.006516788286935575 0.046507697481035698 -0.11394484613187511 -0.034732655687187274 0.035075834645459159 -0.017473793404135431 0.01680895693250337 0.013019193855478652 0.0131727281977633 -0.042713163031993337 0.053072193247085342 0.072161050895495057 -0.018414805308216219
leaf_weight=1650.508876696229 232.17400389909744 2091.4002903997898 1092.4473752379417 1112.9208313971758 1844.453151345253 257.92683325707912 158.51611682772636 533.64392566680908 390.08674111962318 2191.6217761933804 2522.2423776686192 134.52492110431194 1562.569808229804 1642.1617296934128 2688.8179486095905 172.87347221374512 686.08377227187157 1073.5181767344475 37.529937326908112 451.45435243844986 1004.3682968616486 1966.1958858370781 1227.121911406517 2542.0057182759047 694.69247302412987 477.99686709046364 1253.3591743856668 2243.7942442148924 2041.8787268996239 1670.2851381897926
leaf_count=6732 962 8691 4534 4573 7583 1069 657 2187 1622 9150 10440 558 6451 6722 11180 713 2809 4431 156 1846 4129 8149 5051 10528 2872 1977 5136 9354 8540 6891
internal_value=1.07981e-05 0.0225439 0.00783267 -0.0170906 -0.0543757 -0.0330862 -0.0901788 -0.0569578 0.0243116 0.0502881 0.0328977 -0.103498 0.0060554 -0.0743989 0.0382185 0.0245721 -0.0661337 0.00153195 -0.0784481 -0.0793539 -0.0139555 0.0234935 -0.0184649 0.0098831 -0.00579625 -0.00888264 -0.0518626 0.0489235 0.0645162 -0.014339
internal_weight=37649.2 26620.1 17396 6923.94 11029.1 5345.51 1405.96 2378.1 10472 9224.12 7122.32 1247.45 3349.71 5683.57 4990.62 2301.8 4033.06 5517.98 210.403 2093.62 2967.41 4488.44 2709.49 3615.52 2257.26 1705.12 1939.44 2633.88 4233.5 1902.46
internal_count=155693 110452 72022 28600 45241 21996 5788 9770 43422 38430 29565 5131 13857 23245 20740 9560 16513 22812 869 8568 12226 18589 11157 14959 9323 7028 7945 10976 17690 7853
is_linear=0
shrinkage=0.05


Tree=2
num_leaves=31
num_cat=0
split_feature=7 38 23 37 37 3 37 38 2 38 10 3 2 3 3 23 22 3 22 2 1 2 2 3 2 3 3 2 3 72
split_gain=10186.2 2223.26 5481.79 2656.2 1665.21 1579.79 1227.34 1436.92 1148.3 1118.68 907.996 862.186 749.763 738.676 451.166 432.944 432.042 398.374 354.561 324.959 309.227 265.06 251.504 235.972 269.117 231.997 222.798 270.204 197.731 192.548
threshold=-26.441092499999964 1.0000000180025095e-35 1.0000000180025095e-35 1.0000000180025095e-35 1.0000000180025095e-35 1767.4935560000001 1.5000000000000002 2.5000000000000004 2015.0482485000002 1.0000000180025095e-35 0.55277777777777792 1752.5578245000002 1806.4535430000003 1534.9532805000001 2087.4511550000002 1.0000000180025095e-35 1.0000000180025095e-35 2010.2616505000003 1.0000000180025095e-35 1782.9300225000002 29.500000000000004 2021.4512415000002 1838.7533405000001 1522.0626210000003 2028.3515970000001 1770.5434385000001 1547.6144155000004 1691.5147115000002 2001.9382230000003 1.0000000180025095e-35
decision_type=2 2 2 2 2 2 2 2 2 2 2 2 2 2 2 2 2 2 2 2 2 2 2 2 2 2 2 2 2 2
left_child=5 2 4 16 -2 6 7 22 11 15 13 19 28 -5 21 -8 -3 -10 -9 -4 -18 -14 -1 -12 -25 -15 -11 -28 -7 -6
right_child=1 3 8 10 29 12 9 18 17 26 23 -13 14 25 -16 -17 20 -19 -20 -21 -22 -23 -24 24 -26 -27 27 -29 -30 -31
leaf_value=-0.026570739960475744 0.015734092797137212 0.079943762218860015 0.0050896463662859276 0.022781989355075725 -0.11183255770785777 -0.063321829221947498 -0.10883315514537258 0.076695280243725655 0.053238782463366933 -0.0027610857594034428 0.055641934229267588 -0.027490540596747194 -0.030490578248641542 -0.0035067689126717207 -0.061823173166658946 -0.038693611272741457 -0.021818477609913914 0.009514666968324266 -0.00095261605097501218 0.032539111272105327 0.05327155065466032 0.016590323410860145 0.026948914854107716 0.016181933699882505 0.051892061012535066 -0.038816975528981536 -0.042506283745108231 -0.0039658107722478101 -0.09023538194582166 -0.0097157445136668661
leaf_weight=1561.517695993185 342.40095740556717 2471.0677624493837 2876.5327152609825 3853.5051867514849 1262.7088898867369 2527.0162715166807 631.04554426670074 666.23820242285728 2175.802011013031 950.85293473303318 1341.2610848098993 1574.1463110744953 998.92675507068634 2552.6551722437143 886.73977214097977 337.77662415802479 157.27663141489029 684.9320977628231 188.64667181670666 1724.6494902521372 1068.9913996309042 426.6211694329977 255.41788338124752 1446.6720340400934 830.45362617075443 568.84403678774834 1612.4779381901026 633.42379482090473 934.94603480398655 47.91366545855999
leaf_count=6409 1420 10428 11916 16092 5118 10247 2548 2805 9202 3928 5640 6454 4093 10547 3599 1382 647 2844 780 7206 4506 1772 1066 6020 3515 2326 6597 2617 3771 198
internal_value=2.14179e-05 0.0185151 0.00126754 0.0314158 -0.082449 -0.0366088 -0.0203464 0.00610452 0.0165823 -0.0373121 0.0186807 0.00445077 -0.0558655 0.00813736 -0.0338198 -0.0843792 0.0679034 0.0427701 0.0595608 0.0153785 0.0436408 -0.0164008 -0.0190472 0.0390047 0.0292052 -0.0099415 -0.0230477 -0.0316365 -0.0705902 -0.108099
internal_weight=37591.5 24979.8 10689.1 14290.7 1653.02 12611.6 6837.4 2671.82 9036.06 4165.58 10593.4 6175.33 5774.25 6975 2312.29 968.822 3697.34 2860.73 854.885 4601.18 1226.27 1425.55 1816.94 3618.39 2277.13 3121.5 3196.75 2245.9 3461.96 1310.62
internal_count=155693 104079 44358 59721 6736 51614 28132 11060 37622 17072 44140 25576 23482 28965 9464 3930 15581 12046 3585 19122 5153 5865 7475 15175 9535 12873 13142 9214 14018 5316
is_linear=0
shrinkage=0.05


Tree=3
num_leaves=31
num_cat=0
split_feature=6 6 38 23 37 6 37 38 37 50 37 6 22 6 6 22 38 23 37 37 6 38 37 22 37 50 1 3 23 57
split_gain=15333.4 3707.05 2314.6 2996.75 2278.27 1578.36 1103.96 811.737 1027.31 636.745 628.799 569.174 490.059 309.809 302.3 295.374 275.925 819.709 324.157 312.414 245.14 216.599 326.514 530.321 246.315 165.384 163.104 111.114 107.092 93.3116
threshold=-35.351346000000028 218.47017299999996 1.0000000180025095e-35 1.0000000180025095e-35 1.0000000180025095e-35 -150.74761650000002 1.0000000180025095e-35 1.0000000180025095e-35 1.0000000180025095e-35 5.5000000000000009 1.5000000000000002 386.22283950000002 1.0000000180025095e-35 -284.92417949999998 104.40177700000005 1.0000000180025095e-35 1.0000000180025095e-35 1.0000000180025095e-35 1.0000000180025095e-35 1.0000000180025095e-35 88.678499499999944 1.0000000180025095e-35 1.0000000180025095e-35 1.0000000180025095e-35 1.0000000180025095e-35 2.5000000000000004 83.500000000000014 1532.0484125 1.0000000180025095e-35 1.0000000180025095e-35
decision_type=2 2 2 2 2 2 2 2 2 2 2 2 2 2 2 2 2 2 2 2 2 2 2 2 2 2 2 2 2 2
left_child=5 2 3 6 15 13 -2 10 12 26 -7 16 -9 -1 -11 -4 17 19 -18 -3 27 24 23 -23 -15 -10 -6 -5 -12 -8
right_child=1 11 4 20 9 7 29 8 25 14 28 -13 -14 21 -16 -17 18 -19 -20 -21 -22 22 -24 -25 -26 -27 -28 -29 -30 -31
leaf_value=-0.079826449111265935 0.0074689840637603162 0.041757091598797168 0.077009903305119837 0.010979054924038546 0.042971715528548581 -0.035118471913450508 -0.10454076333153024 0.077291673283785611 0.016613393345089066 -0.0073888118286981157 -0.10355875211338438 0.061073867534627735 -0.017346375122876123 -0.056750093542317963 0.016318284982193784 0.03590814676112946 0.073184673312413198 0.032717589998988182 0.035397256324184355 -0.10125387407120884 0.013029762362367518 0.079992128833730414 -0.055105910494703973 -0.049749765143244785 -0.099408525460592423 -0.030764246966764122 0.014181686142994669 -0.013145729877163531 -0.060020733372885285 -0.013659829868567105
leaf_weight=2587.8024233877659 288.06079763174057 49.320618823170662 1697.0568007081747 601.0363213121891 1412.6990652829409 1770.5153516381979 1098.7425505965948 407.0014324337244 200.6234904229641 3712.3069630414248 498.52413672208786 3981.7041783034801 206.03923331201077 1165.3183934688568 2108.4034025222063 588.7556676119566 808.64044292271137 2127.8214390128851 1903.561650454998 169.19244983792305 2555.0074183642864 129.35002422332764 1202.4732629060745 201.39128434658051 476.86809648573399 2249.9973397403955 754.7945936024189 2318.1860423833132 197.07634007930756 28.989455625414848
leaf_count=10404 1194 206 7295 2492 5956 7210 4409 1728 835 15361 1999 17080 848 4708 8774 2492 3478 8966 8019 681 10611 537 4864 817 1915 9187 3172 9536 800 119
internal_value=3.00511e-05 0.0210198 0.00737155 -0.0150496 0.0224078 -0.0486747 -0.0798901 -0.0295917 -0.0124043 0.00981276 -0.0509437 0.0469329 0.0454844 -0.0669849 0.00119848 0.0664233 0.0358021 0.023247 0.0466635 -0.0689748 0.00172001 -0.0565196 -0.0430048 0.000991151 -0.0691375 -0.0268856 0.0329461 -0.0081787 -0.0912236 -0.102205
internal_weight=37497.3 26204.3 17164 6890.02 10274 11293 1415.79 5529.78 3063.66 7988.2 2466.12 9040.24 613.041 5763.2 5820.71 2285.81 5058.54 2346.33 2712.2 218.513 5474.23 3175.4 1533.21 330.741 1642.19 2450.62 2167.49 2919.22 695.6 1127.73
internal_count=155693 109841 71411 28361 43050 45852 5722 22607 12598 33263 10009 38430 2576 23245 24135 9787 21350 9853 11497 887 22639 12841 6218 1354 6623 10022 9128 12028 2799 4528
is_linear=0
shrinkage=0.05


Tree=4
num_leaves=31
num_cat=0
split_feature=6 6 38 23 37 6 37 38 37 37 22 6 3 22 38 23 37 37 6 6 6 3 9 38 37 22 37 7 23 6
split_gain=13839.8 3453.62 2113.2 2723.98 2150.36 1375.63 997.798 816.732 1010.44 635.499 611.625 535.806 519.741 282.713 257.148 722.945 301.432 274.607 231.017 226.649 197.198 151.857 145.382 142.592 221.601 526.977 176.688 132.43 92.3559 87.413
threshold=-37.555097000000039 218.47017299999996 1.0000000180025095e-35 1.0000000180025095e-35 1.0000000180025095e-35 -185.34429799999995 1.0000000180025095e-35 1.0000000180025095e-35 1.0000000180025095e-35 1.5000000000000002 1.0000000180025095e-35 378.7612565 1500.0011810000003 1.0000000180025095e-35 1.0000000180025095e-35 1.0000000180025095e-35 1.0000000180025095e-35 1.0000000180025095e-35 42.923884000000051 111.09324550000021 -386.49679899999995 1501.1544465000004 0.5277777777777779 1.0000000180025095e-35 1.0000000180025095e-35 1.0000000180025095e-35 1.0000000180025095e-35 -1.0586134999999783 1.0000000180025095e-35 635.66681400000016
decision_type=2 2 2 2 2 2 2 2 2 2 2 2 2 2 2 2 2 2 2 2 2 2 2 2 2 2 2 2 2 2
left_child=5 2 3 6 13 20 -2 9 10 -7 -9 14 22 -4 15 17 -16 -3 -5 -14 -1 -10 -6 26 25 -25 -22 -20 -11 -13
right_child=1 11 4 18 12 7 -8 8 21 28 -12 29 19 -15 16 -17 -18 -19 27 -21 23 -23 -24 24 -26 -27 -28 -29 -30 -31
leaf_value=-0.082970535648942967 0.00697380379267024 0.040764977774428723 0.07472836828640006 -0.012520515259346552 0.019752909436397206 -0.03636513959543413 -0.096809242808518353 0.075320955365636599 0.0080480701777439888 -0.098354459129412097 -0.021767228825783927 0.054077419573093137 -0.0082496891563871785 0.034435673453419142 0.070965991259531791 0.030802607900205881 0.033690145999201226 -0.095742380170722577 -0.005561103826948144 0.014806927910445406 -0.060360844612622006 -0.032214530451957352 0.046879112666354271 0.076947895870191213 -0.059716388434125578 -0.054987430897920866 -0.095454244838432734 0.015303061095316242 -0.061258491340062893 0.070524566744428405
leaf_weight=1376.0271255970001 290.33757703006268 47.248651251196861 1676.7129045724869 1912.6352485716343 2487.1697096675634 2108.825845733285 1144.6771001368761 432.3343028575182 257.75072798132896 599.09972241520882 259.63157276809216 2944.198741003871 3377.8729911148548 588.01813448965549 769.46790546178818 2047.7272694259882 1837.3899195194244 167.2653234153986 1091.1478820592165 1557.2422880530357 1283.981571957469 2562.1757328957319 616.33861550688744 108.68217891454697 1209.2197803407907 249.28110630810261 497.69806370139122 2510.1277513802052 233.05316767096519 1113.3496253937483
leaf_count=5508 1205 199 7365 7853 10485 8539 4583 1867 1069 2397 1062 12810 13949 2510 3378 8691 7802 670 4494 6487 5155 10400 2626 451 4859 1003 1992 10465 939 4880
internal_value=3.80349e-05 0.0199243 0.00686098 -0.0144473 0.021232 -0.0465366 -0.0758115 -0.0315272 -0.0152489 -0.0509655 0.0388926 0.0451713 0.00910776 0.0642667 0.0339888 0.0216542 0.0446929 -0.0656754 0.00152296 -0.000974329 -0.0670352 -0.0285344 0.02514 -0.0604875 -0.0494867 -0.0149302 -0.0701639 0.00898144 -0.0879653 0.0585903
internal_weight=37356.7 26178.9 17252.3 6948.93 10303.4 11177.8 1435.01 6452.87 3511.89 2940.98 691.966 8926.65 8038.62 2264.73 4869.1 2262.24 2606.86 214.514 5513.91 4935.12 4724.89 2819.93 3103.51 3348.86 1567.18 357.963 1781.68 3601.28 832.153 4057.55
internal_count=155693 110452 72022 28600 43422 45241 5788 26273 14398 11875 2929 38430 33547 9875 20740 9560 11180 869 22812 20436 18968 11469 13111 13460 6313 1454 7147 14959 3336 17690
is_linear=0
shrinkage=0.05


Tree=5
num_leaves=31
num_cat=0
split_feature=6 6 38 23 37 6 37 38 37 37 50 22 6 6 7 22 6 38 37 22 37 38 23 37 37 50 1 23 49 49
split_gain=12520.7 2979.14 1861.33 2529.41 1946.48 1523.35 900.381 743.421 940.888 603.316 526.268 442.279 418.687 270.139 268.076 235.488 233.911 204.799 288.466 579.71 233.384 203.1 627.1 268.397 238.441 177.524 145.542 108.247 104.094 84.0875
threshold=-25.841637999999985 239.1810370000002 1.0000000180025095e-35 1.0000000180025095e-35 1.0000000180025095e-35 -146.09361849999991 1.5000000000000002 1.0000000180025095e-35 1.0000000180025095e-35 1.5000000000000002 5.5000000000000009 1.0000000180025095e-35 443.84692999999987 -339.24374549999999 23.721329000000086 1.0000000180025095e-35 106.64617599999998 1.0000000180025095e-35 1.0000000180025095e-35 1.0000000180025095e-35 1.0000000180025095e-35 1.0000000180025095e-35 1.0000000180025095e-35 1.0000000180025095e-35 1.0000000180025095e-35 5.5000000000000009 83.500000000000014 1.0000000180025095e-35 87.500000000000014 93.500000000000014
decision_type=2 2 2 2 2 2 2 2 2 2 2 2 2 2 2 2 2 2 2 2 2 2 2 2 2 2 2 2 2 2
left_child=5 2 3 6 15 13 -2 9 11 -7 26 -9 21 -1 -12 -4 28 20 19 -19 -15 22 23 -3 -23 -10 -6 -11 -5 -18
right_child=1 12 4 16 10 7 -8 8 25 27 14 -13 -14 17 -16 -17 29 18 -20 -21 -22 24 -24 -25 -26 -27 -28 -29 -30 -31
leaf_value=-0.075797017922835774 0.0079648991196855125 0.041027477162581913 0.072946504783926752 0.0064482491205833095 0.04183327639512515 -0.029144675141096255 -0.092183755288948663 0.072597368369429816 0.0089767240087016351 -0.093697701507063885 -0.0096430261071054207 -0.013675639058407045 0.060693717030871425 -0.053042421276754126 0.012010097941502944 0.036110092399014637 0.035174783805040535 0.074767216474167772 -0.051113179856140438 -0.047627031150704387 -0.089724434129545061 0.068893785330317231 0.033921696236017339 -0.092988094947749914 0.036421108136230826 -0.027005128620691123 0.014345476509696737 -0.05196115695364676 -0.012468868285834409 0.010825135061917559
leaf_weight=1834.1046027392149 281.5483451038599 50.027785107493401 1649.7873435914516 1148.8292854875326 1342.6137131899595 1926.0161991417408 1106.202965810895 450.3398399502039 400.69777946174145 542.57261204719543 2496.2935027629137 221.68106764554977 2877.8873139768839 1525.798200160265 3344.5445009171963 588.67558628320694 429.33854933083057 149.20951865613461 1551.4002246409655 275.14355513453484 605.76812905073166 813.36375504732132 2210.5359479486942 147.5427750647068 1853.6096812933683 2372.0476736277342 750.87186828255653 217.68237854540348 1981.4516693502665 2035.5904797613621
leaf_count=7344 1171 214 7420 4750 5755 7791 4437 1998 1672 2177 10323 911 12810 6117 13975 2541 1797 637 6224 1106 2428 3645 9523 595 7983 9626 3181 876 8147 8519
internal_value=4.43477e-05 0.0201635 0.00843711 -0.0114411 0.0220822 -0.0418001 -0.0718655 -0.0243157 -0.00894071 -0.044032 0.0104652 0.0441383 0.045459 -0.0598424 0.00275585 0.0632592 0.0035457 -0.052718 -0.0411212 -0.0045912 -0.0634671 0.0368199 0.0262937 -0.0590534 0.0463245 -0.0218053 0.0319742 -0.0817474 -0.00552619 0.0150663
internal_weight=37181.2 25108.7 17155.7 6982.96 10172.8 12072.5 1387.75 6131.04 3444.77 2686.27 7934.32 672.021 7952.97 5941.42 5840.84 2238.46 5595.21 4107.32 1975.75 424.353 2131.57 5075.08 2408.11 197.571 2666.97 2772.75 2093.49 760.255 3130.28 2464.93
internal_count=155693 106786 72016 28821 43195 48907 5608 25051 14207 10844 33234 2909 34770 23856 24298 9961 23213 16512 7967 1743 8545 21960 10332 809 11628 11298 8936 3053 12897 10316
is_linear=0
shrinkage=0.05


Tree=6
num_leaves=31
num_cat=0
split_feature=6 6 38 37 37 6 25 38 37 6 37 24 3 38 25 37 37 24 6 7 6 3 9 38 37 24 37 25 6 6
split_gain=11342.3 2921.84 1662.85 2012.49 1714.53 1168.12 754.005 676.634 863.303 625.787 539.331 524.522 413.649 317.339 775.96 383.003 299.827 265.096 167.332 145.956 142.204 132.128 125.609 117.41 180.743 440.563 150.852 91.0574 89.184 83.7609
threshold=-35.351346000000028 185.98768699999997 1.0000000180025095e-35 1.5000000000000002 1.0000000180025095e-35 -185.34429799999995 1.0000000180025095e-35 1.0000000180025095e-35 1.0000000180025095e-35 371.71951300000006 1.5000000000000002 1.0000000180025095e-35 1500.0011810000003 1.0000000180025095e-35 1.0000000180025095e-35 1.5000000000000002 1.0000000180025095e-35 1.0000000180025095e-35 -386.49679899999995 -47.273253500000116 111.09324550000021 1501.1544465000004 0.5277777777777779 1.0000000180025095e-35 1.0000000180025095e-35 1.0000000180025095e-35 1.0000000180025095e-35 1.0000000180025095e-35 526.24950000000013 42.923884000000051
decision_type=2 2 2 2 2 2 2 2 2 2 2 2 2 2 2 2 2 2 2 2 2 2 2 2 2 2 2 2 2 2
left_child=5 2 3 19 17 18 -5 10 11 13 -7 -9 22 14 -3 -15 -16 -4 -1 -2 -14 -10 -6 26 25 -25 -20 -12 -11 -21
right_child=1 9 4 6 12 7 -8 8 21 28 27 -13 20 15 16 -17 -18 -19 23 29 -22 -23 -24 24 -26 -27 -28 -29 -30 -31
leaf_value=-0.075319475421132945 -0.01504871772136632 0.025872573851369953 0.029017654429293951 -0.01595130052771928 0.016972672983769865 -0.032289107466370315 -0.088263175269709726 -0.018555895176581023 0.0076975365442796028 0.047690087813878235 -0.053320399317244062 0.070893348354714225 -0.0075734676158265655 0.066056652329138765 0.033978979059588202 0.028628093109670367 -0.086905372275081091 0.070845626577787355 -0.054351006383723401 -0.0035393760778845485 0.01282413552339761 -0.028819153894970341 0.043819729303773966 -0.049402170728049741 -0.053800419708592444 0.072389036588167949 -0.086836252986995821 -0.089685161122724497 0.06256308375127205 0.012198907216258438
leaf_weight=1370.8967704623938 1030.558074682951 2504.7815439254045 513.93956038355827 548.40346182882786 2317.4806345999241 2161.5009041875601 1052.0598225146532 265.3440832644701 273.46236427128315 2182.390860632062 240.37382611632347 428.6350285410881 3328.530507966876 973.28519143164158 66.093237638473511 2295.5859276801348 229.08766323328018 1440.5793099850416 1287.7788601368666 1353.8029995560646 1149.5660537332296 2630.9139993041754 536.54916894435883 250.36664766073227 1213.8360744267702 105.56029967963696 494.63646255433559 606.47213314473629 1872.9375629127026 2251.238856613636
leaf_count=5508 4212 10734 2233 2264 9863 8700 4246 1080 1137 9760 963 1937 13733 4446 281 9849 923 6645 5155 5567 4806 10616 2333 1003 4859 451 1992 2451 8540 9406
internal_value=4.94839e-05 0.0184551 0.00482568 -0.0151447 0.018236 -0.0416147 -0.0634853 -0.0280402 -0.0134095 0.0393521 -0.0455404 0.0366923 0.00714376 0.0291905 0.0168366 0.0397722 -0.0598385 0.059847 -0.0606029 0.0015451 -0.00233723 -0.0253809 0.0220198 -0.0545844 -0.0446132 -0.0132815 -0.063366 -0.0793632 0.0545591 0.0062887
internal_weight=36976.6 25646.9 15522.7 6236.06 9286.65 11329.8 1600.46 6606.7 3598.36 10124.2 3008.35 693.979 7332.13 6068.83 2799.96 3268.87 295.181 1954.52 4723.08 4635.6 4478.1 2904.38 2854.03 3352.18 1569.76 355.927 1782.42 846.846 4055.33 3605.04
internal_count=155693 109841 65308 25695 39613 45852 6510 26884 14770 44533 12114 3017 30735 26233 11938 14295 1204 8878 18968 19185 18539 11753 12196 13460 6313 1454 7147 3414 18300 14973
is_linear=0
shrinkage=0.05


Tree=7
num_leaves=31
num_cat=0
split_feature=6 6 38 23 6 41 38 72 23 41 6 6 28 6 41 3 22 3 1 38 28 38 6 38 23 72 3 3 5 28
split_gain=10290.4 2565.77 1581.66 2273.64 1264.53 814.543 602.739 546.649 480.372 320.935 266.325 251.217 247.778 231.886 220.301 208.148 173.663 168.262 163.514 150.049 178.539 145.64 141.423 126.575 416.091 172.741 106.144 101.126 93.4083 82.7339
threshold=-25.841637999999985 276.25944650000014 1.0000000180025095e-35 1.0000000180025095e-35 -146.09361849999991 1.0000000180025095e-35 1.0000000180025095e-35 1.0000000180025095e-35 1.0000000180025095e-35 11.500000000000002 464.06904200000014 125.78023600000007 1.0000000180025095e-35 -284.92417949999998 1.0000000180025095e-35 1500.0011810000003 1.0000000180025095e-35 1509.0948035000004 65.500000000000014 1.0000000180025095e-35 1.0000000180025095e-35 7.5000000000000009 108.9493835000001 1.0000000180025095e-35 1.0000000180025095e-35 1.0000000180025095e-35 1532.0484125 1579.6064850000002 1513.9204785000002 1.0000000180025095e-35
decision_type=2 2 2 2 2 2 2 2 2 2 2 2 2 2 2 2 2 2 2 2 2 2 2 2 2 2 2 2 2 2
left_child=4 2 3 7 13 15 8 9 -6 -2 23 26 17 -1 28 18 -14 -7 -4 20 -15 -16 -17 24 25 -3 -5 -23 -8 -25
right_child=1 10 5 11 6 12 14 -9 -10 -11 -12 -13 16 19 21 22 -18 -19 -20 -21 -22 27 -24 29 -26 -27 -28 -29 -30 -31
leaf_value=-0.06558656968092498 -0.082447624459343199 -0.085671721675008611 0.032046765334301383 0.013090777993009936 -0.078670504469194588 0.040048938696070568 -0.0020632219075858134 0.019872461869338373 -0.028201602171028562 0.030116950454658314 0.058373947238303914 0.016627533296757844 0.071567378317139149 -0.08027439405374065 -0.0093502503710724324 -0.01057532983512862 0.034278217171696546 0.020355752328993521 0.0030377682853015707 -0.034666917509524102 -0.045268729921183276 0.043071386708875302 0.011342062776083456 0.040798663065162763 0.034805227445565939 0.046689477445292074 -0.0083546755485835525 0.0065396935562782562 -0.027555337284880091 0.064932119798398344
leaf_weight=2580.6295081675053 1199.7056615501642 106.67974355816841 1099.9634149074554 726.18691544234753 609.93291768431664 1876.5984066277742 501.48135629296303 166.46107059717178 2077.1643761098385 66.850365340709686 2496.3069863170385 2556.3478452116251 657.0361680239439 522.76096141338348 857.4413675814867 1801.4920572638512 594.97875472903252 2570.2349904328585 869.96332657337189 1613.1035700887442 1201.2501441836357 302.97757771611214 1244.4216729253531 1593.3579504340887 1784.545069038868 32.057185083627701 2808.2402190566063 505.5007109940052 1267.8508893102407 456.97931988537312
leaf_count=10404 4897 439 4743 3024 2488 8330 2063 694 8356 278 11590 10838 3114 2124 3542 7408 2633 11035 3704 6519 4809 1354 5257 7093 7881 140 11551 2137 5111 2137
internal_value=5.33134e-05 0.018523 0.00892654 -0.00864476 -0.0378498 0.021265 -0.021919 -0.0653108 -0.0396573 -0.0765063 0.0455751 0.00468745 0.0341985 -0.0543314 -0.00804382 0.00657037 0.0538469 0.0286664 0.0192357 -0.0456277 -0.0558833 0.00500516 -0.00162088 0.0375346 0.0283208 -0.0550877 -0.00394847 0.02023 -0.0203301 0.0461775
internal_weight=36748.5 24708.4 18238.5 7523.79 12040.1 10714.7 6122.35 1433.02 2687.1 1266.56 6469.93 6090.77 5698.85 5917.74 3435.25 5015.84 1252.01 4446.83 1969.93 3337.11 1724.01 1665.92 3045.91 3973.62 1923.28 138.737 3534.43 808.478 1769.33 2050.34
internal_count=155693 106786 77506 31282 48907 46224 25051 5869 10844 5175 29280 25413 25112 23856 14207 21112 5747 19365 8447 13452 6933 7033 12665 17690 8460 579 14575 3491 7174 9230
is_linear=0
shrinkage=0.05


Tree=8
num_leaves=31
num_cat=0
split_feature=6 6 38 23 6 41 38 72 23 41 6 50 6 50 28 41 6 38 23 22 7 3 38 38 23 72 50 41 28 7
split_gain=9342.61 2233.4 1378.34 2004.7 1354.93 707.966 601.428 495.522 481.725 290.988 255.27 251.478 250.728 249.957 226.201 212.55 199.759 156.795 183.326 151.057 149.513 142.014 136.479 118.605 378.978 156.13 97.9587 85.2746 80.2132 77.5123
threshold=-15.280677999999964 276.25944650000014 1.0000000180025095e-35 1.0000000180025095e-35 -133.10151600000003 1.0000000180025095e-35 1.0000000180025095e-35 1.0000000180025095e-35 1.0000000180025095e-35 11.500000000000002 464.06904200000014 1.0000000180025095e-35 -275.69036499999987 5.5000000000000009 1.0000000180025095e-35 1.0000000180025095e-35 125.78023600000007 1.5000000000000002 1.0000000180025095e-35 1.0000000180025095e-35 66.596223000000023 1509.0948035000004 19.500000000000004 1.0000000180025095e-35 1.0000000180025095e-35 1.0000000180025095e-35 6.5000000000000009 1.5000000000000002 1.0000000180025095e-35 78.092809500000058
decision_type=2 2 2 2 2 2 2 2 2 2 2 2 2 2 2 2 2 2 2 2 2 2 2 2 2 2 2 2 2 2
left_child=4 2 3 7 12 13 8 9 -6 -2 23 -8 -1 -4 21 -13 26 18 -14 -16 -15 -7 -17 24 25 -3 -5 -19 -25 -18
right_child=1 10 5 16 6 14 11 -9 -10 -11 -12 15 17 20 19 22 29 27 -20 -21 -22 -23 -24 28 -26 -27 -28 -29 -30 -31
leaf_value=-0.062138489988307954 -0.079422887976470735 -0.081544544324177834 0.026933377401352123 0.021654516735522312 -0.074414363143431764 0.039117890782486675 0.037597493339851434 0.020259531303026983 -0.024613656976287219 0.029163790992369154 0.056744598765871561 -0.021163834876789037 -0.081226943148849998 -0.0083444642528063724 0.070056122353905168 -0.0053710997325287346 0.0063238421959299603 -0.041833100230947225 -0.043725155464327606 0.034342596351675657 0.012447238238989468 0.020434495392635959 0.026197875406873173 0.03928832775680971 0.033436039206783084 0.044952083904512385 -0.0058490078745813065 -0.019677425395595714 0.063324011627242272 0.023840740748280437
leaf_weight=2716.7331669330597 1122.0767578333616 106.47883471846581 1199.871952444315 364.1188625395298 626.96307897567749 1751.7896439582109 314.98205895721912 160.08160792291164 2153.4730278998613 65.286370486021042 2440.9983519017696 1768.2004312574863 418.43684989213943 2027.6094317287207 620.21622566878796 1190.8546716719866 1159.9934566020966 907.05269482731819 1473.2919143140316 566.54961705207825 1507.5080794543028 2425.1042407602072 480.50330698490143 1572.4195514172316 1765.2393507957458 31.642051741480827 2919.9418658018112 833.27428014576435 445.44848392903805 1386.2421793788671
leaf_count=11016 4629 439 5207 1521 2585 7867 1399 670 8668 273 11590 7161 1725 8419 3027 4973 4907 3633 5910 2537 6359 10470 2098 7093 7881 140 12023 3405 2137 5931
internal_value=5.53076e-05 0.0187249 0.00939836 -0.00735338 -0.0341989 0.0213049 -0.0182169 -0.062319 -0.0358433 -0.0734523 0.0440508 -0.00516372 -0.0506496 0.00721472 0.0337435 -0.00907964 0.00534976 -0.042056 -0.0520203 0.0530069 0.000521906 0.0282703 0.00370475 0.0361488 0.0271952 -0.0525655 -0.00279957 -0.0312249 0.0445943 0.0158605
internal_weight=36522.4 23638.6 17276.4 7177.74 12883.8 10098.6 6534.98 1347.44 2780.44 1187.36 6362.23 3754.54 6348.79 4734.99 5363.66 3439.56 5830.3 3632.06 1891.73 1186.77 3535.12 4176.89 1671.36 3921.23 1903.36 138.121 3284.06 1740.33 2017.87 2546.24
internal_count=155693 103120 73840 29954 52573 43886 26884 5572 11253 4902 29280 15631 25689 19985 23901 14232 24382 14673 7635 5564 14778 18337 7071 17690 8460 579 13544 7038 9230 10838
is_linear=0
shrinkage=0.05


Tree=9
num_leaves=31
num_cat=0
split_feature=6 6 38 37 37 6 23 6 50 38 37 22 37 22 38 23 37 37 6 6 1 50 6 37 22 38 38 6 41 57
split_gain=8491.57 2566.15 1347.14 1664.82 1658.47 662.277 626.31 525.651 483.91 370.763 573.445 454.003 384.755 287.099 260.004 580.799 350.08 246.061 188.392 147.025 144.637 138.347 144.165 98.7379 416.511 140.121 133.168 86.1297 80.0413 76.5875
threshold=-54.091224000000004 185.98768699999997 1.0000000180025095e-35 1.0000000180025095e-35 1.5000000000000002 -185.34429799999995 1.0000000180025095e-35 371.71951300000006 5.5000000000000009 1.0000000180025095e-35 1.0000000180025095e-35 1.0000000180025095e-35 2.5000000000000004 1.0000000180025095e-35 1.0000000180025095e-35 1.0000000180025095e-35 1.5000000000000002 1.0000000180025095e-35 21.209090500000006 -386.49679899999995 83.500000000000014 3.5000000000000004 44.704791000000007 1.0000000180025095e-35 1.0000000180025095e-35 1.0000000180025095e-35 1.0000000180025095e-35 635.66681400000016 3.5000000000000004 1.0000000180025095e-35
decision_type=2 2 2 2 2 2 2 2 2 2 2 2 2 2 2 2 2 2 2 2 2 2 2 2 2 2 2 2 2 2
left_child=5 2 4 13 21 19 -6 14 20 12 11 -11 -7 29 15 17 -16 -3 -10 -1 -5 -2 -23 24 25 -21 -25 28 -9 -4
right_child=1 7 3 8 6 9 -8 27 18 10 -12 -13 -14 -15 16 -17 -18 -19 -20 23 -22 22 -24 26 -26 -27 -28 -29 -30 -31
leaf_value=-0.066784831584112581 0.03116349925172501 0.032772838386817431 0.069137086433119624 0.034365837961242145 -0.079339112531628175 -0.029045611583658922 -0.015445176876691297 0.036532768273015138 -0.015417084722366867 0.069810032232788977 -0.025634129834583685 -0.022478434403707025 -0.072811559566874448 0.024425780770170595 0.061933111051479244 0.022647255238454247 0.025209137315245607 -0.077737689296797502 0.003577220627666737 -0.045783346883996982 0.0067259560693204018 -0.012095369037170629 0.0056772271959953761 -0.077943163083383782 -0.046071135438571983 0.072741437001523121 -0.046795751057084924 0.062499906387891546 0.053369965174730173 -0.0025169883546092408
leaf_weight=1339.7220749258995 336.67369641363621 65.214048430323601 1412.2289089858532 1387.9824785739183 1102.0075345486403 1821.5967526137829 588.284886687994 1340.34858751297 2010.649301469326 318.57654097676277 2338.3759675472975 229.08997203409672 693.29506450891495 536.16742464900017 913.05205307900906 2453.35540625453 2243.49557967484 221.29628668725491 3721.9501881301403 32.664696410298347 718.23418311774731 2014.5621844381094 2631.4677416086197 479.36449980735779 1495.36255197227 105.38857482373714 1207.7258860170841 995.1466453820467 1491.089257851243 38.303500175476074
leaf_count=5508 1409 281 6919 6133 4617 7299 2420 6328 8246 1477 9414 929 2877 2384 4446 10734 9849 923 15606 132 3089 8197 10990 1992 6026 451 4859 4880 7092 186
internal_value=5.66678e-05 0.01504 0.00303235 0.0148067 -0.0143045 -0.0389932 -0.0571016 0.0354153 0.0044453 -0.027077 -0.014848 0.0312056 -0.0411108 0.055689 0.0260499 0.0147803 0.0358318 -0.0525838 -0.00308483 -0.0528032 0.0249405 0.000213639 -0.00202914 -0.0471621 -0.0383996 0.0446974 -0.0556459 0.0498467 0.0453996 0.067245
internal_weight=36282.7 26221.5 16498.5 9825.52 6673 10061.2 1690.29 9723 7838.82 5400.93 2886.04 547.667 2514.89 1986.7 5896.41 2739.87 3156.55 286.51 5732.6 4660.23 2106.22 4982.7 4646.03 3320.51 1633.42 138.053 1687.09 3826.58 2831.44 1450.53
internal_count=155693 114729 70196 42563 27633 40964 7037 44533 33074 21996 11820 2406 10176 9489 26233 11938 14295 1204 23852 18968 9222 20596 19187 13460 6609 583 6851 18300 13420 7105
is_linear=0
shrinkage=0.05


Tree=10
num_leaves=31
num_cat=0
split_feature=6 6 6 38 23 41 40 72 41 41 6 41 38 28 6 50 7 38 28 40 48 22 7 41 6 41 38 22 23 42
split_gain=7747.55 1853.6 1242.06 1114.38 1672.1 603.324 580.503 429.677 251.995 250.725 223.265 213.379 208.445 207.283 204.233 202.471 166.807 165.021 185.472 149.963 135.057 134.968 132.509 89.6004 88.8655 87.4011 86.1359 83.5463 74.27 67.9714
threshold=-8.3628675000001049 289.72007300000013 -133.10151600000003 1.0000000180025095e-35 1.0000000180025095e-35 1.0000000180025095e-35 1.0000000180025095e-35 1.0000000180025095e-35 11.500000000000002 1.5000000000000002 -353.27202800000003 1.0000000180025095e-35 1.0000000180025095e-35 1.0000000180025095e-35 464.06904200000014 4.5000000000000009 1.0000000180025095e-35 1.5000000000000002 1.0000000180025095e-35 2.5000000000000004 0.59677757087683581 1.0000000180025095e-35 15.135478499999978 1.5000000000000002 123.2467855 3.5000000000000004 14.500000000000002 1.0000000180025095e-35 1.0000000180025095e-35 3.5000000000000004
decision_type=2 2 2 2 2 2 2 2 2 2 2 2 2 2 2 2 2 2 2 2 2 2 2 2 2 2 2 2 2 2
left_child=2 3 10 4 7 15 11 8 -2 12 -1 26 28 20 25 -5 -6 18 -12 -11 -7 -15 -17 -19 -18 -3 -4 -25 -8 -27
right_child=1 14 6 5 16 13 9 -9 -10 19 17 -13 -14 21 -16 22 24 23 -20 -21 -22 -23 -24 27 -26 29 -28 -29 -30 -31
leaf_value=-0.06230740418923867 -0.073935382502922239 0.02653262828115396 0.025402763816785315 0.026812847609101461 -0.0066087840078568509 0.011973011094022264 -0.077624175417761121 0.020683924165342801 0.028420072370610595 -0.0064707825102587845 -0.070829200092859104 0.029111695715703292 -0.027069104531230095 0.067474845091620259 0.053810032883248121 -0.010957419988098183 0.0037857732257327741 -0.040545666143331209 -0.040713072832263969 -0.026730346195610141 0.032476568023394756 0.033208691399086158 0.0089941968847532961 -0.0093135245800710278 0.018749921171957572 0.052383398756789636 -0.011306600714216679 -0.038030736612597454 -0.03877914969048981 0.032533156639740823
leaf_weight=1621.6038711518049 1059.0422137528658 1690.1357134580612 190.78816136717796 1035.8847822844982 1845.9351850450039 1108.1991031467915 392.30114082992077 155.00472709536552 63.75237438082695 1688.2870376259089 731.25845287740231 727.75061479210854 929.5240825265646 593.96980436146259 2331.4209709465504 1309.4624610692263 1904.9348764121532 1160.5757048875093 1699.1036718040705 1990.0937788486481 2917.8082261532545 556.71322467923164 2283.3181223720312 652.03601264953613 2070.4832205623388 868.85901595652103 983.76903431117535 414.12908716499805 179.28543028235435 856.25589829683304
leaf_count=6732 4503 7778 827 4571 7632 4846 1677 654 269 6972 3076 3297 3747 3083 11590 5420 7904 4670 6849 8092 13157 2561 9674 2697 8952 4139 3994 1665 722 3943
internal_value=5.86814e-05 0.01787 -0.0301384 0.00953053 -0.00555687 0.0204539 -0.0157837 -0.0573507 -0.0681236 -0.0244592 -0.0463291 0.00783759 -0.0416798 0.0321817 0.0424016 0.0073376 0.00581199 -0.0407654 -0.0497746 -0.0174317 0.0268328 0.0508965 0.00172242 -0.0309325 0.0115794 0.0346136 -0.00534375 -0.0204681 -0.0654399 0.0425308
internal_weight=36011.7 22651.2 13360.5 16904.5 7099.15 9805.36 7081.8 1277.8 1122.79 5179.49 6278.71 1902.31 1501.11 5176.69 5746.67 4628.67 5821.35 4657.1 2430.36 3678.38 4026.01 1150.68 3592.78 2226.74 3975.42 3415.25 1174.56 1066.17 571.587 1725.11
internal_count=155693 100676 55017 73226 29914 43312 29328 5426 4772 21210 25689 8118 6146 23647 27450 19665 24488 18957 9925 15064 18003 5644 15094 9032 16856 15860 4821 4362 2399 8082
is_linear=0
shrinkage=0.05


Tree=11
num_leaves=31
num_cat=0
split_feature=7 37 29 7 42 9 37 22 30 40 72 9 37 22 40 7 37 22 72 17 40 50 37 22 42 50 0 23 29 72
split_gain=4884.74 1014.96 1141.88 937.354 693.436 500.805 482.349 918.473 416.322 398.558 380.659 238.397 199.642 247.772 196.694 170.213 157.1 576.939 190.792 153.732 150.372 135.806 116.085 122.948 109.254 108.964 107.814 103.928 191.723 103.294
threshold=-6.1798605000000171 6.5000000000000009 1.0000000180025095e-35 -114.07719400000006 1.0000000180025095e-35 0.58571428571428574 1.5000000000000002 1.0000000180025095e-35 1.5000000000000002 1.0000000180025095e-35 1.0000000180025095e-35 0.5277777777777779 1.0000000180025095e-35 1.0000000180025095e-35 3.5000000000000004 223.3813999999999 1.0000000180025095e-35 1.0000000180025095e-35 1.0000000180025095e-35 1.0000000180025095e-35 1.5000000000000002 4.5000000000000009 1.0000000180025095e-35 1.0000000180025095e-35 4.5000000000000009 1.5000000000000002 54.500000000000007 1.0000000180025095e-35 1.0000000180025095e-35 1.0000000180025095e-35
decision_type=2 2 2 2 2 2 2 2 2 2 2 2 2 2 2 2 2 2 2 2 2 2 2 2 2 2 2 2 2 2
left_child=3 2 12 14 11 27 7 10 20 25 -5 21 13 29 16 -7 17 18 -1 -10 -4 -3 23 -16 -11 -8 -22 28 -6 -2
right_child=1 4 8 6 5 15 9 -9 19 24 -12 -13 -14 -15 22 -17 -18 -19 -20 -21 26 -23 -24 -25 -26 -27 -28 -29 -30 -31
leaf_value=0.070446860107428955 0.065918109886868179 0.024458220733826322 0.019860106612774445 0.062609147718555316 -0.026269731690384924 -0.0022767892753210632 0.022503507488814786 -0.012251557957701546 0.040413766342150104 -0.027520282755957828 -0.012158063618213909 0.028522003244227968 0.027605023938806064 0.03429190292900456 0.02915410761210795 0.02968760187176897 -0.039005666587476708 -0.031384236319533028 -0.047132666407948436 0.011977677138017027 0.0045011423441392992 0.0019270306364612706 -0.063070111671187951 -0.043111763550999493 -0.048703332351270126 -0.0097999145446716236 -0.015796115787958209 -0.0077508583683006255 -0.077951224898918689 0.017501654322492382
leaf_weight=209.97746862471104 1877.4905637800694 885.51510769128799 1210.5209304094315 708.81957717239857 1672.9566470086575 1279.8226064443588 319.08925786614418 2956.6134740710258 1464.0425274372101 1889.1457156091928 224.0458265542984 2131.0882507562637 1102.2228903323412 1195.7335169911385 61.626481875777245 617.40302920341492 2210.7870873957872 1350.8164782375097 41.285037934780121 703.77696524560452 2602.2249332666397 2732.5899905562401 887.83286918699741 1309.4944636523724 898.05490690469742 1435.2479655742645 873.97472237050533 590.01901836693287 201.01214861869812 117.0276503264904
leaf_count=993 9584 3945 5213 3467 7105 5655 1398 12253 6919 7850 959 9701 4956 5599 268 2921 9118 5562 173 3072 11143 11544 3707 5391 3759 5926 3613 2491 874 534
internal_value=5.87528e-05 0.0153225 0.0257276 -0.022314 0.00385066 -0.0111838 -0.0115266 0.00139646 0.0130637 -0.0225943 0.0446523 0.0152555 0.0459501 0.0522883 -0.0372927 0.0081252 -0.0303659 -0.0184435 0.0511273 0.0311821 0.00468316 0.00744144 -0.0489845 -0.0398637 -0.0343456 -0.00392438 -0.000601928 -0.0260514 -0.0318134 0.0630773
internal_weight=35760.3 21257.4 11147 14502.8 10110.4 4361.21 8431.02 3889.48 6854.54 4541.54 932.865 5749.19 4292.47 3190.25 6071.82 1897.23 3812.87 1602.08 251.263 2167.82 4686.72 3618.11 2258.95 1371.12 2787.2 1754.34 3476.2 2463.99 1873.97 1994.52
internal_count=155693 94869 50633 60824 44236 19046 35612 16679 29960 18933 4426 25190 20673 15717 25212 8576 15846 6728 1166 9991 19969 15489 9366 5659 11609 7324 14756 10470 7979 10118
is_linear=0
shrinkage=0.05


Tree=12
num_leaves=31
num_cat=0
split_feature=6 6 6 37 29 42 40 37 37 22 72 6 37 22 39 50 6 6 6 37 22 22 57 50 29 37 22 72 49 6
split_gain=6670.27 1596.33 1180.31 894 1051.44 632.421 528.954 377.443 368.122 284.051 234.891 206.706 174.601 167.277 166.651 152.711 138.5 135.971 131.459 112.161 441.848 110.003 105.862 98.7494 87.1265 84.2031 82.4359 81.9869 72.8438 72.6104
threshold=-1.4274084999999557 318.878041 -133.10151600000003 6.5000000000000009 1.0000000180025095e-35 1.0000000180025095e-35 1.0000000180025095e-35 2.5000000000000004 1.0000000180025095e-35 1.0000000180025095e-35 1.0000000180025095e-35 -258.13599649999998 1.0000000180025095e-35 1.0000000180025095e-35 2.5000000000000004 4.5000000000000009 143.76064750000003 526.24950000000013 113.44787950000001 1.0000000180025095e-35 1.0000000180025095e-35 1.0000000180025095e-35 1.0000000180025095e-35 9.5000000000000018 1.0000000180025095e-35 4.5000000000000009 1.0000000180025095e-35 1.0000000180025095e-35 87.500000000000014 -517.16171500000019
decision_type=2 2 2 2 2 2 2 2 2 2 2 2 2 2 2 2 2 2 2 2 2 2 2 2 2 2 2 2 2 2
left_child=2 3 11 4 12 15 8 9 21 10 -8 29 13 -2 22 -5 28 25 -17 20 27 -4 -7 -10 -9 26 -3 -13 -6 -1
right_child=1 17 6 5 16 14 7 24 23 -11 -12 19 -14 -15 -16 18 -18 -19 -20 -21 -22 -23 -24 -25 -26 -27 -28 -29 -30 -31
leaf_value=-0.06888788650287235 0.060227460049337982 0.065191608385690686 0.062406835687320174 0.026350913989300534 0.01230992774294311 -0.027039317920611067 0.050909672942846908 -0.031880452154121629 0.013178179796640342 -0.017161096120249224 -0.016399527735861251 0.06603259127282525 0.025690493905051862 0.031405799312796905 -0.00061242317585128499 -0.0040107245949027297 0.016879093373453596 0.054439805775793215 0.014678457385818562 -0.043354866554524668 -0.034135781468504829 0.0028913316246885561 0.017646003968738482 -0.012414196727563774 -0.055946312469288322 0.027507774695078004 0.038460663485834753 -0.038098960350418265 -0.0047129738669848134 -0.049056526906222163
leaf_weight=574.40030644834042 1591.2671126127243 362.85470852255821 333.45990633964539 1126.0832084864378 905.65462842583656 2362.6887689232826 312.7027480751276 2054.007158651948 588.47507852315903 2499.7481094747782 221.37634429335594 143.76217387616634 951.85475422441959 736.40286819636822 1026.8564891368151 1875.8590021133423 2288.0618455260992 1641.6993031799793 1887.8197300732136 1742.7118375152349 1372.4726571142673 101.20266935229301 140.41800959408283 1048.4924094676971 460.38150541484356 1392.7566946446896 1406.0287722200155 21.764189153909683 2053.1242885440588 2349.6768193542957
leaf_count=2448 8338 1899 1736 5076 3779 10070 1461 8417 2541 10090 918 657 4282 3425 4404 7804 9992 8540 8204 7165 5537 432 593 4241 1936 6588 6763 90 8475 9792
internal_value=6.09291e-05 0.0173224 -0.0270955 0.0101106 0.0215228 -0.00144619 -0.013912 -0.0219618 0.00764694 -0.0100893 0.0230099 -0.0432856 0.0437316 0.0511092 -0.0175743 0.0101968 0.00764129 0.0427655 0.00536356 -0.0346698 -0.0248288 0.0485498 -0.0245326 -0.00321397 -0.0362869 0.0367036 0.043944 0.0523409 0.000497578 -0.0529522
internal_weight=35574.1 21749.4 13824.6 16946.1 8526.37 8419.73 7619.85 5548.22 2071.63 3033.83 534.079 6204.79 3279.52 2327.67 3529.96 4889.76 5246.84 4803.34 3763.68 3280.71 1538 434.663 2503.11 1636.97 2514.39 3161.64 1768.88 165.526 2958.78 2924.08
internal_count=155693 98232 57461 74442 38291 36151 31772 22822 8950 12469 2379 25689 16045 11763 15067 21084 22246 23790 16008 13449 6284 2168 10663 6782 10353 15250 8662 747 12254 12240
is_linear=0
shrinkage=0.05


Tree=13
num_leaves=31
num_cat=0
split_feature=6 6 38 37 37 23 6 6 50 38 37 22 37 22 38 23 37 37 1 6 50 72 6 6 41 6 5 49 72 29
split_gain=6080.5 1973.59 986.595 1286.89 1281.14 530.511 512.69 448.388 356.23 334.382 468.765 548.529 405.056 266.869 229.122 514.054 311.08 208.796 135.026 131.003 116.496 102.439 101.59 83.4346 74.0772 73.7782 64.187 63.5315 61.9716 60.2807
threshold=-54.091224000000004 179.69791200000012 1.0000000180025095e-35 1.5000000000000002 1.0000000180025095e-35 1.0000000180025095e-35 -250.59916250000001 371.71951300000006 5.5000000000000009 1.0000000180025095e-35 1.0000000180025095e-35 1.0000000180025095e-35 1.5000000000000002 1.0000000180025095e-35 1.0000000180025095e-35 1.0000000180025095e-35 1.0000000180025095e-35 1.0000000180025095e-35 83.500000000000014 42.923884000000051 3.5000000000000004 1.0000000180025095e-35 44.704791000000007 635.66681400000016 3.5000000000000004 -517.16171500000019 1522.2257090000001 131.50000000000003 1.0000000180025095e-35 1.5000000000000002
decision_type=2 2 2 2 2 2 2 2 2 2 2 2 2 2 2 2 2 2 2 2 2 2 2 2 2 2 2 2 2 2
left_child=6 2 3 20 13 28 25 14 18 12 11 -11 -8 21 15 17 -16 -3 -6 -10 -2 -4 -22 24 -9 -1 -12 -18 -5 -7
right_child=1 7 4 5 8 29 9 23 19 10 26 -13 -14 -15 16 -17 27 -19 -20 -21 22 -23 -24 -25 -26 -27 -28 -29 -30 -31
leaf_value=-0.066666783788191436 0.028661485758550945 0.028983611770412809 0.06542311667607674 -0.075447472529805104 0.030832244321782359 -0.0093166232162140566 -0.026536675562391688 0.031820817352527321 -0.011066134102883955 0.065835458369462724 -0.0092125927834318042 -0.024214007115591574 -0.066327298795193071 0.019984186711924368 0.058514963854142225 0.019510202582240965 0.036300023781356938 -0.07279298050671483 0.0036758340509072925 0.004231688997883132 -0.010481122269562458 -0.014773946296144484 0.004558814226539031 0.058132788095762028 0.048557782904474205 -0.046630127031500643 -0.027638379672138391 0.017726847855762364 -0.0065137173755745598 -0.079090628986119529
leaf_weight=564.12137269973755 329.70947104692459 64.601729959249496 1236.5988422632217 994.31518198549747 1339.656351774931 544.28312936425209 2367.1459582597017 1267.3447839617729 2607.9702064543962 350.07390001416206 594.40085265040398 327.15429250895977 876.3611136674881 507.53613989055157 811.10402950644493 2505.5854489207268 625.85591870546341 229.10827678442001 695.30750903487206 3020.0678673237562 2019.1009276658297 41.143831059336662 2529.2841396927834 905.44711366295815 1382.0439407080412 2475.5560264736414 2307.4083482027054 1741.8443206995726 33.709207490086555 32.821699514985085
leaf_count=2448 1400 287 6759 4410 6102 2225 9529 6328 10691 1738 2411 1322 3831 2333 4380 11182 2823 994 3044 12730 8197 207 10607 4880 7092 10404 9281 7789 136 133
internal_value=6.31449e-05 0.0129726 0.00220509 -0.0128157 0.012512 -0.05165 -0.0332694 0.0309674 0.00362525 -0.02566 -0.0151223 0.0223345 -0.0372877 0.0506571 0.0226054 0.0121743 0.0317911 -0.0504071 0.0215534 -0.00285715 -3.72981e-05 0.0628407 -0.00211765 0.0450297 0.0405516 -0.0503486 -0.0238641 0.0226363 -0.0731871 -0.0132849
internal_weight=35326.7 25464.4 15931.5 6483.22 9448.28 1605.13 9862.22 9532.94 7663 6822.54 3579.04 677.228 3243.51 1785.28 5978.1 2799.3 3178.8 293.71 2034.96 5628.04 4878.09 1277.74 4548.39 3554.84 2649.39 3039.68 2901.81 2367.7 1028.02 577.105
internal_count=155693 114729 68974 27108 41866 6904 40964 45755 32567 28112 14752 3060 13360 9299 27455 12463 14992 1281 9146 23421 20204 6966 18804 18300 13420 12852 11692 10612 4546 2358
is_linear=0
shrinkage=0.05


Tree=14
num_leaves=31
num_cat=0
split_feature=6 6 6 38 23 37 37 38 37 37 22 50 6 6 6 50 22 72 38 37 22 37 23 6 49 72 37 38 23 22
split_gain=5543.48 1389.68 1003.63 801.668 1329.86 1100.85 508.211 486.861 688.791 501.715 379.269 196.701 183.14 167.361 162.663 143.699 139.992 176.266 127.474 168.605 370.656 168.389 121.958 111.582 91.0206 85.9612 82.1344 112.335 281.134 109.865
threshold=-1.4274084999999557 289.72007300000013 -146.09361849999991 1.0000000180025095e-35 1.0000000180025095e-35 1.5000000000000002 1.0000000180025095e-35 1.0000000180025095e-35 1.0000000180025095e-35 1.5000000000000002 1.0000000180025095e-35 9.5000000000000018 464.06904200000014 -353.27202800000003 111.09324550000021 2.5000000000000004 1.0000000180025095e-35 1.0000000180025095e-35 1.0000000180025095e-35 1.0000000180025095e-35 1.0000000180025095e-35 1.0000000180025095e-35 1.0000000180025095e-35 160.04620850000006 87.500000000000014 1.0000000180025095e-35 4.5000000000000009 1.0000000180025095e-35 1.0000000180025095e-35 1.0000000180025095e-35
decision_type=2 2 2 2 2 2 2 2 2 2 2 2 2 2 2 2 2 2 2 2 2 2 2 2 2 2 2 2 2 2
left_child=2 3 13 4 6 16 -2 9 10 -4 -9 -7 26 -1 -13 -10 17 -5 21 20 -20 -15 -11 24 -6 -8 29 28 -28 -3
right_child=1 12 7 5 23 11 25 8 15 22 -12 14 -14 18 -16 -17 -18 -19 19 -21 -22 -23 -24 -25 -26 -27 27 -29 -30 -31
leaf_value=-0.054964950007789261 0.009423519337194021 0.06229528329726837 -0.016313537152783858 0.064056959887470413 0.012527309731532127 0.02156955967303649 -0.073583607618780397 0.062325652508587973 0.012695208886991424 -0.072505381302847935 -0.0095068831111186011 -0.0062772912877928346 0.049274228777763072 -0.035754958389028681 0.011927953822154266 -0.01573334944234835 0.032570026610792939 0.0099062375919793597 0.067280362215791131 -0.034164599513116796 -0.031669762701565719 -0.06776229387701381 -0.03270012490187129 0.015105647365645791 -0.0047780821974704023 0.01059304072084219 -0.08358143792846788 0.029509759278729883 0.021651469685306172 0.031407594243655662
leaf_weight=1543.9078730642796 253.33239707350731 361.04820567369461 2498.6752583533525 1253.1179692000151 1081.9099010378122 1929.876715824008 876.27482390403748 552.87810544669628 514.20023077726364 611.82170693576336 275.23631979525089 2480.4018662720919 2139.6010914891958 1551.9884157329798 2428.0618882775307 3279.8320944458246 923.78737074136734 170.75783760845661 141.90994127094746 1574.9884123802185 284.12864299118519 558.8940137475729 280.72039245069027 1988.6215787082911 2552.3812670558691 31.416439220309258 82.596628740429878 1117.4464528858662 274.04098741710186 1420.8059130162001
leaf_count=6732 1084 2003 10049 7146 4532 8688 3971 2969 2260 2785 1149 10265 11590 6365 10521 13252 4370 796 661 6430 1155 2513 1141 8730 10553 126 350 5327 1287 6893
internal_value=6.38258e-05 0.0159722 -0.0248017 0.00856023 -0.00447558 0.0181873 -0.0531939 -0.0134195 -0.00286296 -0.0278078 0.038451 0.00804555 0.0379106 -0.0409284 0.00272827 -0.0118805 0.0477284 0.057563 -0.035658 -0.026616 0.00128971 -0.0442295 -0.0599859 0.00558382 0.000373645 -0.0706701 0.0304432 0.0217121 -0.00272028 0.0376662
internal_weight=35034.7 21365.5 13669.2 15969.9 6783.94 9186 1161.02 8013.36 4622.15 3391.22 828.114 6838.34 5395.54 5655.82 4908.46 3794.03 2347.66 1423.88 4111.91 2001.03 426.039 2110.88 892.542 5622.91 3634.29 907.691 3255.94 1474.08 356.638 1781.85
internal_count=155693 98232 57461 70782 28996 41786 5181 33605 19630 13975 4118 29474 27450 23856 20786 15512 12312 7942 17124 8246 1816 8878 3926 23815 15085 4097 15860 6964 1637 8896
is_linear=0
shrinkage=0.05


Tree=15
num_leaves=31
num_cat=0
split_feature=6 6 38 37 23 37 6 6 38 37 22 37 22 3 1 38 23 37 37 7 7 72 6 3 72 23 7 49 40 7
split_gain=5061.94 1681.38 819.819 1136.66 1131.52 453.708 446.082 391.237 279.406 385.73 476.4 365.389 256.937 238.635 206.87 198.686 484.741 301.013 210.633 114.482 97.0436 96.7856 70.4696 65.4719 59.6811 59.4931 59.2843 56.6884 56.3489 53.9688
threshold=-54.091224000000004 185.98768699999997 1.0000000180025095e-35 1.0000000180025095e-35 1.0000000180025095e-35 1.0000000180025095e-35 -250.59916250000001 426.19780500000007 1.0000000180025095e-35 1.0000000180025095e-35 1.0000000180025095e-35 1.5000000000000002 1.0000000180025095e-35 1500.0011810000003 65.500000000000014 1.0000000180025095e-35 1.0000000180025095e-35 2.5000000000000004 1.0000000180025095e-35 2.3607554999999825 -4.8633589999999449 1.0000000180025095e-35 -517.16171500000019 1532.0484125 1.0000000180025095e-35 1.0000000180025095e-35 -87.472148999999931 139.50000000000003 3.5000000000000004 86.710262999999955
decision_type=2 2 2 2 2 2 2 2 2 2 2 2 2 2 2 2 2 2 2 2 2 2 2 2 2 2 2 2 2 2
left_child=6 2 4 12 5 -2 22 15 11 10 -10 -8 21 14 -5 16 18 -17 -3 -6 -15 -4 -1 -21 -7 -13 -11 -19 -24 -18
right_child=1 7 3 13 19 24 8 -9 9 26 -12 25 -14 20 -16 17 29 27 -20 23 -22 -23 28 -25 -26 -27 -28 -29 -30 -31
leaf_value=-0.062993104679543208 0.0028181623057836735 0.027922018625816471 0.063452269170202524 0.025821264122736855 -0.0099109246162619544 -0.071731439622769025 -0.024086023820093255 0.045797656777341711 0.063172329795845319 -0.03028551914740368 -0.021980361551913651 -0.071261237996009683 0.018521885466752441 -0.011478821896518755 -0.0018522725193490367 0.05487144362677502 0.011196301438950691 0.034510190455137653 -0.07137917317495672 0.018858701235961124 0.0027687443508772626 -0.014127291446286307 -0.036663389775646697 0.001218146326110142 -0.0051000794019121715 -0.042362616463448813 -0.015724081472625131 0.017125277566461952 -0.052145307013810843 0.02553502037286742
leaf_weight=543.52827474474907 278.21688394248486 70.178838983178139 1176.4296466708183 1730.6631203889847 2180.7784867733717 961.19641096889973 2358.5318794548512 2560.882618278265 329.9319107234478 1179.4225341081619 327.09521640837193 585.27036498486996 509.72278299927711 2053.9624930769205 1107.4541338980198 951.84976559877396 1075.8563502281904 635.71766923367977 223.38344796001911 671.67441876232624 2858.4076284021139 41.625264227390289 1419.8253697454929 2424.8852562755346 34.823719307780266 255.99302972853184 1715.9621862322092 1787.0499166846275 1002.852439686656 1682.5276577919722
leaf_count=2448 1173 320 6894 7882 8877 4486 9529 14030 1738 4772 1322 2743 2384 8390 4828 5361 4862 2936 1003 2857 11974 211 6070 10099 141 1088 6920 8199 4334 7822
internal_value=6.39532e-05 0.0119604 0.00225452 0.0116555 -0.011346 -0.0536333 -0.0305601 0.0292717 -0.0234601 -0.0138071 0.0207798 -0.034177 0.048328 0.00348026 0.0150228 0.0226864 0.0134418 0.031047 -0.0476403 -0.00113556 -0.00318845 0.0608011 -0.0467224 0.00504456 -0.0694018 -0.0624675 -0.0216556 0.021687 -0.043072 0.0199425
internal_weight=34735.7 25017.3 16029.8 9478.27 6551.58 1274.24 9718.41 8987.45 6752.21 3552.41 657.027 3199.8 1727.78 7750.49 2838.12 6426.56 3051.95 3374.62 293.562 5277.34 4912.37 1218.05 2966.21 3096.56 996.02 841.263 2895.38 2422.77 2422.68 2758.38
internal_count=155693 114729 70196 42563 27633 5800 40964 44533 28112 14752 3060 13360 9489 33074 12710 30503 14007 16496 1323 21833 20364 7105 12852 12956 4627 3831 11692 11135 10404 12684
is_linear=0
shrinkage=0.05


Tree=16
num_leaves=31
num_cat=0
split_feature=6 6 6 38 23 37 37 38 37 37 22 6 50 50 38 37 37 22 6 22 6 23 72 43 49 72 37 38 23 38
split_gain=4654.31 1093.99 1023.43 627.92 1091.44 940.83 435.479 431.046 623.063 483.252 257.936 205.708 172.754 161.158 132.7 201.78 175.548 351.983 124.621 122.386 121.83 119.629 104.759 98.7603 87.0669 83.534 72.7328 96.7382 267.784 84.3502
threshold=14.754820500000053 318.878041 -110.28116200000009 1.0000000180025095e-35 1.0000000180025095e-35 1.5000000000000002 1.0000000180025095e-35 1.0000000180025095e-35 1.0000000180025095e-35 1.5000000000000002 1.0000000180025095e-35 -284.92417949999998 2.5000000000000004 9.5000000000000018 1.5000000000000002 1.5000000000000002 1.0000000180025095e-35 1.0000000180025095e-35 526.24950000000013 1.0000000180025095e-35 111.09324550000021 1.0000000180025095e-35 1.0000000180025095e-35 0.057236571597390255 101.50000000000001 1.0000000180025095e-35 5.5000000000000009 1.0000000180025095e-35 1.0000000180025095e-35 1.0000000180025095e-35
decision_type=2 2 2 2 2 2 2 2 2 2 2 2 2 2 2 2 2 2 2 2 2 2 2 2 2 2 2 2 2 2
left_child=2 3 11 4 6 19 -2 9 10 -4 -9 -1 -10 -7 15 -13 17 -16 26 22 -15 -11 -5 -6 -25 -8 29 28 -28 -3
right_child=1 18 7 5 23 13 25 8 12 21 -12 14 -14 20 16 -17 -18 -19 -20 -21 -22 -23 -24 24 -26 -27 27 -29 -30 -31
leaf_value=-0.047091208151127911 0.011273843103133724 0.031589538775492962 -0.011675883430380224 0.0623773957910757 -0.0026004733163473496 0.022770581675076253 -0.070289660892157699 0.059462767918191897 0.013684272091055147 -0.069005525510546534 -0.0010535730350816979 -0.028515673670578386 -0.012520164653511981 -0.0045173080276300114 0.062785384264868349 -0.062343936500985853 -0.027193389305987775 -0.027978312536363899 0.049821589338186666 0.032938544187509342 0.011628431169666498 -0.028466630554658076 0.015124297468754697 0.023259201226438306 0.0065420561002781791 0.013596542214177108 -0.09101173809384179 0.031048748369244813 0.022357788630904693 0.056152270728016498
leaf_weight=2350.5547169148922 229.13443969190121 1153.3120534718037 2424.4292741715908 1134.1566475778818 1835.5150286406279 1612.1917027235031 759.55161884427071 559.1809349656105 778.73274387419224 561.42648500204086 257.00595428049564 1705.6971687972546 3270.0866297632456 2099.6392751336098 176.59942261874676 594.44360288977623 1765.0854196548462 270.31763806939125 1480.185295149684 847.71478806436062 2634.1880291551352 269.26406724750996 130.82198056578636 1115.6260186284781 2580.3607721179724 30.883854955434799 65.178979679942131 988.82394205033779 259.32701815664768 501.50621818006039
leaf_count=10404 991 5828 9787 6942 7833 7358 3626 3257 3518 2694 1107 6974 13298 8697 915 2785 7182 1095 8540 4147 11565 1097 617 4775 11115 124 284 4960 1284 2894
internal_value=6.38135e-05 0.0161928 -0.0208828 0.00973864 -0.00188202 0.0187386 -0.0494184 -0.00886931 0.000553759 -0.0229527 0.040407 -0.0350975 -0.00748011 0.0091171 -0.0288495 -0.0372582 -0.0201057 0.00788699 0.0379707 0.0476391 0.00446716 -0.0558651 0.0574906 0.00687991 0.0115881 -0.0670121 0.0320607 0.0232749 -0.000413162 0.0390335
internal_weight=34440.9 19458.1 14982.8 15009.8 6551.07 8458.71 1019.57 8120.13 4865.01 3255.12 816.187 6862.7 4048.82 6346.02 4512.14 2300.14 2212 446.917 4448.33 2112.69 4733.83 830.691 1264.98 5531.5 3695.99 790.435 2968.15 1313.33 324.506 1654.82
internal_count=155693 91580 64113 67790 28464 39326 4741 34758 21180 13578 4364 29355 16816 27620 18951 9759 9192 2010 23790 11706 20262 3791 7559 23723 15890 3750 15250 6528 1568 8722
is_linear=0
shrinkage=0.05


Tree=17
num_leaves=31
num_cat=0
split_feature=6 6 6 38 23 37 38 37 37 37 22 50 6 7 23 38 37 37 22 6 22 7 1 57 40 43 50 41 57 50
split_gain=4240.25 1000.85 968.642 550.902 987.745 891.357 454.912 598.409 517.865 406.631 337.089 191.069 163.511 151.721 125.274 123.643 184.532 162.643 355.869 121.178 114.115 94.9447 90.2639 87.0781 83.1659 80.6424 76.9909 74.242 73.1261 62.5042
threshold=17.654286999999957 318.878041 -133.10151600000003 1.0000000180025095e-35 1.0000000180025095e-35 1.5000000000000002 1.0000000180025095e-35 1.0000000180025095e-35 1.5000000000000002 1.0000000180025095e-35 1.0000000180025095e-35 5.5000000000000009 -386.49679899999995 26.436688500000063 1.0000000180025095e-35 1.0000000180025095e-35 1.0000000180025095e-35 1.0000000180025095e-35 1.0000000180025095e-35 526.24950000000013 1.0000000180025095e-35 -56.073678999999963 87.500000000000014 1.0000000180025095e-35 1.5000000000000002 0.058704246930407857 2.5000000000000004 3.5000000000000004 1.0000000180025095e-35 1.5000000000000002
decision_type=2 2 2 2 2 2 2 2 2 2 2 2 2 2 2 2 2 2 2 2 2 2 2 2 2 2 2 2 2 2
left_child=2 3 12 4 9 20 8 10 24 -2 -8 22 -1 29 -10 16 -14 18 -17 27 23 -6 -9 -5 -4 -23 -15 -3 -11 -7
right_child=1 19 6 5 21 13 7 11 14 28 -12 -13 15 26 -16 17 -18 -19 -20 -21 -22 25 -24 -25 -26 -27 -28 -29 -30 -31
leaf_value=-0.051967923871105839 0.011278502664115585 0.022932209069657677 0.0047036071640008106 0.061295907053869642 -0.0075055821190304758 0.030576183771127974 0.05856041879620253 0.018321492753067079 -0.067700549366386045 -0.068322945618421602 -0.0057812473859867068 -0.013617169966191504 -0.031116204991436455 0.032245860234815744 -0.028812627752478601 0.064294339377643631 -0.062865974234113206 -0.029842223594826939 -0.027033383451237417 0.048708112086907035 0.032530754452691074 0.00051866760545831001 -0.013658334055014857 0.016461818555898049 -0.016573589713963135 0.014673912950383967 0.011747990460713975 0.038879697780383228 0.020962965099719549 -0.004299757701528492
leaf_weight=1195.3283486813307 224.00248026847839 1445.9379242658615 578.25221355259418 1081.6801411807537 949.95543760061264 137.29497469961643 599.73713232576847 845.64013832807541 635.2995103597641 725.5463740080595 308.15967652201653 3431.1880368739367 1804.1027566045523 526.29401126503944 307.25375898182392 158.21738702058792 613.19855783879757 1821.8142357766628 327.36749486625195 1439.3649273216724 810.48668976128101 1519.6213320195675 298.54756598174572 120.35076203942299 2231.7600974738598 2977.8225056678057 3535.518501535058 1473.531168192625 23.680717140436172 1998.3854896724224
leaf_count=5508 972 7368 2349 6869 3927 642 3601 3840 3138 3560 1322 13863 7539 2491 1258 790 2942 7557 1353 8540 4024 6536 1286 570 8989 12954 15513 7882 95 8415
internal_value=6.37263e-05 0.0158048 -0.019659 0.00953935 -0.00143197 0.0181195 -0.00953886 -0.000358916 -0.0229526 -0.047829 0.0367215 -0.00771682 -0.0354473 0.00873118 -0.0550239 -0.0312677 -0.0391702 -0.0229888 0.00272379 0.036835 0.0470304 0.00685731 0.00997715 0.056807 -0.0121951 0.00989106 0.0144039 0.0309813 -0.0655009 -0.00205771
internal_weight=34145.3 18989.5 15155.9 14630.6 6420.63 8210.01 9235.84 5483.27 3752.57 973.23 907.897 4575.38 5920.03 6197.49 942.553 4724.7 2417.3 2307.4 485.585 4358.83 2012.52 5447.4 1144.19 1202.03 2810.01 4497.44 4061.81 2919.47 749.227 2135.68
internal_count=155693 90358 65335 66568 28044 38524 39646 23912 15734 4627 4923 18989 25689 27061 4396 20181 10481 9700 2143 23790 11463 23417 5126 7439 11338 19490 18004 15250 3655 9057
is_linear=0
shrinkage=0.05


Tree=18
num_leaves=31
num_cat=0
split_feature=6 6 6 38 23 38 23 41 72 6 50 41 38 23 6 41 38 48 50 7 72 41 5 42 5 49 38 41 22 38
split_gain=3861.3 932.147 896.181 503.03 911.661 383.085 395.716 326.691 280.906 187.744 181.832 161.16 128.689 204.692 119.404 114.813 106.579 103.778 97.1827 87.8203 87.1771 82.4361 72.8483 68.5066 66.552 66.4501 64.8888 63.0358 60.9812 60.4859
threshold=17.654286999999957 318.878041 -110.28116200000009 1.0000000180025095e-35 1.0000000180025095e-35 1.0000000180025095e-35 1.0000000180025095e-35 1.0000000180025095e-35 1.0000000180025095e-35 -339.24374549999999 1.5000000000000002 10.500000000000002 1.5000000000000002 1.0000000180025095e-35 635.66681400000016 1.0000000180025095e-35 224.50000000000003 0.59677757087683581 1.5000000000000002 78.092809500000058 1.0000000180025095e-35 3.5000000000000004 1531.3629685000003 3.5000000000000004 1503.5363365000001 73.500000000000014 19.500000000000004 1.5000000000000002 1.0000000180025095e-35 210.50000000000003
decision_type=2 2 2 2 2 2 2 2 2 2 2 2 2 2 2 2 2 2 2 2 2 2 2 2 2 2 2 2 2 2
left_child=2 3 9 4 8 6 20 16 11 -1 -7 -2 13 -11 21 29 18 -9 -5 -6 -4 23 -8 -3 -19 -21 -17 -14 -29 -12
right_child=1 14 5 7 19 10 22 17 -10 12 15 -13 27 -15 -16 26 -18 24 -20 25 -22 -23 -24 -25 -26 -27 -28 28 -30 -31
leaf_value=-0.047437845720433948 -0.063984790441417638 0.029204840699390125 -0.060705686766881088 0.031075306953518317 0.00063526662731631218 0.022242188271027988 0.0044435145154364045 0.01428453606440841 0.020517302232009912 -0.064169224330775737 -0.014131964230201603 0.019054466513746073 -0.027189550783744288 -0.028696092911540402 0.053268146269348109 -0.00030467620748434284 0.031075624337531957 0.039381165690974718 0.0014955879115303868 0.033669605382676236 -0.00085902031272280766 0.039254516303102872 -0.016350447608724433 0.0050703564619009964 0.024666686182705812 0.010123674057999001 0.019811832227098883 -0.0025338855677695393 -0.025811860768664281 0.012875201300786253
leaf_weight=1583.4325945675373 753.57302711904049 1332.2767431288958 618.8637231439352 304.24226635694504 2922.8710331320763 831.98889483511448 526.31486554443836 1169.3928912580013 134.16681715846062 503.23597249388695 1953.1298025250435 63.340478882193565 1325.9261194318533 2119.253606364131 788.01639799773693 1426.2679278850555 408.4187750518322 1488.0580078959465 3180.2183631509542 347.75553393363953 67.485862091183662 1778.5458398908377 2108.8881970494986 377.30409938097 1589.0223547667265 2165.7908753156662 557.58849768340588 742.31984362006187 453.06822356581688 231.93697275221348
leaf_count=7344 3758 7041 3072 1450 12358 4075 2148 5643 588 2495 7897 281 5484 8892 4880 6288 1841 7900 13656 1533 284 9898 8494 1971 8034 9526 2751 3279 1861 971
internal_value=6.31336e-05 0.0151706 -0.018812 0.00913054 -0.0013724 -0.00784225 -0.021005 0.0173729 -0.046534 -0.032383 0.000900281 -0.0575462 -0.0277486 -0.0355031 0.0356897 -0.00335891 0.00691072 0.0269639 0.00407831 0.00652845 -0.0548212 0.0317184 -0.0121974 0.0238784 0.0317825 0.0133813 0.00534933 -0.0196829 -0.0113566 -0.0112653
internal_weight=33852.7 18803 15049.7 14526.9 6387.5 8322.46 3321.55 8139.35 951.08 6727.24 5000.91 816.914 5143.8 2622.49 4276.14 4168.92 3892.88 4246.47 3484.46 5436.42 686.35 3488.13 2635.2 1709.58 3077.08 2513.55 1983.86 2521.31 1195.39 2185.07
internal_count=155693 90358 65335 66568 28044 35980 13998 38524 4627 29355 21982 4039 22011 11387 23790 17907 16947 21577 15106 23417 3356 18910 10642 9012 15934 11059 9039 10624 5140 8868
is_linear=0
shrinkage=0.05


Tree=19
num_leaves=31
num_cat=0
split_feature=6 6 38 37 37 6 6 23 38 37 37 28 37 38 38 23 3 1 69 5 7 38 41 6 7 72 23 41 28 72
split_gain=3516.77 1283.56 537.383 844.077 799.874 363.785 347.627 315.77 198.192 310.968 283.135 210.842 189.005 332.667 224.803 416.598 170.19 177.163 87.6477 87.5959 80.5039 73.4112 72.2621 67.9909 63.19 59.6997 57.9646 57.3548 56.085 53.5085
threshold=-54.091224000000004 160.04620850000006 1.0000000180025095e-35 1.0000000180025095e-35 1.5000000000000002 434.61107650000014 -250.59916250000001 1.0000000180025095e-35 1.0000000180025095e-35 2.5000000000000004 1.0000000180025095e-35 1.0000000180025095e-35 6.5000000000000009 1.0000000180025095e-35 1.0000000180025095e-35 1.0000000180025095e-35 1500.0011810000003 65.500000000000014 1.0000000180025095e-35 1519.3446355000003 71.38979099999996 91.500000000000014 3.5000000000000004 -517.16171500000019 86.710262999999955 1.0000000180025095e-35 1.0000000180025095e-35 9.5000000000000018 1.0000000180025095e-35 1.0000000180025095e-35
decision_type=2 2 2 2 2 2 2 2 2 2 2 2 2 2 2 2 2 2 2 2 2 2 2 2 2 2 2 2 2 2
left_child=6 2 4 18 19 12 23 -6 9 -8 11 25 13 24 15 -14 17 -5 29 27 -16 -18 -13 -1 -3 -10 -11 -2 -20 -4
right_child=1 5 3 16 7 -7 8 -9 10 26 -12 22 14 -15 20 -17 21 -19 28 -21 -22 -23 -24 -25 -26 -27 -28 -29 -30 -31
leaf_value=-0.057271924549925926 0.0072473542531801037 0.008205374067405808 0.051650997201888843 0.022106614049451204 -0.063864596896874307 0.041996973869801127 -0.019752700664441444 -0.014288753543568032 0.063310611558732841 -0.065931104729751985 -0.01807502996565781 -0.023996492133243206 -0.065453276590848916 0.049251726115465286 0.0052647322605054525 0.012692975043041753 -0.006243097422477765 -0.0047046002609415442 0.060027938895809645 -0.0044883228225714132 0.023260847368335932 0.015085248948787516 0.019143100382009448 -0.03696994067027861 0.023495357328191038 -0.035075688082700146 -0.036389723048963069 0.040816580688964876 0.0013281894434999083 0.0060803969571361326
leaf_weight=502.10619859397411 827.73278641700745 1148.2654587626457 1138.9035134613514 1613.3064998537302 828.63947160542011 2221.0136927366257 2337.263504549861 524.50487996637821 219.05312269926071 520.02294956147671 2876.1966256350279 204.69031174480915 255.92100168764591 1140.7534598857164 937.35478274524212 511.22718873620033 4105.5673596709967 996.85045675933361 53.224437937140465 3556.2102042138577 1843.8819864988327 447.41491211950779 184.63482424616814 2308.154213488102 1642.0422248393297 16.585963785648346 243.94650068879128 150.35387572646141 172.82538163661957 68.277742311358452
leaf_count=2448 3494 5234 7040 7557 4317 13420 9541 2142 1281 2735 11692 831 1269 6945 4250 2349 16996 4388 346 14649 8734 1872 868 10404 7831 80 1084 648 900 348
internal_value=6.08871e-05 0.010153 0.000726132 0.00869646 -0.0109115 0.0242283 -0.0258691 -0.044648 -0.0196002 -0.0288047 -0.0114471 0.0190559 0.0189519 0.0265034 0.010586 -0.0133767 0.00168821 0.0118671 0.043723 -0.000843706 0.0171957 -0.00414719 -0.00353783 -0.0405973 0.0172032 0.0563855 -0.0564981 0.0124077 0.0151493 0.0490735
internal_weight=33596.9 24184.3 14483.8 8596.37 5887.44 9700.46 9412.65 1353.14 6602.39 3101.23 3501.16 624.964 7479.45 3931.06 3548.38 767.148 7163.14 2610.16 1433.23 4534.3 2781.24 4552.98 389.325 2810.26 2790.31 235.639 763.969 978.087 226.05 1207.18
internal_count=155693 114729 64697 39447 25250 50032 40964 6459 28112 13360 14752 3060 36612 20010 16602 3618 30813 11945 8634 18791 12984 18868 1699 12852 13065 1361 3819 4142 1246 7388
is_linear=0
shrinkage=0.05


Tree=20
num_leaves=31
num_cat=0
split_feature=6 6 6 37 29 50 42 37 22 72 42 6 6 39 50 22 72 39 7 37 37 22 72 39 42 42 1 29 23 7
split_gain=3241.48 794.804 782.978 426.393 669.625 366.609 274.335 225.011 419.763 266.343 179.419 124.866 116.875 98.5212 96.7021 85.1985 153.08 78.5831 78.4716 78.1509 78.1398 277.518 141.78 74.7753 73.4449 71.523 70.898 67.3576 65.6359 65.2601
threshold=21.209090500000006 318.878041 -150.74761650000002 5.5000000000000009 1.0000000180025095e-35 2.5000000000000004 1.0000000180025095e-35 3.5000000000000004 1.0000000180025095e-35 1.0000000180025095e-35 1.0000000180025095e-35 -386.49679899999995 635.66681400000016 2.5000000000000004 1.5000000000000002 1.0000000180025095e-35 1.0000000180025095e-35 3.5000000000000004 -92.502460500000083 1.0000000180025095e-35 2.5000000000000004 1.0000000180025095e-35 1.0000000180025095e-35 3.5000000000000004 3.5000000000000004 3.5000000000000004 103.50000000000001 1.0000000180025095e-35 1.0000000180025095e-35 43.863346500000041
decision_type=2 2 2 2 2 2 2 2 2 2 2 2 2 2 2 2 2 2 2 2 2 2 2 2 2 2 2 2 2 2
left_child=2 3 11 4 15 19 14 8 9 -7 -9 -1 17 28 -5 16 -2 -3 -10 -4 21 22 -13 -6 -22 -25 -21 -12 -8 -16
right_child=1 12 5 6 23 7 13 10 18 -11 27 20 -14 -15 29 -17 -18 -19 -20 26 24 -23 -24 25 -26 -27 -28 -29 -30 -31
leaf_value=-0.047544274994667048 0.055408581373191428 0.022971842207438156 0.038932799788287807 0.03015874978854402 0.00034699148244146904 0.048398173490982334 -0.023726284030844379 -0.010632001063056187 -0.024499504208844222 -0.014460120384858772 -0.025623389608213004 0.05967688082152011 0.05154763955565226 0.0019184674188611314 -0.00222343058375751 0.028609069311369997 0.0079626427409557124 0.038367101271101989 -0.0071204700491232804 0.016914491685687941 -0.028354120752274 -0.027705369623339911 -0.044471750404749523 0.030343515487805207 -0.048090526634943058 0.0084592926575596389 -0.016583820036504309 -0.046499839241602003 -0.0046189250891107009 0.011301482355264979
leaf_weight=1128.9788090288639 1091.7120045125484 1911.0392672270536 300.41566579043865 454.82596302032471 2383.0592080652714 542.74732783436775 1396.7460007667542 2414.4719043672085 881.75396840274334 244.41026520729065 1694.6077772825956 145.04756118357182 743.55858410894871 945.46481382846832 1518.5129704773426 1004.3691936433315 201.36089999973774 1463.7808704376221 2466.3121477365494 720.63341030478477 1269.7689987868071 1825.8344947844744 42.180193319916725 472.64196382462978 749.67379209399223 1777.338898152113 202.29300805926323 500.49366064369678 662.69142784178257 2161.4296688884497
leaf_count=5508 7291 10496 1654 2224 10300 3211 6520 9800 3563 1038 7363 725 4880 4259 6471 5066 957 8414 10042 3383 5519 7804 183 2083 3506 7695 891 2367 2819 9661
internal_value=6.004e-05 0.0142839 -0.0170395 0.00862909 0.0174636 -0.00885469 5.34146e-05 -0.0124411 -0.0039732 0.0288808 -0.0200377 -0.0328466 0.033603 -0.0114435 0.0084087 0.0395342 0.0480202 0.0296493 -0.0116975 0.0167822 -0.0287317 -0.0217605 0.0362134 0.00651916 -0.0356808 0.0130564 0.00957211 -0.0303833 -0.0175779 0.00572048
internal_weight=33318.2 18188.5 15129.6 14070.2 6930.48 9968.14 7139.67 8744.8 4135.22 787.158 4609.57 5161.48 4118.38 3004.9 4134.77 2297.44 1293.07 3374.82 3348.07 1223.34 4032.51 2013.06 187.228 4633.04 2019.44 2249.98 922.926 2195.1 2059.44 3679.94
internal_count=155693 89136 66557 65346 33392 43312 31954 37384 17854 4249 19530 23245 23790 13598 18356 13314 8248 18910 13605 5928 17737 8712 908 20078 9025 9778 4274 9730 9339 16132
is_linear=0
shrinkage=0.05


Tree=21
num_leaves=31
num_cat=0
split_feature=6 6 6 38 37 37 37 38 38 23 22 6 23 7 48 38 37 37 22 22 57 6 37 49 6 42 57 38 23 57
split_gain=2957.53 841.45 658.996 377.283 539.953 489.115 358.226 619.678 515.619 525.326 257.081 162.545 139.88 120.888 118.217 117.403 198.211 136.876 333.101 100.885 93.2341 86.5536 83.4515 81.5569 77.4321 76.4194 64.9138 64.3616 260.811 119.874
threshold=42.923884000000051 -110.28116200000009 359.36261350000001 1.0000000180025095e-35 1.0000000180025095e-35 1.5000000000000002 5.5000000000000009 1.0000000180025095e-35 1.0000000180025095e-35 1.0000000180025095e-35 1.0000000180025095e-35 -353.27202800000003 1.0000000180025095e-35 61.837857499999934 0.59859129547988255 1.5000000000000002 1.5000000000000002 1.0000000180025095e-35 1.0000000180025095e-35 1.0000000180025095e-35 1.0000000180025095e-35 635.66681400000016 1.0000000180025095e-35 95.500000000000014 189.01454750000008 3.5000000000000004 1.0000000180025095e-35 1.0000000180025095e-35 1.0000000180025095e-35 1.0000000180025095e-35
decision_type=2 2 2 2 2 2 2 2 2 2 2 2 2 2 2 2 2 2 2 2 2 2 2 2 2 2 2 2 2 2
left_child=1 11 6 5 10 25 7 23 9 -8 26 -1 -7 -10 -6 16 -13 18 -17 22 -16 27 -9 -2 -25 -3 -5 28 29 -4
right_child=2 3 21 4 14 12 8 19 13 -11 -12 15 -14 -15 20 17 -18 -19 -20 -21 -22 -23 -24 24 -26 -27 -28 -29 -30 -31
leaf_value=-0.044105005358293474 0.021811030154205546 0.0036215813961003479 -0.10603251307126645 0.059253344300961845 -0.016079453251488251 -0.062784762864546761 -0.06197608446558317 0.058309656354404327 0.00037298423114111041 0.0025053112898955274 0.00077441283395246995 -0.02439409400456331 -0.022692202687551115 0.015445907746409233 -0.004145806249187858 0.060378675880116056 -0.056530152393277737 -0.022933765963719422 -0.023594565786683536 0.02936306896071374 0.014067543086529131 0.050635025470650102 0.016083394909467509 -0.00098592959483937022 0.013534743586841327 -0.013280956320200125 -0.022472038715839866 0.039092581277443791 0.028577394649829758 0.047149970484078284
leaf_weight=1367.1900609433651 957.92466561496258 981.11418019235134 54.32772995531559 591.31024104356766 1497.5421496927738 623.92721296846867 575.41449329257011 931.88018092513084 2387.9823965579271 700.25879392027855 321.98805832862854 1990.199095800519 334.02419893443584 3003.1429499834776 2691.8091450333595 181.87572768330574 632.25715689361095 2026.0563480407 336.76373738050461 782.28451007604599 950.84191428124905 719.71956267952919 133.80693787336349 2071.1091586649418 1649.1341620981693 2100.1297935545444 25.338800445199013 1237.378752335906 1204.2588816136122 16.696882233023643
leaf_count=6732 4231 4002 252 4019 6091 3415 3075 6656 10339 3044 1447 8415 1374 13696 11307 1013 3311 8482 1402 4146 4246 4880 644 8730 7723 8495 138 7357 6939 92
internal_value=6.0468e-05 -0.0147882 0.0151143 -0.00575584 0.0021145 -0.0176004 0.010157 0.0184844 0.00200537 -0.0265801 0.0369867 -0.0287741 -0.0488051 0.0087694 -0.00425341 -0.0247177 -0.0321419 -0.0170667 0.00585305 0.0429985 0.000608428 0.0353475 0.0530078 0.00880087 0.00545089 -0.00789894 0.0558952 0.0309686 0.0230861 -0.0700215
internal_weight=33077.7 16652.4 16425.3 10118 6078.83 4039.2 13192.9 6526.14 6666.8 1275.67 938.637 6534.34 957.951 5391.13 5140.19 5167.15 2622.46 2544.7 518.639 1847.97 3642.65 3232.38 1065.69 4678.17 3720.24 3081.24 616.649 2512.66 1275.28 71.0246
internal_count=155693 73889 81804 44534 27248 17286 62284 32130 30154 6119 5604 29355 4789 24035 21644 22623 11726 10897 2415 11446 15553 19520 7300 20684 16453 12497 4157 14640 7283 344
is_linear=0
shrinkage=0.05


Tree=22
num_leaves=31
num_cat=0
split_feature=6 6 6 50 37 38 38 23 38 37 37 24 7 7 38 23 24 23 6 37 24 72 49 37 41 6 72 42 38 6
split_gain=2693.75 772.627 618.336 351.439 316.598 573.659 468.169 474.161 226.246 440.922 416.965 244.667 155.933 106.527 105.743 169.442 98.8066 97.1832 96.3312 91.1994 216.823 85.8574 78.4446 74.2657 69.8182 68.5235 68.4392 62.8747 62.8473 61.3555
threshold=42.923884000000051 -110.28116200000009 341.44148449999994 2.5000000000000004 5.5000000000000009 1.0000000180025095e-35 1.0000000180025095e-35 1.0000000180025095e-35 1.0000000180025095e-35 1.5000000000000002 1.0000000180025095e-35 1.0000000180025095e-35 -146.68227550000003 50.988610500000057 1.5000000000000002 1.0000000180025095e-35 1.0000000180025095e-35 1.0000000180025095e-35 635.66681400000016 3.5000000000000004 1.0000000180025095e-35 1.0000000180025095e-35 95.500000000000014 1.0000000180025095e-35 3.5000000000000004 -353.27202800000003 1.0000000180025095e-35 3.5000000000000004 280.50000000000006 143.76064750000003
decision_type=2 2 2 2 2 2 2 2 2 2 2 2 2 2 2 2 2 2 2 2 2 2 2 2 2 2 2 2 2 2
left_child=1 12 4 23 5 22 7 26 9 -5 11 -10 25 -8 15 -14 -7 -11 24 20 -16 -18 -2 -3 27 -1 -6 -4 -15 -24
right_child=2 3 18 8 6 16 13 -9 10 17 -12 -13 14 28 19 -17 21 -19 -20 -21 -22 -23 29 -25 -26 -27 -28 -29 -30 -31
leaf_value=-0.048783260383052196 0.020808978477837983 0.037699918926486192 0.026747389967569837 -0.009212947997456828 -0.064350811897461752 0.028005579890597345 -0.00048449952844764258 0.0020072381693755303 -0.0040342706325522167 -0.06236088525254662 -0.0082392528962648166 0.055827154844052373 -0.060574954771800672 0.012027482042123347 -0.018833424618057756 -0.022401459469125407 0.056869063966128258 -0.02699663248508501 0.049748091541855499 -0.018593657857658923 0.056358066792977758 0.0078576905470881756 -0.0033056793027630774 0.011085063222113507 0.036761525644108548 -0.031483003715700918 0.024222171026813302 0.0013006044803984022 0.039486061474351491 0.010022425489636399
leaf_weight=840.17180024087429 945.53292846679688 347.76056772470474 1075.0209284722805 2927.9419922828674 527.02332156896591 751.49940286576748 2138.3820817023516 668.12979932129383 276.55481104552746 556.82410426437855 4157.5558279305696 445.93394110351801 353.68717043101788 2894.4168754220009 268.98642814159393 1632.1897162646055 900.06922622770071 298.36325956881046 696.51497140526772 1425.1676402539015 148.97485539317131 99.204750090837479 1452.5081513375044 1064.1885157972574 1422.7697382122278 1795.6552626043558 22.750822767615318 313.5448859333992 224.55393779277802 2129.3446517884731
leaf_count=4277 4199 1968 6105 11841 2945 4022 9209 2889 1218 3160 17032 3073 1909 13158 1147 7121 6593 1231 4880 6037 840 493 6056 5011 8633 8024 92 1732 1067 9731
internal_value=5.99067e-05 -0.0141475 0.0145108 -0.00549098 0.00939733 0.0173979 0.00164025 -0.0262929 -0.00926098 -0.0184381 -0.00214663 0.0329134 -0.0276382 0.00811116 -0.0211953 -0.0292002 0.0417026 -0.0500228 0.0331015 -0.0125705 0.00796724 0.0520034 0.00799915 0.0176403 0.0289773 -0.0369975 -0.0606855 0.0210014 0.0140044 0.00461763
internal_weight=32801.2 16540 16261.3 10075.1 12753.4 6278.16 6475.26 1217.9 8663.17 3783.13 4880.04 722.489 6464.83 5257.35 3829.01 1985.88 1750.77 855.187 3507.85 1843.13 417.961 999.274 4527.39 1411.95 2811.34 2635.83 549.774 1388.57 3118.97 3581.85
internal_count=155693 73889 81804 44534 60454 31094 29360 5926 37555 16232 21323 4291 29355 23434 17054 9030 11108 4391 21350 8024 1987 7086 19986 6979 16470 12301 3037 7837 14225 15787
is_linear=0
shrinkage=0.05


Tree=23
num_leaves=31
num_cat=0
split_feature=6 6 6 40 37 41 38 25 37 22 72 37 38 6 25 38 25 38 37 37 22 48 7 7 6 41 22 6 7 72
split_gain=2472.75 958.485 396.174 382.252 392.102 254.785 213.333 442.384 411.727 195.199 244.259 192.773 189.353 177.632 160.194 138.971 175.865 100.008 189.082 109.613 228.528 97.5166 83.1446 77.6952 77.098 71.6982 67.9907 61.4249 60.9861 59.406
threshold=104.40177700000005 -92.784680500000022 371.71951300000006 1.5000000000000002 1.5000000000000002 3.5000000000000004 1.0000000180025095e-35 1.0000000180025095e-35 4.5000000000000009 1.0000000180025095e-35 1.0000000180025095e-35 1.0000000180025095e-35 1.0000000180025095e-35 -258.13599649999998 1.0000000180025095e-35 1.0000000180025095e-35 1.0000000180025095e-35 1.5000000000000002 2.5000000000000004 1.5000000000000002 1.0000000180025095e-35 0.59859129547988255 69.805881499999956 86.710262999999955 694.44289350000008 3.5000000000000004 1.0000000180025095e-35 -517.16171500000019 6.2470759999999936 1.0000000180025095e-35
decision_type=2 2 2 2 2 2 2 2 2 2 2 2 2 2 2 2 2 2 2 2 2 2 2 2 2 2 2 2 2 2
left_child=1 13 6 4 9 15 7 23 26 10 -3 -9 14 27 -6 16 -5 18 -15 20 -19 -14 -10 -2 25 -4 -8 -1 -7 -13
right_child=2 3 24 5 12 28 8 11 22 -11 -12 29 21 17 -16 -17 -18 19 -20 -21 -22 -23 -24 -25 -26 -27 -28 -29 -30 -31
leaf_value=-0.052569082509580936 0.0026869577413591358 0.058208459657149714 0.021523292052598314 -0.021664051939245591 0.0027633852822440052 -0.009112265746473355 0.055687386842337462 0.016176728158678457 0.0026615807835399575 0.011336866881007846 -0.0047865094490457264 -0.064298962255704931 -0.010947731535582116 -0.019127612958109746 -0.057490753421465139 -0.012030139936424574 -0.060072295911257304 0.054310059444641491 -0.053422011029255638 -0.017494094398878238 -0.019066270923169579 0.0055903805037677201 0.017911099309812283 0.016912442014661504 0.051897049442551961 0.038912052702924499 0.031299141077012579 -0.032356021778991877 0.0039630000530052742 0.038846474936018942
leaf_weight=459.85246369242668 1793.6327030062675 616.82428517192602 1163.876460313797 910.04086852073669 185.83868461847305 1784.0831776186824 700.09754990041256 109.25902217626572 1476.91520370543 1294.6504248976707 205.02707548439503 332.73045407235622 1252.2257068604231 1761.2399570345879 271.41510199010372 1468.0634199976921 443.17845530807972 176.39880165457726 520.76620030403137 1872.5380647033453 266.31393265724182 3092.9113724976778 2264.0993105173111 2064.7957760691643 504.93066792190075 1208.1676385700703 482.89394776523113 2057.663225337863 1783.1343278810382 14.570813387632368
leaf_count=2448 7923 4516 6906 3720 762 7514 5256 502 6534 5693 951 1888 5141 7357 1548 6225 2528 1095 2877 7749 1092 13442 10657 9617 3660 7734 2738 9792 7769 59
internal_value=5.89036e-05 -0.0105578 0.0179541 -0.00263747 0.00550543 -0.0114564 0.0129087 0.00479246 0.0200211 0.023435 0.0424931 -0.0417486 -0.00239647 -0.025372 -0.0330021 -0.0226843 -0.0342427 -0.0195257 -0.0269538 -0.0122042 0.0101705 0.00082426 0.0118907 0.0102996 0.0341564 0.03038 0.0457322 -0.0360482 -0.00257637 -0.0599716
internal_weight=32538.1 20422.2 12116 13307.4 6918.89 6388.5 9238.99 4314.99 4924.01 2116.5 821.851 456.56 4802.39 7114.77 457.254 2821.28 1353.22 4597.26 2282.01 2315.25 442.713 4345.14 3741.01 3858.43 2876.97 2372.04 1182.99 2517.52 3567.22 347.301
internal_count=155693 92219 63474 59809 32053 27756 45174 19989 25185 11160 5467 2449 20893 32410 2310 12473 6248 20170 10234 9936 2187 18583 17191 17540 18300 14640 7994 12240 15283 1947
is_linear=0
shrinkage=0.05


Tree=24
num_leaves=31
num_cat=0
split_feature=7 7 38 23 40 72 41 30 39 41 38 23 72 41 1 31 72 40 41 40 47 17 47 40 38 31 23 28 1 1
split_gain=1900.74 617.706 384.886 721.263 258.393 222.804 220.524 203.966 144.267 140.64 133.894 296.562 142.669 129.934 119.675 93.4347 91.8598 89.0968 85.106 83.9382 79.3931 77.184 60.59 59.8415 58.3587 57.5922 54.0234 49.7045 47.2806 45.3251
threshold=-49.001593500000006 130.05313800000002 1.0000000180025095e-35 1.0000000180025095e-35 3.5000000000000004 1.0000000180025095e-35 1.0000000180025095e-35 1.5000000000000002 1.5000000000000002 5.5000000000000009 1.0000000180025095e-35 1.0000000180025095e-35 1.0000000180025095e-35 9.5000000000000018 60.500000000000007 3.5000000000000004 1.0000000180025095e-35 1.5000000000000002 2.5000000000000004 1.5000000000000002 0.56372924303140481 1.0000000180025095e-35 0.55842265373515387 3.5000000000000004 2.5000000000000004 1.0000000180025095e-35 1.0000000180025095e-35 1.0000000180025095e-35 269.50000000000006 64.500000000000014
decision_type=2 2 2 2 2 2 2 2 2 2 2 2 2 2 2 2 2 2 2 2 2 2 2 2 2 2 2 2 2 2
left_child=4 2 3 5 8 13 16 10 19 -6 11 12 -3 -2 -8 24 22 -16 28 25 -5 29 -4 -22 26 -1 -10 -20 -12 -9
right_child=1 7 6 20 9 -7 14 21 15 -11 18 -13 -14 -15 17 -17 -18 -19 27 -21 23 -23 -24 -25 -26 -27 -28 -29 -30 -31
leaf_value=-0.0095447866761338984 -0.059627730506386048 -0.06318487948579081 -0.011563533286742998 -0.010060180032394131 -0.039163392210790543 0.013415703208656489 -0.0002437112814553475 0.022547459289126923 -0.039339290267013251 -0.017111505915354243 0.011832207177032102 0.011023446831437314 0.042060213843581905 0.014068202272773328 0.026453393303404765 -0.035952485284004305 0.01876412103444899 0.0095944576583481302 0.024400507235803462 -0.030914216022523335 0.0086605658927895127 0.015004104694920401 0.0021421060891520221 -0.0042007500277611871 0.005737683857805858 -0.026811947053736431 -0.0059324927636103895 0.046593619898150751 0.046937021991661484 0.04059187156587829
leaf_weight=1694.7084262743592 842.40915133059025 209.59233972430229 1136.6764714717865 1405.3242619484663 1896.0558336526155 139.80935822427273 836.04259292781353 460.40921330451965 134.10059210658073 1168.7023411914706 1680.498315282166 1979.0529938787222 38.045816645026207 64.381530627608299 2337.9759920537472 220.74228547513485 627.73119992017746 1178.8267697766423 841.8539771810174 1152.7779127508402 2404.3897552788258 557.05853945761919 2775.1221129745245 1449.7557773888111 1249.7152083665133 675.34409819543362 1240.547754123807 360.25029643625021 101.72150702774525 1425.5438873320818
leaf_count=7479 4835 1189 4826 6046 8955 628 3991 2700 704 5173 8171 9313 184 299 13209 1068 2842 5797 4411 5276 10731 2794 12276 6459 5932 3082 5349 2549 517 8908
internal_value=5.78436e-05 0.00785222 0.00201858 -0.00743 -0.0188255 -0.0453369 0.00871907 0.019436 -0.0130844 -0.0307542 0.0138473 0.00456872 -0.0470156 -0.0543954 0.01676 -0.0047101 0.00100879 0.0208023 0.0207704 -0.0198477 0.000113224 0.0313567 -0.00184043 0.00382272 -0.00208222 -0.014465 -0.00919141 0.0310514 0.0138358 0.0361868
internal_weight=32285.2 22852.5 15198.4 6306.07 9432.69 1046.6 8892.38 7654.03 6367.94 3064.76 5211.02 2226.69 247.638 906.791 4352.85 2845.11 4539.53 3516.8 2984.32 3522.83 5259.47 2443.01 3911.8 3854.15 2624.36 2370.05 1374.65 1202.1 1782.22 1885.95
internal_count=155693 112675 71939 28998 43018 5762 42941 40736 28890 14128 26334 10686 1373 5134 22997 13053 19944 19006 15648 15837 23236 14402 17102 17190 11985 10561 6053 6960 8688 11608
is_linear=0
shrinkage=0.05


Tree=25
num_leaves=31
num_cat=0
split_feature=7 40 7 50 41 50 41 42 41 42 30 1 7 3 3 42 31 1 28 42 40 2 30 2 3 10 1 3 2 7
split_gain=1742.06 454.411 381.56 294.444 232.405 226.15 221.561 185.708 184.051 177.615 123.287 115.156 103.111 76.3304 74.3818 69.8064 68.5496 68.3548 64.3862 59.4049 56.042 53.5166 46.239 44.4628 41.826 41.071 39.0348 37.0674 36.8278 34.2127
threshold=10.239743000000091 2.5000000000000004 205.51482200000001 5.5000000000000009 3.5000000000000004 1.5000000000000002 3.5000000000000004 3.5000000000000004 3.5000000000000004 3.5000000000000004 3.5000000000000004 83.500000000000014 -120.05596449999994 1530.7247940000002 1839.7380425000003 1.0000000180025095e-35 3.5000000000000004 211.50000000000003 1.0000000180025095e-35 7.5000000000000009 1.0000000180025095e-35 2057.4138925000002 2.5000000000000004 1873.0725485000003 1959.4076465000003 0.6132478632478634 98.500000000000014 2074.4195615000003 1906.7470350000001 -278.41195999999997
decision_type=2 2 2 2 2 2 2 2 2 2 2 2 2 2 2 2 2 2 2 2 2 2 2 2 2 2 2 2 2 2
left_child=1 5 3 11 19 26 7 20 12 18 13 -2 -7 -4 -10 -14 21 -13 -8 25 -5 24 -11 -9 -6 -3 -1 28 -15 -16
right_child=2 4 10 6 16 8 9 23 14 22 -12 17 15 27 29 -17 -18 -19 -20 -21 -22 -23 -24 -25 -26 -27 -28 -29 -30 -31
leaf_value=0.024328348818349096 0.034389276161435459 -0.031852151852354994 0.031064236421076304 0.0080166834949714563 -0.011000235463142161 -0.022226549173485981 0.014607749743441981 -0.025705932562441289 0.010748419054305488 0.0012146941387387591 0.040933680117593428 -0.0099648026549898783 -0.0025479192008169469 0.0094367898200447744 -0.033484884815613368 -0.015750542066194615 -0.03356103511247182 0.020457142347504641 0.033324771689337 -0.044672393499563492 -0.0029577301968807686 0.0072551294191251546 0.01879027550081103 -0.0048978897380571648 -0.027872471655728894 -0.010924984439834529 -0.00089773943593938707 -0.013618668596755432 0.022311580860490357 -0.0039960606266272762
leaf_weight=691.64452826231718 1176.2882615327835 1586.8532866090536 1029.7181387767196 1998.9112836271524 2155.7372080534697 1834.6366268992424 945.68525391817093 914.96026454120874 1511.9683064520359 2480.1831345185637 860.3240048289299 282.05458270013332 2431.8473849669099 1069.5199331641197 120.50155730545521 1701.8217748776078 397.55978814512491 534.64140469580889 893.67501210421324 856.2978375852108 2782.7805268466473 338.71355150640011 440.72010354697704 356.86028911173344 442.75887028872967 275.09661917388439 197.04136734455824 109.93674051016569 1155.5584551095963 535.26258783787489
leaf_count=3573 6362 7377 5966 9414 9322 8363 4837 4286 7251 11331 5621 1445 10737 4988 589 7714 1874 2715 5136 4215 13025 1613 2305 1817 2036 1250 951 491 6646 2443
internal_value=5.54966e-05 -0.0123224 0.0110133 0.00671475 -0.0229212 -0.00521361 0.00346002 -0.00288656 -0.00782949 0.0115308 0.0240427 0.0243747 -0.0123617 0.0197238 0.0046488 -0.00798341 -0.0140758 0.0099506 0.0237016 -0.0337729 0.00162995 -0.0114384 0.00386658 -0.0198674 -0.0138751 -0.0287602 0.0187352 0.0147228 0.0161231 -0.00941485
internal_weight=32109.6 15077.7 17031.8 12806.8 6053.02 9024.72 10813.8 6053.51 8136.04 4760.26 4225.06 1992.98 5968.31 3364.73 2167.73 4133.67 3334.77 816.696 1839.36 2718.25 4781.69 2937.21 2920.9 1271.82 2598.5 1861.95 888.686 2335.02 2225.08 655.764
internal_count=155693 69308 86385 62673 27687 41621 52151 28542 37097 23609 23712 10522 26814 18091 10283 18451 14845 4160 9973 12842 22439 12971 13636 6103 11358 8627 4524 12125 11634 3032
is_linear=0
shrinkage=0.05


Tree=26
num_leaves=31
num_cat=0
split_feature=6 6 50 6 37 38 22 38 38 23 37 37 6 23 1 49 38 37 37 22 7 38 7 1 72 22 6 48 6 40
split_gain=2025.86 777.96 352.505 347.583 231.206 438.206 365.783 262.08 188.657 443.577 425.011 200.599 158.299 151.488 126.069 90.0897 86.9494 175.532 94.3428 209.861 82.9854 75.7321 71.2348 70.6895 66.6084 63.6749 59.9777 52.4615 50.3646 50.0807
threshold=104.40177700000005 -92.784680500000022 5.5000000000000009 434.61107650000014 3.5000000000000004 1.0000000180025095e-35 1.0000000180025095e-35 3.5000000000000004 1.0000000180025095e-35 1.0000000180025095e-35 1.0000000180025095e-35 1.0000000180025095e-35 -258.13599649999998 1.0000000180025095e-35 83.500000000000014 5.5000000000000009 1.5000000000000002 2.5000000000000004 1.5000000000000002 1.0000000180025095e-35 69.805881499999956 182.50000000000003 86.710262999999955 443.50000000000006 1.0000000180025095e-35 1.0000000180025095e-35 -517.16171500000019 0.59677757087683581 694.44289350000008 3.5000000000000004
decision_type=2 2 2 2 2 2 2 2 2 2 2 2 2 2 2 2 2 2 2 2 2 2 2 2 2 2 2 2 2 2
left_child=1 12 14 8 6 13 7 -4 9 11 25 -2 26 -6 15 -3 17 -14 19 -18 -12 -7 -11 -16 -13 -10 -1 -22 -5 -28
right_child=3 2 4 28 5 21 -8 -9 10 22 20 24 16 -15 23 -17 18 -19 -20 -21 27 -23 -24 -25 -26 -27 29 -29 -30 -31
leaf_value=-0.050194176835701355 0.01571292236706023 0.0082168110704989583 -0.0053765806192485402 0.031365641295871334 -0.059783254888869111 -0.0087470131529146893 -0.0048220458815726522 0.052378973315923019 0.056864549041767756 0.0034234364804392203 0.0031894248715218457 -0.064783220061849486 -0.017167227566996551 -0.01951400604750134 -0.012554979436099732 0.030935371830102261 0.053380581965715358 -0.051015804391442855 -0.015652592228935471 -0.017672219649541 0.0078063302122417539 0.017269179966489318 0.016480073115395805 0.018371587352387878 0.039469472780626069 0.030875001877180272 -0.023167394071469675 0.022816722348276641 0.050233487667353798 -0.039280019911347656
leaf_weight=435.88894774019718 116.98609128594398 750.83778127282858 309.78921500593424 1450.5528353899717 592.60176296532154 4288.7236970961094 4148.3521031141281 536.73399288952351 679.18664057552814 1918.3352534621954 1601.3028857409954 331.90789683163166 1745.0656413286924 385.45105412602425 550.04479642957449 1041.8894191086292 170.971455283463 490.72154812514782 1857.8132709413767 264.99828246235847 885.39866238832474 299.24346074461937 2293.7084989249706 278.233901232481 16.06274276971817 360.90567818284035 1185.1486757397652 1699.2729592770338 467.73713637143373 813.1321180164814
leaf_count=2448 551 3827 1326 9760 3714 17540 17208 4013 5535 8604 7205 1973 7357 1587 2631 5401 1095 2877 7749 1092 4239 1257 11158 1305 65 2252 5708 8472 3660 4084
internal_value=5.43769e-05 -0.00958761 -0.0024461 0.016486 -0.00651941 -0.0135277 0.00129021 0.0312431 0.0127126 0.00541755 0.0192411 -0.0409283 -0.023106 -0.0439131 0.0139666 0.0214203 -0.0175797 -0.0245965 -0.0107404 0.0101921 0.0121336 -0.00705014 0.0105336 -0.00216618 -0.0599708 0.0478463 -0.0333895 0.0176748 0.0359662 -0.0297239
internal_weight=31967 20145.6 13181.9 11821.4 10560.9 5566.02 4994.88 846.523 9903.07 4677 5226.07 464.957 6963.74 978.053 2621.01 1792.73 4529.57 2235.79 2293.78 435.97 4185.97 4587.97 4212.04 828.279 347.971 1040.09 2434.17 2584.67 1918.29 1998.28
internal_count=155693 92219 59809 63474 46645 24098 22547 5339 50054 22351 27703 2589 32410 5301 13164 9228 20170 10234 9936 2187 19916 18797 19762 3936 2038 7787 12240 12711 13420 9792
is_linear=0
shrinkage=0.05


Tree=27
num_leaves=31
num_cat=0
split_feature=6 6 6 37 38 38 23 40 37 22 41 38 23 22 72 72 38 6 23 50 6 38 43 38 23 72 37 72 69 37
split_gain=1851.83 525.283 470.088 275.067 523.235 395.311 394.572 248.864 174.218 267.499 139.18 119.341 121.07 102.935 130.952 102.484 101.859 100.493 99.1305 89.9577 82.7548 76.5018 72.9113 67.9713 260.558 118.493 98.6375 66.4547 64.4815 64.1902
