{"learner":{"attributes":{"best_iteration":"130","best_score":"0.13926945106841895","scikit_learn":"{\"_estimator_type\": \"classifier\"}"},"feature_names":["p1_rank","p2_rank","p1_elo_overall","p2_elo_overall","p1_elo_surface","p2_elo_surface","elo_diff_overall","elo_diff_surface","p1_win_pct_5","p1_win_pct_10","p1_win_pct_20","p2_win_pct_5","p2_win_pct_10","p2_win_pct_20","p1_win_pct_surface_10","p2_win_pct_surface_10","h2h_p1_wins","h2h_p2_wins","h2h_total","h2h_p1_win_pct","h2h_surface_p1_wins","h2h_surface_p2_wins","p1_current_win_streak","p2_current_win_streak","p1_current_lose_streak","p2_current_lose_streak","p1_streak_5","p2_streak_5","p1_tournament_wins_current","p2_tournament_wins_current","p1_title_count_12m","p2_title_count_12m","p1_is_home","p2_is_home","home_advantage_flag","p1_home_win_pct","p2_home_win_pct","p1_days_since_last_match","p2_days_since_last_match","p1_matches_last_14d","p2_matches_last_14d","p1_sets_played_last_7d","p2_sets_played_last_7d","p1_ace_pct","p2_ace_pct","p1_1st_serve_pct","p2_1st_serve_pct","p1_bp_save_pct","p2_bp_save_pct","p1_matches_played_before","p2_matches_played_before","surface_Carpet","surface_Clay","surface_Grass","surface_Hard","surface_Unknown","surface_NA","tournament_level_Finals","tournament_level_Grand_Slam","tournament_level_Masters","tournament_level_Other","tournament_level_Tour","tournament_level_other","tournament_level_NA","round_BR","round_ER","round_F","round_QF","round_R128","round_R16","round_R32","round_R64","round_RR","round_SF","round_NA","best_of_1","best_of_3","best_of_5","best_of_NA"],"feature_types":["float","float","float","float","float","float","float","float","float","float","float","float","float","float","float","float","int","int","int","float","int","int","int","int","int","int","int","int","int","int","int","int","int","int","int","float","float","int","int","int","int","int","int","float","float","float","float","float","float","int","int","i","i","i","i","i","i","i","i","i","i","i","i","i","i","i","i","i","i","i","i","i","i","i","i","i","i","i","i"],"gradient_booster":{"model":{"cats":{"enc":[],"feature_segments":[],"sorted_idx":[]},"gbtree_model_param":{"num_parallel_tree":"1","num_trees":"181"},"iteration_indptr":[0,1,2,3,4,5,6,7,8,9,10,11,12,13,14,15,16,17,18,19,20,21,22,23,24,25,26,27,28,29,30,31,32,33,34,35,36,37,38,39,40,41,42,43,44,45,46,47,48,49,50,51,52,53,54,55,56,57,58,59,60,61,62,63,64,65,66,67,68,69,70,71,72,73,74,75,76,77,78,79,80,81,82,83,84,85,86,87,88,89,90,91,92,93,94,95,96,97,98,99,100,101,102,103,104,105,106,107,108,109,110,111,112,113,114,115,116,117,118,119,120,121,122,123,124,125,126,127,128,129,130,131,132,133,134,135,136,137,138,139,140,141,142,143,144,145,146,147,148,149,150,151,152,153,154,155,156,157,158,159,160,161,162,163,164,165,166,167,168,169,170,171,172,173,174,175,176,177,178,179,180,181],"tree_info":[0,0,0,0,0,0,0,0,0,0,0,0,0,0,0,0,0,0,0,0,0,0,0,0,0,0,0,0,0,0,0,0,0,0,0,0,0,0,0,0,0,0,0,0,0,0,0,0,0,0,0,0,0,0,0,0,0,0,0,0,0,0,0,0,0,0,0,0,0,0,0,0,0,0,0,0,0,0,0,0,0,0,0,0,0,0,0,0,0,0,0,0,0,0,0,0,0,0,0,0,0,0,0,0,0,0,0,0,0,0,0,0,0,0,0,0,0,0,0,0,0,0,0,0,0,0,0,0,0,0,0,0,0,0,0,0,0,0,0,0,0,0,0,0,0,0,0,0,0,0,0,0,0,0,0,0,0,0,0,0,0,0,0,0,0,0,0,0,0,0,0,0,0,0,0,0,0,0,0,0,0],"trees":[{"base_weights":[-8.623392E-9,3.6066768E-1,-5.330937E-1,-6.438671E-2,1.2610614E0,-7.989644E-1,2.7319431E-2,-7.390592E-1,4.4221643E-1,-5.0203256E-2,1.2990865E0,-9.0497E-2,-9.602586E-1,4.0727526E-1,-1.5593491E-1,-1.2279263E0,-4.7437182E-1,1.3647212E-1,7.983845E-1,1.0154499E0,-2.9256836E-1,1.3196638E0,-3.2527268E-1,1.2990162E0,-4.418588E-1,-1.3760346E0,-7.56249E-1,-4.8130086E-1,1.2771848E0,-2.704815E-1,4.171764E-1,-1.4982411E0,-8.713211E-1,-9.419654E-1,-3.283013E-1,-3.3113307E-1,2.4029669E-1,6.048675E-1,9.6548104E-1,1.1443523E0,-4.20572E-2,9.8540765E-1,-4.0650693E-1,1.1634614E0,1.3319712E0,8.456806E-1,-7.028243E-1,-5.2694464E-1,6.6160694E-2,-8.2825303E-1,6.776202E-2,-1.7267327E0,-1.1713396E0,-1.1566598E0,-6.437599E-1,-8.450952E-1,-3.043305E-1,1.5843165E-1,1.3062598E0,-6.3849235E-1,-1.4844973E-1,3.1576735E-1,8.552891E-1,-8.547954E-2,-6.612316E-2,-5.126856E-2,-2.2799203E-2,-7.043785E-2,-4.178415E-2,-2.1452134E-2,7.063934E-4,-3.52874E-2,-9.598318E-3,5.1480024E-3,1.8462816E-2,-2.5133349E-3,3.2246865E-2,3.838659E-2,5.232447E-2,6.080633E-2,1.2206406E-2,5.1563628E-2,6.303324E-3,-3.6535542E-2,1.1125571E-2,6.393208E-2,8.8314683E-4,6.685054E-2,5.231997E-2,5.5034846E-2,2.0806666E-3,-4.6440523E-2,1.3315238E-2,7.7643753E-3,-4.5623295E-2,-5.1666375E-2,-2.8946195E-2,1.9495659E-2,-1.2371606E-2,-9.035478E-2,-5.3933233E-2,-6.7646146E-2,-5.0281335E-2,-6.0549844E-2,-1.6066948E-2,-3.9052278E-2,-2.4251664E-2,-2.6216751E-2,-6.1901957E-2,3.223978E-3,-2.0334354E-2,2.4602678E-2,-4.068494E-2,6.596253E-2,2.4827713E-2,-3.4265142E-2,1.932452E-2,-1.3450252E-2,5.1089576E-3,9.672242E-3,2.8120656E-2,-2.996707E-2,4.456259E-2],"categories":[],"categories_nodes":[],"categories_segments":[],"categories_sizes":[],"default_left":[0,0,0,0,0,0,0,0,0,0,0,0,0,0,0,0,0,0,0,0,0,0,0,0,0,0,0,0,0,0,0,0,0,0,0,0,0,0,0,0,0,0,0,0,0,0,0,0,0,0,0,0,0,0,0,0,0,0,0,0,0,0,0,0,0,0,0,0,0,0,0,0,0,0,0,0,0,0,0,0,0,0,0,0,0,0,0,0,0,0,0,0,0,0,0,0,0,0,0,0,0,0,0,0,0,0,0,0,0,0,0,0,0,0,0,0,0,0,0,0,0,0,0],"id":0,"left_children":[1,3,5,7,9,11,13,15,17,19,21,23,25,27,29,31,33,35,37,39,41,43,45,47,49,51,53,55,57,59,61,63,65,67,69,71,73,75,77,79,-1,81,83,85,87,89,91,93,-1,95,97,99,101,103,105,107,109,111,113,115,117,119,121,-1,-1,-1,-1,-1,-1,-1,-1,-1,-1,-1,-1,-1,-1,-1,-1,-1,-1,-1,-1,-1,-1,-1,-1,-1,-1,-1,-1,-1,-1,-1,-1,-1,-1,-1,-1,-1,-1,-1,-1,-1,-1,-1,-1,-1,-1,-1,-1,-1,-1,-1,-1,-1,-1,-1,-1,-1,-1,-1,-1],"loss_changes":[6.903208E3,8.19619E3,2.1588271E3,4.9742036E3,3.42625E2,1.1226567E3,3.2499698E2,8.058518E2,9.0484326E2,5.1624977E1,2.2437793E2,8.930419E2,6.758032E2,1.1757343E3,2.0707649E2,2.0722534E2,2.7595953E2,2.1755989E2,1.22382324E2,1.175882E1,2.4843546E1,8.022461E0,3.9758698E1,1.8405884E1,2.8754797E2,1.828003E2,2.399165E2,4.773587E1,2.4367065E1,1.17666275E2,2.2548416E1,3.934912E1,5.9483765E1,4.426129E1,1.0673563E2,4.2060738E1,6.479202E1,4.7003845E1,3.0510132E1,1.4310341E0,0E0,1.6833687E-1,3.1321283E1,6.65954E1,4.5654297E0,4.4362926E0,1.532674E1,2.2595124E0,0E0,4.0658813E1,6.44755E1,4.432373E1,4.6188965E1,5.2179077E1,9.046777E1,2.8917877E1,1.939019E1,8.619438E0,5.90625E0,3.2131958E1,5.9795715E1,1.2697861E1,6.680237E0,0E0,0E0,0E0,0E0,0E0,0E0,0E0,0E0,0E0,0E0,0E0,0E0,0E0,0E0,0E0,0E0,0E0,0E0,0E0,0E0,0E0,0E0,0E0,0E0,0E0,0E0,0E0,0E0,0E0,0E0,0E0,0E0,0E0,0E0,0E0,0E0,0E0,0E0,0E0,0E0,0E0,0E0,0E0,0E0,0E0,0E0,0E0,0E0,0E0,0E0,0E0,0E0,0E0,0E0,0E0,0E0,0E0,0E0,0E0,0E0],"parents":[2147483647,0,0,1,1,2,2,3,3,4,4,5,5,6,6,7,7,8,8,9,9,10,10,11,11,12,12,13,13,14,14,15,15,16,16,17,17,18,18,19,19,20,20,21,21,22,22,23,23,24,24,25,25,26,26,27,27,28,28,29,29,30,30,31,31,32,32,33,33,34,34,35,35,36,36,37,37,38,38,39,39,41,41,42,42,43,43,44,44,45,45,46,46,47,47,49,49,50,50,51,51,52,52,53,53,54,54,55,55,56,56,57,57,58,58,59,59,60,60,61,61,62,62],"right_children":[2,4,6,8,10,12,14,16,18,20,22,24,26,28,30,32,34,36,38,40,42,44,46,48,50,52,54,56,58,60,62,64,66,68,70,72,74,76,78,80,-1,82,84,86,88,90,92,94,-1,96,98,100,102,104,106,108,110,112,114,116,118,120,122,-1,-1,-1,-1,-1,-1,-1,-1,-1,-1,-1,-1,-1,-1,-1,-1,-1,-1,-1,-1,-1,-1,-1,-1,-1,-1,-1,-1,-1,-1,-1,-1,-1,-1,-1,-1,-1,-1,-1,-1,-1,-1,-1,-1,-1,-1,-1,-1,-1,-1,-1,-1,-1,-1,-1,-1,-1,-1,-1,-1],"split_conditions":[3.4E1,3.3E1,1.3548615E2,2.1697006E2,5.998726E-1,1E1,8.7E1,7.316626E1,3.7255847E2,1.6371937E3,6.00907E-1,8.7E1,-3.877842E1,8.6E1,2.92E2,5.389698E1,-5.2622787E1,-3.5208553E1,4.7102768E2,3.54E2,1.764706E-1,8.6E1,1.6907528E3,8.6E1,3.94E2,-3.955618E1,-2.0558538E1,1.2988061E1,5.9670277E-2,2.3225065E1,1E0,1.447728E0,2.536824E2,-2.492558E2,2.4000262E2,-1.8421628E2,1.6196143E2,-1.13969246E2,1.294957E2,1E0,-4.20572E-2,1.7558428E3,2.0832712E2,1.7879845E3,1.03E2,9.277425E-2,2.1319373E2,3E0,6.6160694E-2,2.37E2,2.3E2,7E1,6.2E-1,1.25E2,6.8117805E1,1E0,2.857143E-1,3E0,6.0065534E-2,3.3072073E2,2.3740518E2,4.84E2,2E-1,-8.547954E-2,-6.612316E-2,-5.126856E-2,-2.2799203E-2,-7.043785E-2,-4.178415E-2,-2.1452134E-2,7.063934E-4,-3.52874E-2,-9.598318E-3,5.1480024E-3,1.8462816E-2,-2.5133349E-3,3.2246865E-2,3.838659E-2,5.232447E-2,6.080633E-2,1.2206406E-2,5.1563628E-2,6.303324E-3,-3.6535542E-2,1.1125571E-2,6.393208E-2,8.8314683E-4,6.685054E-2,5.231997E-2,5.5034846E-2,2.0806666E-3,-4.6440523E-2,1.3315238E-2,7.7643753E-3,-4.5623295E-2,-5.1666375E-2,-2.8946195E-2,1.9495659E-2,-1.2371606E-2,-9.035478E-2,-5.3933233E-2,-6.7646146E-2,-5.0281335E-2,-6.0549844E-2,-1.6066948E-2,-3.9052278E-2,-2.4251664E-2,-2.6216751E-2,-6.1901957E-2,3.223978E-3,-2.0334354E-2,2.4602678E-2,-4.068494E-2,6.596253E-2,2.4827713E-2,-3.4265142E-2,1.932452E-2,-1.3450252E-2,5.1089576E-3,9.672242E-3,2.8120656E-2,-2.996707E-2,4.456259E-2],"split_indices":[0,0,6,6,48,50,1,6,6,2,48,1,7,1,1,7,7,7,6,49,35,1,2,1,1,6,6,7,44,7,72,6,7,7,7,7,7,7,7,17,0,2,6,2,1,44,7,41,0,1,0,38,45,38,6,52,15,40,44,6,6,1,14,0,0,0,0,0,0,0,0,0,0,0,0,0,0,0,0,0,0,0,0,0,0,0,0,0,0,0,0,0,0,0,0,0,0,0,0,0,0,0,0,0,0,0,0,0,0,0,0,0,0,0,0,0,0,0,0,0,0,0,0],"split_type":[0,0,0,0,0,0,0,0,0,0,0,0,0,0,0,0,0,0,0,0,0,0,0,0,0,0,0,0,0,0,0,0,0,0,0,0,0,0,0,0,0,0,0,0,0,0,0,0,0,0,0,0,0,0,0,0,0,0,0,0,0,0,0,0,0,0,0,0,0,0,0,0,0,0,0,0,0,0,0,0,0,0,0,0,0,0,0,0,0,0,0,0,0,0,0,0,0,0,0,0,0,0,0,0,0,0,0,0,0,0,0,0,0,0,0,0,0,0,0,0,0,0,0],"sum_hessian":[3.589778E4,2.1412201E4,1.4485581E4,1.4547472E4,6.864729E3,9.823735E3,4.6618457E3,6.238254E3,8.309218E3,1.9343129E2,6.671298E3,1.8226451E3,8.0010903E3,1.5156534E3,3.1461921E3,2.1873635E3,4.0508904E3,4.4733354E3,3.8358826E3,3.4068134E1,1.5936316E2,6.5883984E3,8.2899124E1,3.6623245E2,1.4564127E3,2.627978E3,5.373113E3,7.504453E2,7.652081E2,2.6234355E3,5.227566E2,1.2387552E3,9.486083E2,9.6034283E2,3.0905476E3,8.115787E2,3.6617566E3,1.7838453E3,2.0520374E3,3.293253E1,1.1356045E0,1.1166778E1,1.4819638E2,5.0212643E2,6.086272E3,1.9305277E1,6.359385E1,3.9746156E0,3.622578E2,8.2728784E2,6.291249E2,9.6034283E2,1.6676351E3,1.1723224E3,4.20079E3,2.4188376E2,5.0856152E2,1.9873077E1,7.453351E2,6.5013354E2,1.973302E3,4.2869067E2,9.40659E1,5.505789E2,6.8817633E2,6.8874414E2,2.5986417E2,1.71287E2,7.8905585E2,2.3874192E3,7.031284E2,2.1652191E2,5.9505676E2,1.7758961E3,1.8858605E3,1.027722E2,1.6810731E3,6.0546643E2,1.4465708E3,2.9525717E1,3.4068134E0,1.0031173E1,1.1356045E0,9.747272E1,5.0723667E1,4.559452E2,4.6181248E1,5.9698726E3,1.1639946E2,1.3816521E1,5.4887547E0,5.1670002E1,1.1923847E1,2.0819416E0,1.8926741E0,4.4875302E2,3.7853482E2,3.107771E2,3.1834778E2,8.496214E2,1.10721436E2,7.854598E2,8.821754E2,1.0994543E3,7.286795E1,2.2462256E3,1.9545646E3,1.370296E2,1.0485415E2,1.10721436E2,3.978401E2,1.5898462E1,3.9746156E0,7.317078E2,1.3627254E1,6.2268976E2,2.7443775E1,1.3322533E3,6.410487E2,2.9014694E2,1.3854375E2,1.1356045E0,9.29303E1],"tree_param":{"num_deleted":"0","num_feature":"79","num_nodes":"123","size_leaf_vector":"1"}},{"base_weights":[5.083451E-4,3.463331E-1,-4.9955574E-1,-6.079548E-2,1.2379047E0,-7.058748E-1,1.3082446E-1,-6.310624E-1,4.76821E-1,-4.6304494E-2,1.2764475E0,-6.60541E-2,-8.4947014E-1,5.4293436E-1,-6.803085E-2,-1.0452168E0,-3.431394E-1,2.146054E-1,8.237982E-1,1.0300869E0,-2.6730132E-1,1.2973336E0,-3.051923E-1,1.277227E0,-3.8309795E-1,-1.2454642E0,-6.631385E-1,-3.4737557E-1,1.2650063E0,-1.7463046E-1,4.6544996E-1,-1.3616891E0,-8.198202E-1,-6.027102E-1,-1.2048538E-1,-2.7360752E-1,3.0740273E-1,7.0855737E-1,1.04867E0,1.1687843E0,-3.269453E-2,9.8036885E-1,-3.7914777E-1,1.1392947E0,1.3098415E0,8.257219E-1,-6.579269E-1,-5.540199E-1,6.5124474E-2,-6.867441E-1,1.1506532E-1,-1.5809234E0,-1.0521277E0,-9.1650957E-1,-5.018339E-1,-5.7857525E-1,-9.0873666E-2,1.8430533E-1,1.2900181E0,-6.2047046E-1,-8.550017E-2,3.770047E-1,8.722756E-1,-7.611811E-2,-5.31826E-2,-4.6406064E-2,-1.9534556E-2,-5.0530653E-2,-2.542063E-2,-1.0123066E-2,1.0576936E-2,-4.076906E-2,-7.7990987E-3,9.740711E-3,2.2234777E-2,2.7754325E-2,4.351704E-2,7.4078673E-3,5.292595E-2,5.9677567E-2,1.0673918E-2,5.740919E-3,5.1329136E-2,-3.3299875E-2,1.1516772E-2,6.384033E-2,8.618009E-3,6.574819E-2,5.1095754E-2,5.4017007E-2,2.0147655E-3,-1.456932E-2,-6.485676E-2,9.747212E-3,-4.993705E-2,-4.4147767E-2,-2.3207514E-2,2.0423781E-2,-1.3154129E-2,-8.1554055E-2,-4.586455E-2,-5.5119257E-2,-1.7816644E-2,-3.3906117E-2,-5.017051E-2,-3.369983E-2,-1.9277258E-2,-1.8993849E-2,-4.443519E-2,-1.913704E-2,7.548234E-3,2.6993776E-2,-3.95704E-2,6.480632E-2,8.353293E-3,-3.4006424E-2,1.5539966E-2,-6.415871E-3,2.5707383E-2,2.2029204E-2,-1.2973848E-3,-1.4100409E-2,4.8135452E-2],"categories":[],"categories_nodes":[],"categories_segments":[],"categories_sizes":[],"default_left":[0,0,0,0,0,0,0,0,0,0,0,0,0,0,0,0,0,0,0,0,0,0,0,0,0,0,0,0,0,0,0,0,0,0,0,0,0,0,0,0,0,0,0,0,0,0,0,0,0,0,0,0,0,0,0,0,0,0,0,0,0,0,0,0,0,0,0,0,0,0,0,0,0,0,0,0,0,0,0,0,0,0,0,0,0,0,0,0,0,0,0,0,0,0,0,0,0,0,0,0,0,0,0,0,0,0,0,0,0,0,0,0,0,0,0,0,0,0,0,0,0,0,0],"id":1,"left_children":[1,3,5,7,9,11,13,15,17,19,21,23,25,27,29,31,33,35,37,39,41,43,45,47,49,51,53,55,57,59,61,63,65,67,69,71,73,75,77,79,-1,81,83,85,87,89,91,93,-1,95,97,99,101,103,105,107,109,111,113,115,117,119,121,-1,-1,-1,-1,-1,-1,-1,-1,-1,-1,-1,-1,-1,-1,-1,-1,-1,-1,-1,-1,-1,-1,-1,-1,-1,-1,-1,-1,-1,-1,-1,-1,-1,-1,-1,-1,-1,-1,-1,-1,-1,-1,-1,-1,-1,-1,-1,-1,-1,-1,-1,-1,-1,-1,-1,-1,-1,-1,-1,-1],"loss_changes":[6.2079644E3,7.7033633E3,1.9090415E3,4.468389E3,3.2947656E2,1.0157539E3,2.968905E2,8.422759E2,6.8205164E2,4.7628693E1,2.145625E2,8.660229E2,6.638545E2,7.5928357E2,1.393123E2,2.0343896E2,2.4116061E2,1.9402765E2,8.1427E1,1.0264851E1,2.42266E1,8.125E0,3.6180542E1,2.0130005E1,2.4902512E2,1.8219775E2,2.4986426E2,3.1294369E1,1.6901855E1,8.0919655E1,1.369696E1,5.266919E1,7.794983E1,7.260358E1,6.1419674E1,4.325324E1,5.531665E1,5.177466E1,9.175171E0,7.1983337E-3,0E0,2.2486973E-1,2.7411226E1,6.457568E1,4.6533203E0,4.2535048E0,1.4725588E1,3.0452385E0,0E0,4.3419403E1,6.971473E1,3.04375E1,6.3161133E1,4.7421143E1,7.455298E1,1.6141502E1,1.8171158E1,7.610343E0,3.7158203E0,1.9493652E1,4.3945625E1,8.757477E0,8.18322E0,0E0,0E0,0E0,0E0,0E0,0E0,0E0,0E0,0E0,0E0,0E0,0E0,0E0,0E0,0E0,0E0,0E0,0E0,0E0,0E0,0E0,0E0,0E0,0E0,0E0,0E0,0E0,0E0,0E0,0E0,0E0,0E0,0E0,0E0,0E0,0E0,0E0,0E0,0E0,0E0,0E0,0E0,0E0,0E0,0E0,0E0,0E0,0E0,0E0,0E0,0E0,0E0,0E0,0E0,0E0,0E0,0E0,0E0,0E0,0E0],"parents":[2147483647,0,0,1,1,2,2,3,3,4,4,5,5,6,6,7,7,8,8,9,9,10,10,11,11,12,12,13,13,14,14,15,15,16,16,17,17,18,18,19,19,20,20,21,21,22,22,23,23,24,24,25,25,26,26,27,27,28,28,29,29,30,30,31,31,32,32,33,33,34,34,35,35,36,36,37,37,38,38,39,39,41,41,42,42,43,43,44,44,45,45,46,46,47,47,49,49,50,50,51,51,52,52,53,53,54,54,55,55,56,56,57,57,58,58,59,59,60,60,61,61,62,62],"right_children":[2,4,6,8,10,12,14,16,18,20,22,24,26,28,30,32,34,36,38,40,42,44,46,48,50,52,54,56,58,60,62,64,66,68,70,72,74,76,78,80,-1,82,84,86,88,90,92,94,-1,96,98,100,102,104,106,108,110,112,114,116,118,120,122,-1,-1,-1,-1,-1,-1,-1,-1,-1,-1,-1,-1,-1,-1,-1,-1,-1,-1,-1,-1,-1,-1,-1,-1,-1,-1,-1,-1,-1,-1,-1,-1,-1,-1,-1,-1,-1,-1,-1,-1,-1,-1,-1,-1,-1,-1,-1,-1,-1,-1,-1,-1,-1,-1,-1,-1,-1,-1,-1,-1],"split_conditions":[3.4E1,3.3E1,1.6261385E2,2.3975227E2,5.998726E-1,1E1,8.7E1,9.989708E1,3.9754483E2,1.6273386E3,6.00907E-1,8.8E1,-5.232574E0,8.6E1,2.92E2,-1.0915363E1,6.4265495E1,-4.2570267E1,5.603503E2,3.27E2,1.764706E-1,8.6E1,1.6907528E3,8.6E1,4.19E2,-7.116772E1,9.446487E0,8.8889656E1,5.9670277E-2,-8.236834E0,1E0,4.9997807E1,2.536824E2,-1.6541695E2,3.036682E2,-2.364108E2,3.1955923E2,1.972347E2,-2.9935648E2,1E0,-3.269453E-2,-1.7742366E2,2.1036742E2,1.7535416E3,1.03E2,9.277425E-2,9.40614E-2,3E0,6.5124474E-2,2.37E2,2.67E2,4E0,1.25E2,6.7E1,6.8117805E1,1E0,6E1,3E0,9.810943E-2,3.3072073E2,3.4617935E2,1.5210281E3,4.090909E-1,-7.611811E-2,-5.31826E-2,-4.6406064E-2,-1.9534556E-2,-5.0530653E-2,-2.542063E-2,-1.0123066E-2,1.0576936E-2,-4.076906E-2,-7.7990987E-3,9.740711E-3,2.2234777E-2,2.7754325E-2,4.351704E-2,7.4078673E-3,5.292595E-2,5.9677567E-2,1.0673918E-2,5.740919E-3,5.1329136E-2,-3.3299875E-2,1.1516772E-2,6.384033E-2,8.618009E-3,6.574819E-2,5.1095754E-2,5.4017007E-2,2.0147655E-3,-1.456932E-2,-6.485676E-2,9.747212E-3,-4.993705E-2,-4.4147767E-2,-2.3207514E-2,2.0423781E-2,-1.3154129E-2,-8.1554055E-2,-4.586455E-2,-5.5119257E-2,-1.7816644E-2,-3.3906117E-2,-5.017051E-2,-3.369983E-2,-1.9277258E-2,-1.8993849E-2,-4.443519E-2,-1.913704E-2,7.548234E-3,2.6993776E-2,-3.95704E-2,6.480632E-2,8.353293E-3,-3.4006424E-2,1.5539966E-2,-6.415871E-3,2.5707383E-2,2.2029204E-2,-1.2973848E-3,-1.4100409E-2,4.8135452E-2],"split_indices":[0,0,6,6,48,50,1,6,6,2,48,1,6,1,1,7,7,7,6,49,35,1,2,1,1,7,7,7,44,7,72,6,7,7,7,7,6,7,7,58,0,7,6,2,1,44,44,41,0,1,0,25,38,49,6,52,50,40,43,6,6,3,36,0,0,0,0,0,0,0,0,0,0,0,0,0,0,0,0,0,0,0,0,0,0,0,0,0,0,0,0,0,0,0,0,0,0,0,0,0,0,0,0,0,0,0,0,0,0,0,0,0,0,0,0,0,0,0,0,0,0,0,0],"split_type":[0,0,0,0,0,0,0,0,0,0,0,0,0,0,0,0,0,0,0,0,0,0,0,0,0,0,0,0,0,0,0,0,0,0,0,0,0,0,0,0,0,0,0,0,0,0,0,0,0,0,0,0,0,0,0,0,0,0,0,0,0,0,0,0,0,0,0,0,0,0,0,0,0,0,0,0,0,0,0,0,0,0,0,0,0,0,0,0,0,0,0,0,0,0,0,0,0,0,0,0,0,0,0,0,0,0,0,0,0,0,0,0,0,0,0,0,0,0,0,0,0,0,0],"sum_hessian":[3.5891773E4,2.1218684E4,1.4673089E4,1.4568774E4,6.6499106E3,1.1054627E4,3.618462E3,7.0694556E3,7.4993184E3,1.9374979E2,6.4561606E3,2.0270485E3,9.027579E3,1.1760377E3,2.4424243E3,2.8959585E3,4.173497E3,4.2741426E3,3.2251755E3,3.113241E1,1.6261739E2,6.3725483E3,8.361233E1,3.8533582E2,1.6417126E3,2.8831743E3,6.1444043E3,5.273614E2,6.486764E2,2.0373424E3,4.0508176E2,1.1983163E3,1.6976422E3,1.9246332E3,2.248864E3,6.817205E2,3.592422E3,2.1406191E3,1.0845564E3,2.9611347E1,1.5210638E0,1.1461873E1,1.511555E2,4.876251E2,5.8849233E3,1.8922266E1,6.4690056E1,4.3890395E0,3.8094678E2,1.0192886E3,6.22424E2,1.046264E3,1.8369103E3,2.3846467E3,3.7597576E3,2.7537943E2,2.5198196E2,1.5241359E1,6.33435E2,3.3645773E2,1.7008848E3,3.3749033E2,6.759143E1,7.705732E2,4.2774307E2,1.3527539E3,3.448883E2,3.5591226E2,1.568721E3,1.8045066E3,4.4435748E2,1.184328E2,5.632877E2,1.9777788E3,1.6146433E3,1.105353E3,1.0352662E3,1.2254133E1,1.0723022E3,2.8133781E1,1.4775658E0,1.110808E0,1.0351066E1,1.0259269E2,4.8562824E1,4.2607043E2,6.155466E1,5.7715454E3,1.13377945E2,1.3439142E1,5.4831243E0,4.3889893E1,2.0800167E1,2.2629323E0,2.1261072E0,5.37019E2,4.822696E2,3.5034543E2,2.7207855E2,9.686775E2,7.758657E1,1.7115327E3,1.25377556E2,6.4411414E2,1.7405326E3,1.5099407E3,2.249817E3,1.7191121E2,1.0346821E2,1.1338875E2,1.3859322E2,1.2152716E1,3.088643E0,6.2954803E2,3.887019E0,3.1696188E2,1.9495846E1,1.5897297E3,1.11155014E2,2.9125485E2,4.623549E1,4.449043E0,6.314239E1],"tree_param":{"num_deleted":"0","num_feature":"79","num_nodes":"123","size_leaf_vector":"1"}},{"base_weights":[9.5692545E-4,3.327131E-1,-4.6886086E-1,-5.743756E-2,1.2163321E0,-6.6187876E-1,1.17513664E-1,-5.905515E-1,4.588233E-1,-4.251331E-2,1.2554541E0,-1.2417588E-2,-7.833661E-1,5.1358294E-1,-7.054332E-2,-9.69013E-1,-3.232655E-1,2.050429E-1,7.999846E-1,1.0078135E0,-2.5144878E-1,1.2766902E0,-2.8847995E-1,1.2811422E0,-3.2530028E-1,-1.1432751E0,-6.1331093E-1,-3.3502808E-1,1.2445892E0,-1.6688634E-1,4.1813555E-1,-1.2538248E0,-7.6380837E-1,-5.643661E-1,-1.1410153E-1,-2.5838006E-1,2.9438594E-1,6.85904E-1,1.0246208E0,5.7423014E-2,-3.1969164E-2,9.620198E-1,-3.5729647E-1,1.1164489E0,1.2894346E0,8.065456E-1,-6.1956465E-1,6.994842E-4,6.433415E-2,-5.9455967E-1,1.8381776E-1,-1.4479163E0,-9.686734E-1,-8.4739435E-1,-4.6606714E-1,-5.4785347E-1,-9.209744E-2,2.0962086E-1,1.2697293E0,-5.4291475E-1,-7.82771E-2,-7.178371E-1,4.4792047E-1,-6.984735E-2,-4.9290214E-2,-4.312729E-2,-1.8388992E-2,-4.6338346E-2,-2.3700913E-2,-1.2067634E-2,4.1459333E-3,-3.8039744E-2,-7.3825098E-3,1.0450291E-2,2.3269616E-2,2.6755748E-2,4.2309083E-2,7.132417E-3,5.1725198E-2,5.286166E-3,5.0454307E-2,-3.564746E-2,4.361453E-3,6.3245215E-2,1.0801427E-2,6.473295E-2,4.991892E-2,5.3048432E-2,1.9509487E-3,-4.1239973E-2,1.3889897E-2,-3.81818E-2,-1.5166822E-2,2.092945E-2,-1.6220903E-2,-7.458544E-2,-4.2767487E-2,-5.112579E-2,-1.9654525E-2,-4.619829E-2,-2.8523535E-2,-2.5536954E-2,4.90387E-3,-1.815408E-2,-4.1625258E-2,-1.7772434E-2,6.411969E-3,2.7167544E-2,-3.4867246E-2,6.37966E-2,7.4639763E-3,-3.1713307E-2,-1.0482416E-3,-5.8812853E-3,2.4220077E-2,-5.1799126E-2,6.7321504E-3,1.8090969E-2,4.2448014E-2],"categories":[],"categories_nodes":[],"categories_segments":[],"categories_sizes":[],"default_left":[0,0,0,0,0,0,0,0,0,0,0,0,0,0,0,0,0,0,0,0,0,0,0,0,0,0,0,0,0,0,0,0,0,0,0,0,0,0,0,0,0,0,0,0,0,0,0,0,0,0,0,0,0,0,0,0,0,0,0,0,0,0,0,0,0,0,0,0,0,0,0,0,0,0,0,0,0,0,0,0,0,0,0,0,0,0,0,0,0,0,0,0,0,0,0,0,0,0,0,0,0,0,0,0,0,0,0,0,0,0,0,0,0,0,0,0,0,0,0],"id":2,"left_children":[1,3,5,7,9,11,13,15,17,19,21,23,25,27,29,31,33,35,37,39,41,43,45,47,49,51,53,55,57,59,61,63,65,67,69,71,73,75,77,-1,-1,79,81,83,85,87,89,-1,-1,91,93,95,97,99,101,103,105,107,109,111,113,115,117,-1,-1,-1,-1,-1,-1,-1,-1,-1,-1,-1,-1,-1,-1,-1,-1,-1,-1,-1,-1,-1,-1,-1,-1,-1,-1,-1,-1,-1,-1,-1,-1,-1,-1,-1,-1,-1,-1,-1,-1,-1,-1,-1,-1,-1,-1,-1,-1,-1,-1,-1,-1,-1,-1,-1,-1],"loss_changes":[5.5900605E3,7.247091E3,1.6802605E3,4.015045E3,3.1726172E2,8.811504E2,2.7410617E2,7.2504785E2,6.4118933E2,4.3986076E1,2.0585645E2,7.1476874E2,5.737178E2,7.361559E2,1.1776761E2,1.7065527E2,2.1215076E2,1.7635979E2,7.8882324E1,9.913139E0,2.2441639E1,8.262695E0,3.3104786E1,2.360962E0,1.9525807E2,1.5618555E2,2.1925977E2,2.8315842E1,1.577771E1,6.944004E1,1.4906601E1,4.3384766E1,6.682922E1,6.2701538E1,5.668153E1,3.800313E1,5.180066E1,4.9516785E1,8.782471E0,0E0,0E0,2.5168705E-1,2.477162E1,6.283905E1,4.7695312E0,4.0825005E0,1.3327831E1,0E0,0E0,4.5135925E1,5.937305E1,2.4523926E1,5.847876E1,5.0708008E1,9.926239E1,1.4497452E1,1.5265444E1,6.797236E0,3.7471924E0,1.892125E1,3.7659866E1,3.5864348E0,1.3007156E1,0E0,0E0,0E0,0E0,0E0,0E0,0E0,0E0,0E0,0E0,0E0,0E0,0E0,0E0,0E0,0E0,0E0,0E0,0E0,0E0,0E0,0E0,0E0,0E0,0E0,0E0,0E0,0E0,0E0,0E0,0E0,0E0,0E0,0E0,0E0,0E0,0E0,0E0,0E0,0E0,0E0,0E0,0E0,0E0,0E0,0E0,0E0,0E0,0E0,0E0,0E0,0E0,0E0,0E0,0E0,0E0],"parents":[2147483647,0,0,1,1,2,2,3,3,4,4,5,5,6,6,7,7,8,8,9,9,10,10,11,11,12,12,13,13,14,14,15,15,16,16,17,17,18,18,19,19,20,20,21,21,22,22,23,23,24,24,25,25,26,26,27,27,28,28,29,29,30,30,31,31,32,32,33,33,34,34,35,35,36,36,37,37,38,38,41,41,42,42,43,43,44,44,45,45,46,46,49,49,50,50,51,51,52,52,53,53,54,54,55,55,56,56,57,57,58,58,59,59,60,60,61,61,62,62],"right_children":[2,4,6,8,10,12,14,16,18,20,22,24,26,28,30,32,34,36,38,40,42,44,46,48,50,52,54,56,58,60,62,64,66,68,70,72,74,76,78,-1,-1,80,82,84,86,88,90,-1,-1,92,94,96,98,100,102,104,106,108,110,112,114,116,118,-1,-1,-1,-1,-1,-1,-1,-1,-1,-1,-1,-1,-1,-1,-1,-1,-1,-1,-1,-1,-1,-1,-1,-1,-1,-1,-1,-1,-1,-1,-1,-1,-1,-1,-1,-1,-1,-1,-1,-1,-1,-1,-1,-1,-1,-1,-1,-1,-1,-1,-1,-1,-1,-1,-1,-1],"split_conditions":[3.4E1,3.3E1,1.6081032E2,2.3975227E2,5.998726E-1,8E0,8.7E1,9.989708E1,3.9754483E2,1.6273386E3,6.00907E-1,9.2E1,-5.232574E0,8.6E1,2.92E2,-1.0915363E1,6.4265495E1,-4.2570267E1,5.603503E2,3.27E2,1.764706E-1,8.6E1,1.6907528E3,8.6E1,4.84E2,-7.116772E1,9.446487E0,8.8889656E1,5.9670277E-2,2.56931E0,1.6261385E2,4.9997807E1,2.536824E2,-1.5990524E2,2.2165076E2,-2.364108E2,3.381747E2,1.972347E2,-2.9935648E2,5.7423014E-2,-3.1969164E-2,4.7998864E-2,1.6817671E2,1.7402621E3,1.03E2,9.277425E-2,2.1319373E2,6.994842E-4,6.433415E-2,2.92E2,3.98E2,4E0,1E0,2.6E1,1E0,1E0,6E1,3E0,6.00907E-1,1.99E2,3.4617935E2,4.375E-1,1E0,-6.984735E-2,-4.9290214E-2,-4.312729E-2,-1.8388992E-2,-4.6338346E-2,-2.3700913E-2,-1.2067634E-2,4.1459333E-3,-3.8039744E-2,-7.3825098E-3,1.0450291E-2,2.3269616E-2,2.6755748E-2,4.2309083E-2,7.132417E-3,5.1725198E-2,5.286166E-3,5.0454307E-2,-3.564746E-2,4.361453E-3,6.3245215E-2,1.0801427E-2,6.473295E-2,4.991892E-2,5.3048432E-2,1.9509487E-3,-4.1239973E-2,1.3889897E-2,-3.81818E-2,-1.5166822E-2,2.092945E-2,-1.6220903E-2,-7.458544E-2,-4.2767487E-2,-5.112579E-2,-1.9654525E-2,-4.619829E-2,-2.8523535E-2,-2.5536954E-2,4.90387E-3,-1.815408E-2,-4.1625258E-2,-1.7772434E-2,6.411969E-3,2.7167544E-2,-3.4867246E-2,6.37966E-2,7.4639763E-3,-3.1713307E-2,-1.0482416E-3,-5.8812853E-3,2.4220077E-2,-5.1799126E-2,6.7321504E-3,1.8090969E-2,4.2448014E-2],"split_indices":[0,0,6,6,48,50,1,6,6,2,48,1,6,1,1,7,7,7,6,49,35,1,2,1,1,7,7,7,44,7,6,6,7,7,7,7,6,7,7,0,0,43,6,2,1,44,7,0,0,1,0,25,60,38,60,52,50,40,48,1,6,13,72,0,0,0,0,0,0,0,0,0,0,0,0,0,0,0,0,0,0,0,0,0,0,0,0,0,0,0,0,0,0,0,0,0,0,0,0,0,0,0,0,0,0,0,0,0,0,0,0,0,0,0,0,0,0,0,0],"split_type":[0,0,0,0,0,0,0,0,0,0,0,0,0,0,0,0,0,0,0,0,0,0,0,0,0,0,0,0,0,0,0,0,0,0,0,0,0,0,0,0,0,0,0,0,0,0,0,0,0,0,0,0,0,0,0,0,0,0,0,0,0,0,0,0,0,0,0,0,0,0,0,0,0,0,0,0,0,0,0,0,0,0,0,0,0,0,0,0,0,0,0,0,0,0,0,0,0,0,0,0,0,0,0,0,0,0,0,0,0,0,0,0,0,0,0,0,0,0,0],"sum_hessian":[3.5858766E4,2.101802E4,1.4840747E4,1.4582229E4,6.435792E3,1.1165118E4,3.6756282E3,7.1738057E3,7.4084224E3,1.9397308E2,6.241819E3,1.7599385E3,9.40518E3,1.1816812E3,2.493947E3,2.9661018E3,4.207704E3,4.251014E3,3.1574084E3,3.0280603E1,1.6369247E2,6.1576416E3,8.4176926E1,3.409705E2,1.418968E3,3.0124294E3,6.392751E3,5.476037E2,6.3407745E2,2.084887E3,4.0905997E2,1.2356969E3,1.7304048E3,1.9522618E3,2.2554421E3,6.8617004E2,3.564844E3,2.102051E3,1.0553574E3,2.8735357E1,1.545247E0,1.1186064E1,1.5250641E2,4.732305E2,5.684411E3,1.854226E1,6.563467E1,1.530422E0,3.3944006E2,9.277837E2,4.9118433E2,1.0895422E3,1.9228872E3,2.462957E3,3.9297937E3,2.8988083E2,2.5772287E2,1.5701255E1,6.183762E2,3.9466748E2,1.6902196E3,8.680766E0,4.0037918E2,7.9730304E2,4.3839392E2,1.3822499E3,3.48155E2,3.840395E2,1.5682224E3,1.3699474E3,8.8549475E2,1.2073711E2,5.654329E2,2.38215E3,1.1826941E3,1.0897917E3,1.0122592E3,1.2208045E1,1.0431494E3,1.0902114E0,1.0095852E1,8.3716E1,6.8790405E1,4.052081E2,6.802242E1,5.574016E3,1.1039522E2,1.30645895E1,5.4776697E0,5.361502E1,1.2019648E1,5.83913E2,3.438706E2,3.363446E2,1.5483972E2,1.01032404E3,7.921821E1,1.7562694E3,1.6661781E2,1.9239585E3,5.3899866E2,3.6417078E3,2.880858E2,1.799191E2,1.0996174E2,1.1656377E2,1.4115909E2,1.2357055E1,3.3442001E0,6.145577E2,3.818519E0,3.353322E2,5.9335243E1,1.5819642E3,1.0825528E2,5.8512936E0,2.8294728E0,3.3431104E2,6.606815E1],"tree_param":{"num_deleted":"0","num_feature":"79","num_nodes":"119","size_leaf_vector":"1"}},{"base_weights":[1.3497644E-3,3.1974417E-1,-4.4065475E-1,-5.4309823E-2,1.1961819E0,-7.133119E-1,-7.6371156E-2,-5.9549356E-1,4.0309072E-1,-3.931528E-2,1.2359505E0,-8.3361864E-1,7.1884915E-2,-2.4052002E-1,2.8284064E-1,-1.0208304E0,-4.037663E-1,1.3488033E-1,7.37923E-1,9.4917786E-1,-2.444862E-1,1.2575568E0,-2.7101076E-1,-1.1358134E0,-6.823744E-1,9.7282034E-1,-3.1217492E-1,-6.724776E-1,-1.6365577E-1,7.415966E-1,4.898621E-2,-1.1200712E0,-5.304958E-1,-7.909411E-1,-2.7814406E-1,-2.7185893E-1,2.2746967E-1,5.708615E-1,9.164626E-1,1.0839622E0,-3.9972357E-2,-7.186621E-1,1.5610346E-2,1.0947628E0,1.2705722E0,7.880842E-1,-5.815575E-1,-1.426773E0,-1.0156902E0,-9.407476E-1,-5.910954E-1,-9.0020096E-1,1.2825712E0,-5.947628E-1,9.6471526E-2,-9.0043557E-1,-4.8051882E-1,1.0744791E-1,-2.7583012E-1,-1.6220279E-1,1.2401402E0,-2.8719608E-2,5.62324E-1,-7.412341E-2,-5.260579E-2,-7.116449E-2,-2.1751968E-2,-5.285684E-2,-3.360358E-2,-2.1828981E-2,-4.9074627E-3,-2.9217947E-2,-7.545234E-3,4.6438193E-3,1.6992118E-2,-9.821864E-4,3.0391563E-2,3.6262635E-2,4.9650993E-2,5.7937678E-2,1.0336053E-2,-6.767613E-2,-1.3499061E-2,-1.1792152E-2,2.1655207E-2,6.2276226E-2,1.0339762E-2,6.379586E-2,4.8784204E-2,5.2124333E-2,1.8891236E-3,-1.2172417E-2,-5.823269E-2,-5.2754313E-2,-7.6143086E-2,-6.1259683E-2,-4.4556405E-2,-4.8827898E-2,-1.7908517E-2,-1.5830179E-4,-3.1383917E-2,-6.434617E-2,-1.2951793E-2,6.427971E-2,5.0805835E-3,-4.640857E-2,-1.3190086E-2,2.2059122E-2,-2.7561024E-2,-3.1389352E-2,-5.8455702E-2,-4.143545E-2,-1.08740805E-2,-2.0706763E-2,5.9890766E-2,-1.8979073E-2,1.2683055E-2,-2.0507468E-2,4.341061E-3,-3.1082118E-3,6.2981114E-2,-4.589516E-3,2.2918357E-2,3.362363E-2,1.0196449E-2],"categories":[],"categories_nodes":[],"categories_segments":[],"categories_sizes":[],"default_left":[0,0,0,0,0,0,0,0,0,0,0,0,0,0,0,0,0,0,0,0,0,0,0,0,0,0,0,0,0,0,0,0,0,0,0,0,0,0,0,0,0,0,0,0,0,0,0,0,0,0,0,0,0,0,0,0,0,0,0,0,0,0,0,0,0,0,0,0,0,0,0,0,0,0,0,0,0,0,0,0,0,0,0,0,0,0,0,0,0,0,0,0,0,0,0,0,0,0,0,0,0,0,0,0,0,0,0,0,0,0,0,0,0,0,0,0,0,0,0,0,0,0,0,0,0],"id":3,"left_children":[1,3,5,7,9,11,13,15,17,19,21,23,25,27,29,31,33,35,37,39,41,43,45,47,49,51,53,55,57,59,61,63,65,67,69,71,73,75,77,79,-1,81,83,85,87,89,91,93,95,97,99,101,103,105,107,109,111,113,115,117,119,121,123,-1,-1,-1,-1,-1,-1,-1,-1,-1,-1,-1,-1,-1,-1,-1,-1,-1,-1,-1,-1,-1,-1,-1,-1,-1,-1,-1,-1,-1,-1,-1,-1,-1,-1,-1,-1,-1,-1,-1,-1,-1,-1,-1,-1,-1,-1,-1,-1,-1,-1,-1,-1,-1,-1,-1,-1,-1,-1,-1,-1,-1,-1],"loss_changes":[5.0393994E3,6.824007E3,1.4890854E3,3.612646E3,3.060713E2,8.1020996E2,3.788596E2,5.4389966E2,7.100288E2,4.0664616E1,1.9743262E2,3.3753564E2,3.9607462E2,1.460663E2,2.161216E2,9.919214E1,2.2369305E2,1.6571484E2,1.0333923E2,1.0728106E1,2.0455528E1,8.428711E0,3.0230724E1,8.218213E1,1.1538428E2,2.0191919E2,9.28995E1,2.7806213E1,1.140428E2,3.0714276E2,5.3428986E1,3.775464E1,2.8395393E1,3.357318E1,9.932245E1,3.0593689E1,5.408165E1,3.9876526E1,2.2655273E1,1.4657593E0,0E0,1.5629517E1,1.1840322E1,6.1074036E1,4.9160156E0,3.9220476E0,1.2864786E1,2.0752563E1,4.272461E1,2.5875488E1,7.9049194E1,1.1472984E1,6.6049194E-1,5.169371E1,7.459819E1,1.9819458E1,3.3117355E1,6.264166E2,1.4593932E2,1.5204058E1,1.1368103E1,3.592013E1,6.53981E0,0E0,0E0,0E0,0E0,0E0,0E0,0E0,0E0,0E0,0E0,0E0,0E0,0E0,0E0,0E0,0E0,0E0,0E0,0E0,0E0,0E0,0E0,0E0,0E0,0E0,0E0,0E0,0E0,0E0,0E0,0E0,0E0,0E0,0E0,0E0,0E0,0E0,0E0,0E0,0E0,0E0,0E0,0E0,0E0,0E0,0E0,0E0,0E0,0E0,0E0,0E0,0E0,0E0,0E0,0E0,0E0,0E0,0E0,0E0,0E0,0E0,0E0],"parents":[2147483647,0,0,1,1,2,2,3,3,4,4,5,5,6,6,7,7,8,8,9,9,10,10,11,11,12,12,13,13,14,14,15,15,16,16,17,17,18,18,19,19,20,20,21,21,22,22,23,23,24,24,25,25,26,26,27,27,28,28,29,29,30,30,31,31,32,32,33,33,34,34,35,35,36,36,37,37,38,38,39,39,41,41,42,42,43,43,44,44,45,45,46,46,47,47,48,48,49,49,50,50,51,51,52,52,53,53,54,54,55,55,56,56,57,57,58,58,59,59,60,60,61,61,62,62],"right_children":[2,4,6,8,10,12,14,16,18,20,22,24,26,28,30,32,34,36,38,40,42,44,46,48,50,52,54,56,58,60,62,64,66,68,70,72,74,76,78,80,-1,82,84,86,88,90,92,94,96,98,100,102,104,106,108,110,112,114,116,118,120,122,124,-1,-1,-1,-1,-1,-1,-1,-1,-1,-1,-1,-1,-1,-1,-1,-1,-1,-1,-1,-1,-1,-1,-1,-1,-1,-1,-1,-1,-1,-1,-1,-1,-1,-1,-1,-1,-1,-1,-1,-1,-1,-1,-1,-1,-1,-1,-1,-1,-1,-1,-1,-1,-1,-1,-1,-1,-1,-1,-1,-1,-1,-1],"split_conditions":[3.4E1,3.3E1,9.672715E1,2.2124922E2,5.998726E-1,1E0,2.1476785E2,5.9904995E1,3.7727832E2,1.6371937E3,6.00907E-1,-4.0709564E1,8.7E1,-4.645339E1,8.7E1,1.9983449E2,-5.2622787E1,-3.5208553E1,4.8891977E2,3.54E2,6.707251E0,8.6E1,1.6907528E3,-7.019071E1,-2.0558538E1,8.6E1,6.42E2,6.190939E-1,8.7E1,8.6E1,3.33E2,-1.8421628E2,-1.0798668E2,-1.9093141E2,1.5521242E2,-1.8421628E2,1.5131288E2,-1.13969246E2,1.294957E2,1E0,-3.9972357E-2,6.1686948E-2,2.0832712E2,1.7402621E3,1.03E2,9.277425E-2,9.40614E-2,4E-1,5.9819773E-2,1.25E2,2E0,1.6374713E3,3.71E2,6.707251E0,5.32E2,1E0,9.8E1,8.6E1,2.92E2,8.8889656E1,5.1304594E-2,3.4617935E2,3.91E2,-7.412341E-2,-5.260579E-2,-7.116449E-2,-2.1751968E-2,-5.285684E-2,-3.360358E-2,-2.1828981E-2,-4.9074627E-3,-2.9217947E-2,-7.545234E-3,4.6438193E-3,1.6992118E-2,-9.821864E-4,3.0391563E-2,3.6262635E-2,4.9650993E-2,5.7937678E-2,1.0336053E-2,-6.767613E-2,-1.3499061E-2,-1.1792152E-2,2.1655207E-2,6.2276226E-2,1.0339762E-2,6.379586E-2,4.8784204E-2,5.2124333E-2,1.8891236E-3,-1.2172417E-2,-5.823269E-2,-5.2754313E-2,-7.6143086E-2,-6.1259683E-2,-4.4556405E-2,-4.8827898E-2,-1.7908517E-2,-1.5830179E-4,-3.1383917E-2,-6.434617E-2,-1.2951793E-2,6.427971E-2,5.0805835E-3,-4.640857E-2,-1.3190086E-2,2.2059122E-2,-2.7561024E-2,-3.1389352E-2,-5.8455702E-2,-4.143545E-2,-1.08740805E-2,-2.0706763E-2,5.9890766E-2,-1.8979073E-2,1.2683055E-2,-2.0507468E-2,4.341061E-3,-3.1082118E-3,6.2981114E-2,-4.589516E-3,2.2918357E-2,3.362363E-2,1.0196449E-2],"split_indices":[0,0,6,6,48,60,6,6,6,2,48,7,1,7,1,7,7,7,6,49,7,1,2,6,6,1,1,45,1,1,1,7,6,7,6,7,7,7,7,17,0,43,6,2,1,44,44,11,43,38,50,4,50,7,0,52,50,1,1,7,44,6,49,0,0,0,0,0,0,0,0,0,0,0,0,0,0,0,0,0,0,0,0,0,0,0,0,0,0,0,0,0,0,0,0,0,0,0,0,0,0,0,0,0,0,0,0,0,0,0,0,0,0,0,0,0,0,0,0,0,0,0,0,0,0],"split_type":[0,0,0,0,0,0,0,0,0,0,0,0,0,0,0,0,0,0,0,0,0,0,0,0,0,0,0,0,0,0,0,0,0,0,0,0,0,0,0,0,0,0,0,0,0,0,0,0,0,0,0,0,0,0,0,0,0,0,0,0,0,0,0,0,0,0,0,0,0,0,0,0,0,0,0,0,0,0,0,0,0,0,0,0,0,0,0,0,0,0,0,0,0,0,0,0,0,0,0,0,0,0,0,0,0,0,0,0,0,0,0,0,0,0,0,0,0,0,0,0,0,0,0,0,0],"sum_hessian":[3.580254E4,2.0811775E4,1.4990765E4,1.4588414E4,6.2233604E3,8.571979E3,6.4187856E3,6.681794E3,7.9066206E3,1.9407324E2,6.029287E3,7.432931E3,1.139048E3,4.406253E3,2.0125325E3,2.0720615E3,4.6097324E3,4.392394E3,3.5142266E3,3.1488058E1,1.6258519E2,5.9445527E3,8.47346E1,2.4727344E3,4.960197E3,3.390645E2,7.999834E2,6.6211096E2,3.744142E3,6.7731647E2,1.335216E3,1.7200757E3,3.5198596E2,1.1253748E3,3.4843574E3,8.133942E2,3.5789998E3,1.8219751E3,1.6922513E3,3.0293358E1,1.1946993E0,5.5717937E1,1.0686725E2,4.5898608E2,5.4855664E3,1.8166388E1,6.656821E1,7.130261E2,1.7597083E3,1.2876035E3,3.672593E3,4.7304142E1,2.9176038E2,4.7212936E2,3.2785406E2,2.9761276E2,3.644982E2,1.0958386E3,2.6483035E3,2.415107E2,4.3580576E2,1.162132E3,1.73084E2,2.6175052E2,1.4583252E3,2.9967941E1,3.22018E2,3.4009308E2,7.8528174E2,1.8508875E3,1.6334701E3,2.237682E2,5.8962604E2,1.630984E3,1.9480159E3,1.0743045E2,1.7145447E3,4.928144E2,1.199437E3,2.7026432E1,3.2669258E0,2.0566866E1,3.515107E1,6.751111E1,3.9356136E1,3.913359E2,6.765017E1,5.378107E3,1.0745966E2,1.2694002E1,5.4723845E0,4.482747E1,2.1740738E1,1.5385014E2,5.5917596E2,6.462536E2,1.1134546E3,1.211128E3,7.647546E1,2.1532556E2,3.4572676E3,2.7622175E1,1.9681967E1,2.9075027E2,1.0100826E0,2.324983E2,2.3963106E2,2.1459831E2,1.1325575E2,1.5268317E2,1.449296E2,1.540827E2,2.104155E2,7.4251373E2,3.5332492E2,2.215112E3,4.331916E2,1.200445E2,1.21466194E2,6.326542E0,4.2947922E2,1.0310593E3,1.3107268E2,1.303832E2,4.27008E1],"tree_param":{"num_deleted":"0","num_feature":"79","num_nodes":"125","size_leaf_vector":"1"}},{"base_weights":[1.666011E-3,3.0732772E-1,-4.1464213E-1,-5.1406313E-2,1.1772557E0,-5.795459E-1,1.1678509E-1,-5.2041924E-1,4.252115E-1,-3.7734494E-2,1.217761E0,-2.5011337E-1,-7.6156354E-1,4.8986903E-1,-5.4586895E-2,-9.127819E-1,-3.2911506E-1,1.8772423E-1,7.548221E-1,9.6565646E-1,-2.252502E-1,1.2397796E0,-2.5645402E-1,-4.236112E-1,3.4553766E-1,-1.0213386E0,-5.8006984E-1,-2.9025677E-1,1.2061939E0,-1.4501621E-1,4.1844726E-1,-1.0985519E0,-6.579031E-1,-5.360389E-1,-1.3884392E-1,-2.309583E-1,2.7054554E-1,6.41947E-1,9.808707E-1,1.1109422E0,-3.103982E-2,9.4783545E-1,-3.2499772E-1,1.0741087E0,1.2530992E0,8.9591867E-1,-5.1804435E-1,-5.692437E-2,-5.335277E-1,1.2052143E0,-1.8632395E-2,-1.267273E0,-8.9369386E-1,-7.8346026E-1,-4.833132E-1,-4.3961018E-1,-1.0193672E-2,1.4453837E-1,1.2328405E0,-5.2696157E-1,-6.6700414E-2,3.3417916E-1,8.169538E-1,-6.281189E-2,-4.830169E-2,-4.666647E-2,-2.5813643E-2,-4.3892246E-2,-2.2857413E-2,-1.5442505E-2,1.3070996E-3,-2.7082428E-2,-4.2918776E-3,8.32559E-3,1.9960552E-2,2.4655819E-2,4.010744E-2,5.5082883E-3,4.9550917E-2,5.6861002E-2,9.027019E-3,4.9763706E-2,5.029704E-3,-4.107959E-2,-2.6541695E-3,5.9841305E-2,-5.5248116E-4,6.292914E-2,4.7686983E-2,4.95667E-2,-7.345566E-3,-1.3090002E-2,-6.335609E-2,-3.0465472E-2,5.682639E-2,-2.9698098E-2,6.178765E-3,-1.7295511E-2,6.31285E-2,-1.19138695E-2,1.5498735E-2,-5.640437E-2,-7.328554E-2,-4.824082E-2,-1.8815035E-2,-4.4634663E-2,-2.488807E-2,-2.0291906E-2,-3.4132913E-2,-2.403674E-2,2.5200382E-2,-1.4967804E-2,1.1275615E-2,2.4572099E-2,-3.736657E-2,6.1974384E-2,5.330253E-3,-4.3345E-2,-1.9377263E-2,-5.133104E-3,2.306378E-2,1.3041248E-2,3.4943867E-2,-1.5789276E-2,4.5526963E-2],"categories":[],"categories_nodes":[],"categories_segments":[],"categories_sizes":[],"default_left":[0,0,0,0,0,0,0,0,0,0,0,0,0,0,0,0,0,0,0,0,0,0,0,0,0,0,0,0,0,0,0,0,0,0,0,0,0,0,0,0,0,0,0,0,0,0,0,0,0,0,0,0,0,0,0,0,0,0,0,0,0,0,0,0,0,0,0,0,0,0,0,0,0,0,0,0,0,0,0,0,0,0,0,0,0,0,0,0,0,0,0,0,0,0,0,0,0,0,0,0,0,0,0,0,0,0,0,0,0,0,0,0,0,0,0,0,0,0,0,0,0,0,0,0,0],"id":4,"left_children":[1,3,5,7,9,11,13,15,17,19,21,23,25,27,29,31,33,35,37,39,41,43,45,47,49,51,53,55,57,59,61,63,65,67,69,71,73,75,77,79,-1,81,83,85,87,89,91,93,95,97,99,101,103,105,107,109,111,113,115,117,119,121,123,-1,-1,-1,-1,-1,-1,-1,-1,-1,-1,-1,-1,-1,-1,-1,-1,-1,-1,-1,-1,-1,-1,-1,-1,-1,-1,-1,-1,-1,-1,-1,-1,-1,-1,-1,-1,-1,-1,-1,-1,-1,-1,-1,-1,-1,-1,-1,-1,-1,-1,-1,-1,-1,-1,-1,-1,-1,-1,-1,-1,-1,-1],"loss_changes":[4.5470854E3,6.4304443E3,1.325989E3,3.262516E3,2.9621582E2,6.9177954E2,2.2930579E2,5.5123926E2,5.662223E2,3.771971E1,1.8994238E2,4.255617E2,3.4879932E2,6.318395E2,1.0538772E2,1.1190967E2,1.9465149E2,1.462213E2,7.543469E1,9.349558E0,2.0631308E1,8.621094E0,2.7969604E1,1.2836401E2,2.9108804E2,9.2485596E1,8.514551E1,2.2688736E1,1.6128906E1,6.1722263E1,1.2461891E1,2.5386475E1,3.846823E1,6.270392E1,7.24631E1,3.1291721E1,4.688144E1,4.7211914E1,8.539673E0,1.17836E-1,0E0,2.6090336E-1,2.1130486E1,5.968921E1,5.0859375E0,2.1692505E0,1.3161781E1,4.888497E2,9.758118E1,2.5922821E1,4.75641E1,2.3665771E1,7.3277466E1,4.26239E1,4.5174866E1,1.44604645E1,1.3277901E1,6.6153994E0,3.9022217E0,1.5639816E1,3.2774704E1,8.322273E0,7.9603653E0,0E0,0E0,0E0,0E0,0E0,0E0,0E0,0E0,0E0,0E0,0E0,0E0,0E0,0E0,0E0,0E0,0E0,0E0,0E0,0E0,0E0,0E0,0E0,0E0,0E0,0E0,0E0,0E0,0E0,0E0,0E0,0E0,0E0,0E0,0E0,0E0,0E0,0E0,0E0,0E0,0E0,0E0,0E0,0E0,0E0,0E0,0E0,0E0,0E0,0E0,0E0,0E0,0E0,0E0,0E0,0E0,0E0,0E0,0E0,0E0,0E0,0E0],"parents":[2147483647,0,0,1,1,2,2,3,3,4,4,5,5,6,6,7,7,8,8,9,9,10,10,11,11,12,12,13,13,14,14,15,15,16,16,17,17,18,18,19,19,20,20,21,21,22,22,23,23,24,24,25,25,26,26,27,27,28,28,29,29,30,30,31,31,32,32,33,33,34,34,35,35,36,36,37,37,38,38,39,39,41,41,42,42,43,43,44,44,45,45,46,46,47,47,48,48,49,49,50,50,51,51,52,52,53,53,54,54,55,55,56,56,57,57,58,58,59,59,60,60,61,61,62,62],"right_children":[2,4,6,8,10,12,14,16,18,20,22,24,26,28,30,32,34,36,38,40,42,44,46,48,50,52,54,56,58,60,62,64,66,68,70,72,74,76,78,80,-1,82,84,86,88,90,92,94,96,98,100,102,104,106,108,110,112,114,116,118,120,122,124,-1,-1,-1,-1,-1,-1,-1,-1,-1,-1,-1,-1,-1,-1,-1,-1,-1,-1,-1,-1,-1,-1,-1,-1,-1,-1,-1,-1,-1,-1,-1,-1,-1,-1,-1,-1,-1,-1,-1,-1,-1,-1,-1,-1,-1,-1,-1,-1,-1,-1,-1,-1,-1,-1,-1,-1,-1,-1,-1,-1,-1,-1],"split_conditions":[3.4E1,3.3E1,1.6261385E2,2.3975227E2,5.998726E-1,1.5154741E3,8.7E1,7.316626E1,3.9754483E2,1.6273386E3,6.00907E-1,1E0,1.0243427E1,8.6E1,2.92E2,5.389698E1,6.4265495E1,-4.2570267E1,5.603503E2,3.27E2,1.764706E-1,8.6E1,1.6727593E3,8.7E1,8.8E1,-9.3572E1,-3.5208553E1,1.3526729E2,5.9670277E-2,-8.236834E0,1E0,1.447728E0,-1.0940577E1,-1.7110767E2,1.6622842E2,-1.7742366E2,3.1955923E2,1.972347E2,-2.9935648E2,1E0,-3.103982E-2,3E0,6.707251E0,1.7879845E3,1.03E2,6.5776E-1,1.1028376E-1,8.6E1,4.84E2,8.6E1,1.5187142E3,6.141176E-2,6E1,2.59E2,6.272138E-2,3.2704956E2,5.9E1,3E0,9.810943E-2,5.867736E-1,3.4617935E2,6.42E2,4.090909E-1,-6.281189E-2,-4.830169E-2,-4.666647E-2,-2.5813643E-2,-4.3892246E-2,-2.2857413E-2,-1.5442505E-2,1.3070996E-3,-2.7082428E-2,-4.2918776E-3,8.32559E-3,1.9960552E-2,2.4655819E-2,4.010744E-2,5.5082883E-3,4.9550917E-2,5.6861002E-2,9.027019E-3,4.9763706E-2,5.029704E-3,-4.107959E-2,-2.6541695E-3,5.9841305E-2,-5.5248116E-4,6.292914E-2,4.7686983E-2,4.95667E-2,-7.345566E-3,-1.3090002E-2,-6.335609E-2,-3.0465472E-2,5.682639E-2,-2.9698098E-2,6.178765E-3,-1.7295511E-2,6.31285E-2,-1.19138695E-2,1.5498735E-2,-5.640437E-2,-7.328554E-2,-4.824082E-2,-1.8815035E-2,-4.4634663E-2,-2.488807E-2,-2.0291906E-2,-3.4132913E-2,-2.403674E-2,2.5200382E-2,-1.4967804E-2,1.1275615E-2,2.4572099E-2,-3.736657E-2,6.1974384E-2,5.330253E-3,-4.3345E-2,-1.9377263E-2,-5.133104E-3,2.306378E-2,1.3041248E-2,3.4943867E-2,-1.5789276E-2,4.5526963E-2],"split_indices":[0,0,6,6,48,5,1,6,6,2,48,60,6,1,1,7,7,7,6,49,35,1,2,1,1,7,7,7,44,7,72,6,6,7,6,7,6,7,7,58,0,23,7,2,1,45,44,1,1,1,4,44,38,50,44,6,50,40,43,45,6,1,36,0,0,0,0,0,0,0,0,0,0,0,0,0,0,0,0,0,0,0,0,0,0,0,0,0,0,0,0,0,0,0,0,0,0,0,0,0,0,0,0,0,0,0,0,0,0,0,0,0,0,0,0,0,0,0,0,0,0,0,0,0,0],"split_type":[0,0,0,0,0,0,0,0,0,0,0,0,0,0,0,0,0,0,0,0,0,0,0,0,0,0,0,0,0,0,0,0,0,0,0,0,0,0,0,0,0,0,0,0,0,0,0,0,0,0,0,0,0,0,0,0,0,0,0,0,0,0,0,0,0,0,0,0,0,0,0,0,0,0,0,0,0,0,0,0,0,0,0,0,0,0,0,0,0,0,0,0,0,0,0,0,0,0,0,0,0,0,0,0,0,0,0,0,0,0,0,0,0,0,0,0,0,0,0,0,0,0,0,0,0],"sum_hessian":[3.5727625E4,2.0602008E4,1.5125617E4,1.4588812E4,6.013196E3,1.1543391E4,3.5822273E3,7.352929E3,7.2358823E3,1.9400696E2,5.819189E3,4.110658E3,7.432732E3,1.1257805E3,2.4564468E3,2.4063071E3,4.946622E3,4.2084014E3,3.027481E3,2.8587404E1,1.6541956E2,5.7340244E3,8.516476E1,3.184083E3,9.265751E2,3.0513708E3,4.3813613E3,5.397457E2,5.860348E2,2.0639622E3,3.9248462E2,1.3861053E3,1.02020197E3,2.367004E3,2.5796182E3,6.941141E2,3.5142874E3,2.0268923E3,1.00058856E3,2.7012794E1,1.5746089E0,1.096446E1,1.5445511E2,4.449279E2,5.289096E3,1.4410061E1,7.075469E1,7.353782E2,2.4487048E3,2.7365173E2,6.5292334E2,1.0334424E3,2.0179283E3,1.4055297E3,2.9758318E3,3.5090457E2,1.8884114E2,1.4820678E1,5.712141E2,3.4826944E2,1.7156926E3,3.2852957E2,6.3955036E1,6.213317E2,7.6477356E2,3.4076035E2,6.794416E2,4.3817227E2,1.9288317E3,1.2691915E3,1.3104266E3,2.1838168E2,4.7573242E2,1.9469467E3,1.5673406E3,1.0570795E3,9.698128E2,1.1936693E1,9.8865186E2,2.5622265E1,1.3905301E0,9.886715E0,1.0777451E0,5.250369E1,1.01951416E2,3.994469E2,4.5480976E1,5.184518E3,1.045782E2,1.3337837E1,1.0722235E0,5.573676E1,1.5017936E1,5.0370737E2,2.3167079E2,2.2427278E3,2.0597722E2,9.219796E0,2.6443195E2,3.918384E2,2.610849E2,6.191922E2,4.142502E2,1.7717794E3,2.46149E2,1.0121677E3,3.93362E2,2.1495288E3,8.263029E2,3.3766034E2,1.3244235E1,8.444028E1,1.04400856E2,1.1640061E1,3.1806164E0,5.675627E2,3.6514676E0,9.673836E1,2.5153108E2,1.6085475E3,1.0714521E2,2.7779944E2,5.073015E1,4.337071E0,5.961796E1],"tree_param":{"num_deleted":"0","num_feature":"79","num_nodes":"125","size_leaf_vector":"1"}},{"base_weights":[1.9681351E-3,2.954716E-1,-3.9054182E-1,-4.867279E-2,1.1594641E0,-6.2861973E-1,-6.481365E-2,-4.3986374E-1,4.6827048E-1,-3.4890484E-2,1.2007481E0,-7.313925E-1,6.7853205E-2,-2.1071473E-1,2.6285148E-1,-7.085962E-1,-1.5787965E-1,2.508305E-1,7.639907E-1,1.0680927E0,-1.9364679E-1,1.2232184E0,-2.43528E-1,-9.868166E-1,-6.017335E-1,9.359858E-1,-2.802524E-1,-5.91167E-1,-1.4173187E-1,7.0180386E-1,4.8025995E-2,-9.5064056E-1,-5.4304147E-1,-3.897122E-1,-1.1025044E-2,-1.2689148E-1,3.2022098E-1,6.498526E-1,9.591589E-1,3.7361742E-3,5.5016067E-2,9.47291E-1,-2.9047287E-1,1.0543008E0,1.2368802E0,8.429154E-1,-4.9853158E-1,-1.2352375E0,-8.8337415E-1,-8.254582E-1,-5.2188545E-1,-7.9621285E-1,1.2508613E0,-5.383226E-1,9.9833675E-2,-7.947097E-1,-4.1817352E-1,1.064277E-1,-2.426705E-1,-1.4038643E-1,1.2051609E0,-7.483964E-2,3.2715198E-1,-5.5754285E-2,-3.9076902E-2,-3.9440084E-2,-2.0493489E-2,-3.578009E-2,-1.5591449E-2,-5.799848E-3,8.848273E-3,-3.022335E-2,-9.7347127E-4,1.2610309E-2,2.6425347E-2,1.774077E-2,3.637667E-2,3.3574756E-2,4.9878042E-2,4.973645E-2,4.516076E-3,7.3364563E-3,-2.784527E-2,6.1466318E-2,1.3379879E-2,6.2155496E-2,4.7870632E-2,4.9335245E-2,-1.5526056E-2,3.5708018E-2,-3.0647293E-2,-6.392658E-2,-3.165255E-2,-5.3735383E-2,-3.8723446E-2,-3.6704466E-2,-5.0731182E-2,2.9011298E-4,-2.769993E-2,-5.7218354E-2,-1.0651242E-2,6.269628E-2,5.312881E-3,-4.1307773E-2,-1.2273028E-2,2.1485386E-2,-2.5260622E-2,-6.285178E-2,-3.276137E-2,-3.680193E-2,-8.766025E-3,-1.8160684E-2,5.8203E-2,-1.6789619E-2,1.2189835E-2,-1.2621281E-2,1.6559538E-2,-3.3078894E-3,6.1278295E-2,-3.4235768E-2,-1.1174489E-3,1.0955184E-2,3.434407E-2],"categories":[],"categories_nodes":[],"categories_segments":[],"categories_sizes":[],"default_left":[0,0,0,0,0,0,0,0,0,0,0,0,0,0,0,0,0,0,0,0,0,0,0,0,0,0,0,0,0,0,0,0,0,0,0,0,0,0,0,0,0,0,0,0,0,0,0,0,0,0,0,0,0,0,0,0,0,0,0,0,0,0,0,0,0,0,0,0,0,0,0,0,0,0,0,0,0,0,0,0,0,0,0,0,0,0,0,0,0,0,0,0,0,0,0,0,0,0,0,0,0,0,0,0,0,0,0,0,0,0,0,0,0,0,0,0,0,0,0,0,0,0,0],"id":5,"left_children":[1,3,5,7,9,11,13,15,17,19,21,23,25,27,29,31,33,35,37,39,41,43,45,47,49,51,53,55,57,59,61,63,65,67,69,71,73,75,77,-1,-1,79,81,83,85,87,89,91,93,95,97,99,101,103,105,107,109,111,113,115,117,119,121,-1,-1,-1,-1,-1,-1,-1,-1,-1,-1,-1,-1,-1,-1,-1,-1,-1,-1,-1,-1,-1,-1,-1,-1,-1,-1,-1,-1,-1,-1,-1,-1,-1,-1,-1,-1,-1,-1,-1,-1,-1,-1,-1,-1,-1,-1,-1,-1,-1,-1,-1,-1,-1,-1,-1,-1,-1,-1,-1,-1],"loss_changes":[4.106103E3,6.0638228E3,1.1824319E3,2.950434E3,2.8656494E2,6.3072534E2,3.081659E2,6.2899915E2,4.0355676E2,3.5117535E1,1.8312598E2,2.524668E2,3.439507E2,1.1678334E2,1.8719753E2,1.6881714E2,1.3809055E2,9.516876E1,5.7421143E1,5.616722E-1,2.0131512E1,8.848633E0,2.578662E1,6.303076E1,8.981079E1,1.8063419E2,7.98922E1,2.3070587E1,9.473363E1,2.770913E2,4.591896E1,4.52948E1,8.188776E1,3.9255096E1,4.9128067E1,2.8947422E1,4.301169E1,3.792993E1,8.770813E0,0E0,0E0,3.1484032E-1,1.9276876E1,5.878418E1,5.3066406E0,3.8951302E0,1.1522804E1,1.7151367E1,3.5680786E1,2.086084E1,6.383716E1,9.812836E0,5.709839E-1,4.024109E1,6.6764046E1,1.7564774E1,2.862378E1,5.450184E2,1.21975296E2,1.3288328E1,1.084491E1,2.9747044E1,1.5451046E1,0E0,0E0,0E0,0E0,0E0,0E0,0E0,0E0,0E0,0E0,0E0,0E0,0E0,0E0,0E0,0E0,0E0,0E0,0E0,0E0,0E0,0E0,0E0,0E0,0E0,0E0,0E0,0E0,0E0,0E0,0E0,0E0,0E0,0E0,0E0,0E0,0E0,0E0,0E0,0E0,0E0,0E0,0E0,0E0,0E0,0E0,0E0,0E0,0E0,0E0,0E0,0E0,0E0,0E0,0E0,0E0,0E0,0E0,0E0,0E0],"parents":[2147483647,0,0,1,1,2,2,3,3,4,4,5,5,6,6,7,7,8,8,9,9,10,10,11,11,12,12,13,13,14,14,15,15,16,16,17,17,18,18,19,19,20,20,21,21,22,22,23,23,24,24,25,25,26,26,27,27,28,28,29,29,30,30,31,31,32,32,33,33,34,34,35,35,36,36,37,37,38,38,41,41,42,42,43,43,44,44,45,45,46,46,47,47,48,48,49,49,50,50,51,51,52,52,53,53,54,54,55,55,56,56,57,57,58,58,59,59,60,60,61,61,62,62],"right_children":[2,4,6,8,10,12,14,16,18,20,22,24,26,28,30,32,34,36,38,40,42,44,46,48,50,52,54,56,58,60,62,64,66,68,70,72,74,76,78,-1,-1,80,82,84,86,88,90,92,94,96,98,100,102,104,106,108,110,112,114,116,118,120,122,-1,-1,-1,-1,-1,-1,-1,-1,-1,-1,-1,-1,-1,-1,-1,-1,-1,-1,-1,-1,-1,-1,-1,-1,-1,-1,-1,-1,-1,-1,-1,-1,-1,-1,-1,-1,-1,-1,-1,-1,-1,-1,-1,-1,-1,-1,-1,-1,-1,-1,-1,-1,-1,-1,-1,-1,-1,-1,-1,-1],"split_conditions":[3.4E1,3.3E1,9.672715E1,2.67604E2,5.998726E-1,1E0,2.1476785E2,1.389894E2,4.1469824E2,1.5863575E3,6.00907E-1,-4.0709564E1,8.7E1,-4.645339E1,8.7E1,-9.542885E0,3.9613148E1,-4.2570267E1,5.603503E2,4.2E1,1.764706E-1,8.6E1,1.677341E3,-7.019071E1,-2.0558538E1,8.6E1,6.42E2,6.190939E-1,8.7E1,8.6E1,2.13E2,4.9997807E1,3.4715702E1,-1.7742366E2,2.2759152E2,-2.364108E2,2.890792E2,4.9597244E1,6.104813E-1,3.7361742E-3,5.5016067E-2,6.7391306E-1,1.5919891E3,1.7153038E3,9.8E1,6.5776E-1,1.764706E-1,4E0,5.8529485E-2,1.585574E3,2E0,1.6374713E3,3.71E2,6.707251E0,5.32E2,-1.9093141E2,9.8E1,8.6E1,2.92E2,3.0296857E2,5.1304594E-2,-6.6052345E1,4.49E2,-5.5754285E-2,-3.9076902E-2,-3.9440084E-2,-2.0493489E-2,-3.578009E-2,-1.5591449E-2,-5.799848E-3,8.848273E-3,-3.022335E-2,-9.7347127E-4,1.2610309E-2,2.6425347E-2,1.774077E-2,3.637667E-2,3.3574756E-2,4.9878042E-2,4.973645E-2,4.516076E-3,7.3364563E-3,-2.784527E-2,6.1466318E-2,1.3379879E-2,6.2155496E-2,4.7870632E-2,4.9335245E-2,-1.5526056E-2,3.5708018E-2,-3.0647293E-2,-6.392658E-2,-3.165255E-2,-5.3735383E-2,-3.8723446E-2,-3.6704466E-2,-5.0731182E-2,2.9011298E-4,-2.769993E-2,-5.7218354E-2,-1.0651242E-2,6.269628E-2,5.312881E-3,-4.1307773E-2,-1.2273028E-2,2.1485386E-2,-2.5260622E-2,-6.285178E-2,-3.276137E-2,-3.680193E-2,-8.766025E-3,-1.8160684E-2,5.8203E-2,-1.6789619E-2,1.2189835E-2,-1.2621281E-2,1.6559538E-2,-3.3078894E-3,6.1278295E-2,-3.4235768E-2,-1.1174489E-3,1.0955184E-2,3.434407E-2],"split_indices":[0,0,6,6,48,60,6,6,6,2,48,7,1,7,1,7,7,7,6,1,35,1,2,6,6,1,1,45,1,1,1,6,6,7,7,7,7,7,45,0,0,36,3,2,1,45,35,25,43,5,50,4,50,7,0,7,50,1,1,6,44,7,1,0,0,0,0,0,0,0,0,0,0,0,0,0,0,0,0,0,0,0,0,0,0,0,0,0,0,0,0,0,0,0,0,0,0,0,0,0,0,0,0,0,0,0,0,0,0,0,0,0,0,0,0,0,0,0,0,0,0,0,0],"split_type":[0,0,0,0,0,0,0,0,0,0,0,0,0,0,0,0,0,0,0,0,0,0,0,0,0,0,0,0,0,0,0,0,0,0,0,0,0,0,0,0,0,0,0,0,0,0,0,0,0,0,0,0,0,0,0,0,0,0,0,0,0,0,0,0,0,0,0,0,0,0,0,0,0,0,0,0,0,0,0,0,0,0,0,0,0,0,0,0,0,0,0,0,0,0,0,0,0,0,0,0,0,0,0,0,0,0,0,0,0,0,0,0,0,0,0,0,0,0,0,0,0,0,0],"sum_hessian":[3.5636312E4,2.0390121E4,1.5246188E4,1.4583909E4,5.8062134E3,8.806582E3,6.439607E3,8.301949E3,6.281959E3,1.9400714E2,5.612206E3,7.6740366E3,1.1325452E3,4.456368E3,1.9832385E3,4.2485337E3,4.053416E3,3.623317E3,2.6586423E3,2.224853E1,1.717586E2,5.5266797E3,8.552636E1,2.5772017E3,5.096835E3,3.2270132E2,8.098439E2,6.8051306E2,3.7758552E3,6.494396E2,1.333799E3,1.7198513E3,2.5286824E3,1.5699878E3,2.4834282E3,5.619419E2,3.061375E3,1.6857644E3,9.7287787E2,1.0119915E0,2.1236538E1,1.13748E1,1.603838E2,4.3108823E2,5.095592E3,1.494341E1,7.058295E1,7.4800793E2,1.8291936E3,1.3332402E3,3.763595E3,4.893166E1,2.7376965E2,4.8159933E2,3.2824454E2,3.0769727E2,3.728158E2,1.0917078E3,2.6841475E3,2.4375871E2,4.0568088E2,9.2765814E2,4.0614078E2,8.6342474E2,8.5642664E2,8.834885E2,1.6451938E3,2.980948E2,1.271893E3,1.5943235E3,8.891046E2,1.00639435E2,4.6130243E2,2.31278E3,7.48595E2,3.5482312E2,1.3309413E3,1.2111084E2,8.51767E2,1.0321209E1,1.0535913E0,6.123999E1,9.914382E1,3.5125345E2,7.983475E1,4.9743613E3,1.212304E2,1.3672614E1,1.270796E0,4.729432E0,6.5853516E1,6.946937E2,5.3314228E1,6.53851E2,1.1753427E3,9.088825E2,4.2435776E2,2.1604077E2,3.5475542E3,2.883239E1,2.0099272E1,2.7275293E2,1.0167341E0,2.4013007E2,2.4146927E2,2.1299046E2,1.1525406E2,6.5744644E1,2.4195262E2,1.5883185E2,2.1398395E2,7.573682E2,3.3433948E2,2.253669E3,4.3047867E2,1.9808989E2,4.5668823E1,6.3021793E0,3.993787E2,7.06508E1,8.570073E2,3.1604175E2,9.009904E1],"tree_param":{"num_deleted":"0","num_feature":"79","num_nodes":"123","size_leaf_vector":"1"}},{"base_weights":[2.2303245E-3,2.8413808E-1,-3.6825237E-1,-4.6088953E-2,1.1427046E0,-5.1215553E-1,1.0899454E-1,-4.1414872E-1,4.5102206E-1,-3.150993E-2,1.1848196E0,6.296332E-2,-5.9473264E-1,4.5840678E-1,-4.6323717E-2,-6.609816E-1,-1.461927E-1,2.3996724E-1,7.4244577E-1,1.0512954E0,-1.8249269E-1,1.2077582E0,-2.2866839E-1,1.2220228E0,-2.024978E-1,-8.654884E-1,-4.6647027E-1,-2.5757307E-1,1.1730423E0,-1.2760884E-1,3.903479E-1,-7.5077266E-1,-2.5086737E-1,-4.8438686E-1,-5.5149373E-2,-1.2035187E-1,3.0690163E-1,6.291473E-1,9.3809634E-1,3.69105E-3,5.4190706E-2,9.3047094E-1,-2.7452457E-1,1.0353084E0,1.2217952E0,8.589902E-1,-4.6082303E-1,-4.651355E-3,6.143254E-2,-4.3444008E-1,2.5132415E-1,-1.0859349E0,-7.3894525E-1,-5.8862394E-1,-2.883992E-1,-1.6372757E-1,-6.6887194E-1,1.1769444E-1,1.2010655E0,-4.5025563E-1,-5.044567E-2,3.0807263E-1,7.8586125E-1,-4.8559174E-2,-3.070544E-2,-6.0181808E-2,-1.0311961E-2,1.4552589E-2,-2.6154144E-2,-7.086585E-3,8.54757E-3,-2.8387163E-2,-9.246748E-4,2.6066381E-2,1.2208036E-2,1.7028173E-2,3.5298295E-2,3.257097E-2,4.8837688E-2,4.893536E-2,4.1387486E-3,-3.1512357E-2,1.2619535E-3,5.6702424E-2,-1.683133E-2,6.1410736E-2,4.6847485E-2,4.7773134E-2,-7.0202346E-3,-1.1094244E-2,-5.770374E-2,-3.3881474E-2,-1.3741656E-2,2.0863216E-2,-1.8473504E-2,-5.5568468E-2,-2.2146199E-2,-3.787777E-2,1.2784581E-2,-2.5424555E-2,-4.050764E-2,-8.347384E-3,-2.2234937E-2,-2.0532725E-2,2.6733547E-3,-4.158915E-2,6.1345077E-3,2.305503E-2,-3.648556E-2,6.040849E-2,3.1164077E-3,-1.7277187E-2,-4.5304302E-2,-4.155669E-3,2.1582587E-2,1.85433E-2,-3.971572E-3,-1.590686E-2,4.4028547E-2],"categories":[],"categories_nodes":[],"categories_segments":[],"categories_sizes":[],"default_left":[0,0,0,0,0,0,0,0,0,0,0,0,0,0,0,0,0,0,0,0,0,0,0,0,0,0,0,0,0,0,0,0,0,0,0,0,0,0,0,0,0,0,0,0,0,0,0,0,0,0,0,0,0,0,0,0,0,0,0,0,0,0,0,0,0,0,0,0,0,0,0,0,0,0,0,0,0,0,0,0,0,0,0,0,0,0,0,0,0,0,0,0,0,0,0,0,0,0,0,0,0,0,0,0,0,0,0,0,0,0,0,0,0,0,0,0,0,0,0],"id":6,"left_children":[1,3,5,7,9,11,13,15,17,19,21,23,25,27,29,31,33,35,37,39,41,43,45,47,49,51,53,55,57,59,61,63,65,67,69,71,73,75,77,-1,-1,79,81,83,85,87,89,-1,-1,91,93,95,97,99,101,103,105,107,109,111,113,115,117,-1,-1,-1,-1,-1,-1,-1,-1,-1,-1,-1,-1,-1,-1,-1,-1,-1,-1,-1,-1,-1,-1,-1,-1,-1,-1,-1,-1,-1,-1,-1,-1,-1,-1,-1,-1,-1,-1,-1,-1,-1,-1,-1,-1,-1,-1,-1,-1,-1,-1,-1,-1,-1,-1,-1,-1],"loss_changes":[3.7115874E3,5.72194E3,1.0547925E3,2.6678484E3,2.7734473E2,5.604729E2,1.9326978E2,5.538218E2,3.8100146E2,3.2787197E1,1.7630615E2,4.5739493E2,3.5710913E2,5.615897E2,8.7725334E1,1.5998792E2,1.2372401E2,8.698566E1,5.5953735E1,5.404911E-1,1.8740002E1,9.098145E0,2.3647568E1,2.7573242E0,1.2770903E2,9.001636E1,1.519253E2,2.0894722E1,1.5810852E1,5.1774754E1,1.1897629E1,1.05907104E2,3.2745148E1,2.6036041E1,6.215738E1,2.5782824E1,4.0497864E1,3.6039E1,8.606689E0,0E0,0E0,3.3291435E-1,1.7577133E1,5.8115723E1,5.522949E0,2.0119467E0,1.1697405E1,0E0,0E0,3.0568771E1,4.28226E1,1.8179565E1,3.971704E1,7.249841E1,5.4014694E1,2.428939E1,1.3353455E1,6.1094317E0,4.097595E0,1.8225258E1,2.6626268E1,8.0225525E0,7.6230774E0,0E0,0E0,0E0,0E0,0E0,0E0,0E0,0E0,0E0,0E0,0E0,0E0,0E0,0E0,0E0,0E0,0E0,0E0,0E0,0E0,0E0,0E0,0E0,0E0,0E0,0E0,0E0,0E0,0E0,0E0,0E0,0E0,0E0,0E0,0E0,0E0,0E0,0E0,0E0,0E0,0E0,0E0,0E0,0E0,0E0,0E0,0E0,0E0,0E0,0E0,0E0,0E0,0E0,0E0,0E0,0E0],"parents":[2147483647,0,0,1,1,2,2,3,3,4,4,5,5,6,6,7,7,8,8,9,9,10,10,11,11,12,12,13,13,14,14,15,15,16,16,17,17,18,18,19,19,20,20,21,21,22,22,23,23,24,24,25,25,26,26,27,27,28,28,29,29,30,30,31,31,32,32,33,33,34,34,35,35,36,36,37,37,38,38,41,41,42,42,43,43,44,44,45,45,46,46,49,49,50,50,51,51,52,52,53,53,54,54,55,55,56,56,57,57,58,58,59,59,60,60,61,61,62,62],"right_children":[2,4,6,8,10,12,14,16,18,20,22,24,26,28,30,32,34,36,38,40,42,44,46,48,50,52,54,56,58,60,62,64,66,68,70,72,74,76,78,-1,-1,80,82,84,86,88,90,-1,-1,92,94,96,98,100,102,104,106,108,110,112,114,116,118,-1,-1,-1,-1,-1,-1,-1,-1,-1,-1,-1,-1,-1,-1,-1,-1,-1,-1,-1,-1,-1,-1,-1,-1,-1,-1,-1,-1,-1,-1,-1,-1,-1,-1,-1,-1,-1,-1,-1,-1,-1,-1,-1,-1,-1,-1,-1,-1,-1,-1,-1,-1,-1,-1,-1,-1],"split_conditions":[3.4E1,3.3E1,1.6261385E2,2.67604E2,5.998726E-1,6E0,8.7E1,1.4077013E2,4.1469824E2,1.5863575E3,6.00907E-1,8.7E1,-5.232574E0,8.6E1,2.92E2,2.0235614E2,-5.2622787E1,-4.2570267E1,5.603503E2,4.2E1,1.764706E-1,8.6E1,1.6727593E3,8.6E1,5.29E2,-7.116772E1,6.5856575E1,1.6579049E3,5.9670277E-2,2.56931E0,1E0,3.309772E1,-1.0798668E2,1.04E2,2.2759152E2,-2.364108E2,1E0,4.9597244E1,6.104813E-1,3.69105E-3,5.4190706E-2,6E0,4.390164E1,1E0,9.8E1,6.5776E-1,1.1028376E-1,-4.651355E-3,6.143254E-2,2.37E2,5.32E2,1.61E2,3.64E2,6.338028E-2,2E0,6E1,6.3454497E-1,3E0,6.00907E-1,2.1E1,3.4617935E2,1.5210281E3,4.090909E-1,-4.8559174E-2,-3.070544E-2,-6.0181808E-2,-1.0311961E-2,1.4552589E-2,-2.6154144E-2,-7.086585E-3,8.54757E-3,-2.8387163E-2,-9.246748E-4,2.6066381E-2,1.2208036E-2,1.7028173E-2,3.5298295E-2,3.257097E-2,4.8837688E-2,4.893536E-2,4.1387486E-3,-3.1512357E-2,1.2619535E-3,5.6702424E-2,-1.683133E-2,6.1410736E-2,4.6847485E-2,4.7773134E-2,-7.0202346E-3,-1.1094244E-2,-5.770374E-2,-3.3881474E-2,-1.3741656E-2,2.0863216E-2,-1.8473504E-2,-5.5568468E-2,-2.2146199E-2,-3.787777E-2,1.2784581E-2,-2.5424555E-2,-4.050764E-2,-8.347384E-3,-2.2234937E-2,-2.0532725E-2,2.6733547E-3,-4.158915E-2,6.1345077E-3,2.305503E-2,-3.648556E-2,6.040849E-2,3.1164077E-3,-1.7277187E-2,-4.5304302E-2,-4.155669E-3,2.1582587E-2,1.85433E-2,-3.971572E-3,-1.590686E-2,4.4028547E-2],"split_indices":[0,0,6,6,48,50,1,6,6,2,48,1,6,1,1,7,7,7,6,1,35,1,2,1,1,7,7,5,44,7,72,6,6,49,7,7,76,7,45,0,0,39,7,30,1,45,44,0,0,1,0,38,38,44,40,50,45,40,48,37,6,3,36,0,0,0,0,0,0,0,0,0,0,0,0,0,0,0,0,0,0,0,0,0,0,0,0,0,0,0,0,0,0,0,0,0,0,0,0,0,0,0,0,0,0,0,0,0,0,0,0,0,0,0,0,0,0,0,0],"split_type":[0,0,0,0,0,0,0,0,0,0,0,0,0,0,0,0,0,0,0,0,0,0,0,0,0,0,0,0,0,0,0,0,0,0,0,0,0,0,0,0,0,0,0,0,0,0,0,0,0,0,0,0,0,0,0,0,0,0,0,0,0,0,0,0,0,0,0,0,0,0,0,0,0,0,0,0,0,0,0,0,0,0,0,0,0,0,0,0,0,0,0,0,0,0,0,0,0,0,0,0,0,0,0,0,0,0,0,0,0,0,0,0,0,0,0,0,0,0,0],"sum_hessian":[3.553132E4,2.0178098E4,1.5353224E4,1.4575009E4,5.6030894E3,1.1796141E4,3.557083E3,8.374816E3,6.200193E3,1.9403122E2,5.409058E3,1.4811552E3,1.0314985E4,1.0928024E3,2.4642808E3,4.356938E3,4.0178784E3,3.5991138E3,2.6010789E3,2.1555107E1,1.7247612E2,5.3231094E3,8.594889E1,2.7400055E2,1.2071545E3,3.3101565E3,7.004829E3,5.468462E2,5.459562E2,2.0793408E3,3.8493982E2,3.5723176E3,7.846203E2,8.4946216E2,3.1684163E3,5.6346924E2,3.0356445E3,1.6552147E3,9.458643E2,1.0098721E0,2.0545235E1,1.1085505E1,1.6139061E2,4.175546E2,4.9055547E3,1.3693549E1,7.225534E1,1.177979E0,2.7282257E2,7.989501E2,4.0820447E2,1.1988821E3,2.1112744E3,4.150643E3,2.8541858E3,4.486684E2,9.817781E1,1.4525586E1,5.314306E2,3.9851245E2,1.6808284E3,3.230709E2,6.1868916E1,1.3602283E3,2.2120894E3,3.1621435E1,7.5299884E2,3.9445213E1,8.1001697E2,2.2918875E3,8.7652875E2,1.0195072E2,4.615185E2,6.822002E2,2.3534443E3,3.5140268E2,1.303812E3,1.1875429E2,8.2711E2,1.0049983E1,1.0355217E0,7.22938E1,8.909682E1,3.9000552E2,2.7549093E1,4.7877183E3,1.17836395E2,1.2608333E1,1.0852163E0,5.6680027E1,1.5575313E1,3.127236E2,4.8622647E2,3.2288098E2,8.532349E1,1.1511624E3,4.7719723E1,2.073199E3,3.8075493E1,3.055334E3,1.0953092E3,1.6096342E3,1.2445516E3,2.0871255E2,2.3995583E2,8.129424E1,1.6883566E1,1.1309914E1,3.2156727E0,5.279539E2,3.4766712E0,3.2835742E2,7.015504E1,1.576486E3,1.0434247E2,2.7812994E2,4.494094E1,4.329077E0,5.753984E1],"tree_param":{"num_deleted":"0","num_feature":"79","num_nodes":"119","size_leaf_vector":"1"}},{"base_weights":[2.4625931E-3,2.732525E-1,-3.4747612E-1,-4.3651633E-2,1.1267955E0,-5.0934577E-1,3.0225579E-2,-3.902452E-1,4.3430495E-1,-2.8500933E-2,1.1698078E0,-5.8711505E-1,9.141932E-2,-6.8853766E-2,4.0280887E-1,-6.0919815E-1,-1.2455196E-1,2.5601673E-1,7.646843E-1,9.1552395E-1,-1.9099332E-1,1.1932609E0,-2.1731743E-1,-8.995588E-1,-4.991264E-1,8.916967E-1,-2.0603383E-1,-5.0469905E-1,-2.575686E-3,8.83281E-1,1.3304885E-1,-8.273168E-1,-4.628639E-1,-2.841534E-1,5.592082E-2,-1.87498E-1,3.0682474E-1,5.629061E-1,8.613461E-1,1.0679173E0,-3.0205393E-2,8.975602E-1,-2.767196E-1,1.0166315E0,1.2077392E0,5.479809E-1,-5.287775E-1,-1.0579277E0,-7.624863E-1,-6.094742E-1,-3.0938074E-1,-7.110891E-1,1.2308924E0,-5.1400876E-1,6.797529E-2,-2.8438634E-1,-7.5023943E-1,-1.998759E-1,1.3547297E-1,1.1477103E-1,1.1856309E0,7.966745E-2,6.857619E-1,-4.9213957E-2,-3.4019902E-2,-3.1994127E-2,-1.5935274E-2,-2.990155E-2,-1.0767764E-2,-7.3202634E-3,6.481085E-3,-2.5645075E-2,-2.9776236E-3,9.23881E-3,2.2301974E-2,8.359288E-3,3.1897884E-2,3.7489228E-2,4.824365E-2,5.471897E-2,8.764096E-3,4.738451E-2,3.8181324E-3,-2.5022233E-2,1.1330349E-2,6.003895E-2,1.1314757E-2,6.0687758E-2,4.4527046E-2,-2.3967162E-2,4.597583E-2,-3.932231E-2,9.787982E-3,-3.8373556E-2,-5.671199E-2,-3.9618474E-2,-1.4630764E-3,-1.0226272E-3,-3.192794E-2,-2.074859E-2,-8.802163E-3,-5.2041132E-2,-6.6245534E-3,6.1702706E-2,5.73265E-3,1.0441281E-2,-3.3511084E-2,-1.1481615E-2,1.3033653E-2,-8.318427E-3,-3.6824472E-2,-2.3426866E-2,-5.1080134E-2,-1.3904537E-2,3.9164172E-3,2.5218045E-2,-1.7371014E-3,1.3307452E-2,-2.4877388E-2,-4.0351734E-3,6.0002614E-2,1.849003E-2,4.136359E-4,1.4340754E-2,4.1799996E-2],"categories":[],"categories_nodes":[],"categories_segments":[],"categories_sizes":[],"default_left":[0,0,0,0,0,0,0,0,0,0,0,0,0,0,0,0,0,0,0,0,0,0,0,0,0,0,0,0,0,0,0,0,0,0,0,0,0,0,0,0,0,0,0,0,0,0,0,0,0,0,0,0,0,0,0,0,0,0,0,0,0,0,0,0,0,0,0,0,0,0,0,0,0,0,0,0,0,0,0,0,0,0,0,0,0,0,0,0,0,0,0,0,0,0,0,0,0,0,0,0,0,0,0,0,0,0,0,0,0,0,0,0,0,0,0,0,0,0,0,0,0,0,0,0,0],"id":7,"left_children":[1,3,5,7,9,11,13,15,17,19,21,23,25,27,29,31,33,35,37,39,41,43,45,47,49,51,53,55,57,59,61,63,65,67,69,71,73,75,77,79,-1,81,83,85,87,89,91,93,95,97,99,101,103,105,107,109,111,113,115,117,119,121,123,-1,-1,-1,-1,-1,-1,-1,-1,-1,-1,-1,-1,-1,-1,-1,-1,-1,-1,-1,-1,-1,-1,-1,-1,-1,-1,-1,-1,-1,-1,-1,-1,-1,-1,-1,-1,-1,-1,-1,-1,-1,-1,-1,-1,-1,-1,-1,-1,-1,-1,-1,-1,-1,-1,-1,-1,-1,-1,-1,-1,-1,-1],"loss_changes":[3.3566284E3,5.4017427E3,9.4481177E2,2.4133977E3,2.687827E2,5.0555444E2,1.7132036E2,4.9103357E2,3.601311E2,3.0744864E1,1.7036914E2,2.619624E2,2.9629825E2,1.0591884E2,1.26000015E2,1.465929E2,1.10045654E2,8.99039E1,4.038098E1,8.755129E0,1.6661266E1,9.42627E0,2.2133755E1,4.318518E1,1.5605066E2,1.8595676E2,7.6744446E1,2.554145E1,8.685329E1,8.0915985E1,1.8360773E1,4.0761963E1,7.02547E1,4.3387695E1,2.681969E1,1.7026016E1,6.047632E1,2.057013E1,1.4513794E1,8.23288E-2,0E0,3.2457924E-1,1.8402397E1,5.847162E1,5.7685547E0,1.17341E1,1.2584295E1,1.8821411E1,2.4840698E1,8.093152E1,3.859134E1,1.1186197E1,5.61676E-1,4.8741165E1,2.7892717E1,1.3501249E1,1.5921051E1,2.862873E1,1.17855835E2,9.864781E0,4.8717346E0,1.1921106E1,2.571434E0,0E0,0E0,0E0,0E0,0E0,0E0,0E0,0E0,0E0,0E0,0E0,0E0,0E0,0E0,0E0,0E0,0E0,0E0,0E0,0E0,0E0,0E0,0E0,0E0,0E0,0E0,0E0,0E0,0E0,0E0,0E0,0E0,0E0,0E0,0E0,0E0,0E0,0E0,0E0,0E0,0E0,0E0,0E0,0E0,0E0,0E0,0E0,0E0,0E0,0E0,0E0,0E0,0E0,0E0,0E0,0E0,0E0,0E0,0E0,0E0,0E0,0E0],"parents":[2147483647,0,0,1,1,2,2,3,3,4,4,5,5,6,6,7,7,8,8,9,9,10,10,11,11,12,12,13,13,14,14,15,15,16,16,17,17,18,18,19,19,20,20,21,21,22,22,23,23,24,24,25,25,26,26,27,27,28,28,29,29,30,30,31,31,32,32,33,33,34,34,35,35,36,36,37,37,38,38,39,39,41,41,42,42,43,43,44,44,45,45,46,46,47,47,48,48,49,49,50,50,51,51,52,52,53,53,54,54,55,55,56,56,57,57,58,58,59,59,60,60,61,61,62,62],"right_children":[2,4,6,8,10,12,14,16,18,20,22,24,26,28,30,32,34,36,38,40,42,44,46,48,50,52,54,56,58,60,62,64,66,68,70,72,74,76,78,80,-1,82,84,86,88,90,92,94,96,98,100,102,104,106,108,110,112,114,116,118,120,122,124,-1,-1,-1,-1,-1,-1,-1,-1,-1,-1,-1,-1,-1,-1,-1,-1,-1,-1,-1,-1,-1,-1,-1,-1,-1,-1,-1,-1,-1,-1,-1,-1,-1,-1,-1,-1,-1,-1,-1,-1,-1,-1,-1,-1,-1,-1,-1,-1,-1,-1,-1,-1,-1,-1,-1,-1,-1,-1,-1,-1,-1,-1],"split_conditions":[3.4E1,3.3E1,1.3548615E2,2.67604E2,5.998726E-1,1E0,2.6472983E2,1.479759E2,4.412345E2,1.6273386E3,6.00907E-1,-3.955618E1,8.7E1,-4.645339E1,8.7E1,-1.0915363E1,1.0415739E2,-9.0661514E1,1.3326714E2,3.27E2,1.764706E-1,8.6E1,1.7108557E3,-5.9086483E1,6.5856575E1,8.6E1,6.707251E0,1E0,6.187344E-1,8.6E1,3.9754483E2,4.9997807E1,5.9904995E1,-1.4854262E2,7.2E1,-2.364108E2,3.4617935E2,5.983889E-1,5.458283E2,1E0,-3.0205393E-2,1.1E1,2.1036742E2,1.7153038E3,1.03E2,4.7398724E-2,1.6196143E2,3.3333334E-1,4.19E2,2E0,1E0,4.9597244E1,3E0,2E0,3.94E2,1.6E1,2.35E2,1.99E2,8.7E1,1.6214027E3,5.1304594E-2,1E0,4.1E1,-4.9213957E-2,-3.4019902E-2,-3.1994127E-2,-1.5935274E-2,-2.990155E-2,-1.0767764E-2,-7.3202634E-3,6.481085E-3,-2.5645075E-2,-2.9776236E-3,9.23881E-3,2.2301974E-2,8.359288E-3,3.1897884E-2,3.7489228E-2,4.824365E-2,5.471897E-2,8.764096E-3,4.738451E-2,3.8181324E-3,-2.5022233E-2,1.1330349E-2,6.003895E-2,1.1314757E-2,6.0687758E-2,4.4527046E-2,-2.3967162E-2,4.597583E-2,-3.932231E-2,9.787982E-3,-3.8373556E-2,-5.671199E-2,-3.9618474E-2,-1.4630764E-3,-1.0226272E-3,-3.192794E-2,-2.074859E-2,-8.802163E-3,-5.2041132E-2,-6.6245534E-3,6.1702706E-2,5.73265E-3,1.0441281E-2,-3.3511084E-2,-1.1481615E-2,1.3033653E-2,-8.318427E-3,-3.6824472E-2,-2.3426866E-2,-5.1080134E-2,-1.3904537E-2,3.9164172E-3,2.5218045E-2,-1.7371014E-3,1.3307452E-2,-2.4877388E-2,-4.0351734E-3,6.0002614E-2,1.849003E-2,4.136359E-4,1.4340754E-2,4.1799996E-2],"split_indices":[0,0,6,6,48,60,6,6,6,2,48,6,1,7,1,7,7,7,7,49,35,1,2,7,7,1,7,52,46,1,6,6,6,7,50,7,6,45,6,58,0,42,6,2,1,43,7,11,1,50,52,7,40,50,1,37,49,1,1,5,44,76,0,0,0,0,0,0,0,0,0,0,0,0,0,0,0,0,0,0,0,0,0,0,0,0,0,0,0,0,0,0,0,0,0,0,0,0,0,0,0,0,0,0,0,0,0,0,0,0,0,0,0,0,0,0,0,0,0,0,0,0,0,0,0],"split_type":[0,0,0,0,0,0,0,0,0,0,0,0,0,0,0,0,0,0,0,0,0,0,0,0,0,0,0,0,0,0,0,0,0,0,0,0,0,0,0,0,0,0,0,0,0,0,0,0,0,0,0,0,0,0,0,0,0,0,0,0,0,0,0,0,0,0,0,0,0,0,0,0,0,0,0,0,0,0,0,0,0,0,0,0,0,0,0,0,0,0,0,0,0,0,0,0,0,0,0,0,0,0,0,0,0,0,0,0,0,0,0,0,0,0,0,0,0,0,0,0,0,0,0,0,0],"sum_hessian":[3.5416465E4,1.9966572E4,1.5449893E4,1.4562604E4,5.4039683E3,1.0814244E4,4.635649E3,8.44164E3,6.120964E3,1.9400722E2,5.209961E3,9.574844E3,1.2393998E3,3.6637979E3,9.7185114E2,4.625758E3,3.8158818E3,3.9790217E3,2.141942E3,2.6448391E1,1.6755882E2,5.123749E3,8.621165E1,2.0978394E3,7.4770044E3,3.3421738E2,9.051824E2,4.8098584E2,3.182812E3,3.46994E2,6.248571E2,1.8517178E3,2.77404E3,2.0241222E3,1.7917596E3,4.0814667E2,3.570875E3,7.00384E2,1.441558E3,2.4848284E1,1.6001055E0,1.0158306E1,1.5740051E2,4.0436172E2,4.7193877E3,2.4278353E1,6.1933292E1,9.639595E2,1.1338799E3,4.723429E3,2.7535754E3,5.780149E1,2.764159E2,4.2493988E2,4.802425E2,2.5692914E2,2.2405672E2,1.3096732E3,1.8731389E3,9.913994E1,2.4785405E2,5.7295337E2,5.1903793E1,8.8699194E2,9.647258E2,1.2404812E3,1.5335588E3,3.597513E2,1.664371E3,4.7762057E2,1.314139E3,1.1264096E2,2.955057E2,1.906469E3,1.664406E3,1.13200584E2,5.871834E2,7.057556E2,7.358023E2,2.3474361E1,1.3739226E0,9.138351E0,1.0199552E0,1.0897783E2,4.8422684E1,3.2668622E2,7.767549E1,4.6232246E3,9.616314E1,6.2171006E0,1.8061253E1,4.5496822E1,1.6436472E1,2.074689E2,7.564906E2,1.0892449E3,4.463502E1,2.2249838E2,4.5009307E3,1.533136E3,1.2204395E3,3.529235E1,2.2509144E1,2.7531943E2,1.096446E0,7.5335266E1,3.496046E2,1.885169E2,2.917256E2,2.0699797E2,4.9931152E1,1.1394757E2,1.1010914E2,1.02227124E3,2.87402E2,5.895606E2,1.2835782E3,8.084852E1,1.829142E1,2.635585E0,2.4521846E2,1.1067095E2,4.622824E2,1.6586546E1,3.531725E1],"tree_param":{"num_deleted":"0","num_feature":"79","num_nodes":"125","size_leaf_vector":"1"}},{"base_weights":[2.6574605E-3,2.628045E-1,-3.2807606E-1,-4.1367836E-2,1.1117452E0,-5.256393E-1,-5.0196446E-2,-3.34506E-1,4.7176093E-1,-2.5794607E-2,1.1557019E0,-6.0926175E-1,6.698051E-2,-1.739487E-1,2.3717792E-1,-5.474756E-1,-6.1240993E-2,3.1343672E-1,7.794645E-1,1.0192144E0,-1.6251168E-1,1.179697E0,-2.0583501E-1,-8.177133E-1,-5.0223273E-1,8.9048624E-1,-2.3534018E-1,4.580354E-3,-2.8694662E-1,6.486963E-1,4.734774E-2,-7.07078E-1,-3.7173244E-1,-1.9545828E-1,1.3130537E-1,1.0031314E-1,4.091808E-1,5.8334583E-1,8.680966E-1,4.3579503E-3,5.2649517E-2,8.9913744E-1,-2.4604799E-1,9.9895215E-1,1.1946192E0,8.2713294E-1,-4.147933E-1,-1.0859824E0,-7.512486E-1,-6.8051267E-1,-4.267667E-1,-6.6895074E-1,1.2130829E0,-4.58981E-1,1.02875635E-1,4.323268E-1,-1.13772206E-1,-8.772259E-1,-2.566847E-1,-1.2263325E-1,1.1634794E0,-1.672829E-2,4.9484414E-1,-4.450598E-2,-2.8526247E-2,-2.2190638E-2,-1.2267657E-3,-2.2237651E-2,-6.061826E-3,1.7693004E-2,3.9936597E-3,-1.5631443E-2,8.150651E-3,2.4737757E-2,1.0874402E-2,8.666293E-3,3.2687824E-2,3.9987296E-2,5.0817557E-2,4.7444474E-2,3.4894638E-3,-2.0857045E-2,1.5617226E-2,5.838384E-2,6.532891E-3,6.007406E-2,4.485583E-2,4.6230715E-2,-6.733651E-3,-3.5984826E-3,-4.1421887E-2,-5.637873E-2,-2.3245525E-2,-4.6389643E-2,-3.2124802E-2,-3.615E-2,-5.4449057E-3,5.1421404E-2,-2.755163E-2,-4.860133E-2,-7.828091E-3,1.4758684E-2,6.099875E-2,-3.49183E-2,-1.0477164E-2,2.0597303E-2,-2.2265768E-2,-9.123484E-3,5.7843316E-2,-9.244785E-3,2.729991E-2,-2.4613937E-2,-6.1231542E-2,-9.269058E-3,-2.2874204E-2,-1.136641E-2,1.6189957E-2,-3.439961E-3,5.9270818E-2,-3.4630825E-3,2.0374198E-2,3.0351982E-2,6.9401315E-3],"categories":[],"categories_nodes":[],"categories_segments":[],"categories_sizes":[],"default_left":[0,0,0,0,0,0,0,0,0,0,0,0,0,0,0,0,0,0,0,0,0,0,0,0,0,0,0,0,0,0,0,0,0,0,0,0,0,0,0,0,0,0,0,0,0,0,0,0,0,0,0,0,0,0,0,0,0,0,0,0,0,0,0,0,0,0,0,0,0,0,0,0,0,0,0,0,0,0,0,0,0,0,0,0,0,0,0,0,0,0,0,0,0,0,0,0,0,0,0,0,0,0,0,0,0,0,0,0,0,0,0,0,0,0,0,0,0,0,0,0,0,0,0],"id":8,"left_children":[1,3,5,7,9,11,13,15,17,19,21,23,25,27,29,31,33,35,37,39,41,43,45,47,49,51,53,55,57,59,61,63,65,67,69,71,73,75,77,-1,-1,79,81,83,85,87,89,91,93,95,97,99,101,103,105,107,109,111,113,115,117,119,121,-1,-1,-1,-1,-1,-1,-1,-1,-1,-1,-1,-1,-1,-1,-1,-1,-1,-1,-1,-1,-1,-1,-1,-1,-1,-1,-1,-1,-1,-1,-1,-1,-1,-1,-1,-1,-1,-1,-1,-1,-1,-1,-1,-1,-1,-1,-1,-1,-1,-1,-1,-1,-1,-1,-1,-1,-1,-1,-1,-1],"loss_changes":[3.0372483E3,5.1023486E3,8.5314966E2,2.1890005E3,2.6071045E2,4.5025977E2,2.2991562E2,5.3889404E2,2.570348E2,2.8620821E1,1.6467871E2,1.7636792E2,2.809427E2,9.115288E1,1.5194467E2,1.4519629E2,1.0499739E2,7.126669E1,2.9691772E1,4.546013E-1,1.6331215E1,9.722168E0,2.0339705E1,4.562085E1,6.99989E1,1.5485178E2,6.2615757E1,8.895711E1,4.875151E1,2.442825E2,3.830699E1,6.6568726E1,6.211673E1,4.412571E1,1.902384E1,2.833521E1,3.926175E1,1.6059006E1,1.0030762E1,0E0,0E0,3.596592E-1,1.6262539E1,5.7327972E1,6.0351562E0,1.8788004E0,1.0656461E1,1.2080872E1,3.9880493E1,3.768878E1,6.724021E2,7.908472E0,5.146179E-1,2.9281876E1,5.6667442E1,1.7026562E2,6.489304E1,1.6071144E1,3.7491455E1,1.183696E1,1.0209015E1,2.6175615E1,6.4311295E0,0E0,0E0,0E0,0E0,0E0,0E0,0E0,0E0,0E0,0E0,0E0,0E0,0E0,0E0,0E0,0E0,0E0,0E0,0E0,0E0,0E0,0E0,0E0,0E0,0E0,0E0,0E0,0E0,0E0,0E0,0E0,0E0,0E0,0E0,0E0,0E0,0E0,0E0,0E0,0E0,0E0,0E0,0E0,0E0,0E0,0E0,0E0,0E0,0E0,0E0,0E0,0E0,0E0,0E0,0E0,0E0,0E0,0E0,0E0,0E0],"parents":[2147483647,0,0,1,1,2,2,3,3,4,4,5,5,6,6,7,7,8,8,9,9,10,10,11,11,12,12,13,13,14,14,15,15,16,16,17,17,18,18,19,19,20,20,21,21,22,22,23,23,24,24,25,25,26,26,27,27,28,28,29,29,30,30,31,31,32,32,33,33,34,34,35,35,36,36,37,37,38,38,41,41,42,42,43,43,44,44,45,45,46,46,47,47,48,48,49,49,50,50,51,51,52,52,53,53,54,54,55,55,56,56,57,57,58,58,59,59,60,60,61,61,62,62],"right_children":[2,4,6,8,10,12,14,16,18,20,22,24,26,28,30,32,34,36,38,40,42,44,46,48,50,52,54,56,58,60,62,64,66,68,70,72,74,76,78,-1,-1,80,82,84,86,88,90,92,94,96,98,100,102,104,106,108,110,112,114,116,118,120,122,-1,-1,-1,-1,-1,-1,-1,-1,-1,-1,-1,-1,-1,-1,-1,-1,-1,-1,-1,-1,-1,-1,-1,-1,-1,-1,-1,-1,-1,-1,-1,-1,-1,-1,-1,-1,-1,-1,-1,-1,-1,-1,-1,-1,-1,-1,-1,-1,-1,-1,-1,-1,-1,-1,-1,-1,-1,-1,-1,-1],"split_conditions":[3.4E1,3.3E1,9.672715E1,2.9341785E2,5.998726E-1,1E0,2.1476785E2,1.643453E2,4.631753E2,1.5863575E3,6.00907E-1,-4.0709564E1,8.7E1,1.51176E3,8.7E1,4.8072643E1,1.3709207E2,6.4265495E1,1.3326714E2,4.090909E-1,1.764706E-1,8.6E1,1.6727593E3,-1.0128159E2,8.6E1,8.6E1,6.42E2,8.7E1,1.461398E3,8.6E1,3.33E2,4.9997807E1,2.987265E2,-1.03226295E2,1E0,-1.9093141E2,6.0065534E-2,5.983889E-1,6.405559E2,4.3579503E-3,5.2649517E-2,6.7391306E-1,1.8389509E3,1.7402621E3,9.8E1,6.5776E-1,8.6095E-2,4E0,5.9819773E-2,2.7252286E2,8.7E1,1.6374713E3,7.2E1,6.707251E0,5.32E2,8.6E1,4.84E2,1E0,6.075705E-2,3.0296857E2,5.1304594E-2,3.4617935E2,3.91E2,-4.450598E-2,-2.8526247E-2,-2.2190638E-2,-1.2267657E-3,-2.2237651E-2,-6.061826E-3,1.7693004E-2,3.9936597E-3,-1.5631443E-2,8.150651E-3,2.4737757E-2,1.0874402E-2,8.666293E-3,3.2687824E-2,3.9987296E-2,5.0817557E-2,4.7444474E-2,3.4894638E-3,-2.0857045E-2,1.5617226E-2,5.838384E-2,6.532891E-3,6.007406E-2,4.485583E-2,4.6230715E-2,-6.733651E-3,-3.5984826E-3,-4.1421887E-2,-5.637873E-2,-2.3245525E-2,-4.6389643E-2,-3.2124802E-2,-3.615E-2,-5.4449057E-3,5.1421404E-2,-2.755163E-2,-4.860133E-2,-7.828091E-3,1.4758684E-2,6.099875E-2,-3.49183E-2,-1.0477164E-2,2.0597303E-2,-2.2265768E-2,-9.123484E-3,5.7843316E-2,-9.244785E-3,2.729991E-2,-2.4613937E-2,-6.1231542E-2,-9.269058E-3,-2.2874204E-2,-1.136641E-2,1.6189957E-2,-3.439961E-3,5.9270818E-2,-3.4630825E-3,2.0374198E-2,3.0351982E-2,6.9401315E-3],"split_indices":[0,0,6,6,48,60,6,6,6,2,48,7,1,5,1,7,7,7,7,35,35,1,2,6,1,1,1,1,4,1,1,6,7,7,76,7,44,45,6,0,0,36,2,2,1,45,44,25,43,7,1,4,0,7,0,1,1,52,44,6,44,6,49,0,0,0,0,0,0,0,0,0,0,0,0,0,0,0,0,0,0,0,0,0,0,0,0,0,0,0,0,0,0,0,0,0,0,0,0,0,0,0,0,0,0,0,0,0,0,0,0,0,0,0,0,0,0,0,0,0,0,0,0],"split_type":[0,0,0,0,0,0,0,0,0,0,0,0,0,0,0,0,0,0,0,0,0,0,0,0,0,0,0,0,0,0,0,0,0,0,0,0,0,0,0,0,0,0,0,0,0,0,0,0,0,0,0,0,0,0,0,0,0,0,0,0,0,0,0,0,0,0,0,0,0,0,0,0,0,0,0,0,0,0,0,0,0,0,0,0,0,0,0,0,0,0,0,0,0,0,0,0,0,0,0,0,0,0,0,0,0,0,0,0,0,0,0,0,0,0,0,0,0,0,0,0,0,0,0],"sum_hessian":[3.5294684E4,1.9755836E4,1.553885E4,1.4546671E4,5.209165E3,9.080348E3,6.458502E3,9.258535E3,5.2881353E3,1.9384892E2,5.015316E3,7.9574204E3,1.1229271E3,4.515271E3,1.9432308E3,5.201628E3,4.0569077E3,3.4955886E3,1.7925466E3,2.0186544E1,1.7366237E2,4.9288525E3,8.646344E1,2.6928528E3,5.2645674E3,2.9997485E2,8.2295233E2,1.7512666E3,2.7640044E3,6.1113855E2,1.3320923E3,2.7212417E3,2.4803862E3,2.390517E3,1.6663906E3,1.0854812E3,2.4101072E3,5.6503143E2,1.2275153E3,1.0815794E0,1.9104965E1,1.0531316E1,1.6313106E2,3.9143448E2,4.537418E3,1.30545025E1,7.3408936E1,5.25555E2,2.1672976E3,1.5585707E3,3.7059968E3,5.086616E1,2.4910869E2,4.9474042E2,3.2821188E2,3.7781604E2,1.3734506E3,1.3069765E2,2.6333066E3,2.4553079E2,3.6560773E2,1.1677698E3,1.6432254E2,1.1556299E3,1.5656118E3,2.0532778E3,4.2710837E2,5.450009E2,1.8455162E3,3.0949954E2,1.3568911E3,1.4151353E2,9.439677E2,1.6629846E3,7.471226E2,8.433153E1,4.806999E2,8.532975E2,3.7421774E2,9.527359E0,1.0039567E0,1.2545133E2,3.767973E1,3.2688138E2,6.4553116E1,4.4262095E3,1.11208466E2,1.19584875E1,1.0960151E0,4.2066597E1,3.1342342E1,4.9027548E2,3.5279507E1,8.175419E2,1.3497559E3,1.4499996E3,1.0857096E2,2.8985632E2,3.4161406E3,3.0270277E1,2.0595882E1,2.836352E0,2.4627234E2,2.4970227E2,2.4503816E2,2.1035768E2,1.1785419E2,2.0560104E2,1.7221501E2,1.2417489E3,1.317017E2,6.5438545E1,6.5259094E1,1.9475166E3,6.857901E2,2.0008119E2,4.544961E1,6.2825937E0,3.5932513E2,1.041325E3,1.2644484E2,1.2334064E2,4.0981903E1],"tree_param":{"num_deleted":"0","num_feature":"79","num_nodes":"123","size_leaf_vector":"1"}},{"base_weights":[2.8573452E-3,2.5276777E-1,-3.099681E-1,-3.9192203E-2,1.0974083E0,-4.290546E-1,9.893158E-2,-3.1231788E-1,4.6163684E-1,-2.275422E-2,1.1423842E0,6.730694E-2,-4.979371E-1,4.176138E-1,-3.6643043E-2,-5.3652763E-1,-8.003124E-2,2.8625867E-1,7.2448874E-1,4.1140145E-1,-3.4262237E-1,1.1669557E0,-1.9506046E-1,1.1875591E0,-1.6208337E-1,-6.7561316E-1,-3.6003435E-1,-2.3285645E-1,1.136506E0,-1.3813101E-1,2.5407985E-1,-6.119295E-1,-1.9303136E-1,-3.8356593E-1,9.3483896E-4,2.0578748E-1,5.192164E-1,5.264769E-1,8.212254E-1,8.838539E-1,7.750515E-2,7.626818E-1,-4.309104E-1,9.8186255E-1,1.182351E0,5.2534306E-1,-4.771708E-1,-4.179833E-3,5.973178E-2,-3.6507687E-1,2.4647069E-1,-8.6963356E-1,-5.806513E-1,-5.286404E-1,-2.6195738E-1,-1.7068547E-1,-7.7684003E-1,1.0330391E-1,1.1663694E0,-4.0449515E-1,-4.8020013E-2,1.6811006E-1,5.745791E-1,-4.375198E-2,-2.6409147E-2,-5.3449225E-2,-7.731018E-3,3.2415472E-2,-2.0569144E-2,-5.0816936E-3,7.046783E-3,2.7585996E-3,1.8268498E-2,2.6506806E-2,-4.1132163E-2,7.6086144E-3,2.99689E-2,3.5460945E-2,4.6339136E-2,-2.5147622E-2,5.0408285E-2,-1.0399173E-2,2.8933475E-2,5.1002423E-3,4.0733643E-2,-3.1079454E-2,8.099505E-3,5.873639E-2,1.0210103E-2,5.9472974E-2,4.3906447E-2,-2.2485545E-2,4.468301E-2,-3.577756E-2,1.0105482E-2,-2.9313404E-2,-1.0956614E-2,2.015717E-2,-1.6218193E-2,-3.580789E-2,-4.8526555E-2,-3.3020023E-2,-1.7208103E-2,-2.9896388E-2,-1.426124E-2,-1.4898484E-2,7.846442E-3,-3.980726E-3,-2.7933031E-2,-7.680529E-2,-2.4148807E-2,2.200794E-2,-3.5106E-2,5.8703847E-2,1.1781941E-3,-1.5204744E-2,-4.2729672E-2,-6.161991E-3,8.695292E-3,1.17607955E-2,-1.4099828E-2,4.9834563E-3,3.558683E-2],"categories":[],"categories_nodes":[],"categories_segments":[],"categories_sizes":[],"default_left":[0,0,0,0,0,0,0,0,0,0,0,0,0,0,0,0,0,0,0,0,0,0,0,0,0,0,0,0,0,0,0,0,0,0,0,0,0,0,0,0,0,0,0,0,0,0,0,0,0,0,0,0,0,0,0,0,0,0,0,0,0,0,0,0,0,0,0,0,0,0,0,0,0,0,0,0,0,0,0,0,0,0,0,0,0,0,0,0,0,0,0,0,0,0,0,0,0,0,0,0,0,0,0,0,0,0,0,0,0,0,0,0,0,0,0,0,0,0,0,0,0,0,0],"id":9,"left_children":[1,3,5,7,9,11,13,15,17,19,21,23,25,27,29,31,33,35,37,39,41,43,45,47,49,51,53,55,57,59,61,63,65,67,69,71,73,75,77,79,81,83,85,87,89,91,93,-1,-1,95,97,99,101,103,105,107,109,111,113,115,117,119,121,-1,-1,-1,-1,-1,-1,-1,-1,-1,-1,-1,-1,-1,-1,-1,-1,-1,-1,-1,-1,-1,-1,-1,-1,-1,-1,-1,-1,-1,-1,-1,-1,-1,-1,-1,-1,-1,-1,-1,-1,-1,-1,-1,-1,-1,-1,-1,-1,-1,-1,-1,-1,-1,-1,-1,-1,-1,-1,-1,-1],"loss_changes":[2.7495361E3,4.8214404E3,7.6068555E2,1.9882327E3,2.5309912E2,4.1369458E2,1.5235635E2,4.8971313E2,2.3583728E2,2.7753752E1,1.5935889E2,3.8007526E2,2.595537E2,4.9290298E2,7.315655E1,1.2358826E2,1.1361648E2,5.744864E1,3.798645E1,1.3179749E1,1.2203794E1,1.0029297E1,1.897749E1,2.5606995E0,1.0214817E2,8.394946E1,9.8592896E1,1.8371254E1,1.5078613E1,4.4038483E1,1.7391651E1,8.504675E1,2.863345E1,2.8743042E1,5.2492104E1,5.511078E1,1.2872543E1,1.8321E1,1.4253967E1,7.5286903E0,7.9446845E0,7.997227E-2,1.2553505E1,5.6544617E1,6.3007812E0,1.0781282E1,1.1123329E1,0E0,0E0,2.614624E1,3.7019894E1,2.1425537E1,5.8224243E1,3.657556E1,5.733252E1,1.7600067E1,1.0286076E1,5.6340675E0,4.198181E0,2.0188782E1,2.303717E1,1.5610472E1,8.547203E0,0E0,0E0,0E0,0E0,0E0,0E0,0E0,0E0,0E0,0E0,0E0,0E0,0E0,0E0,0E0,0E0,0E0,0E0,0E0,0E0,0E0,0E0,0E0,0E0,0E0,0E0,0E0,0E0,0E0,0E0,0E0,0E0,0E0,0E0,0E0,0E0,0E0,0E0,0E0,0E0,0E0,0E0,0E0,0E0,0E0,0E0,0E0,0E0,0E0,0E0,0E0,0E0,0E0,0E0,0E0,0E0,0E0,0E0,0E0,0E0],"parents":[2147483647,0,0,1,1,2,2,3,3,4,4,5,5,6,6,7,7,8,8,9,9,10,10,11,11,12,12,13,13,14,14,15,15,16,16,17,17,18,18,19,19,20,20,21,21,22,22,23,23,24,24,25,25,26,26,27,27,28,28,29,29,30,30,31,31,32,32,33,33,34,34,35,35,36,36,37,37,38,38,39,39,40,40,41,41,42,42,43,43,44,44,45,45,46,46,49,49,50,50,51,51,52,52,53,53,54,54,55,55,56,56,57,57,58,58,59,59,60,60,61,61,62,62],"right_children":[2,4,6,8,10,12,14,16,18,20,22,24,26,28,30,32,34,36,38,40,42,44,46,48,50,52,54,56,58,60,62,64,66,68,70,72,74,76,78,80,82,84,86,88,90,92,94,-1,-1,96,98,100,102,104,106,108,110,112,114,116,118,120,122,-1,-1,-1,-1,-1,-1,-1,-1,-1,-1,-1,-1,-1,-1,-1,-1,-1,-1,-1,-1,-1,-1,-1,-1,-1,-1,-1,-1,-1,-1,-1,-1,-1,-1,-1,-1,-1,-1,-1,-1,-1,-1,-1,-1,-1,-1,-1,-1,-1,-1,-1,-1,-1,-1,-1,-1,-1,-1,-1,-1],"split_conditions":[3.4E1,3.3E1,1.6261385E2,2.9661017E2,5.998726E-1,6E0,8.7E1,1.497464E2,4.412345E2,1.5919891E3,6.00907E-1,8.7E1,2.3160583E1,8.6E1,2.25E2,2.0235614E2,-5.059388E1,2.6864053E2,1.3326714E2,1.7108557E3,2.857143E-1,8.6E1,1.7108557E3,8.6E1,5.29E2,-7.116772E1,1.0668949E1,2.8E1,5.9670277E-2,2.4550838E1,4.84E2,1.447728E0,-1.0798668E2,8.5E1,1.7058167E2,8.5E1,7.7E1,5.983889E-1,5.458283E2,-9.0661514E1,1.8126726E3,8.4E1,1.8414652E3,1.7153038E3,9.8E1,4.7398724E-2,1.6196143E2,-4.179833E-3,5.973178E-2,2.37E2,5.32E2,5.9E1,2.8E1,2.55E2,1E0,1.6579049E3,-1.7688894E1,3E0,9.810943E-2,2.1E1,7.8E1,2.6E1,5.81134E-1,-4.375198E-2,-2.6409147E-2,-5.3449225E-2,-7.731018E-3,3.2415472E-2,-2.0569144E-2,-5.0816936E-3,7.046783E-3,2.7585996E-3,1.8268498E-2,2.6506806E-2,-4.1132163E-2,7.6086144E-3,2.99689E-2,3.5460945E-2,4.6339136E-2,-2.5147622E-2,5.0408285E-2,-1.0399173E-2,2.8933475E-2,5.1002423E-3,4.0733643E-2,-3.1079454E-2,8.099505E-3,5.873639E-2,1.0210103E-2,5.9472974E-2,4.3906447E-2,-2.2485545E-2,4.468301E-2,-3.577756E-2,1.0105482E-2,-2.9313404E-2,-1.0956614E-2,2.015717E-2,-1.6218193E-2,-3.580789E-2,-4.8526555E-2,-3.3020023E-2,-1.7208103E-2,-2.9896388E-2,-1.426124E-2,-1.4898484E-2,7.846442E-3,-3.980726E-3,-2.7933031E-2,-7.680529E-2,-2.4148807E-2,2.200794E-2,-3.5106E-2,5.8703847E-2,1.1781941E-3,-1.5204744E-2,-4.2729672E-2,-6.161991E-3,8.695292E-3,1.17607955E-2,-1.4099828E-2,4.9834563E-3,3.558683E-2],"split_indices":[0,0,6,6,48,50,1,6,6,3,48,1,6,1,1,7,7,7,7,2,35,1,2,1,1,7,7,37,44,7,1,6,6,49,7,1,37,45,6,7,2,50,2,2,1,43,7,0,0,1,0,49,38,50,72,5,7,40,43,37,50,37,46,0,0,0,0,0,0,0,0,0,0,0,0,0,0,0,0,0,0,0,0,0,0,0,0,0,0,0,0,0,0,0,0,0,0,0,0,0,0,0,0,0,0,0,0,0,0,0,0,0,0,0,0,0,0,0,0,0,0,0,0],"split_type":[0,0,0,0,0,0,0,0,0,0,0,0,0,0,0,0,0,0,0,0,0,0,0,0,0,0,0,0,0,0,0,0,0,0,0,0,0,0,0,0,0,0,0,0,0,0,0,0,0,0,0,0,0,0,0,0,0,0,0,0,0,0,0,0,0,0,0,0,0,0,0,0,0,0,0,0,0,0,0,0,0,0,0,0,0,0,0,0,0,0,0,0,0,0,0,0,0,0,0,0,0,0,0,0,0,0,0,0,0,0,0,0,0,0,0,0,0,0,0,0,0,0,0],"sum_hessian":[3.5164043E4,1.9548047E4,1.5615995E4,1.4528842E4,5.0192056E3,1.2093716E4,3.5222786E3,9.402399E3,5.126442E3,1.938055E2,4.8254E3,1.4737888E3,1.0619928E4,1.0493744E3,2.4729043E3,4.7823794E3,4.62002E3,3.0786165E3,2.0478258E3,8.1851E1,1.1195449E2,4.7387227E3,8.6677505E1,2.4836087E2,1.225428E3,4.6356226E3,5.9843047E3,5.519686E2,4.9740573E2,1.8341859E3,6.3871826E2,3.919627E3,8.6275256E2,9.704976E2,3.6495222E3,2.2923975E3,7.862189E2,6.7844135E2,1.3693844E3,3.1847105E1,5.0003895E1,6.5860534E0,1.0536844E2,3.788033E2,4.359919E3,2.3663435E1,6.301407E1,1.1953795E0,2.471655E2,8.188799E2,4.0654807E2,1.5152604E3,3.120362E3,2.195981E3,3.788324E3,4.9889236E2,5.3076275E1,1.4348854E1,4.8305685E2,4.6100598E2,1.3731799E3,5.072331E2,1.3148517E2,9.3952734E2,2.9800996E3,3.2861595E1,8.29891E2,2.371899E1,9.467786E2,2.1068237E3,1.5426986E3,1.1814092E3,1.1109883E3,7.8167255E2,4.5462904E0,1.1210572E2,5.6633563E2,6.756309E2,6.937535E2,1.8681854E0,2.997892E1,3.2974785E1,1.702911E1,1.1287216E0,5.4573317E0,7.9617905E1,2.575053E1,3.022992E2,7.6504105E1,4.251842E3,1.08077415E2,6.3061266E0,1.735731E1,4.6526352E1,1.6487715E1,3.2192484E2,4.9695508E2,3.196872E2,8.686086E1,6.106664E2,9.04594E2,2.3294463E3,7.9091583E2,1.7060039E3,4.8997717E2,3.4892168E3,2.9910712E2,4.069767E2,9.191564E1,1.1271617E1,4.1804657E1,1.1076723E1,3.272131E0,4.7973926E2,3.3176134E0,3.810375E2,7.99685E1,1.0265679E3,3.4661206E2,4.4266846E2,6.4564644E1,3.0625134E1,1.0086004E2],"tree_param":{"num_deleted":"0","num_feature":"79","num_nodes":"123","size_leaf_vector":"1"}},{"base_weights":[3.0052077E-3,2.4309786E-1,-2.9308054E-1,-3.71493E-2,1.0837172E0,-4.683449E-1,-4.280365E-2,-2.950806E-1,4.4493976E-1,-2.0383252E-2,1.1297796E0,-5.417409E-1,6.548097E-2,-1.3414665E-1,2.8283668E-1,-4.860137E-1,-5.1619124E-2,2.9379982E-1,7.3974E-1,8.747329E-1,-1.636707E-1,1.1549568E0,-1.8483005E-1,-7.7799976E-1,-4.6806195E-1,8.6565614E-1,-2.1296854E-1,-2.879215E-1,-1.8340977E-2,7.0068014E-1,8.82777E-2,-7.2406256E-1,-3.8756925E-1,-1.7606266E-1,1.2784705E-1,9.660024E-2,3.8320607E-1,5.468495E-1,8.2869565E-1,1.0337842E0,-2.9303288E-2,-5.468408E-1,5.3820968E-2,9.652466E-1,1.1708609E0,7.9707384E-1,-3.7352872E-1,-5.3631014E-1,-8.492209E-1,-5.520835E-1,-2.920579E-1,-6.035639E-1,1.1939015E0,-4.1595873E-1,9.931801E-2,-4.5993623E-1,-1.8600509E-1,-5.5270296E-2,5.4429394E-1,-6.265644E-2,1.1463907E0,-8.864344E-2,2.0411587E-1,-4.8841376E-2,-3.307877E-2,-3.076917E-2,-1.4482076E-2,-2.5645575E-2,-6.3001695E-3,5.3776116E-3,3.666466E-2,8.334429E-4,1.8209249E-2,1.090624E-2,2.3956893E-2,7.955998E-3,3.0767936E-2,3.7948214E-2,4.909717E-2,5.3021748E-2,8.620857E-3,-2.489114E-3,-4.9079712E-2,7.5712847E-3,-4.420887E-2,5.3712275E-2,-1.925576E-2,5.887806E-2,4.1585673E-2,4.501493E-2,-7.086119E-3,-5.2210083E-3,-4.2593297E-2,-1.9037643E-2,-3.743453E-2,-4.3131508E-2,1.3780084E-2,-2.0434301E-2,-3.2899577E-2,-2.3840072E-2,-9.852091E-3,-4.4028994E-2,-6.595142E-3,1.4506443E-2,6.005122E-2,-3.1585537E-2,-9.784183E-3,1.951123E-2,-2.0065589E-2,-2.6976574E-2,5.6786286E-3,3.8868438E-3,-1.7121866E-2,8.091796E-3,-6.877359E-3,6.4711818E-3,3.6652222E-2,1.412358E-2,-1.3092588E-2,-7.3127034E-3,5.825908E-2,-2.7603034E-2,8.7348605E-4,8.605427E-3,4.167148E-2],"categories":[],"categories_nodes":[],"categories_segments":[],"categories_sizes":[],"default_left":[0,0,0,0,0,0,0,0,0,0,0,0,0,0,0,0,0,0,0,0,0,0,0,0,0,0,0,0,0,0,0,0,0,0,0,0,0,0,0,0,0,0,0,0,0,0,0,0,0,0,0,0,0,0,0,0,0,0,0,0,0,0,0,0,0,0,0,0,0,0,0,0,0,0,0,0,0,0,0,0,0,0,0,0,0,0,0,0,0,0,0,0,0,0,0,0,0,0,0,0,0,0,0,0,0,0,0,0,0,0,0,0,0,0,0,0,0,0,0,0,0,0,0,0,0],"id":10,"left_children":[1,3,5,7,9,11,13,15,17,19,21,23,25,27,29,31,33,35,37,39,41,43,45,47,49,51,53,55,57,59,61,63,65,67,69,71,73,75,77,79,-1,81,83,85,87,89,91,93,95,97,99,101,103,105,107,109,111,113,115,117,119,121,123,-1,-1,-1,-1,-1,-1,-1,-1,-1,-1,-1,-1,-1,-1,-1,-1,-1,-1,-1,-1,-1,-1,-1,-1,-1,-1,-1,-1,-1,-1,-1,-1,-1,-1,-1,-1,-1,-1,-1,-1,-1,-1,-1,-1,-1,-1,-1,-1,-1,-1,-1,-1,-1,-1,-1,-1,-1,-1,-1,-1,-1,-1],"loss_changes":[2.4904692E3,4.5576885E3,6.880675E2,1.8048907E3,2.4607422E2,3.6159265E2,1.9239731E2,4.3946906E2,2.2476935E2,2.565385E1,1.5433057E2,1.4010303E2,2.4962057E2,8.99211E1,1.1501268E2,1.2334204E2,9.296281E1,5.8944214E1,2.8028748E1,8.232698E0,1.4426868E1,1.035791E1,1.7540205E1,3.174707E1,9.1063354E1,1.4161792E2,5.284543E1,3.777397E1,6.001422E1,1.5323505E2,1.9939398E1,2.2493408E1,8.324353E1,4.1246094E1,2.0712732E1,2.2415981E1,3.6168243E1,1.4299698E1,1.0227966E1,4.8002243E-2,0E0,1.3374273E1,1.0700326E1,5.563214E1,6.5825195E0,1.8790455E0,9.697163E0,1.387915E1,2.304663E1,6.277881E1,3.4943314E1,6.8115196E0,4.8269653E-1,2.361142E1,4.8538506E1,3.69337E1,5.6489872E1,4.8459553E1,1.3647411E1,1.1815934E1,7.412323E0,1.90108E1,1.139887E1,0E0,0E0,0E0,0E0,0E0,0E0,0E0,0E0,0E0,0E0,0E0,0E0,0E0,0E0,0E0,0E0,0E0,0E0,0E0,0E0,0E0,0E0,0E0,0E0,0E0,0E0,0E0,0E0,0E0,0E0,0E0,0E0,0E0,0E0,0E0,0E0,0E0,0E0,0E0,0E0,0E0,0E0,0E0,0E0,0E0,0E0,0E0,0E0,0E0,0E0,0E0,0E0,0E0,0E0,0E0,0E0,0E0,0E0,0E0,0E0,0E0,0E0],"parents":[2147483647,0,0,1,1,2,2,3,3,4,4,5,5,6,6,7,7,8,8,9,9,10,10,11,11,12,12,13,13,14,14,15,15,16,16,17,17,18,18,19,19,20,20,21,21,22,22,23,23,24,24,25,25,26,26,27,27,28,28,29,29,30,30,31,31,32,32,33,33,34,34,35,35,36,36,37,37,38,38,39,39,41,41,42,42,43,43,44,44,45,45,46,46,47,47,48,48,49,49,50,50,51,51,52,52,53,53,54,54,55,55,56,56,57,57,58,58,59,59,60,60,61,61,62,62],"right_children":[2,4,6,8,10,12,14,16,18,20,22,24,26,28,30,32,34,36,38,40,42,44,46,48,50,52,54,56,58,60,62,64,66,68,70,72,74,76,78,80,-1,82,84,86,88,90,92,94,96,98,100,102,104,106,108,110,112,114,116,118,120,122,124,-1,-1,-1,-1,-1,-1,-1,-1,-1,-1,-1,-1,-1,-1,-1,-1,-1,-1,-1,-1,-1,-1,-1,-1,-1,-1,-1,-1,-1,-1,-1,-1,-1,-1,-1,-1,-1,-1,-1,-1,-1,-1,-1,-1,-1,-1,-1,-1,-1,-1,-1,-1,-1,-1,-1,-1,-1,-1,-1,-1,-1,-1],"split_conditions":[3.4E1,3.3E1,9.672715E1,2.9661017E2,5.998726E-1,1E0,2.3740518E2,1.643453E2,4.631753E2,1.6273386E3,6.00907E-1,-4.87637E1,8.7E1,6.122163E1,8.7E1,-5.9086483E1,1.3709207E2,6.4265495E1,1.3326714E2,3.27E2,6.707251E0,8.6E1,1.6727593E3,1.5324838E3,6.5856575E1,8.6E1,6.42E2,6.0407126E-1,1E0,8.6E1,1.39E2,-2.492558E2,3.4715702E1,-1.7110767E2,2.72E2,1E0,6.078145E-1,5.983889E-1,6.405559E2,1E0,-2.9303288E-2,5.940049E-1,1E1,1E0,1.03E2,1E0,9.532419E-2,1E0,3.43E2,6.7E1,8.6E1,1.6374713E3,7.2E1,5.299189E0,5.32E2,2.53E2,8.7E1,8.7E1,6.088627E-1,3.9E1,5.1304594E-2,1.7E1,6.42E2,-4.8841376E-2,-3.307877E-2,-3.076917E-2,-1.4482076E-2,-2.5645575E-2,-6.3001695E-3,5.3776116E-3,3.666466E-2,8.334429E-4,1.8209249E-2,1.090624E-2,2.3956893E-2,7.955998E-3,3.0767936E-2,3.7948214E-2,4.909717E-2,5.3021748E-2,8.620857E-3,-2.489114E-3,-4.9079712E-2,7.5712847E-3,-4.420887E-2,5.3712275E-2,-1.925576E-2,5.887806E-2,4.1585673E-2,4.501493E-2,-7.086119E-3,-5.2210083E-3,-4.2593297E-2,-1.9037643E-2,-3.743453E-2,-4.3131508E-2,1.3780084E-2,-2.0434301E-2,-3.2899577E-2,-2.3840072E-2,-9.852091E-3,-4.4028994E-2,-6.595142E-3,1.4506443E-2,6.005122E-2,-3.1585537E-2,-9.784183E-3,1.951123E-2,-2.0065589E-2,-2.6976574E-2,5.6786286E-3,3.8868438E-3,-1.7121866E-2,8.091796E-3,-6.877359E-3,6.4711818E-3,3.6652222E-2,1.412358E-2,-1.3092588E-2,-7.3127034E-3,5.825908E-2,-2.7603034E-2,8.7348605E-4,8.605427E-3,4.167148E-2],"split_indices":[0,0,6,6,48,60,6,6,6,2,48,6,1,7,1,7,7,7,7,49,7,1,2,5,7,1,1,45,60,1,1,7,6,7,1,58,46,45,6,58,0,45,42,30,1,69,44,54,38,49,1,4,0,7,0,1,1,1,46,0,44,50,1,0,0,0,0,0,0,0,0,0,0,0,0,0,0,0,0,0,0,0,0,0,0,0,0,0,0,0,0,0,0,0,0,0,0,0,0,0,0,0,0,0,0,0,0,0,0,0,0,0,0,0,0,0,0,0,0,0,0,0,0,0,0],"split_type":[0,0,0,0,0,0,0,0,0,0,0,0,0,0,0,0,0,0,0,0,0,0,0,0,0,0,0,0,0,0,0,0,0,0,0,0,0,0,0,0,0,0,0,0,0,0,0,0,0,0,0,0,0,0,0,0,0,0,0,0,0,0,0,0,0,0,0,0,0,0,0,0,0,0,0,0,0,0,0,0,0,0,0,0,0,0,0,0,0,0,0,0,0,0,0,0,0,0,0,0,0,0,0,0,0,0,0,0,0,0,0,0,0,0,0,0,0,0,0,0,0,0,0,0,0],"sum_hessian":[3.5027594E4,1.9343059E4,1.5684535E4,1.4508918E4,4.834141E3,9.223131E3,6.4614043E3,9.452647E3,5.0562705E3,1.9366739E2,4.6404736E3,8.108276E3,1.1148551E3,5.047368E3,1.4140364E3,5.296171E3,4.156477E3,3.3465376E3,1.7097329E3,2.4610632E1,1.6905675E2,4.553628E3,8.684595E1,1.9206951E3,6.1875806E3,2.8616928E2,8.2868585E2,2.1663196E3,2.8810486E3,4.4675705E2,9.6727936E2,1.5438693E3,3.7523015E3,2.4545356E3,1.7019413E3,1.0458944E3,2.3006433E3,5.463897E2,1.1633431E3,2.2984983E1,1.6256486E0,5.9568283E1,1.0948847E2,3.6653476E2,4.187093E3,1.244025E1,7.440569E1,4.42991E2,1.477704E3,4.183861E3,2.0037197E3,5.1799488E1,2.343698E2,5.0162643E2,3.2705942E2,8.020608E2,1.3642587E3,2.706133E3,1.7491548E2,1.656457E2,2.8111133E2,3.8300903E2,5.842703E2,2.9731464E2,1.2465547E3,1.1232882E3,2.6290134E3,3.1398596E2,2.1405496E3,1.6501602E3,5.1781162E1,8.077845E2,2.3810988E2,8.491797E2,1.4514635E3,8.354311E1,4.6284662E2,8.118082E2,3.515349E2,2.1622656E1,1.362329E0,2.935262E1,3.0215662E1,1.0144787E2,8.040603E0,3.397261E2,2.6808664E1,4.098702E3,8.839099E1,1.1318729E1,1.1215211E0,4.9955845E1,2.4449852E1,2.6053873E2,1.824523E2,1.4609866E3,1.6717451E1,1.7835472E3,2.4003137E3,6.764388E2,1.327281E3,3.0994734E1,2.0804754E1,2.8116748E0,2.3155812E2,2.505842E2,2.5104225E2,2.0727652E2,1.197829E2,7.044679E2,9.759285E1,5.0847992E2,8.557788E2,7.4290607E2,1.963227E3,5.62769E1,1.1863859E2,6.015913E1,1.0548658E2,3.7363248E0,2.77375E2,6.901204E1,3.13997E2,5.5962775E2,2.4642603E1],"tree_param":{"num_deleted":"0","num_feature":"79","num_nodes":"125","size_leaf_vector":"1"}},{"base_weights":[3.1287107E-3,2.3376489E-1,-2.7718955E-1,-3.5211366E-2,1.0705212E0,-3.829357E-1,9.293748E-2,-2.789358E-1,4.2873836E-1,-2.0051245E-2,1.1177694E0,6.9707744E-2,-4.4456196E-1,3.912585E-1,-3.0316757E-2,-4.5800638E-1,-4.8968077E-2,2.6189658E-1,6.859072E-1,3.906395E-1,-3.1477213E-1,1.1435916E0,-1.7548338E-1,1.1693786E0,-1.4029299E-1,-6.7328E-1,-3.596667E-1,-2.2047833E-1,1.1147624E0,-9.850659E-2,3.5084656E-1,-5.2773607E-1,-1.6121261E-1,-1.5945537E-1,1.3392875E-1,1.9195502E-1,5.102043E-1,4.9180728E-1,7.8267884E-1,8.5350674E-1,7.6161124E-2,7.518037E-1,-3.9835957E-1,9.485701E-1,1.160082E0,5.0380754E-1,-4.3215364E-1,-4.0008496E-3,5.8839556E-2,-3.259668E-1,2.4024208E-1,-8.546734E-1,-5.974728E-1,-4.9881124E-1,-2.6515138E-1,-9.165648E-2,-4.5735472E-1,9.492248E-2,1.1460118E0,-5.9021586E-1,-6.010084E-2,2.7308926E-1,7.3650396E-1,-3.4003202E-2,-2.0052446E-2,-4.65284E-2,-6.46127E-3,-2.4150087E-2,-5.6924764E-3,1.8892307E-2,3.907888E-3,2.7686874E-3,1.7028946E-2,2.6104515E-2,-4.0640496E-2,6.895803E-3,2.8127303E-2,3.3513077E-2,4.451845E-2,-2.4046311E-2,4.8993915E-2,-9.833939E-3,2.8144313E-2,4.8364103E-3,4.0216096E-2,-2.8813243E-2,8.090278E-3,5.763289E-2,8.369771E-3,5.838734E-2,4.2037982E-2,-2.1261884E-2,4.346477E-2,-3.271008E-2,1.0367996E-2,-2.6598662E-2,-9.472727E-3,2.802056E-2,-1.2430501E-3,-4.5823958E-2,-2.2911139E-2,-3.059907E-2,1.8902335E-2,-1.7122606E-2,-2.929428E-2,-1.4885831E-2,5.6312857E-3,-1.9314367E-2,3.2801328E-3,-2.8445214E-2,4.145319E-3,2.1279221E-2,-3.3921935E-2,5.7706863E-2,5.591869E-4,-3.237166E-2,3.7285015E-2,-3.823677E-4,-1.6115798E-2,1.6646957E-2,-4.3796576E-3,-1.7000375E-2,4.1715786E-2],"categories":[],"categories_nodes":[],"categories_segments":[],"categories_sizes":[],"default_left":[0,0,0,0,0,0,0,0,0,0,0,0,0,0,0,0,0,0,0,0,0,0,0,0,0,0,0,0,0,0,0,0,0,0,0,0,0,0,0,0,0,0,0,0,0,0,0,0,0,0,0,0,0,0,0,0,0,0,0,0,0,0,0,0,0,0,0,0,0,0,0,0,0,0,0,0,0,0,0,0,0,0,0,0,0,0,0,0,0,0,0,0,0,0,0,0,0,0,0,0,0,0,0,0,0,0,0,0,0,0,0,0,0,0,0,0,0,0,0,0,0,0,0],"id":11,"left_children":[1,3,5,7,9,11,13,15,17,19,21,23,25,27,29,31,33,35,37,39,41,43,45,47,49,51,53,55,57,59,61,63,65,67,69,71,73,75,77,79,81,83,85,87,89,91,93,-1,-1,95,97,99,101,103,105,107,109,111,113,115,117,119,121,-1,-1,-1,-1,-1,-1,-1,-1,-1,-1,-1,-1,-1,-1,-1,-1,-1,-1,-1,-1,-1,-1,-1,-1,-1,-1,-1,-1,-1,-1,-1,-1,-1,-1,-1,-1,-1,-1,-1,-1,-1,-1,-1,-1,-1,-1,-1,-1,-1,-1,-1,-1,-1,-1,-1,-1,-1,-1,-1,-1],"loss_changes":[2.256071E3,4.308906E3,6.166095E2,1.6388666E3,2.4003564E2,3.4185315E2,1.2882437E2,3.912152E2,2.1363678E2,2.413294E1,1.4966846E2,3.4013666E2,2.0866821E2,4.5406903E2,6.45977E1,1.1029138E2,8.418975E1,5.236972E1,3.5703857E1,1.1940009E1,1.1237174E1,1.0774902E1,1.6342186E1,2.469513E0,8.767846E1,3.856311E1,1.0312012E2,1.6886368E1,1.4644531E1,3.9685944E1,1.0708134E1,8.262781E1,2.4754286E1,3.8149765E1,2.1260935E1,4.8068222E1,1.1724457E1,1.6312622E1,1.4000793E1,7.051611E0,7.361703E0,9.2291355E-2,1.1192089E1,5.644638E1,6.898926E0,9.958305E0,9.910102E0,0E0,0E0,2.3124672E1,3.463533E1,1.9627258E1,2.9940308E1,4.2700317E1,5.7844696E1,1.6981573E1,1.1931656E1,5.274078E0,4.161621E0,1.3091217E1,2.6920773E1,6.9668045E0,7.3292427E0,0E0,0E0,0E0,0E0,0E0,0E0,0E0,0E0,0E0,0E0,0E0,0E0,0E0,0E0,0E0,0E0,0E0,0E0,0E0,0E0,0E0,0E0,0E0,0E0,0E0,0E0,0E0,0E0,0E0,0E0,0E0,0E0,0E0,0E0,0E0,0E0,0E0,0E0,0E0,0E0,0E0,0E0,0E0,0E0,0E0,0E0,0E0,0E0,0E0,0E0,0E0,0E0,0E0,0E0,0E0,0E0,0E0,0E0,0E0,0E0],"parents":[2147483647,0,0,1,1,2,2,3,3,4,4,5,5,6,6,7,7,8,8,9,9,10,10,11,11,12,12,13,13,14,14,15,15,16,16,17,17,18,18,19,19,20,20,21,21,22,22,23,23,24,24,25,25,26,26,27,27,28,28,29,29,30,30,31,31,32,32,33,33,34,34,35,35,36,36,37,37,38,38,39,39,40,40,41,41,42,42,43,43,44,44,45,45,46,46,49,49,50,50,51,51,52,52,53,53,54,54,55,55,56,56,57,57,58,58,59,59,60,60,61,61,62,62],"right_children":[2,4,6,8,10,12,14,16,18,20,22,24,26,28,30,32,34,36,38,40,42,44,46,48,50,52,54,56,58,60,62,64,66,68,70,72,74,76,78,80,82,84,86,88,90,92,94,-1,-1,96,98,100,102,104,106,108,110,112,114,116,118,120,122,-1,-1,-1,-1,-1,-1,-1,-1,-1,-1,-1,-1,-1,-1,-1,-1,-1,-1,-1,-1,-1,-1,-1,-1,-1,-1,-1,-1,-1,-1,-1,-1,-1,-1,-1,-1,-1,-1,-1,-1,-1,-1,-1,-1,-1,-1,-1,-1,-1,-1,-1,-1,-1,-1,-1,-1,-1,-1,-1,-1],"split_conditions":[3.4E1,3.3E1,1.6261385E2,2.9661017E2,5.998726E-1,6E0,8.7E1,1.643453E2,4.412345E2,1.5919891E3,6.00907E-1,8.7E1,-2.0558538E1,8.6E1,2.92E2,1.972347E2,1.5131288E2,2.890792E2,1.3326714E2,1.7108557E3,2.857143E-1,8.6E1,1.7108557E3,8.6E1,5.29E2,-1.03226295E2,9.446487E0,1E0,5.9670277E-2,-7.924178E1,1E0,6.1492123E1,-1.0128159E2,-1.7110767E2,1E0,8.6E1,7.7E1,5.983889E-1,5.458283E2,-9.0661514E1,1.8126726E3,-1.4854262E2,1.8414652E3,1.7153038E3,9.8E1,4.7398724E-2,1.6196143E2,-4.0008496E-3,5.8839556E-2,2.37E2,2.3E2,3E0,3.71E2,7.9E1,1E0,5.2E1,2.6472983E2,3E0,9.810943E-2,1.691343E3,2E1,1.5210281E3,4.090909E-1,-3.4003202E-2,-2.0052446E-2,-4.65284E-2,-6.46127E-3,-2.4150087E-2,-5.6924764E-3,1.8892307E-2,3.907888E-3,2.7686874E-3,1.7028946E-2,2.6104515E-2,-4.0640496E-2,6.895803E-3,2.8127303E-2,3.3513077E-2,4.451845E-2,-2.4046311E-2,4.8993915E-2,-9.833939E-3,2.8144313E-2,4.8364103E-3,4.0216096E-2,-2.8813243E-2,8.090278E-3,5.763289E-2,8.369771E-3,5.838734E-2,4.2037982E-2,-2.1261884E-2,4.346477E-2,-3.271008E-2,1.0367996E-2,-2.6598662E-2,-9.472727E-3,2.802056E-2,-1.2430501E-3,-4.5823958E-2,-2.2911139E-2,-3.059907E-2,1.8902335E-2,-1.7122606E-2,-2.929428E-2,-1.4885831E-2,5.6312857E-3,-1.9314367E-2,3.2801328E-3,-2.8445214E-2,4.145319E-3,2.1279221E-2,-3.3921935E-2,5.7706863E-2,5.591869E-4,-3.237166E-2,3.7285015E-2,-3.823677E-4,-1.6115798E-2,1.6646957E-2,-4.3796576E-3,-1.7000375E-2,4.1715786E-2],"split_indices":[0,0,6,6,48,50,1,6,6,3,48,1,6,1,1,7,7,7,7,2,35,1,2,1,1,7,7,52,44,7,72,6,6,7,76,1,37,45,6,7,2,7,2,2,1,43,7,0,0,1,0,25,38,49,72,50,6,40,43,4,37,3,36,0,0,0,0,0,0,0,0,0,0,0,0,0,0,0,0,0,0,0,0,0,0,0,0,0,0,0,0,0,0,0,0,0,0,0,0,0,0,0,0,0,0,0,0,0,0,0,0,0,0,0,0,0,0,0,0,0,0,0,0],"split_type":[0,0,0,0,0,0,0,0,0,0,0,0,0,0,0,0,0,0,0,0,0,0,0,0,0,0,0,0,0,0,0,0,0,0,0,0,0,0,0,0,0,0,0,0,0,0,0,0,0,0,0,0,0,0,0,0,0,0,0,0,0,0,0,0,0,0,0,0,0,0,0,0,0,0,0,0,0,0,0,0,0,0,0,0,0,0,0,0,0,0,0,0,0,0,0,0,0,0,0,0,0,0,0,0,0,0,0,0,0,0,0,0,0,0,0,0,0,0,0,0,0,0,0],"sum_hessian":[3.488985E4,1.9141438E4,1.5748414E4,1.448734E4,4.6540977E3,1.22488E4,3.4996143E3,9.498655E3,4.988685E3,1.9333362E2,4.460764E3,1.4677574E3,1.0781043E4,1.02126074E3,2.4783535E3,5.338619E3,4.1600356E3,3.0293857E3,1.9592996E3,8.036684E1,1.1296678E2,4.3737803E3,8.698383E1,2.3315157E2,1.2346058E3,2.9128042E3,7.868239E3,5.545032E2,4.6675757E2,2.1041477E3,3.7420578E2,4.321077E3,1.01754175E3,2.5936226E3,1.5664132E3,2.3677686E3,6.616172E2,6.579205E2,1.301379E3,3.043247E1,4.9934364E1,6.46687E0,1.06499916E2,3.5468604E2,4.0190942E3,2.3061586E1,6.3922245E1,1.2017689E0,2.319498E2,8.3003735E2,4.0456854E2,8.494341E2,2.06337E3,3.1775083E3,4.6907305E3,3.6186752E2,1.9263565E2,1.4237058E1,4.525205E2,1.4931845E2,1.9548293E3,3.1568155E2,5.8524235E1,1.95604E3,2.3650374E3,3.7253185E1,9.802885E2,3.16867E2,2.2767554E3,2.8828006E2,1.2781332E3,1.2360189E3,1.1317496E3,6.5752606E2,4.0911164E0,1.1107661E2,5.468439E2,6.47318E2,6.540611E2,1.9045223E0,2.8527948E1,3.314324E1,1.679112E1,1.1127399E0,5.35413E0,8.076362E1,2.5736296E1,2.8008508E2,7.4600945E1,3.9170999E3,1.0199429E2,6.372552E0,1.6689035E1,4.739659E1,1.6525654E1,3.2735123E2,5.026861E2,1.817384E2,2.2283012E2,7.314652E2,1.17968895E2,2.0342335E3,2.9136526E1,1.1418645E3,2.0356438E3,4.319054E3,3.7167624E2,1.2441056E2,2.3745695E2,1.5953654E2,3.3099102E1,1.09179945E1,3.3190637E0,4.4925278E2,3.2677214E0,1.446684E2,4.6500564E0,1.6315431E3,3.2328625E2,2.7095187E2,4.4729687E1,4.2558737E0,5.4268364E1],"tree_param":{"num_deleted":"0","num_feature":"79","num_nodes":"123","size_leaf_vector":"1"}},{"base_weights":[3.251183E-3,2.2479586E-1,-2.623142E-1,-3.3393938E-2,1.0579412E0,-4.2852432E-1,-4.7836073E-2,-2.4250624E-1,4.605815E-1,-1.7825188E-2,1.106391E0,-4.949923E-1,5.6197733E-2,-1.4442694E-1,2.0753261E-1,-4.2975312E-1,-2.682941E-2,3.1871873E-1,7.12755E-1,9.710162E-1,-1.3429214E-1,1.1328847E0,-1.6631578E-1,-5.674164E-1,-3.0255398E-1,8.418279E-1,-2.0188056E-1,1.5569811E-2,-2.434379E-1,5.833517E-1,4.764694E-2,-7.048316E-1,-3.5827932E-1,-1.3476075E-1,1.4464195E-1,5.492702E-1,2.4420351E-1,5.175336E-1,8.003723E-1,3.3050466E-3,5.035329E-2,8.645126E-1,-2.0845026E-1,9.327536E-1,1.1499543E0,7.682366E-1,-3.3742622E-1,-4.9463853E-1,-7.7070355E-1,-2.4275723E-1,-5.581557E-1,-5.8889204E-1,1.1760542E0,-3.8348672E-1,7.85396E-2,3.9183182E-1,-8.5805796E-2,-4.2817467E-1,-1.7163217E-1,-9.547315E-2,1.1154583E0,-4.838775E-2,2.7589157E-1,-3.1581286E-2,-4.4828176E-2,-2.599415E-2,-1.2297752E-2,-1.7546162E-2,-3.7252966E-3,8.518475E-3,-1.4797324E-2,-1.9966943E-2,2.9186046E-2,1.9015387E-2,3.443537E-3,3.729968E-2,1.9849813E-2,4.222925E-2,2.7527655E-2,4.320187E-3,4.5701537E-2,-2.5403136E-2,2.5265303E-3,5.7098832E-2,8.005292E-3,5.7896186E-2,4.1141365E-2,4.36961E-2,-7.30445E-3,2.8963877E-2,-2.2564879E-2,-2.5876913E-2,6.7203566E-3,-3.5172842E-2,-5.3706218E-2,-1.3997299E-2,4.506731E-3,-3.275353E-2,4.9283444E-3,2.7412906E-2,-3.3006612E-2,1.2964295E-2,5.9185714E-2,-2.843797E-2,-8.675105E-3,1.8026566E-2,-1.9267779E-2,-8.563419E-3,5.6414273E-2,-7.459262E-3,2.5712758E-2,-3.3024993E-2,-1.654995E-2,3.896096E-2,-1.4883878E-2,-1.5019016E-2,5.749225E-3,-3.664676E-3,5.7001185E-2,-2.6788047E-2,-2.3507215E-4,9.201939E-3,2.9981498E-2],"categories":[],"categories_nodes":[],"categories_segments":[],"categories_sizes":[],"default_left":[0,0,0,0,0,0,0,0,0,0,0,0,0,0,0,0,0,0,0,0,0,0,0,0,0,0,0,0,0,0,0,0,0,0,0,0,0,0,0,0,0,0,0,0,0,0,0,0,0,0,0,0,0,0,0,0,0,0,0,0,0,0,0,0,0,0,0,0,0,0,0,0,0,0,0,0,0,0,0,0,0,0,0,0,0,0,0,0,0,0,0,0,0,0,0,0,0,0,0,0,0,0,0,0,0,0,0,0,0,0,0,0,0,0,0,0,0,0,0,0,0,0,0],"id":12,"left_children":[1,3,5,7,9,11,13,15,17,19,21,23,25,27,29,31,33,35,37,39,41,43,45,47,49,51,53,55,57,59,61,63,65,67,69,71,73,75,77,-1,-1,79,81,83,85,87,89,91,93,95,97,99,101,103,105,107,109,111,113,115,117,119,121,-1,-1,-1,-1,-1,-1,-1,-1,-1,-1,-1,-1,-1,-1,-1,-1,-1,-1,-1,-1,-1,-1,-1,-1,-1,-1,-1,-1,-1,-1,-1,-1,-1,-1,-1,-1,-1,-1,-1,-1,-1,-1,-1,-1,-1,-1,-1,-1,-1,-1,-1,-1,-1,-1,-1,-1,-1,-1,-1,-1],"loss_changes":[2.0445946E3,4.075579E3,5.63381E2,1.4946876E3,2.336836E2,2.8696948E2,1.7038939E2,4.1051538E2,1.5327948E2,2.297865E1,1.4519385E2,1.08625854E2,2.1876945E2,7.939523E1,1.1384276E2,1.0622589E2,8.755141E1,4.7007996E1,2.5218628E1,4.86351E-1,1.3732154E1,1.1136719E1,1.5183149E1,8.2982666E1,3.241954E1,1.2963846E2,4.147865E1,7.327726E1,4.0844772E1,2.0462053E2,2.926692E1,1.4009399E1,7.812872E1,3.773091E1,2.086821E1,2.2649872E1,4.9820435E1,1.2542358E1,1.0338318E1,0E0,0E0,2.5980854E-1,1.3128674E1,5.540451E1,7.2021484E0,1.818635E0,8.950129E0,6.0645386E1,2.82099E1,2.1688866E1,2.5962708E1,5.3400707E0,6.048279E-1,1.891397E1,4.253112E1,1.6965794E2,5.779927E1,1.8860886E1,2.6847055E2,1.0940827E1,9.516693E0,2.0028923E1,1.1424437E1,0E0,0E0,0E0,0E0,0E0,0E0,0E0,0E0,0E0,0E0,0E0,0E0,0E0,0E0,0E0,0E0,0E0,0E0,0E0,0E0,0E0,0E0,0E0,0E0,0E0,0E0,0E0,0E0,0E0,0E0,0E0,0E0,0E0,0E0,0E0,0E0,0E0,0E0,0E0,0E0,0E0,0E0,0E0,0E0,0E0,0E0,0E0,0E0,0E0,0E0,0E0,0E0,0E0,0E0,0E0,0E0,0E0,0E0,0E0,0E0],"parents":[2147483647,0,0,1,1,2,2,3,3,4,4,5,5,6,6,7,7,8,8,9,9,10,10,11,11,12,12,13,13,14,14,15,15,16,16,17,17,18,18,19,19,20,20,21,21,22,22,23,23,24,24,25,25,26,26,27,27,28,28,29,29,30,30,31,31,32,32,33,33,34,34,35,35,36,36,37,37,38,38,41,41,42,42,43,43,44,44,45,45,46,46,47,47,48,48,49,49,50,50,51,51,52,52,53,53,54,54,55,55,56,56,57,57,58,58,59,59,60,60,61,61,62,62],"right_children":[2,4,6,8,10,12,14,16,18,20,22,24,26,28,30,32,34,36,38,40,42,44,46,48,50,52,54,56,58,60,62,64,66,68,70,72,74,76,78,-1,-1,80,82,84,86,88,90,92,94,96,98,100,102,104,106,108,110,112,114,116,118,120,122,-1,-1,-1,-1,-1,-1,-1,-1,-1,-1,-1,-1,-1,-1,-1,-1,-1,-1,-1,-1,-1,-1,-1,-1,-1,-1,-1,-1,-1,-1,-1,-1,-1,-1,-1,-1,-1,-1,-1,-1,-1,-1,-1,-1,-1,-1,-1,-1,-1,-1,-1,-1,-1,-1,-1,-1,-1,-1,-1,-1],"split_conditions":[3.4E1,3.3E1,8.827012E1,3.1955923E2,5.998726E-1,1E0,2.1476785E2,1.6622842E2,4.7102768E2,1.5863575E3,6.00907E-1,6.8669945E1,8.7E1,1.51176E3,8.7E1,-1.06619415E2,1.5131288E2,1E0,1.294957E2,4.090909E-1,1.764706E-1,8.6E1,1.6727593E3,7.039695E-2,6.025479E-1,8.6E1,6.42E2,8.7E1,8.4E1,8.6E1,2.13E2,6E0,5.9904995E1,-1.03226295E2,2.6E1,-2.364108E2,6.0969215E-2,1E0,1.755939E3,3.3050466E-3,5.035329E-2,1.78E2,4.390164E1,1.7153038E3,9.8E1,1E0,3.75E-1,4.84E2,1.755939E3,2.8052902E2,1.58E2,3.061502E-2,4.8E-1,6.707251E0,5.32E2,8.6E1,4.84E2,5.8E1,8.7E1,8.8889656E1,5.1304594E-2,-6.6052345E1,4.49E2,-3.1581286E-2,-4.4828176E-2,-2.599415E-2,-1.2297752E-2,-1.7546162E-2,-3.7252966E-3,8.518475E-3,-1.4797324E-2,-1.9966943E-2,2.9186046E-2,1.9015387E-2,3.443537E-3,3.729968E-2,1.9849813E-2,4.222925E-2,2.7527655E-2,4.320187E-3,4.5701537E-2,-2.5403136E-2,2.5265303E-3,5.7098832E-2,8.005292E-3,5.7896186E-2,4.1141365E-2,4.36961E-2,-7.30445E-3,2.8963877E-2,-2.2564879E-2,-2.5876913E-2,6.7203566E-3,-3.5172842E-2,-5.3706218E-2,-1.3997299E-2,4.506731E-3,-3.275353E-2,4.9283444E-3,2.7412906E-2,-3.3006612E-2,1.2964295E-2,5.9185714E-2,-2.843797E-2,-8.675105E-3,1.8026566E-2,-1.9267779E-2,-8.563419E-3,5.6414273E-2,-7.459262E-3,2.5712758E-2,-3.3024993E-2,-1.654995E-2,3.896096E-2,-1.4883878E-2,