{"learner":{"attributes":{"scikit_learn":"{\"_estimator_type\": \"classifier\"}"},"feature_names":["p1_rank","p2_rank","p1_elo_overall","p2_elo_overall","p1_elo_surface","p2_elo_surface","elo_diff_overall","elo_diff_surface","p1_win_pct_5","p1_win_pct_10","p1_win_pct_20","p2_win_pct_5","p2_win_pct_10","p2_win_pct_20","p1_win_pct_surface_10","p2_win_pct_surface_10","h2h_p1_wins","h2h_p2_wins","h2h_total","h2h_p1_win_pct","h2h_surface_p1_wins","h2h_surface_p2_wins","p1_current_win_streak","p2_current_win_streak","p1_current_lose_streak","p2_current_lose_streak","p1_streak_5","p2_streak_5","p1_tournament_wins_current","p2_tournament_wins_current","p1_title_count_12m","p2_title_count_12m","p1_is_home","p2_is_home","home_advantage_flag","p1_home_win_pct","p2_home_win_pct","p1_days_since_last_match","p2_days_since_last_match","p1_matches_last_14d","p2_matches_last_14d","p1_sets_played_last_7d","p2_sets_played_last_7d","p1_ace_pct","p2_ace_pct","p1_1st_serve_pct","p2_1st_serve_pct","p1_bp_save_pct","p2_bp_save_pct","p1_matches_played_before","p2_matches_played_before","surface_Carpet","surface_Clay","surface_Grass","surface_Hard","surface_Unknown","surface_NA","tournament_level_davis_or_equivalent","tournament_level_finals","tournament_level_grand_slam","tournament_level_masters","tournament_level_other","tournament_level_tour","tournament_level_NA","round_BR","round_ER","round_F","round_QF","round_R128","round_R16","round_R32","round_R64","round_RR","round_SF","round_NA","best_of_1","best_of_3","best_of_5","best_of_NA"],"feature_types":["float","float","float","float","float","float","float","float","float","float","float","float","float","float","float","float","int","int","int","float","int","int","int","int","int","int","int","int","int","int","int","int","int","int","int","float","float","int","int","int","int","int","int","float","float","float","float","float","float","int","int","i","i","i","i","i","i","i","i","i","i","i","i","i","i","i","i","i","i","i","i","i","i","i","i","i","i","i","i"],"gradient_booster":{"model":{"cats":{"enc":[],"feature_segments":[],"sorted_idx":[]},"gbtree_model_param":{"num_parallel_tree":"1","num_trees":"335"},"iteration_indptr":[0,1,2,3,4,5,6,7,8,9,10,11,12,13,14,15,16,17,18,19,20,21,22,23,24,25,26,27,28,29,30,31,32,33,34,35,36,37,38,39,40,41,42,43,44,45,46,47,48,49,50,51,52,53,54,55,56,57,58,59,60,61,62,63,64,65,66,67,68,69,70,71,72,73,74,75,76,77,78,79,80,81,82,83,84,85,86,87,88,89,90,91,92,93,94,95,96,97,98,99,100,101,102,103,104,105,106,107,108,109,110,111,112,113,114,115,116,117,118,119,120,121,122,123,124,125,126,127,128,129,130,131,132,133,134,135,136,137,138,139,140,141,142,143,144,145,146,147,148,149,150,151,152,153,154,155,156,157,158,159,160,161,162,163,164,165,166,167,168,169,170,171,172,173,174,175,176,177,178,179,180,181,182,183,184,185,186,187,188,189,190,191,192,193,194,195,196,197,198,199,200,201,202,203,204,205,206,207,208,209,210,211,212,213,214,215,216,217,218,219,220,221,222,223,224,225,226,227,228,229,230,231,232,233,234,235,236,237,238,239,240,241,242,243,244,245,246,247,248,249,250,251,252,253,254,255,256,257,258,259,260,261,262,263,264,265,266,267,268,269,270,271,272,273,274,275,276,277,278,279,280,281,282,283,284,285,286,287,288,289,290,291,292,293,294,295,296,297,298,299,300,301,302,303,304,305,306,307,308,309,310,311,312,313,314,315,316,317,318,319,320,321,322,323,324,325,326,327,328,329,330,331,332,333,334,335],"tree_info":[0,0,0,0,0,0,0,0,0,0,0,0,0,0,0,0,0,0,0,0,0,0,0,0,0,0,0,0,0,0,0,0,0,0,0,0,0,0,0,0,0,0,0,0,0,0,0,0,0,0,0,0,0,0,0,0,0,0,0,0,0,0,0,0,0,0,0,0,0,0,0,0,0,0,0,0,0,0,0,0,0,0,0,0,0,0,0,0,0,0,0,0,0,0,0,0,0,0,0,0,0,0,0,0,0,0,0,0,0,0,0,0,0,0,0,0,0,0,0,0,0,0,0,0,0,0,0,0,0,0,0,0,0,0,0,0,0,0,0,0,0,0,0,0,0,0,0,0,0,0,0,0,0,0,0,0,0,0,0,0,0,0,0,0,0,0,0,0,0,0,0,0,0,0,0,0,0,0,0,0,0,0,0,0,0,0,0,0,0,0,0,0,0,0,0,0,0,0,0,0,0,0,0,0,0,0,0,0,0,0,0,0,0,0,0,0,0,0,0,0,0,0,0,0,0,0,0,0,0,0,0,0,0,0,0,0,0,0,0,0,0,0,0,0,0,0,0,0,0,0,0,0,0,0,0,0,0,0,0,0,0,0,0,0,0,0,0,0,0,0,0,0,0,0,0,0,0,0,0,0,0,0,0,0,0,0,0,0,0,0,0,0,0,0,0,0,0,0,0,0,0,0,0,0,0,0,0,0,0,0,0,0,0,0,0,0,0,0,0,0,0,0,0,0,0,0,0,0,0,0,0,0,0,0,0],"trees":[{"base_weights":[-6.9994386E-4,-9.7330976E-1,5.2605504E-1,-1.4408456E0,-7.149514E-1,2.0325312E-1,1.0668595E0,-1.6920757E0,-1.2679955E0,-1.0329195E0,-4.020196E-1,-1.9962396E-1,5.1023346E-1,9.016948E-1,1.4668972E0,-1.861915E0,-1.5829093E0,-1.4565502E0,-1.040007E0,-7.5345707E-1,-1.8236932E0,5.8271986E-1,-6.705331E-1,1.560842E-1,-1.2359769E0,1.4878838E0,2.5078353E-1,6.5708697E-1,1.1211612E0,1.3223128E0,1.5821123E0,-1.9086736E0,-1.6885703E0,-1.702517E0,-1.4294988E0,-1.29494E0,-1.901237E0,-3.567034E-1,-1.245413E0,-9.522783E-1,-5.760193E-1,-2.0270326E0,-1.2891259E0,1.7253736E0,-5.269697E-1,7.520096E-1,-7.0946115E-1,-2.5455052E-1,3.32394E-1,-1.8463405E0,-1.7012455E-1,1.8155893E0,7.407586E-1,9.7331953E-1,8.1982434E-2,-9.5369476E-1,8.531388E-1,1.7280699E0,9.025097E-1,6.0814345E-1,1.3485985E0,1.5851561E0,-5.7712287E-2,-9.571808E-2,-4.308881E-2,-2.1315118E-2,-8.60204E-2,-9.027563E-2,-7.547023E-2,-5.1882125E-2,-7.7907704E-2,-7.15508E-2,-5.1534023E-2,-1.0275282E-1,-8.209159E-2,8.108472E-2,-5.0802793E-2,-6.372002E-2,-1.755265E-2,-5.619496E-2,-3.8203992E-2,-3.4027915E-2,-1.5730709E-2,-1.0356219E-1,-2.768523E-2,-5.763761E-2,-9.3476E-2,9.528848E-2,-1.6880475E-2,-4.0597793E-2,-1.416266E-2,5.7732563E-2,1.8754188E-2,-4.5278758E-2,-2.721333E-2,-1.911567E-2,1.0122281E-3,4.574231E-2,1.2890333E-2,-1.0289337E-1,2.0280777E-2,-2.7560025E-2,2.7213187E-3,9.592633E-2,1.8685281E-2,7.344584E-2,2.4800444E-2,6.249054E-2,2.7817417E-2,-6.6211307E-3,1.575345E-2,-9.163583E-2,5.945579E-2,2.3723148E-2,4.5421503E-2,9.537032E-2,6.78345E-2,5.50896E-2,3.6841147E-2,4.641168E-2,7.796602E-3,7.279586E-2,6.0378022E-2,7.584282E-2,8.69787E-2],"categories":[],"categories_nodes":[],"categories_segments":[],"categories_sizes":[],"default_left":[0,0,0,0,0,0,0,0,0,0,0,0,0,0,0,0,0,0,0,0,0,0,0,0,0,0,0,0,0,0,0,0,0,0,0,0,0,0,0,0,0,0,0,0,0,0,0,0,0,0,0,0,0,0,0,0,0,0,0,0,0,0,0,0,0,0,0,0,0,0,0,0,0,0,0,0,0,0,0,0,0,0,0,0,0,0,0,0,0,0,0,0,0,0,0,0,0,0,0,0,0,0,0,0,0,0,0,0,0,0,0,0,0,0,0,0,0,0,0,0,0,0,0,0,0],"id":0,"left_children":[1,3,5,7,9,11,13,15,17,19,21,23,25,27,29,31,33,35,37,39,41,43,45,47,49,51,53,55,57,59,61,63,65,67,69,71,73,75,77,79,81,83,85,87,89,91,93,95,97,99,101,103,105,107,109,111,113,115,117,119,121,123,-1,-1,-1,-1,-1,-1,-1,-1,-1,-1,-1,-1,-1,-1,-1,-1,-1,-1,-1,-1,-1,-1,-1,-1,-1,-1,-1,-1,-1,-1,-1,-1,-1,-1,-1,-1,-1,-1,-1,-1,-1,-1,-1,-1,-1,-1,-1,-1,-1,-1,-1,-1,-1,-1,-1,-1,-1,-1,-1,-1,-1,-1,-1],"loss_changes":[1.9600715E4,1.6225117E3,4.332222E3,2.055498E2,8.611743E2,1.9222998E3,6.1156836E2,3.31416E1,1.2045996E2,9.476284E2,1.1547493E3,2.4781992E3,2.2371497E3,3.5185547E2,4.303711E1,2.9040527E0,1.9429443E1,1.0896704E2,1.8031714E2,1.1144849E2,1.1919824E2,1.1876205E3,1.9051978E2,3.624607E2,1.1171934E3,4.5156177E2,8.5031104E2,9.824706E2,4.576543E2,2.1847168E1,1.4344482E1,1.8496094E0,6.068634E0,1.0487305E1,2.5014038E1,3.9531616E1,1.303186E1,3.9177194E2,2.5213867E1,4.7447144E1,4.5697266E1,5.1619873E1,2.2504272E1,1.7233081E2,3.280072E1,1.3509457E1,1.0771057E2,5.2813805E1,1.519118E2,5.2109033E2,5.364842E1,1.9002832E2,1.0008563E2,1.5152563E2,2.825541E2,6.3838257E2,5.7602295E1,5.838159E1,8.325537E1,6.3236103E0,1.5857666E1,1.3195557E1,0E0,0E0,0E0,0E0,0E0,0E0,0E0,0E0,0E0,0E0,0E0,0E0,0E0,0E0,0E0,0E0,0E0,0E0,0E0,0E0,0E0,0E0,0E0,0E0,0E0,0E0,0E0,0E0,0E0,0E0,0E0,0E0,0E0,0E0,0E0,0E0,0E0,0E0,0E0,0E0,0E0,0E0,0E0,0E0,0E0,0E0,0E0,0E0,0E0,0E0,0E0,0E0,0E0,0E0,0E0,0E0,0E0,0E0,0E0,0E0,0E0,0E0,0E0],"parents":[2147483647,0,0,1,1,2,2,3,3,4,4,5,5,6,6,7,7,8,8,9,9,10,10,11,11,12,12,13,13,14,14,15,15,16,16,17,17,18,18,19,19,20,20,21,21,22,22,23,23,24,24,25,25,26,26,27,27,28,28,29,29,30,30,31,31,32,32,33,33,34,34,35,35,36,36,37,37,38,38,39,39,40,40,41,41,42,42,43,43,44,44,45,45,46,46,47,47,48,48,49,49,50,50,51,51,52,52,53,53,54,54,55,55,56,56,57,57,58,58,59,59,60,60,61,61],"right_children":[2,4,6,8,10,12,14,16,18,20,22,24,26,28,30,32,34,36,38,40,42,44,46,48,50,52,54,56,58,60,62,64,66,68,70,72,74,76,78,80,82,84,86,88,90,92,94,96,98,100,102,104,106,108,110,112,114,116,118,120,122,124,-1,-1,-1,-1,-1,-1,-1,-1,-1,-1,-1,-1,-1,-1,-1,-1,-1,-1,-1,-1,-1,-1,-1,-1,-1,-1,-1,-1,-1,-1,-1,-1,-1,-1,-1,-1,-1,-1,-1,-1,-1,-1,-1,-1,-1,-1,-1,-1,-1,-1,-1,-1,-1,-1,-1,-1,-1,-1,-1,-1,-1,-1,-1],"split_conditions":[-4.31125E1,-2.413981E2,1.8803217E2,-3.841043E2,1E0,1E0,3.963294E2,-5.2199817E2,1E0,1E0,1E0,1E0,1E0,1E0,4.822051E2,-7.019408E1,3E0,1E0,1E0,-6.604698E1,1E0,1E0,3E0,-2.553318E1,1E0,1E0,4E0,1E0,1E0,-1.2187894E2,7E0,1.857984E-1,3.421633E-2,-9.5311584E1,6E0,-4.7036747E1,1E0,1E0,2.1399283E2,-1.3287894E2,-8.1085594E1,1E0,2E0,1E0,-1.4702473E2,7.7E1,-7.224495E1,8.8103676E1,6E0,1E0,5.077915E1,1E0,7E0,5.9E1,6.35151E1,1E0,-6.1917408E1,1E0,1.5063329E3,7.288136E-1,4E0,6.4616724E2,-5.7712287E-2,-9.571808E-2,-4.308881E-2,-2.1315118E-2,-8.60204E-2,-9.027563E-2,-7.547023E-2,-5.1882125E-2,-7.7907704E-2,-7.15508E-2,-5.1534023E-2,-1.0275282E-1,-8.209159E-2,8.108472E-2,-5.0802793E-2,-6.372002E-2,-1.755265E-2,-5.619496E-2,-3.8203992E-2,-3.4027915E-2,-1.5730709E-2,-1.0356219E-1,-2.768523E-2,-5.763761E-2,-9.3476E-2,9.528848E-2,-1.6880475E-2,-4.0597793E-2,-1.416266E-2,5.7732563E-2,1.8754188E-2,-4.5278758E-2,-2.721333E-2,-1.911567E-2,1.0122281E-3,4.574231E-2,1.2890333E-2,-1.0289337E-1,2.0280777E-2,-2.7560025E-2,2.7213187E-3,9.592633E-2,1.8685281E-2,7.344584E-2,2.4800444E-2,6.249054E-2,2.7817417E-2,-6.6211307E-3,1.575345E-2,-9.163583E-2,5.945579E-2,2.3723148E-2,4.5421503E-2,9.537032E-2,6.78345E-2,5.50896E-2,3.6841147E-2,4.641168E-2,7.796602E-3,7.279586E-2,6.0378022E-2,7.584282E-2,8.69787E-2],"split_indices":[6,6,6,6,38,38,6,6,38,37,37,37,37,38,6,7,38,37,37,7,23,22,50,7,23,22,50,23,37,7,24,44,44,7,37,7,23,22,7,6,6,72,29,72,6,37,7,6,50,72,6,72,50,1,6,72,7,22,5,35,37,6,0,0,0,0,0,0,0,0,0,0,0,0,0,0,0,0,0,0,0,0,0,0,0,0,0,0,0,0,0,0,0,0,0,0,0,0,0,0,0,0,0,0,0,0,0,0,0,0,0,0,0,0,0,0,0,0,0,0,0,0,0,0,0],"split_type":[0,0,0,0,0,0,0,0,0,0,0,0,0,0,0,0,0,0,0,0,0,0,0,0,0,0,0,0,0,0,0,0,0,0,0,0,0,0,0,0,0,0,0,0,0,0,0,0,0,0,0,0,0,0,0,0,0,0,0,0,0,0,0,0,0,0,0,0,0,0,0,0,0,0,0,0,0,0,0,0,0,0,0,0,0,0,0,0,0,0,0,0,0,0,0,0,0,0,0,0,0,0,0,0,0,0,0,0,0,0,0,0,0,0,0,0,0,0,0,0,0,0,0,0,0],"sum_hessian":[3.8256215E4,1.3439827E4,2.4816387E4,4.7818394E3,8.657987E3,1.554129E4,9.275096E3,1.9454385E3,2.836401E3,4.2932954E3,4.3646924E3,6.721037E3,8.820253E3,6.56701E3,2.7080864E3,7.54909E2,1.1905294E3,1.5495107E3,1.2868903E3,3.1736636E3,1.119632E3,9.348989E2,3.4297935E3,5.004268E3,1.7167689E3,1.8488281E3,6.9714253E3,3.107509E3,3.4595005E3,1.2065063E3,1.50158E3,5.8665216E2,1.6825684E2,6.6329144E2,5.2723804E2,1.1393534E3,4.1015726E2,2.9806924E2,9.88821E2,1.4945901E3,1.6790735E3,8.0908075E2,3.105512E2,4.6033475E2,4.7456418E2,9.0868675E1,3.3389246E3,1.5030778E3,3.5011902E3,1.0911731E3,6.255959E2,1.2841442E3,5.6468396E2,1.3193433E3,5.6520815E3,3.367633E2,2.7707458E3,9.1442847E2,2.545072E3,4.3686867E1,1.1628196E3,1.5003318E3,1.2481961E0,5.8265796E2,3.9942276E0,4.493506E0,1.6376334E2,4.2713272E2,2.361587E2,1.3255843E2,3.9467963E2,7.491673E2,3.9018613E2,2.5313417E2,1.5702307E2,7.414285E1,2.2392639E2,9.5736646E2,3.1454542E1,7.79124E2,7.15466E2,1.1982683E3,4.8080515E2,7.8511536E2,2.3965366E1,2.538831E2,5.6668106E1,4.2338812E2,3.6946606E1,2.1768541E2,2.5687875E2,4.2937946E1,4.7930733E1,1.5245468E3,1.8143779E3,1.0257676E3,4.773102E2,3.9617746E2,3.1050127E3,9.9755835E2,9.361471E1,2.3141556E2,3.9418033E2,1.1982683E3,8.587589E1,1.4079652E2,4.2388742E2,7.921053E2,5.2723804E2,2.944245E3,2.7078367E3,2.3890474E2,9.7858574E1,3.5423807E2,2.4165078E3,6.1386285E2,3.0056564E2,1.152834E3,1.3922379E3,2.4963923E1,1.8722942E1,6.5505334E2,5.077662E2,1.0477358E3,4.5259592E2],"tree_param":{"num_deleted":"0","num_feature":"79","num_nodes":"125","size_leaf_vector":"1"}},{"base_weights":[4.3697213E-3,-8.308457E-1,5.5720526E-1,-1.2892088E0,-5.358861E-1,2.3817736E-1,1.0054033E0,-1.56638E0,-1.1219563E0,-8.8914937E-1,-2.1398903E-1,-1.3834782E-1,5.3117347E-1,8.143426E-1,1.3440145E0,-1.7266003E0,-1.4578819E0,-1.3194853E0,-8.878225E-1,-1.5575378E0,-5.944467E-1,8.3764595E-1,-2.8044406E-1,-9.9674875E-1,2.086127E-1,1.0805135E0,4.0137744E-1,5.7899797E-1,1.0244393E0,1.2060184E0,1.494505E0,-1.7349628E0,-8.499975E-1,-1.5669696E0,-1.3055788E0,-1.1864439E0,-1.884052E0,-1.1833676E0,-7.323821E-1,-1.7132643E0,-7.568211E-1,-8.342335E-1,-4.107866E-1,1.0721245E0,3.8631988E-1,-6.2660336E-1,-8.133709E-2,-1.6927321E-1,-1.4729853E0,-1.6710013E-1,3.6623108E-1,1.2801793E0,8.1147605E-1,3.0116165E-1,1.1725583E0,7.7395535E-1,-9.421956E-1,9.129365E-1,1.56171E0,1.0464072E0,1.3587255E0,1.4308002E0,1.6590348E0,-8.689486E-2,3.4444366E-4,2.8398106E-4,-5.9651263E-2,-7.5291514E-2,-9.386396E-2,-7.463696E-2,-5.9782423E-2,-6.378131E-2,-4.273051E-2,-9.776995E-2,-4.4303313E-2,-7.254141E-2,-5.356088E-2,-2.5330884E-2,-4.6823796E-2,-5.267608E-2,-9.795223E-2,-1.3961434E-2,-5.661257E-2,-4.9135357E-2,-3.339017E-2,-2.752906E-2,-8.576155E-3,3.809316E-2,6.8724565E-2,4.0286216E-3,4.3292925E-2,-4.1467853E-2,-2.266882E-2,-5.58047E-3,7.5104766E-2,2.5064131E-2,-1.259493E-2,-9.131321E-2,1.1962566E-2,-2.0756572E-2,-1.796053E-3,5.047601E-2,1.4422218E-2,4.2938422E-2,7.095095E-2,3.206075E-2,6.35665E-2,2.2770173E-3,2.2221673E-2,9.151698E-2,3.0855194E-2,2.5049198E-2,4.329087E-2,-9.044458E-2,5.8211703E-2,6.533919E-2,4.167114E-2,9.1810435E-2,6.279397E-2,5.7155043E-2,-1.3463539E-2,6.34746E-2,8.291971E-2,5.608481E-2,7.298199E-2,-4.279996E-2,8.34604E-2],"categories":[],"categories_nodes":[],"categories_segments":[],"categories_sizes":[],"default_left":[0,0,0,0,0,0,0,0,0,0,0,0,0,0,0,0,0,0,0,0,0,0,0,0,0,0,0,0,0,0,0,0,0,0,0,0,0,0,0,0,0,0,0,0,0,0,0,0,0,0,0,0,0,0,0,0,0,0,0,0,0,0,0,0,0,0,0,0,0,0,0,0,0,0,0,0,0,0,0,0,0,0,0,0,0,0,0,0,0,0,0,0,0,0,0,0,0,0,0,0,0,0,0,0,0,0,0,0,0,0,0,0,0,0,0,0,0,0,0,0,0,0,0,0,0,0,0],"id":1,"left_children":[1,3,5,7,9,11,13,15,17,19,21,23,25,27,29,31,33,35,37,39,41,43,45,47,49,51,53,55,57,59,61,63,65,67,69,71,73,75,77,79,81,83,85,87,89,91,93,95,97,99,101,103,105,107,109,111,113,115,117,119,121,123,125,-1,-1,-1,-1,-1,-1,-1,-1,-1,-1,-1,-1,-1,-1,-1,-1,-1,-1,-1,-1,-1,-1,-1,-1,-1,-1,-1,-1,-1,-1,-1,-1,-1,-1,-1,-1,-1,-1,-1,-1,-1,-1,-1,-1,-1,-1,-1,-1,-1,-1,-1,-1,-1,-1,-1,-1,-1,-1,-1,-1,-1,-1,-1,-1],"loss_changes":[1.773679E4,2.067751E3,3.3047646E3,2.7590918E2,1.058564E3,1.4898402E3,6.206865E2,3.6623047E1,1.7175244E2,8.733965E2,3.4078522E2,1.7605149E3,5.410764E2,3.0332886E2,7.016162E1,5.1499023E0,2.0365479E1,1.499397E2,7.787598E1,1.6798901E2,1.3539124E2,3.0262527E1,3.1589313E2,6.702572E2,2.4937093E2,7.6898926E1,4.745371E2,8.6119965E2,1.9304663E2,4.276416E1,1.4956055E1,4.5825195E0,3.0886908E0,1.1989624E1,9.9210205E0,4.7512207E1,2.5657959E1,1.6118042E1,5.1403564E1,1.8210522E2,3.9639046E1,3.23526E1,5.834845E1,1.6796463E1,1.4690749E1,5.8409668E1,1.3971828E2,3.462501E1,6.536094E2,4.0489E1,1.4812906E2,4.7406494E1,4.7790558E1,1.9918747E2,2.5694116E2,6.407019E1,6.046706E2,8.317407E1,4.4413086E1,1.1362579E2,2.2579224E1,9.0529785E0,1.3076172E1,0E0,0E0,0E0,0E0,0E0,0E0,0E0,0E0,0E0,0E0,0E0,0E0,0E0,0E0,0E0,0E0,0E0,0E0,0E0,0E0,0E0,0E0,0E0,0E0,0E0,0E0,0E0,0E0,0E0,0E0,0E0,0E0,0E0,0E0,0E0,0E0,0E0,0E0,0E0,0E0,0E0,0E0,0E0,0E0,0E0,0E0,0E0,0E0,0E0,0E0,0E0,0E0,0E0,0E0,0E0,0E0,0E0,0E0,0E0,0E0,0E0,0E0,0E0,0E0],"parents":[2147483647,0,0,1,1,2,2,3,3,4,4,5,5,6,6,7,7,8,8,9,9,10,10,11,11,12,12,13,13,14,14,15,15,16,16,17,17,18,18,19,19,20,20,21,21,22,22,23,23,24,24,25,25,26,26,27,27,28,28,29,29,30,30,31,31,32,32,33,33,34,34,35,35,36,36,37,37,38,38,39,39,40,40,41,41,42,42,43,43,44,44,45,45,46,46,47,47,48,48,49,49,50,50,51,51,52,52,53,53,54,54,55,55,56,56,57,57,58,58,59,59,60,60,61,61,62,62],"right_children":[2,4,6,8,10,12,14,16,18,20,22,24,26,28,30,32,34,36,38,40,42,44,46,48,50,52,54,56,58,60,62,64,66,68,70,72,74,76,78,80,82,84,86,88,90,92,94,96,98,100,102,104,106,108,110,112,114,116,118,120,122,124,126,-1,-1,-1,-1,-1,-1,-1,-1,-1,-1,-1,-1,-1,-1,-1,-1,-1,-1,-1,-1,-1,-1,-1,-1,-1,-1,-1,-1,-1,-1,-1,-1,-1,-1,-1,-1,-1,-1,-1,-1,-1,-1,-1,-1,-1,-1,-1,-1,-1,-1,-1,-1,-1,-1,-1,-1,-1,-1,-1,-1,-1,-1,-1,-1],"split_conditions":[-1.7638205E1,-2.0266368E2,1.8147356E2,-3.6255457E2,1E0,3E0,3.5746268E2,-4.9686502E2,1E0,1E0,3E0,1E0,4E0,1E0,4.691772E2,3.2558337E2,6E0,1E0,1E0,1E0,-6.1917408E1,1.09E2,1E0,1E0,-2.0773808E1,5.9E1,1E0,1E0,1E0,1E0,6.4616724E2,1.1E1,1.8838073E3,1E0,1E0,3.445527E1,1E0,-2.1574864E2,1.6884153E3,1E0,1E0,-1.07664375E2,-6.75615E1,2.1052632E-1,1E0,-9.851462E1,2E0,6E0,1E0,-1.4341455E2,6E0,2E0,2E0,1E0,1E0,1.1093263E1,1E0,5E0,1E0,1E0,1E0,-2.0773808E1,4.2857143E-1,-8.689486E-2,3.4444366E-4,2.8398106E-4,-5.9651263E-2,-7.5291514E-2,-9.386396E-2,-7.463696E-2,-5.9782423E-2,-6.378131E-2,-4.273051E-2,-9.776995E-2,-4.4303313E-2,-7.254141E-2,-5.356088E-2,-2.5330884E-2,-4.6823796E-2,-5.267608E-2,-9.795223E-2,-1.3961434E-2,-5.661257E-2,-4.9135357E-2,-3.339017E-2,-2.752906E-2,-8.576155E-3,3.809316E-2,6.8724565E-2,4.0286216E-3,4.3292925E-2,-4.1467853E-2,-2.266882E-2,-5.58047E-3,7.5104766E-2,2.5064131E-2,-1.259493E-2,-9.131321E-2,1.1962566E-2,-2.0756572E-2,-1.796053E-3,5.047601E-2,1.4422218E-2,4.2938422E-2,7.095095E-2,3.206075E-2,6.35665E-2,2.2770173E-3,2.2221673E-2,9.151698E-2,3.0855194E-2,2.5049198E-2,4.329087E-2,-9.044458E-2,5.8211703E-2,6.533919E-2,4.167114E-2,9.1810435E-2,6.279397E-2,5.7155043E-2,-1.3463539E-2,6.34746E-2,8.291971E-2,5.608481E-2,7.298199E-2,-4.279996E-2,8.34604E-2],"split_indices":[6,6,6,6,38,38,6,6,38,28,50,28,50,38,6,7,38,25,39,72,7,1,39,25,7,1,28,25,28,38,6,39,4,25,39,7,72,7,5,25,29,6,6,10,39,6,28,50,72,7,50,49,39,39,22,7,72,50,22,25,28,7,9,0,0,0,0,0,0,0,0,0,0,0,0,0,0,0,0,0,0,0,0,0,0,0,0,0,0,0,0,0,0,0,0,0,0,0,0,0,0,0,0,0,0,0,0,0,0,0,0,0,0,0,0,0,0,0,0,0,0,0,0,0,0,0,0],"split_type":[0,0,0,0,0,0,0,0,0,0,0,0,0,0,0,0,0,0,0,0,0,0,0,0,0,0,0,0,0,0,0,0,0,0,0,0,0,0,0,0,0,0,0,0,0,0,0,0,0,0,0,0,0,0,0,0,0,0,0,0,0,0,0,0,0,0,0,0,0,0,0,0,0,0,0,0,0,0,0,0,0,0,0,0,0,0,0,0,0,0,0,0,0,0,0,0,0,0,0,0,0,0,0,0,0,0,0,0,0,0,0,0,0,0,0,0,0,0,0,0,0,0,0,0,0,0,0],"sum_hessian":[3.8411203E4,1.5298286E4,2.3112918E4,5.988645E3,9.309642E3,1.3502999E4,9.60992E3,2.2505918E3,3.738053E3,4.4377295E3,4.8719116E3,5.909418E3,7.593581E3,6.145654E3,3.464266E3,9.026801E2,1.3479117E3,2.0250056E3,1.7130474E3,1.3566193E3,3.0811104E3,2.8887814E2,4.5830337E3,1.7004733E3,4.2089443E3,1.4498804E3,6.1437007E3,2.9004285E3,3.245225E3,1.8118546E3,1.6524114E3,8.931803E2,9.499812E0,7.799681E2,5.6794366E2,1.6413253E3,3.836803E2,5.881539E2,1.1248936E3,1.1347825E3,2.218367E2,1.3348225E3,1.7462878E3,1.8920468E2,9.967348E1,1.6727358E3,2.9102979E3,6.216657E2,1.0788076E3,1.2438754E3,2.9650693E3,8.300795E2,6.1980084E2,5.438369E3,7.0533154E2,2.5713708E3,3.290577E2,2.689713E3,5.555124E2,8.897401E2,9.2211456E2,1.19818E3,4.542314E2,8.9168036E2,1.4999328E0,2.9999435E0,6.4998684E0,6.564771E2,1.23491005E2,2.054978E2,3.6244586E2,1.2914076E3,3.4991782E2,3.5718542E2,2.6494871E1,1.7023454E2,4.179193E2,5.357452E2,5.891483E2,3.0944147E2,8.25341E2,9.840168E1,1.2343502E2,7.028763E2,6.319462E2,1.1014448E3,6.4484296E2,9.512043E1,9.408424E1,6.1579334E1,3.8094143E1,7.6894086E2,9.03795E2,2.8566143E3,5.3683693E1,6.764201E1,5.540237E2,8.942367E2,1.8457086E2,4.2954114E2,8.143342E2,3.185674E2,2.6465017E3,2.0748846E2,6.2259106E2,4.5407407E2,1.6572676E2,1.953791E3,3.4845781E3,3.218704E2,3.8346112E2,6.490748E2,1.922296E3,2.3323415E2,9.582355E1,4.492168E2,2.240496E3,2.9011517E2,2.6539725E2,8.28949E2,6.079114E1,7.1457056E2,2.0754399E2,1.0565514E2,1.0925249E3,1.494978E0,4.5273645E2],"tree_param":{"num_deleted":"0","num_feature":"79","num_nodes":"127","size_leaf_vector":"1"}},{"base_weights":[-2.695226E-3,-7.9257655E-1,5.238337E-1,-1.2279598E0,-5.1067173E-1,2.2458482E-1,9.715129E-1,-1.490747E0,-1.053296E0,-8.412783E-1,-2.0862478E-1,-1.3146338E-1,4.96022E-1,7.853015E-1,1.2853835E0,-1.6923759E0,-1.4002198E0,-1.2459143E0,-8.274357E-1,-5.6648254E-1,-1.6033752E0,7.5298965E-1,-4.621063E-1,1.8165746E-1,-1.0630605E0,1.4134742E0,2.5178662E-1,1.0042627E0,5.592781E-1,1.1575681E0,1.4498022E0,-1.6947325E0,-8.219047E-3,-1.5745898E0,-1.3018165E0,-1.0659615E0,-1.7352638E0,-1.8513349E-1,-1.0203873E0,-7.9443735E-1,-3.8885447E-1,-1.079325E0,-1.8055501E0,-3.374335E-1,1.6498742E0,5.396139E-1,-5.524691E-1,-1.3912408E-1,3.4567514E-1,-6.146725E-2,-1.6529253E0,7.4435765E-1,1.7087603E0,8.891001E-1,1.0495158E-1,7.7829957E-1,1.596247E0,-1.8723574E-1,7.675601E-1,-4.464537E-2,1.1711712E0,1.454473E0,-6.7635316E-1,-8.502807E-2,-4.6257306E-2,-7.907213E-2,1.9042752E-3,-7.02236E-2,-5.7363637E-2,-5.693056E-2,-3.6083326E-2,-1.5569997E-3,-8.762254E-2,-4.3445453E-2,8.231043E-2,-5.2619513E-2,-7.2908895E-3,-4.8114836E-2,-3.4241166E-2,-2.769968E-2,-1.0002794E-2,-6.767342E-2,-2.2744529E-2,-9.374602E-2,-9.396624E-3,6.463503E-2,-2.0568123E-2,9.093011E-2,1.1537866E-3,4.17695E-2,3.8200568E-3,-3.6614873E-2,-1.9391445E-2,-2.4538908E-2,-2.238594E-3,4.5097873E-2,1.3734712E-2,-2.2664884E-2,5.329087E-3,-9.3210235E-2,2.2855923E-2,6.905504E-2,2.5760636E-2,8.966406E-2,1.848354E-2,5.6913495E-2,2.6376072E-2,-5.767115E-3,1.6125383E-2,2.501008E-2,4.3526106E-2,6.1946668E-2,8.7629564E-2,3.1673066E-2,-8.2699426E-2,2.314928E-3,4.0926527E-2,-2.2168895E-2,5.3858455E-2,5.2196648E-2,6.46947E-2,7.289543E-2,-4.7067653E-2,5.11089E-3,-5.3330865E-2],"categories":[],"categories_nodes":[],"categories_segments":[],"categories_sizes":[],"default_left":[0,0,0,0,0,0,0,0,0,0,0,0,0,0,0,0,0,0,0,0,0,0,0,0,0,0,0,0,0,0,0,0,0,0,0,0,0,0,0,0,0,0,0,0,0,0,0,0,0,0,0,0,0,0,0,0,0,0,0,0,0,0,0,0,0,0,0,0,0,0,0,0,0,0,0,0,0,0,0,0,0,0,0,0,0,0,0,0,0,0,0,0,0,0,0,0,0,0,0,0,0,0,0,0,0,0,0,0,0,0,0,0,0,0,0,0,0,0,0,0,0,0,0,0,0],"id":2,"left_children":[1,3,5,7,9,11,13,15,17,19,21,23,25,27,29,31,33,35,37,39,41,43,45,47,49,51,53,55,57,59,61,63,-1,65,67,69,71,73,75,77,79,81,83,85,87,89,91,93,95,97,99,101,103,105,107,109,111,113,115,117,119,121,123,-1,-1,-1,-1,-1,-1,-1,-1,-1,-1,-1,-1,-1,-1,-1,-1,-1,-1,-1,-1,-1,-1,-1,-1,-1,-1,-1,-1,-1,-1,-1,-1,-1,-1,-1,-1,-1,-1,-1,-1,-1,-1,-1,-1,-1,-1,-1,-1,-1,-1,-1,-1,-1,-1,-1,-1,-1,-1,-1,-1,-1,-1],"loss_changes":[1.5939891E4,1.8808828E3,3.0806377E3,2.7493066E2,9.291677E2,1.332295E3,5.3746875E2,4.1489746E1,1.5655225E2,9.2952783E2,1.1861213E3,1.7398534E3,1.7523538E3,2.857473E2,7.0384766E1,2.3850098E0,2.6503906E1,1.7013062E2,2.0680615E2,1.3197546E2,1.2274365E2,9.934088E2,3.4883655E2,2.3493816E2,8.863428E2,3.236089E2,5.7810974E2,3.9165967E2,4.431093E2,3.1685059E1,1.5838379E1,1.7397461E0,0E0,6.6418457E0,1.5356934E1,3.4958984E1,1.5278198E1,4.8611423E2,3.5788574E1,2.564978E1,5.7199005E1,5.589688E1,9.478076E1,5.5847492E1,1.529032E2,4.3656273E1,1.04298706E2,5.0115913E1,1.164039E2,3.6735058E1,4.2180615E2,7.3004944E1,1.283706E2,1.0362579E2,2.4076376E2,5.4134644E1,4.3104736E1,7.501182E2,8.185681E1,1.0588754E1,2.851538E1,1.3659912E1,1.3127004E0,0E0,0E0,0E0,0E0,0E0,0E0,0E0,0E0,0E0,0E0,0E0,0E0,0E0,0E0,0E0,0E0,0E0,0E0,0E0,0E0,0E0,0E0,0E0,0E0,0E0,0E0,0E0,0E0,0E0,0E0,0E0,0E0,0E0,0E0,0E0,0E0,0E0,0E0,0E0,0E0,0E0,0E0,0E0,0E0,0E0,0E0,0E0,0E0,0E0,0E0,0E0,0E0,0E0,0E0,0E0,0E0,0E0,0E0,0E0,0E0,0E0,0E0],"parents":[2147483647,0,0,1,1,2,2,3,3,4,4,5,5,6,6,7,7,8,8,9,9,10,10,11,11,12,12,13,13,14,14,15,15,16,16,17,17,18,18,19,19,20,20,21,21,22,22,23,23,24,24,25,25,26,26,27,27,28,28,29,29,30,30,31,31,33,33,34,34,35,35,36,36,37,37,38,38,39,39,40,40,41,41,42,42,43,43,44,44,45,45,46,46,47,47,48,48,49,49,50,50,51,51,52,52,53,53,54,54,55,55,56,56,57,57,58,58,59,59,60,60,61,61,62,62],"right_children":[2,4,6,8,10,12,14,16,18,20,22,24,26,28,30,32,34,36,38,40,42,44,46,48,50,52,54,56,58,60,62,64,-1,66,68,70,72,74,76,78,80,82,84,86,88,90,92,94,96,98,100,102,104,106,108,110,112,114,116,118,120,122,124,-1,-1,-1,-1,-1,-1,-1,-1,-1,-1,-1,-1,-1,-1,-1,-1,-1,-1,-1,-1,-1,-1,-1,-1,-1,-1,-1,-1,-1,-1,-1,-1,-1,-1,-1,-1,-1,-1,-1,-1,-1,-1,-1,-1,-1,-1,-1,-1,-1,-1,-1,-1,-1,-1,-1,-1,-1,-1,-1,-1,-1,-1],"split_conditions":[-1.7638205E1,-2.0266368E2,1.8803217E2,-3.5262482E2,1E0,1E0,3.5746268E2,-5.2199817E2,1E0,1E0,1E0,1E0,1E0,3E0,4.822051E2,7.1E1,-2.3822937E2,1E0,1E0,-6.1917408E1,1E0,1E0,6E0,-4.884242E0,1E0,1E0,4E0,3E0,1E0,-2.641914E2,2.2E2,3.2558337E2,-8.219047E-3,1.19E2,7E0,6.585207E1,2E0,1E0,1.9090674E2,-1.2969615E2,-8.1085594E1,1E0,1E0,1.6E1,1E0,5.9E1,-9.851462E1,-1.797305E2,6E0,5.077915E1,1E0,7E0,1E0,5.9E1,4.065063E1,9.616946E0,1E0,1E0,-8.7946175E1,1E0,1E0,6E0,4E-1,-8.502807E-2,-4.6257306E-2,-7.907213E-2,1.9042752E-3,-7.02236E-2,-5.7363637E-2,-5.693056E-2,-3.6083326E-2,-1.5569997E-3,-8.762254E-2,-4.3445453E-2,8.231043E-2,-5.2619513E-2,-7.2908895E-3,-4.8114836E-2,-3.4241166E-2,-2.769968E-2,-1.0002794E-2,-6.767342E-2,-2.2744529E-2,-9.374602E-2,-9.396624E-3,6.463503E-2,-2.0568123E-2,9.093011E-2,1.1537866E-3,4.17695E-2,3.8200568E-3,-3.6614873E-2,-1.9391445E-2,-2.4538908E-2,-2.238594E-3,4.5097873E-2,1.3734712E-2,-2.2664884E-2,5.329087E-3,-9.3210235E-2,2.2855923E-2,6.905504E-2,2.5760636E-2,8.966406E-2,1.848354E-2,5.6913495E-2,2.6376072E-2,-5.767115E-3,1.6125383E-2,2.501008E-2,4.3526106E-2,6.1946668E-2,8.7629564E-2,3.1673066E-2,-8.2699426E-2,2.314928E-3,4.0926527E-2,-2.2168895E-2,5.3858455E-2,5.2196648E-2,6.46947E-2,7.289543E-2,-4.7067653E-2,5.11089E-3,-5.3330865E-2],"split_indices":[6,6,6,6,38,38,6,6,38,37,37,37,37,37,6,1,7,37,37,7,25,24,50,7,25,24,50,38,38,7,37,7,0,1,38,7,1,24,7,6,6,69,72,50,72,1,6,7,50,6,72,50,72,1,7,7,24,25,7,8,38,24,11,0,0,0,0,0,0,0,0,0,0,0,0,0,0,0,0,0,0,0,0,0,0,0,0,0,0,0,0,0,0,0,0,0,0,0,0,0,0,0,0,0,0,0,0,0,0,0,0,0,0,0,0,0,0,0,0,0,0,0,0,0,0],"split_type":[0,0,0,0,0,0,0,0,0,0,0,0,0,0,0,0,0,0,0,0,0,0,0,0,0,0,0,0,0,0,0,0,0,0,0,0,0,0,0,0,0,0,0,0,0,0,0,0,0,0,0,0,0,0,0,0,0,0,0,0,0,0,0,0,0,0,0,0,0,0,0,0,0,0,0,0,0,0,0,0,0,0,0,0,0,0,0,0,0,0,0,0,0,0,0,0,0,0,0,0,0,0,0,0,0,0,0,0,0,0,0,0,0,0,0,0,0,0,0,0,0,0,0,0,0],"sum_hessian":[3.8324688E4,1.5328648E4,2.299604E4,6.0230674E3,9.305581E3,1.3783818E4,9.212221E3,2.4018594E3,3.621208E3,4.4418984E3,4.863682E3,5.9628174E3,7.8210015E3,5.7841396E3,3.4280806E3,7.387546E2,1.6631047E3,1.9519926E3,1.6692156E3,3.2659944E3,1.1759042E3,1.014203E3,3.849479E3,4.4634155E3,1.4994019E3,1.6432953E3,6.177706E3,2.9362202E3,2.8479194E3,1.9332533E3,1.4948274E3,7.37508E2,1.2465785E0,5.9455524E2,1.0685496E3,1.4294915E3,5.2250104E2,3.860575E2,1.2831581E3,1.428846E3,1.8371484E3,3.291264E2,8.467778E2,4.5799777E2,5.562052E2,3.18108E2,3.531371E3,1.5101178E3,2.9532976E3,5.5615393E2,9.432479E2,5.042311E2,1.1390642E3,1.1558544E3,5.0218516E3,2.1267463E3,8.094739E2,6.2127576E2,2.2266436E3,2.1604675E1,1.9116486E3,1.491866E3,2.961428E0,7.307635E2,6.744492E0,5.920588E2,2.4964406E0,6.372015E2,4.3134805E2,1.1785074E3,2.5098401E2,5.245124E0,5.172559E2,2.8148416E2,1.0457333E2,1.2376652E3,4.5492943E1,5.613832E2,8.6746277E2,9.7894604E2,8.5820245E2,2.2790324E2,1.0122315E2,8.1180505E2,3.4972706E1,1.9154533E1,4.3884326E2,5.0383105E2,5.2374165E1,1.9365173E2,1.2445627E2,1.6861854E3,1.8451857E3,3.1857513E2,1.1915427E3,3.3286948E2,2.6204282E3,1.664213E2,3.8973264E2,8.5750244E2,8.574551E1,1.3210718E2,3.7212393E2,1.071118E3,6.794619E1,6.8302344E2,4.7283096E2,2.4954587E3,2.5263926E3,5.312324E2,1.5955139E3,2.490995E2,5.603744E2,3.9873718E2,2.225386E2,1.4709315E2,2.0795505E3,1.6385468E1,5.2192073E0,9.4322504E2,9.684235E2,1.4901207E3,1.7452961E0,1.2352345E0,1.7261934E0],"tree_param":{"num_deleted":"0","num_feature":"79","num_nodes":"125","size_leaf_vector":"1"}},{"base_weights":[-1.6061494E-3,-7.9922736E-1,4.791668E-1,-1.2077093E0,-5.53964E-1,1.9821778E-1,9.26073E-1,-1.4155202E0,-1.0214726E0,-8.527443E-1,-2.7069646E-1,-1.3738088E-1,4.5537302E-1,7.4548703E-1,1.2331297E0,-1.5175136E0,-1.2680051E0,-1.2054514E0,-8.0172515E-1,-6.0197955E-1,-1.5525731E0,6.4985263E-1,-5.1627636E-1,1.6356733E-1,-1.0347664E0,1.3388637E0,2.2074041E-1,9.587274E-1,5.3103304E-1,1.0984637E0,1.3792887E0,-1.5770637E0,-1.3321716E0,-1.3926688E0,-1.1126813E0,-1.0427237E0,-1.6621462E0,-1.2048957E-1,-1.006959E0,-8.2436097E-1,-4.2367482E-1,-1.7438235E0,-1.0523863E0,1.5763905E0,-3.426452E-1,5.6614095E-1,-5.723392E-1,-1.9107704E-1,3.075535E-1,-1.5879078E0,-1.1018784E-1,1.6388701E0,6.7893016E-1,8.3907837E-1,7.530881E-2,1.6586357E0,7.8100866E-1,-1.9550025E-1,7.302449E-1,9.700657E-1,1.2285626E0,1.2350149E0,1.450836E0,-7.900504E-2,4.604969E-3,1.4255337E-2,-6.7029126E-2,-6.4917855E-2,-8.20583E-2,-3.4618273E-2,-6.319676E-2,-5.7407606E-2,-4.2788528E-2,-8.733293E-2,-5.9262555E-2,7.8940086E-2,-3.902933E-2,-5.201141E-2,-4.54772E-3,-4.9601372E-2,-3.3045974E-2,-2.3553604E-2,3.7340713E-3,-8.946011E-2,-3.7138597E-3,-6.611898E-2,-2.0941008E-2,8.735226E-2,-1.0347006E-2,6.2306046E-2,-1.9695204E-2,4.2396873E-2,1.4737315E-2,-3.9293844E-2,-2.1989068E-2,-2.25046E-2,-3.0547935E-3,1.6100444E-3,2.3040356E-2,-8.92454E-2,1.8105252E-2,-9.322378E-3,3.618446E-2,8.636646E-2,1.9271096E-2,6.553095E-2,2.3250652E-2,5.0618257E-2,3.349353E-2,-6.8621673E-3,1.376195E-2,8.55036E-2,4.584991E-2,2.5230393E-2,4.3566294E-2,-7.914605E-2,2.9094247E-2,5.707869E-2,3.2477513E-2,-9.4158146E-5,5.30284E-2,7.83809E-2,5.4454323E-2,2.498596E-2,6.294936E-2,7.274273E-2,-3.318089E-2],"categories":[],"categories_nodes":[],"categories_segments":[],"categories_sizes":[],"default_left":[0,0,0,0,0,0,0,0,0,0,0,0,0,0,0,0,0,0,0,0,0,0,0,0,0,0,0,0,0,0,0,0,0,0,0,0,0,0,0,0,0,0,0,0,0,0,0,0,0,0,0,0,0,0,0,0,0,0,0,0,0,0,0,0,0,0,0,0,0,0,0,0,0,0,0,0,0,0,0,0,0,0,0,0,0,0,0,0,0,0,0,0,0,0,0,0,0,0,0,0,0,0,0,0,0,0,0,0,0,0,0,0,0,0,0,0,0,0,0,0,0,0,0,0,0,0,0],"id":3,"left_children":[1,3,5,7,9,11,13,15,17,19,21,23,25,27,29,31,33,35,37,39,41,43,45,47,49,51,53,55,57,59,61,63,65,67,69,71,73,75,77,79,81,83,85,87,89,91,93,95,97,99,101,103,105,107,109,111,113,115,117,119,121,123,125,-1,-1,-1,-1,-1,-1,-1,-1,-1,-1,-1,-1,-1,-1,-1,-1,-1,-1,-1,-1,-1,-1,-1,-1,-1,-1,-1,-1,-1,-1,-1,-1,-1,-1,-1,-1,-1,-1,-1,-1,-1,-1,-1,-1,-1,-1,-1,-1,-1,-1,-1,-1,-1,-1,-1,-1,-1,-1,-1,-1,-1,-1,-1,-1],"loss_changes":[1.4606704E4,1.4344775E3,2.9837646E3,2.0651416E2,7.574619E2,1.2594878E3,5.077329E2,3.6246094E1,1.1374536E2,7.6359595E2,1.0395759E3,1.7101893E3,1.7124982E3,2.6374854E2,6.5316895E1,1.4398193E1,1.8649048E1,1.12892334E2,1.8107318E2,1.2688843E2,1.08041016E2,8.9120404E2,2.205727E2,2.4223117E2,8.131454E2,3.4212476E2,5.87144E2,3.5896216E2,4.174618E2,2.8410889E1,1.4975342E1,5.8535156E0,5.4143066E0,1.1338257E1,2.896875E1,2.148462E1,1.4192871E1,3.3906418E2,3.0252197E1,3.8446472E1,4.2150757E1,6.2702393E1,5.422296E1,1.5286243E2,3.864065E1,1.3457302E1,9.734546E1,4.6099316E1,1.423406E2,3.828589E2,3.8058224E1,1.3140625E2,7.2836105E1,3.577661E1,2.2473842E2,2.0770874E1,5.726819E1,6.7098706E2,7.437512E1,7.887494E1,3.974182E1,8.981262E0,1.0144043E1,0E0,0E0,0E0,0E0,0E0,0E0,0E0,0E0,0E0,0E0,0E0,0E0,0E0,0E0,0E0,0E0,0E0,0E0,0E0,0E0,0E0,0E0,0E0,0E0,0E0,0E0,0E0,0E0,0E0,0E0,0E0,0E0,0E0,0E0,0E0,0E0,0E0,0E0,0E0,0E0,0E0,0E0,0E0,0E0,0E0,0E0,0E0,0E0,0E0,0E0,0E0,0E0,0E0,0E0,0E0,0E0,0E0,0E0,0E0,0E0,0E0,0E0,0E0,0E0],"parents":[2147483647,0,0,1,1,2,2,3,3,4,4,5,5,6,6,7,7,8,8,9,9,10,10,11,11,12,12,13,13,14,14,15,15,16,16,17,17,18,18,19,19,20,20,21,21,22,22,23,23,24,24,25,25,26,26,27,27,28,28,29,29,30,30,31,31,32,32,33,33,34,34,35,35,36,36,37,37,38,38,39,39,40,40,41,41,42,42,43,43,44,44,45,45,46,46,47,47,48,48,49,49,50,50,51,51,52,52,53,53,54,54,55,55,56,56,57,57,58,58,59,59,60,60,61,61,62,62],"right_children":[2,4,6,8,10,12,14,16,18,20,22,24,26,28,30,32,34,36,38,40,42,44,46,48,50,52,54,56,58,60,62,64,66,68,70,72,74,76,78,80,82,84,86,88,90,92,94,96,98,100,102,104,106,108,110,112,114,116,118,120,122,124,126,-1,-1,-1,-1,-1,-1,-1,-1,-1,-1,-1,-1,-1,-1,-1,-1,-1,-1,-1,-1,-1,-1,-1,-1,-1,-1,-1,-1,-1,-1,-1,-1,-1,-1,-1,-1,-1,-1,-1,-1,-1,-1,-1,-1,-1,-1,-1,-1,-1,-1,-1,-1,-1,-1,-1,-1,-1,-1,-1,-1,-1,-1,-1,-1],"split_conditions":[-3.0172161E1,-2.2163133E2,1.8803217E2,-3.4329263E2,1E0,1E0,3.5746268E2,-4.227601E2,1E0,1E0,1E0,1E0,1E0,1E0,4.691772E2,-7.019408E1,1E0,1E0,1E0,-6.604698E1,1E0,1E0,4E0,-2.553318E1,1E0,1E0,4E0,1E0,1E0,3E0,1.6162112E2,1.1E1,6E0,1E0,5E0,-4.7036747E1,1E0,1E0,1.9090674E2,-1.2647638E2,2.496969E2,1E0,1E0,1E0,1.6E1,9.2E1,-8.7946175E1,-1.5030544E2,4.479853E1,1E0,8.75E-1,1E0,7E0,1E0,3.445527E1,1E0,1.52E1,1E0,5E0,1E0,2E0,5.3291756E-1,2.03E2,-7.900504E-2,4.604969E-3,1.4255337E-2,-6.7029126E-2,-6.4917855E-2,-8.20583E-2,-3.4618273E-2,-6.319676E-2,-5.7407606E-2,-4.2788528E-2,-8.733293E-2,-5.9262555E-2,7.8940086E-2,-3.902933E-2,-5.201141E-2,-4.54772E-3,-4.9601372E-2,-3.3045974E-2,-2.3553604E-2,3.7340713E-3,-8.946011E-2,-3.7138597E-3,-6.611898E-2,-2.0941008E-2,8.735226E-2,-1.0347006E-2,6.2306046E-2,-1.9695204E-2,4.2396873E-2,1.4737315E-2,-3.9293844E-2,-2.1989068E-2,-2.25046E-2,-3.0547935E-3,1.6100444E-3,2.3040356E-2,-8.92454E-2,1.8105252E-2,-9.322378E-3,3.618446E-2,8.636646E-2,1.9271096E-2,6.553095E-2,2.3250652E-2,5.0618257E-2,3.349353E-2,-6.8621673E-3,1.376195E-2,8.55036E-2,4.584991E-2,2.5230393E-2,4.3566294E-2,-7.914605E-2,2.9094247E-2,5.707869E-2,3.2477513E-2,-9.4158146E-5,5.30284E-2,7.83809E-2,5.4454323E-2,2.498596E-2,6.294936E-2,7.274273E-2,-3.318089E-2],"split_indices":[6,6,6,6,38,38,6,6,38,37,37,37,37,37,6,7,38,37,37,7,23,22,50,7,23,22,50,22,38,38,7,39,0,37,37,7,69,22,7,6,7,57,69,72,50,37,7,7,6,72,15,72,50,50,7,72,7,23,50,23,37,47,37,0,0,0,0,0,0,0,0,0,0,0,0,0,0,0,0,0,0,0,0,0,0,0,0,0,0,0,0,0,0,0,0,0,0,0,0,0,0,0,0,0,0,0,0,0,0,0,0,0,0,0,0,0,0,0,0,0,0,0,0,0,0,0,0],"split_type":[0,0,0,0,0,0,0,0,0,0,0,0,0,0,0,0,0,0,0,0,0,0,0,0,0,0,0,0,0,0,0,0,0,0,0,0,0,0,0,0,0,0,0,0,0,0,0,0,0,0,0,0,0,0,0,0,0,0,0,0,0,0,0,0,0,0,0,0,0,0,0,0,0,0,0,0,0,0,0,0,0,0,0,0,0,0,0,0,0,0,0,0,0,0,0,0,0,0,0,0,0,0,0,0,0,0,0,0,0,0,0,0,0,0,0,0,0,0,0,0,0,0,0,0,0,0,0],"sum_hessian":[3.80884E4,1.4323871E4,2.3764527E4,5.3723647E3,8.951507E3,1.4592408E4,9.17212E3,2.5359941E3,2.8363706E3,4.3554873E3,4.5960195E3,6.330846E3,8.261562E3,5.7776187E3,3.394501E3,1.4938472E3,1.042147E3,1.5413895E3,1.2949811E3,3.2078877E3,1.1475994E3,9.675478E2,3.6284717E3,4.741537E3,1.5893094E3,1.73266E3,6.528902E3,2.8952664E3,2.8823523E3,1.7711422E3,1.6233588E3,1.1249073E3,3.6893982E2,5.737145E2,4.6843253E2,1.1388739E3,4.0251562E2,3.0017917E2,9.9480194E2,1.4258928E3,1.7819949E3,8.283767E2,3.192227E2,5.0009763E2,4.6745013E2,1.7823083E2,3.4502407E3,1.3690872E3,3.3724497E3,9.939489E2,5.953605E2,1.1901385E3,5.425215E2,1.2422792E3,5.2866226E3,5.846017E2,2.3106646E3,6.2025964E2,2.2620928E3,8.956548E2,8.754874E2,5.442175E2,1.0791412E3,1.1229175E3,1.9898562E0,1.7385921E0,3.6720123E2,4.2038968E2,1.5332483E2,1.2543681E2,3.429957E2,7.249256E2,4.1394827E2,3.3966052E2,6.2855106E1,8.359314E1,2.1658603E2,9.598062E2,3.4995747E1,7.013465E2,7.245463E2,1.6272833E3,1.5471155E2,8.063872E2,2.1989515E1,2.2307321E2,9.614947E1,4.564393E2,4.365833E1,1.3881557E1,4.5356857E2,8.6397545E1,9.18333E1,1.3195868E3,2.130654E3,4.5665094E2,9.124362E2,1.2062949E3,2.1661548E3,9.0282556E2,9.112338E1,5.46187E2,4.917348E1,1.111331E3,7.8807495E1,1.359474E2,4.0657407E2,6.1128015E2,6.309991E2,2.562578E3,2.724045E3,5.4546515E2,3.913655E1,5.7070483E2,1.7399598E3,2.223641E2,3.9789554E2,3.6883945E2,1.8932532E3,7.637754E1,8.192772E2,2.5219131E2,6.2329614E2,1.7872255E1,5.263453E2,1.0774055E3,1.7357324E0],"tree_param":{"num_deleted":"0","num_feature":"79","num_nodes":"127","size_leaf_vector":"1"}},{"base_weights":[3.7333416E-3,-6.0497195E-1,3.409543E-1,-3.4852922E-1,-9.467874E-1,5.408751E-1,-6.121602E-2,6.0049966E-2,-6.0878116E-1,-1.1110021E0,-4.746596E-1,8.8326037E-1,2.905949E-1,-4.3725446E-1,4.387844E-1,1.0734574E0,-2.5222087E-1,-1.3446203E0,-3.670172E-1,-9.896555E-1,-1.3698419E0,-1.0440843E-1,-8.8872236E-1,5.976986E-1,1.385134E0,-5.920615E-1,4.9206868E-1,-2.891692E-1,-8.674224E-1,5.597314E-1,-3.0212134E-1,1.5552956E0,-5.7239175E-1,-5.0631964E-1,3.058927E-1,-1.6959901E0,-6.356828E-1,-4.7990763E-1,2.4282433E-1,-1.2013767E0,-7.896385E-1,-1.5796156E0,-1.2632071E0,-2.6689506E-1,5.67266E-1,-1.0576148E0,-4.2181236E-1,4.1072124E-1,1.1168684E0,1.5541911E0,1.0286158E0,-1.4879577E0,4.4908696E-1,3.5957062E-1,1.0300814E0,-5.506176E-1,-3.6200695E-2,-1.1812884E0,-7.655125E-1,3.7276036E-1,9.986992E-1,-5.63061E-1,3.5912168E-1,8.1769355E-2,-1.0259281E-2,1.492568E-2,-3.852385E-2,-3.9435595E-2,-1.855707E-2,8.040416E-3,4.0704757E-2,-8.671219E-2,-1.2141928E-2,-5.3314127E-2,1.1817103E-2,1.683025E-2,-2.8129244E-2,4.9838233E-3,3.083511E-2,-6.795464E-2,-5.2688587E-2,-3.1241795E-2,-5.1626522E-2,-7.916278E-2,-1.943182E-2,-5.6501456E-2,-7.054945E-2,-2.4301527E-2,-1.8942844E-3,1.2061857E-2,4.778559E-2,-4.264041E-2,-6.4279966E-2,-4.028855E-2,-7.7215494E-3,3.4789722E-2,1.05596455E-2,5.225448E-2,7.1637094E-2,8.090617E-2,2.3562467E-2,5.9458412E-2,3.3949032E-2,-8.554109E-2,2.3594385E-2,2.0205174E-3,4.3756273E-2,4.2873107E-2,1.0091698E-2,4.318089E-2,6.2214136E-2,-4.318012E-2,-1.4789851E-2,-1.3311294E-2,1.3272586E-2,-4.9397316E-2,-6.948965E-2,-3.4893043E-2,-6.1101418E-2,2.9537518E-2,3.956896E-3,4.117194E-2,5.7025194E-2,-1.5590374E-2,-4.2813133E-2,3.6845777E-2,-1.3134214E-2],"categories":[],"categories_nodes":[],"categories_segments":[],"categories_sizes":[],"default_left":[0,0,0,0,0,0,0,0,0,0,0,0,0,0,0,0,0,0,0,0,0,0,0,0,0,0,0,0,0,0,0,0,0,0,0,0,0,0,0,0,0,0,0,0,0,0,0,0,0,0,0,0,0,0,0,0,0,0,0,0,0,0,0,0,0,0,0,0,0,0,0,0,0,0,0,0,0,0,0,0,0,0,0,0,0,0,0,0,0,0,0,0,0,0,0,0,0,0,0,0,0,0,0,0,0,0,0,0,0,0,0,0,0,0,0,0,0,0,0,0,0,0,0,0,0,0,0],"id":4,"left_children":[1,3,5,7,9,11,13,15,17,19,21,23,25,27,29,31,33,35,37,39,41,43,45,47,49,51,53,55,57,59,61,63,65,67,69,71,73,75,77,79,81,83,85,87,89,91,93,95,97,99,101,103,105,107,109,111,113,115,117,119,121,123,125,-1,-1,-1,-1,-1,-1,-1,-1,-1,-1,-1,-1,-1,-1,-1,-1,-1,-1,-1,-1,-1,-1,-1,-1,-1,-1,-1,-1,-1,-1,-1,-1,-1,-1,-1,-1,-1,-1,-1,-1,-1,-1,-1,-1,-1,-1,-1,-1,-1,-1,-1,-1,-1,-1,-1,-1,-1,-1,-1,-1,-1,-1,-1,-1],"loss_changes":[7.798118E3,1.1868252E3,1.9655908E3,8.230133E2,4.495171E2,1.39904E3,1.5265774E3,9.5359717E2,8.406304E2,1.3389355E2,2.2982529E2,9.8738135E2,1.6781394E3,2.9494177E2,3.124828E2,5.63785E2,3.268555E2,2.900923E2,2.4521893E2,1.2335327E2,2.8689941E1,8.668492E1,5.5372498E1,4.2632312E2,1.4906982E2,1.6365889E3,5.4725757E2,2.2807568E2,3.703833E1,2.4556287E2,8.470528E1,7.7790405E1,2.808627E1,6.0149567E1,5.3054276E1,4.298999E1,1.4630144E2,2.0300946E2,2.9736473E1,3.1717773E1,5.9889465E1,1.371582E0,1.6403198E1,3.2054985E1,1.9369667E1,2.3144104E1,1.934996E1,1.8380115E2,2.4883911E1,1.1650513E2,4.4496155E1,4.126521E2,1.4133215E2,4.8405048E2,5.3035034E1,1.3500024E2,1.2176845E2,1.0273804E1,2.6890747E1,1.3456082E2,2.1290955E1,2.5631546E1,3.2891E1,0E0,0E0,0E0,0E0,0E0,0E0,0E0,0E0,0E0,0E0,0E0,0E0,0E0,0E0,0E0,0E0,0E0,0E0,0E0,0E0,0E0,0E0,0E0,0E0,0E0,0E0,0E0,0E0,0E0,0E0,0E0,0E0,0E0,0E0,0E0,0E0,0E0,0E0,0E0,0E0,0E0,0E0,0E0,0E0,0E0,0E0,0E0,0E0,0E0,0E0,0E0,0E0,0E0,0E0,0E0,0E0,0E0,0E0,0E0,0E0,0E0,0E0,0E0,0E0],"parents":[2147483647,0,0,1,1,2,2,3,3,4,4,5,5,6,6,7,7,8,8,9,9,10,10,11,11,12,12,13,13,14,14,15,15,16,16,17,17,18,18,19,19,20,20,21,21,22,22,23,23,24,24,25,25,26,26,27,27,28,28,29,29,30,30,31,31,32,32,33,33,34,34,35,35,36,36,37,37,38,38,39,39,40,40,41,41,42,42,43,43,44,44,45,45,46,46,47,47,48,48,49,49,50,50,51,51,52,52,53,53,54,54,55,55,56,56,57,57,58,58,59,59,60,60,61,61,62,62],"right_children":[2,4,6,8,10,12,14,16,18,20,22,24,26,28,30,32,34,36,38,40,42,44,46,48,50,52,54,56,58,60,62,64,66,68,70,72,74,76,78,80,82,84,86,88,90,92,94,96,98,100,102,104,106,108,110,112,114,116,118,120,122,124,126,-1,-1,-1,-1,-1,-1,-1,-1,-1,-1,-1,-1,-1,-1,-1,-1,-1,-1,-1,-1,-1,-1,-1,-1,-1,-1,-1,-1,-1,-1,-1,-1,-1,-1,-1,-1,-1,-1,-1,-1,-1,-1,-1,-1,-1,-1,-1,-1,-1,-1,-1,-1,-1,-1,-1,-1,-1,-1,-1,-1,-1,-1,-1,-1],"split_conditions":[-3.3558746E1,1.8246158E3,1.704536E3,2E0,1.8787692E3,6E0,1.8787692E3,1E0,1E0,2.0339069E3,2.0479346E3,6E0,1E0,1.9200968E3,2.0817788E3,1E0,1.7854409E3,1E0,1.7789163E3,1.6646156E3,1.6391443E3,2.0986707E3,5.217391E-1,1.8922438E3,1E0,1E0,1.8290426E3,1.720171E3,1.6606144E3,2.1079836E3,2.1951504E3,1E0,1.5041453E3,-1.5368416E2,2.0105095E3,1E0,1.7810725E3,9E0,1.9366953E3,1E0,3E0,1.6269943E-1,1.8751693E3,1.9582848E3,2.2177266E3,2.2494946E3,2.0519827E3,1.5382166E3,5E0,1E0,1E0,1E0,5.882353E-1,4E0,1.9582848E3,1E0,3E0,7E0,2.1803047E3,1.8515098E3,2.2177266E3,2.2022E3,2.2494946E3,8.1769355E-2,-1.0259281E-2,1.492568E-2,-3.852385E-2,-3.9435595E-2,-1.855707E-2,8.040416E-3,4.0704757E-2,-8.671219E-2,-1.2141928E-2,-5.3314127E-2,1.1817103E-2,1.683025E-2,-2.8129244E-2,4.9838233E-3,3.083511E-2,-6.795464E-2,-5.2688587E-2,-3.1241795E-2,-5.1626522E-2,-7.916278E-2,-1.943182E-2,-5.6501456E-2,-7.054945E-2,-2.4301527E-2,-1.8942844E-3,1.2061857E-2,4.778559E-2,-4.264041E-2,-6.4279966E-2,-4.028855E-2,-7.7215494E-3,3.4789722E-2,1.05596455E-2,5.225448E-2,7.1637094E-2,8.090617E-2,2.3562467E-2,5.9458412E-2,3.3949032E-2,-8.554109E-2,2.3594385E-2,2.0205174E-3,4.3756273E-2,4.2873107E-2,1.0091698E-2,4.318089E-2,6.2214136E-2,-4.318012E-2,-1.4789851E-2,-1.3311294E-2,1.3272586E-2,-4.9397316E-2,-6.948965E-2,-3.4893043E-2,-6.1101418E-2,2.9537518E-2,3.956896E-3,4.117194E-2,5.7025194E-2,-1.5590374E-2,-4.2813133E-2,3.6845777E-2,-1.3134214E-2],"split_indices":[7,3,3,37,2,37,2,22,38,3,3,38,38,3,3,72,2,23,2,2,2,2,19,2,22,23,2,2,2,2,2,37,5,7,2,72,2,50,2,38,37,43,5,2,2,3,2,3,30,72,69,72,10,50,2,38,38,37,3,3,2,3,3,0,0,0,0,0,0,0,0,0,0,0,0,0,0,0,0,0,0,0,0,0,0,0,0,0,0,0,0,0,0,0,0,0,0,0,0,0,0,0,0,0,0,0,0,0,0,0,0,0,0,0,0,0,0,0,0,0,0,0,0,0,0,0,0],"split_type":[0,0,0,0,0,0,0,0,0,0,0,0,0,0,0,0,0,0,0,0,0,0,0,0,0,0,0,0,0,0,0,0,0,0,0,0,0,0,0,0,0,0,0,0,0,0,0,0,0,0,0,0,0,0,0,0,0,0,0,0,0,0,0,0,0,0,0,0,0,0,0,0,0,0,0,0,0,0,0,0,0,0,0,0,0,0,0,0,0,0,0,0,0,0,0,0,0,0,0,0,0,0,0,0,0,0,0,0,0,0,0,0,0,0,0,0,0,0,0,0,0,0,0,0,0,0,0],"sum_hessian":[3.79879E4,1.3542333E4,2.4445566E4,7.7385806E3,5.8037524E3,1.632833E4,8.117236E3,3.0114937E3,4.727087E3,4.3050312E3,1.4987212E3,6.894319E3,9.434011E3,4.6329956E3,3.4842402E3,7.087998E2,2.3026938E3,1.1678933E3,3.5591934E3,2.9342507E3,1.3707804E3,7.918808E2,7.068404E2,4.3955054E3,2.4988132E3,1.7528478E3,7.681163E3,3.4477725E3,1.1852229E3,2.995494E3,4.887464E2,5.4832684E2,1.6047299E2,1.5823651E3,7.203288E2,7.799403E2,3.8795303E2,3.003429E3,5.5576465E2,1.4229884E3,1.5112622E3,4.5731985E2,9.1346063E2,6.381152E2,1.5376558E2,5.181486E2,1.8869176E2,3.232957E3,1.1625486E3,1.6927634E3,8.060499E2,9.419132E2,8.109346E2,6.1646455E3,1.516518E3,1.6948904E3,1.7528821E3,2.8791132E2,8.973115E2,2.1020215E3,8.934723E2,3.5055777E2,1.3818861E2,5.2453467E2,2.379216E1,2.9641893E1,1.3083109E2,5.106871E2,1.071678E3,5.613796E2,1.5894926E2,7.597468E2,2.0193457E1,2.595609E2,1.283921E2,2.7587207E2,2.727557E3,4.0280713E2,1.529575E2,6.839644E2,7.390239E2,9.0249225E2,6.0877E2,4.5559805E2,1.7218037E0,4.850183E2,4.2844232E2,3.2551382E2,3.1260135E2,8.448065E1,6.9284935E1,2.754462E2,2.4270242E2,7.663321E1,1.1205855E2,1.3301036E3,1.9028533E3,9.5079877E2,2.1174979E2,1.5979341E3,9.482927E1,5.507462E2,2.5530368E2,8.458539E2,9.605929E1,4.1445975E2,3.9647485E2,1.4820763E3,4.6825693E3,8.5618054E2,6.603374E2,7.5956323E2,9.353272E2,9.945812E2,7.583009E2,1.5236485E2,1.3554645E2,7.8370233E2,1.136092E2,1.2058026E3,8.9621893E2,4.0264224E2,4.9083005E2,1.8989462E2,1.6066316E2,8.584574E1,5.234287E1],"tree_param":{"num_deleted":"0","num_feature":"79","num_nodes":"127","size_leaf_vector":"1"}},{"base_weights":[-1.3931609E-3,-7.471661E-1,4.2687026E-1,-1.144587E0,-5.403102E-1,1.9453058E-1,9.035556E-1,-1.3835255E0,-1.020801E0,-8.114572E-1,-2.790246E-1,-1.1611219E-1,4.318484E-1,7.5959456E-1,1.1960496E0,-1.4609843E0,-1.2232325E0,-1.169139E0,-8.4369826E-1,-5.830016E-1,-1.4611633E0,5.5499846E-1,-5.025732E-1,1.5457995E-1,-9.349022E-1,1.2398292E0,2.2121E-1,9.382796E-1,5.71619E-1,1.1153651E0,1.3555428E0,-1.6024686E0,-1.4119935E0,-1.4205964E0,-1.1328583E0,-1.0373049E0,-1.5329307E0,-2.8479302E-1,-1.0130798E0,-6.9629353E-1,-3.433273E-1,-1.0188965E0,-1.6362646E0,1.4768417E0,-3.5845128E-1,-1.3393196E-1,-6.2213427E-1,-9.818117E-2,3.3299804E-1,-7.119611E-2,-1.477461E0,1.5359957E0,5.9444207E-1,5.100274E-1,3.156437E-2,7.420216E-1,1.4448508E0,-1.6852949E-2,7.395561E-1,5.041831E-1,1.137584E0,1.5388526E-1,1.363762E0,-8.061567E-2,-2.268292E-2,-7.609744E-2,-6.6995285E-2,-7.256698E-2,-2.4309762E-2,-5.7240963E-2,2.2873437E-2,-5.464622E-2,-3.296703E-2,-8.0924965E-2,-5.5854965E-2,7.540625E-2,-4.2009745E-2,-5.1847667E-2,-7.364293E-3,-3.9523516E-2,-2.2229133E-2,-2.6077336E-2,-1.05012925E-2,-6.195913E-2,-2.6057974E-2,-8.385171E-2,-1.9389665E-2,8.265267E-2,-1.683078E-2,-3.320719E-2,-5.805976E-3,-2.8173475E-2,-4.056438E-4,-3.6618397E-2,-2.0770611E-2,-2.2400742E-2,2.4329576E-4,6.906861E-3,2.5633186E-2,-7.5020543E-3,4.2348567E-2,-8.316428E-2,1.7712623E-2,8.101889E-2,1.5682261E-2,3.9752986E-2,6.8640537E-3,3.760003E-2,1.3084422E-2,-8.415415E-3,1.1823581E-2,3.1066386E-2,4.4726428E-2,7.5992785E-2,4.8704438E-2,3.2646593E-2,-7.419535E-2,2.9003805E-2,4.706472E-2,-1.3592797E-2,3.310654E-2,6.17716E-2,5.0476648E-2,-5.310717E-2,4.5824297E-2,6.8370715E-2,-7.436473E-3],"categories":[],"categories_nodes":[],"categories_segments":[],"categories_sizes":[],"default_left":[0,0,0,0,0,0,0,0,0,0,0,0,0,0,0,0,0,0,0,0,0,0,0,0,0,0,0,0,0,0,0,0,0,0,0,0,0,0,0,0,0,0,0,0,0,0,0,0,0,0,0,0,0,0,0,0,0,0,0,0,0,0,0,0,0,0,0,0,0,0,0,0,0,0,0,0,0,0,0,0,0,0,0,0,0,0,0,0,0,0,0,0,0,0,0,0,0,0,0,0,0,0,0,0,0,0,0,0,0,0,0,0,0,0,0,0,0,0,0,0,0,0,0,0,0,0,0],"id":5,"left_children":[1,3,5,7,9,11,13,15,17,19,21,23,25,27,29,31,33,35,37,39,41,43,45,47,49,51,53,55,57,59,61,63,65,67,69,71,73,75,77,79,81,83,85,87,89,91,93,95,97,99,101,103,105,107,109,111,113,115,117,119,121,123,125,-1,-1,-1,-1,-1,-1,-1,-1,-1,-1,-1,-1,-1,-1,-1,-1,-1,-1,-1,-1,-1,-1,-1,-1,-1,-1,-1,-1,-1,-1,-1,-1,-1,-1,-1,-1,-1,-1,-1,-1,-1,-1,-1,-1,-1,-1,-1,-1,-1,-1,-1,-1,-1,-1,-1,-1,-1,-1,-1,-1,-1,-1,-1,-1],"loss_changes":[1.207401E4,1.1330386E3,2.6594116E3,1.381831E2,6.4244556E2,1.1903466E3,3.3042627E2,1.8176514E1,8.079077E1,6.598225E2,8.618722E2,1.5501803E3,1.5575702E3,1.7667798E2,3.1865723E1,5.215332E0,7.84375E0,7.9528564E1,1.3437122E2,8.922534E1,8.795581E1,8.234679E2,1.6056525E2,2.3709686E2,8.14219E2,3.6084448E2,3.9773712E2,2.67687E2,2.5436572E2,2.2892578E1,8.349976E0,2.323059E0,4.3795166E0,3.9629822E0,7.5325317E0,2.5443115E1,1.41258545E1,3.3208362E2,2.2402344E1,5.2660767E1,2.506118E1,3.5634552E1,4.14646E1,1.5605322E2,3.634656E1,4.8305786E1,6.240686E1,7.8444305E1,1.07821655E2,4.8738716E1,3.6385474E2,1.3323486E2,5.4640244E1,1.7276263E2,1.7961185E2,3.5346313E1,2.5136475E1,5.63412E2,6.3875854E1,7.8301706E0,1.9634766E1,7.478639E0,4.9576416E0,0E0,0E0,0E0,0E0,0E0,0E0,0E0,0E0,0E0,0E0,0E0,0E0,0E0,0E0,0E0,0E0,0E0,0E0,0E0,0E0,0E0,0E0,0E0,0E0,0E0,0E0,0E0,0E0,0E0,0E0,0E0,0E0,0E0,0E0,0E0,0E0,0E0,0E0,0E0,0E0,0E0,0E0,0E0,0E0,0E0,0E0,0E0,0E0,0E0,0E0,0E0,0E0,0E0,0E0,0E0,0E0,0E0,0E0,0E0,0E0,0E0,0E0,0E0,0E0],"parents":[2147483647,0,0,1,1,2,2,3,3,4,4,5,5,6,6,7,7,8,8,9,9,10,10,11,11,12,12,13,13,14,14,15,15,16,16,17,17,18,18,19,19,20,20,21,21,22,22,23,23,24,24,25,25,26,26,27,27,28,28,29,29,30,30,31,31,32,32,33,33,34,34,35,35,36,36,37,37,38,38,39,39,40,40,41,41,42,42,43,43,44,44,45,45,46,46,47,47,48,48,49,49,50,50,51,51,52,52,53,53,54,54,55,55,56,56,57,57,58,58,59,59,60,60,61,61,62,62],"right_children":[2,4,6,8,10,12,14,16,18,20,22,24,26,28,30,32,34,36,38,40,42,44,46,48,50,52,54,56,58,60,62,64,66,68,70,72,74,76,78,80,82,84,86,88,90,92,94,96,98,100,102,104,106,108,110,112,114,116,118,120,122,124,126,-1,-1,-1,-1,-1,-1,-1,-1,-1,-1,-1,-1,-1,-1,-1,-1,-1,-1,-1,-1,-1,-1,-1,-1,-1,-1,-1,-1,-1,-1,-1,-1,-1,-1,-1,-1,-1,-1,-1,-1,-1,-1,-1,-1,-1,-1,-1,-1,-1,-1,-1,-1,-1,-1,-1,-1,-1,-1,-1,-1,-1,-1,-1,-1],"split_conditions":[-3.658812E1,-2.413981E2,2.137971E2,-4.08854E2,1E0,1E0,3.963294E2,-1.1622625E2,1E0,1E0,1E0,1E0,1E0,2E0,5.518221E2,1E0,-5.5211456E2,1E0,1E0,-8.9649345E1,1E0,1E0,1.5328372E3,1.3991631E1,1E0,1E0,1.5001157E3,1E0,1E0,-1.2187894E2,-3.1447763E2,2E1,-3.5060446E2,3.1776022E2,8.8E1,9.697034E1,1E0,1E0,2.215432E2,3.294447E1,-4.8739647E1,1E0,1E0,1E0,-1.433497E2,-1.4702473E2,-9.5482666E1,-1.5030544E2,8.577599E1,1E0,1E0,1E0,1E0,6E1,6.7741066E1,1.5608066E2,1E0,1E0,1.643966E2,5.7974523E-1,4E0,5E-1,2.03E2,-8.061567E-2,-2.268292E-2,-7.609744E-2,-6.6995285E-2,-7.256698E-2,-2.4309762E-2,-5.7240963E-2,2.2873437E-2,-5.464622E-2,-3.296703E-2,-8.0924965E-2,-5.5854965E-2,7.540625E-2,-4.2009745E-2,-5.1847667E-2,-7.364293E-3,-3.9523516E-2,-2.2229133E-2,-2.6077336E-2,-1.05012925E-2,-6.195913E-2,-2.6057974E-2,-8.385171E-2,-1.9389665E-2,8.265267E-2,-1.683078E-2,-3.320719E-2,-5.805976E-3,-2.8173475E-2,-4.056438E-4,-3.6618397E-2,-2.0770611E-2,-2.2400742E-2,2.4329576E-4,6.906861E-3,2.5633186E-2,-7.5020543E-3,4.2348567E-2,-8.316428E-2,1.7712623E-2,8.101889E-2,1.5682261E-2,3.9752986E-2,6.8640537E-3,3.760003E-2,1.3084422E-2,-8.415415E-3,1.1823581E-2,3.1066386E-2,4.4726428E-2,7.5992785E-2,4.8704438E-2,3.2646593E-2,-7.419535E-2,2.9003805E-2,4.706472E-2,-1.3592797E-2,3.310654E-2,6.17716E-2,5.0476648E-2,-5.310717E-2,4.5824297E-2,6.8370715E-2,-7.436473E-3],"split_indices":[6,6,6,6,38,38,6,7,38,37,37,37,37,37,6,76,6,37,37,6,25,22,5,7,25,22,5,38,38,7,7,41,7,7,38,7,69,22,7,7,7,69,72,72,6,6,6,7,6,15,72,72,69,1,6,7,69,25,7,46,37,11,37,0,0,0,0,0,0,0,0,0,0,0,0,0,0,0,0,0,0,0,0,0,0,0,0,0,0,0,0,0,0,0,0,0,0,0,0,0,0,0,0,0,0,0,0,0,0,0,0,0,0,0,0,0,0,0,0,0,0,0,0,0,0,0,0],"split_type":[0,0,0,0,0,0,0,0,0,0,0,0,0,0,0,0,0,0,0,0,0,0,0,0,0,0,0,0,0,0,0,0,0,0,0,0,0,0,0,0,0,0,0,0,0,0,0,0,0,0,0,0,0,0,0,0,0,0,0,0,0,0,0,0,0,0,0,0,0,0,0,0,0,0,0,0,0,0,0,0,0,0,0,0,0,0,0,0,0,0,0,0,0,0,0,0,0,0,0,0,0,0,0,0,0,0,0,0,0,0,0,0,0,0,0,0,0,0,0,0,0,0,0,0,0,0,0],"sum_hessian":[3.7801668E4,1.3788971E4,2.40127E4,4.718685E3,9.070286E3,1.6144948E4,7.86775E3,1.6068613E3,3.1118235E3,4.450112E3,4.620174E3,6.9924834E3,9.152465E3,5.27505E3,2.5927E3,1.07788E3,5.2898126E2,1.6903848E3,1.4214388E3,3.2938093E3,1.1563024E3,9.76295E2,3.6438792E3,5.255744E3,1.736739E3,1.8916112E3,7.2608535E3,2.702309E3,2.5727407E3,1.7270258E3,8.6567426E2,2.6907874E2,8.088013E2,1.6152196E2,3.6745932E2,1.2435775E3,4.4680737E2,3.3121515E2,1.0902236E3,2.2352983E3,1.0585111E3,3.2989056E2,8.264118E2,4.8560803E2,4.9068695E2,8.929076E2,2.7509714E3,2.1749658E3,3.0807786E3,6.704973E2,1.0662417E3,1.2956572E3,5.95954E2,2.877273E3,4.3835806E3,1.9494929E3,7.528163E2,5.7139685E2,2.001344E3,6.1412876E1,1.6656129E3,6.014871E0,8.5965936E2,2.6639243E2,2.68632E0,3.123153E2,4.96486E2,1.5584134E2,5.6806297E0,3.649943E2,2.4650142E0,1.0824044E3,1.6117308E2,3.6815692E2,7.865044E1,7.793009E1,2.5328505E2,1.060776E3,2.9447662E1,1.6251233E3,6.1017505E2,4.516963E2,6.0681476E2,2.2764903E2,1.02241516E2,7.999458E2,2.6465994E1,4.4268158E2,4.292646E1,2.16208E2,2.7447894E2,2.0150508E2,6.914025E2,1.7925558E3,9.5841565E2,4.9412332E2,1.6808425E3,1.4787417E3,1.6020367E3,6.1824396E2,5.225333E1,9.681193E2,9.812237E1,1.2116858E3,8.397141E1,4.1367868E2,1.822753E2,1.4562875E3,1.4209855E3,2.2191418E3,2.164439E3,1.0910837E3,8.5840924E2,6.474342E2,1.0538204E2,3.9267545E2,1.787214E2,1.1199034E3,8.8144055E2,1.026365E1,5.1149227E1,9.39252E2,7.2636084E2,2.1668549E0,3.8480165E0,8.5768427E2,1.9750973E0],"tree_param":{"num_deleted":"0","num_feature":"79","num_nodes":"127","size_leaf_vector":"1"}},{"base_weights":[4.006814E-3,-6.4576197E-1,4.5201188E-1,-9.489621E-1,-3.562757E-1,1.9291893E-1,8.1518936E-1,-1.2460936E0,-8.1568974E-1,-6.512328E-1,-1.0100867E-1,-1.0537053E-1,4.2313722E-1,6.8348545E-1,1.1574482E0,-1.3656787E0,-1.1293564E0,-9.8590046E-1,-6.270672E-1,-1.3653393E0,-4.506645E-1,-3.2090592E-1,1.5675172E-1,-8.965873E-1,1.0001228E-1,2.2804883E-1,6.421002E-1,4.8657012E-1,8.6054707E-1,1.043029E0,1.2632987E0,-1.4265625E0,-1.2213545E0,-1.2367805E0,-9.727755E-1,-1.5470531E0,-8.548739E-1,-8.46246E-1,-3.934394E-1,-1.6104671E0,-1.1282261E-1,-6.5999466E-1,-3.00002E-1,3.8799903E-1,-4.3388137E-1,3.1687692E-1,-2.4936153E-1,-1.5774443E0,5.9974617E-1,-2.654661E-1,1.8556613E-1,4.9220362E-1,1.0351862E-2,3.673418E-1,8.5744697E-1,-7.326227E-1,6.357676E-1,6.606482E-1,1.0171615E0,1.1741145E0,9.191281E-1,1.4087476E0,1.2116566E0,-7.257173E-2,-5.8182526E-2,-6.149782E-2,9.547923E-3,-7.3133394E-2,-5.814619E-2,-5.7900824E-2,-3.850545E-2,-8.1383035E-2,-2.7956484E-2,-4.6307355E-2,-2.5640631E-2,-5.6604423E-2,-3.7959173E-2,-8.928513E-3,-3.5371974E-2,-8.063257E-2,-2.4580471E-2,-5.678695E-2,4.6695266E-3,-3.859946E-2,-2.3585327E-2,-1.775071E-2,7.6536248E-3,3.6146443E-2,-8.4474785E-3,-1.2001323E-2,-2.7927265E-2,2.4272145E-3,3.182367E-2,4.952851E-2,-1.4846243E-2,-3.6434922E-3,-7.922625E-2,4.2662397E-2,1.2152161E-2,-5.3330115E-3,-2.6259411E-2,2.2287518E-3,1.8038163E-2,3.7334524E-2,1.1899642E-2,-1.0936826E-2,9.776286E-3,9.714782E-3,3.162732E-2,5.2817184E-2,3.637324E-2,-7.367519E-2,5.1734723E-2,2.3039134E-2,3.6519557E-2,-2.0121636E-2,3.472919E-2,5.819444E-2,4.5654327E-2,5.9170645E-2,-3.3352423E-2,3.1747468E-2,4.954084E-2,7.110831E-2,3.4839004E-2,4.608077E-2,6.237681E-2],"categories":[],"categories_nodes":[],"categories_segments":[],"categories_sizes":[],"default_left":[0,0,0,0,0,0,0,0,0,0,0,0,0,0,0,0,0,0,0,0,0,0,0,0,0,0,0,0,0,0,0,0,0,0,0,0,0,0,0,0,0,0,0,0,0,0,0,0,0,0,0,0,0,0,0,0,0,0,0,0,0,0,0,0,0,0,0,0,0,0,0,0,0,0,0,0,0,0,0,0,0,0,0,0,0,0,0,0,0,0,0,0,0,0,0,0,0,0,0,0,0,0,0,0,0,0,0,0,0,0,0,0,0,0,0,0,0,0,0,0,0,0,0,0,0,0,0],"id":6,"left_children":[1,3,5,7,9,11,13,15,17,19,21,23,25,27,29,31,33,35,37,39,41,43,45,47,49,51,53,55,57,59,61,63,65,67,69,71,73,75,77,79,81,83,85,87,89,91,93,95,97,99,101,103,105,107,109,111,113,115,117,119,121,123,125,-1,-1,-1,-1,-1,-1,-1,-1,-1,-1,-1,-1,-1,-1,-1,-1,-1,-1,-1,-1,-1,-1,-1,-1,-1,-1,-1,-1,-1,-1,-1,-1,-1,-1,-1,-1,-1,-1,-1,-1,-1,-1,-1,-1,-1,-1,-1,-1,-1,-1,-1,-1,-1,-1,-1,-1,-1,-1,-1,-1,-1,-1,-1,-1],"loss_changes":[1.0944498E4,1.346395E3,2.093832E3,2.9572705E2,5.910476E2,8.9203723E2,4.1686182E2,3.0823486E1,1.6556519E2,5.210305E2,2.3866353E2,9.196771E2,3.1302625E2,2.3294556E2,2.9847412E1,8.279053E0,1.8628174E1,1.9860352E2,1.2553381E2,2.4486792E2,8.952655E1,1.8213536E2,1.2615111E2,1.1891708E3,1.4055576E2,2.2303499E2,2.0403711E2,5.7731134E2,1.09620605E2,1.9097534E1,8.297607E0,3.517212E0,4.430176E0,9.90332E0,1.729419E1,3.9980835E1,5.3322876E1,3.068042E1,8.0274216E1,8.383789E-1,2.7889029E1,2.4725952E1,4.1332718E1,5.8479885E1,4.7238007E1,1.19250534E2,3.265986E1,8.426758E0,3.283896E1,3.5117207E1,8.994158E1,1.13183685E2,9.0284706E1,6.960106E1,4.9269043E1,4.5486395E2,4.6455322E1,5.6214417E1,2.9073853E1,1.1062073E1,1.2475403E1,2.2843628E0,9.153442E0,0E0,0E0,0E0,0E0,0E0,0E0,0E0,0E0,0E0,0E0,0E0,0E0,0E0,0E0,0E0,0E0,0E0,0E0,0E0,0E0,0E0,0E0,0E0,0E0,0E0,0E0,0E0,0E0,0E0,0E0,0E0,0E0,0E0,0E0,0E0,0E0,0E0,0E0,0E0,0E0,0E0,0E0,0E0,0E0,0E0,0E0,0E0,0E0,0E0,0E0,0E0,0E0,0E0,0E0,0E0,0E0,0E0,0E0,0E0,0E0,0E0,0E0,0E0,0E0],"parents":[2147483647,0,0,1,1,2,2,3,3,4,4,5,5,6,6,7,7,8,8,9,9,10,10,11,11,12,12,13,13,14,14,15,15,16,16,17,17,18,18,19,19,20,20,21,21,22,22,23,23,24,24,25,25,26,26,27,27,28,28,29,29,30,30,31,31,32,32,33,33,34,34,35,35,36,36,37,37,38,38,39,39,40,40,41,41,42,42,43,43,44,44,45,45,46,46,47,47,48,48,49,49,50,50,51,51,52,52,53,53,54,54,55,55,56,56,57,57,58,58,59,59,60,60,61,61,62,62],"right_children":[2,4,6,8,10,12,14,16,18,20,22,24,26,28,30,32,34,36,38,40,42,44,46,48,50,52,54,56,58,60,62,64,66,68,70,72,74,76,78,80,82,84,86,88,90,92,94,96,98,100,102,104,106,108,110,112,114,116,118,120,122,124,126,-1,-1,-1,-1,-1,-1,-1,-1,-1,-1,-1,-1,-1,-1,-1,-1,-1,-1,-1,-1,-1,-1,-1,-1,-1,-1,-1,-1,-1,-1,-1,-1,-1,-1,-1,-1,-1,-1,-1,-1,-1,-1,-1,-1,-1,-1,-1,-1,-1,-1,-1,-1,-1,-1,-1,-1,-1,-1,-1,-1,-1,-1,-1,-1],"split_conditions":[-1.4194203E1,-1.5813348E2,1.8147356E2,-3.5262482E2,1E0,1E0,3.963294E2,-4.551484E2,1E0,1E0,1E0,1E0,2E0,1E0,2.0728455E2,-1.1622625E2,7E0,1E0,2E0,1E0,-5.9965652E1,1.5012496E3,1E0,1E0,-7.670674E1,1.5001157E3,8E0,1E0,1E0,2E0,1E0,1E0,8.8E1,1E0,1E0,1E0,6.935241E1,-2.2107898E2,1E0,4E0,-1.00260155E2,7E0,2.215432E2,5.9E1,1.5556617E3,8E0,1.5152E3,1.4079257E3,4E0,1E0,9.03324E1,6E1,7.55738E-1,6E0,1.5077017E3,1E0,6.0656506E1,-1.6449965E2,1.5020671E3,2.19E2,4.2312482E2,1E0,5.935161E-1,-7.257173E-2,-5.8182526E-2,-6.149782E-2,9.547923E-3,-7.3133394E-2,-5.814619E-2,-5.7900824E-2,-3.850545E-2,-8.1383035E-2,-2.7956484E-2,-4.6307355E-2,-2.5640631E-2,-5.6604423E-2,-3.7959173E-2,-8.928513E-3,-3.5371974E-2,-8.063257E-2,-2.4580471E-2,-5.678695E-2,4.6695266E-3,-3.859946E-2,-2.3585327E-2,-1.775071E-2,7.6536248E-3,3.6146443E-2,-8.4474785E-3,-1.2001323E-2,-2.7927265E-2,2.4272145E-3,3.182367E-2,4.952851E-2,-1.4846243E-2,-3.6434922E-3,-7.922625E-2,4.2662397E-2,1.2152161E-2,-5.3330115E-3,-2.6259411E-2,2.2287518E-3,1.8038163E-2,3.7334524E-2,1.1899642E-2,-1.0936826E-2,9.776286E-3,9.714782E-3,3.162732E-2,5.2817184E-2,3.637324E-2,-7.367519E-2,5.1734723E-2,2.3039134E-2,3.6519557E-2,-2.0121636E-2,3.472919E-2,5.819444E-2,4.5654327E-2,5.9170645E-2,-3.3352423E-2,3.1747468E-2,4.954084E-2,7.110831E-2,3.4839004E-2,4.608077E-2,6.237681E-2],"split_indices":[6,6,6,6,38,38,6,6,38,23,41,23,41,38,7,7,38,23,41,72,7,3,22,72,7,5,38,23,41,40,76,20,38,76,41,72,7,7,22,30,7,41,7,1,5,38,3,3,42,52,6,1,7,41,3,72,7,7,5,0,6,51,45,0,0,0,0,0,0,0,0,0,0,0,0,0,0,0,0,0,0,0,0,0,0,0,0,0,0,0,0,0,0,0,0,0,0,0,0,0,0,0,0,0,0,0,0,0,0,0,0,0,0,0,0,0,0,0,0,0,0,0,0,0,0,0,0],"split_type":[0,0,0,0,0,0,0,0,0,0,0,0,0,0,0,0,0,0,0,0,0,0,0,0,0,0,0,0,0,0,0,0,0,0,0,0,0,0,0,0,0,0,0,0,0,0,0,0,0,0,0,0,0,0,0,0,0,0,0,0,0,0,0,0,0,0,0,0,0,0,0,0,0,0,0,0,0,0,0,0,0,0,0,0,0,0,0,0,0,0,0,0,0,0,0,0,0,0,0,0,0,0,0,0,0,0,0,0,0,0,0,0,0,0,0,0,0,0,0,0,0,0,0,0,0,0,0],"sum_hessian":[3.7595074E4,1.5342491E4,2.2252584E4,7.4926323E3,7.849859E3,1.2988233E4,9.264351E3,2.3174697E3,5.1751626E3,3.6410876E3,4.208771E3,5.6579185E3,7.3303145E3,6.6921523E3,2.5721978E3,1.1394869E3,1.1779828E3,2.7181292E3,2.4570337E3,7.9713794E2,2.8439497E3,2.2710645E3,1.9377065E3,1.1653104E3,4.492608E3,3.8775737E3,3.452741E3,3.1702144E3,3.5219382E3,1.2412848E3,1.330913E3,7.951602E2,3.4432678E2,6.945675E2,4.8341525E2,5.1248444E2,2.2056448E3,1.2663656E3,1.190668E3,6.6642694E2,1.30711E2,1.1888221E3,1.6551277E3,3.1184525E2,1.9592192E3,1.3899048E3,5.4780176E2,8.0085406E2,3.6445636E2,8.517794E2,3.6408284E3,1.7512888E3,2.126285E3,1.5182845E3,1.9344563E3,3.452265E2,2.8249878E3,1.5494618E3,1.9724766E3,5.990361E2,6.422487E2,3.418424E2,9.8907056E2,7.223076E2,7.285259E1,3.4237064E2,1.9561465E0,1.6650754E2,5.2805994E2,2.5010283E2,2.3331242E2,4.73225E2,3.9259407E1,1.8239021E3,3.8174255E2,2.9285748E2,9.735082E2,7.078544E2,4.828136E2,6.646879E2,1.7389696E0,2.1173357E1,1.09537636E2,7.4349066E2,4.4533148E2,1.4761146E3,1.7901308E2,1.9455093E2,1.17294304E2,7.679564E2,1.1912628E3,7.561742E2,6.3373065E2,1.9504747E1,5.28297E2,3.8040836E0,7.9705E2,2.1223387E2,1.5222249E2,5.294564E2,3.2232297E2,2.0180464E3,1.6227821E3,8.7420105E2,8.770877E2,9.503613E2,1.1759237E3,9.198285E2,5.9845605E2,7.617351E2,1.1727212E3,2.4336932E2,1.01857185E2,9.93536E2,1.8314518E3,4.7595783E1,1.501866E3,8.1428937E2,1.1581871E3,5.9638135E2,2.6546705E0,1.3136517E2,5.1088354E2,3.3453973E2,7.302687E0,1.11821434E2,8.7724915E2],"tree_param":{"num_deleted":"0","num_feature":"79","num_nodes":"127","size_leaf_vector":"1"}},{"base_weights":[-1.3502126E-3,-5.314544E-1,2.9767036E-1,-3.1211302E-1,-8.349992E-1,5.4172605E-1,4.5324106E-2,3.9457496E-2,-5.396249E-1,-4.242116E-1,-9.53868E-1,8.85512E-1,3.1486845E-1,4.777272E-1,-1.822772E-1,9.6231014E-1,-2.3362766E-1,-1.1990522E0,-3.282035E-1,-8.1989115E-1,-1.845975E-1,-1.1910659E0,-8.4960926E-1,6.1638486E-1,1.2743975E0,-5.123311E-1,4.8400784E-1,-1.0004477E-1,5.832761E-1,3.250211E-2,-4.2159122E-1,1.4408277E0,-6.410737E-1,-3.2999095E-1,5.5882E-1,-1.531282E0,-5.726907E-1,-5.183508E-2,-4.6516624E-1,-2.6123297E-1,-9.111315E-1,2.5715423E-1,-3.3751568E-1,-9.8776764E-1,-1.2881008E0,-6.981118E-1,-1.0417483E0,4.2329472E-1,9.7615206E-1,1.3948865E0,1.013998E0,-1.3011055E0,4.8536906E-1,3.2914034E-1,8.0382955E-1,2.3860589E-1,-4.4245225E-1,8.418163E-1,3.918665E-1,1.2803676E0,-1.6259639E-1,-1.1486026E0,-2.096917E-1,7.616834E-2,-7.0645846E-3,5.0794953E-3,-4.0625352E-2,-1.0564729E-2,-3.0863792E-2,4.492158E-3,3.297357E-2,-7.850691E-2,-8.857982E-3,2.975928E-3,-4.914271E-2,1.1627568E-2,-9.549188E-3,-4.536878E-3,-2.9447356E-2,-5.5859476E-2,-1.4151977E-3,-3.198174E-2,-5.4650392E-2,5.995251E-3,3.7646394E-2,-1.4036411E-2,-4.5701243E-2,-3.9241426E-2,-5.7893343E-2,-6.488451E-2,2.635387E-2,3.240011E-2,-3.967994E-2,-7.188055E-2,-4.4573497E-2,9.144887E-3,2.7782066E-2,5.9592884E-2,4.241332E-2,7.332983E-2,1.643913E-2,4.6651375E-2,7.621764E-2,-7.681123E-2,1.7580409E-2,3.3868868E-2,-1.9177062E-2,2.949283E-2,8.149228E-3,5.339356E-2,3.137936E-2,-2.0289427E-2,2.022526E-2,-1.6822878E-2,-4.754732E-2,2.9820755E-2,4.8294075E-2,1.2543934E-2,3.1537335E-2,6.509664E-3,7.668887E-2,-2.5524799E-2,1.475666E-3,-7.743953E-2,-2.314486E-2,-5.0240285E-3,-3.234493E-2],"categories":[],"categories_nodes":[],"categories_segments":[],"categories_sizes":[],"default_left":[0,0,0,0,0,0,0,0,0,0,0,0,0,0,0,0,0,0,0,0,0,0,0,0,0,0,0,0,0,0,0,0,0,0,0,0,0,0,0,0,0,0,0,0,0,0,0,0,0,0,0,0,0,0,0,0,0,0,0,0,0,0,0,0,0,0,0,0,0,0,0,0,0,0,0,0,0,0,0,0,0,0,0,0,0,0,0,0,0,0,0,0,0,0,0,0,0,0,0,0,0,0,0,0,0,0,0,0,0,0,0,0,0,0,0,0,0,0,0,0,0,0,0,0,0,0,0],"id":7,"left_children":[1,3,5,7,9,11,13,15,17,19,21,23,25,27,29,31,33,35,37,39,41,43,45,47,49,51,53,55,57,59,61,63,65,67,69,71,73,75,77,79,81,83,85,87,89,91,93,95,97,99,101,103,105,107,109,111,113,115,117,119,121,123,125,-1,-1,-1,-1,-1,-1,-1,-1,-1,-1,-1,-1,-1,-1,-1,-1,-1,-1,-1,-1,-1,-1,-1,-1,-1,-1,-1,-1,-1,-1,-1,-1,-1,-1,-1,-1,-1,-1,-1,-1,-1,-1,-1,-1,-1,-1,-1,-1,-1,-1,-1,-1,-1,-1,-1,-1,-1,-1,-1,-1,-1,-1,-1,-1],"loss_changes":[5.9265464E3,8.9750684E2,1.4721748E3,6.262622E2,2.7576318E2,9.474463E2,1.1568386E3,7.7566907E2,6.623096E2,1.2036151E2,1.07444336E2,5.0475854E2,1.0247463E3,2.472558E2,3.9585397E2,5.4014325E2,1.815577E2,2.3918921E2,1.3627222E2,2.4184204E1,5.3653046E1,2.5094849E1,8.805469E1,1.9803333E2,6.0541748E1,9.792567E2,3.0087268E2,7.280816E1,1.6928992E2,9.8854144E2,5.6091864E2,7.093701E1,2.0736923E1,7.210187E1,1.2113533E1,3.935266E1,1.0415166E2,4.7304554E1,1.1152582E2,1.3659127E1,1.9618317E1,1.3823257E1,1.904235E1,1.4146454E1,1.6375366E1,2.20107E2,7.8590454E1,5.9098755E1,2.64906E1,1.0252344E2,2.4542542E1,2.7051428E2,9.198529E1,1.7742813E2,9.160339E1,3.3932056E1,1.6502148E1,4.379004E1,6.623477E1,1.5981354E2,2.3471172E2,2.2481311E2,1.3466806E2,0E0,0E0,0E0,0E0,0E0,0E0,0E0,0E0,0E0,0E0,0E0,0E0,0E0,0E0,0E0,0E0,0E0,0E0,0E0,0E0,0E0,0E0,0E0,0E0,0E0,0E0,0E0,0E0,0E0,0E0,0E0,0E0,0E0,0E0,0E0,0E0,0E0,0E0,0E0,0E0,0E0,0E0,0E0,0E0,0E0,0E0,0E0,0E0,0E0,0E0,0E0,0E0,0E0,0E0,0E0,0E0,0E0,0E0,0E0,0E0,0E0,0E0,0E0,0E0],"parents":[2147483647,0,0,1,1,2,2,3,3,4,4,5,5,6,6,7,7,8,8,9,9,10,10,11,11,12,12,13,13,14,14,15,15,16,16,17,17,18,18,19,19,20,20,21,21,22,22,23,23,24,24,25,25,26,26,27,27,28,28,29,29,30,30,31,31,32,32,33,33,34,34,35,35,36,36,37,37,38,38,39,39,40,40,41,41,42,42,43,43,44,44,45,45,46,46,47,47,48,48,49,49,50,50,51,51,52,52,53,53,54,54,55,55,56,56,57,57,58,58,59,59,60,60,61,61,62,62],"right_children":[2,4,6,8,10,12,14,16,18,20,22,24,26,28,30,32,34,36,38,40,42,44,46,48,50,52,54,56,58,60,62,64,66,68,70,72,74,76,78,80,82,84,86,88,90,92,94,96,98,100,102,104,106,108,110,112,114,116,118,120,122,124,126,-1,-1,-1,-1,-1,-1,-1,-1,-1,-1,-1,-1,-1,-1,-1,-1,-1,-1,-1,-1,-1,-1,-1,-1,-1,-1,-1,-1,-1,-1,-1,-1,-1,-1,-1,-1,-1,-1,-1,-1,-1,-1,-1,-1,-1,-1,-1,-1,-1,-1,-1,-1,-1,-1,-1,-1,-1,-1,-1,-1,-1,-1,-1,-1],"split_conditions":[-3.1889536E1,1.8279219E3,1.616213E3,2E0,2.9E1,6E0,2.7E1,1E0,1E0,7E0,-2.7156213E2,3E0,1E0,1.2E1,2E0,1E0,2E0,1E0,1.5988206E3,4E0,8E0,1.9499224E3,1E0,1E0,1E0,1E0,5.714286E-1,9E0,1E1,1E0,1E0,1E0,1.5085159E3,9.7E1,-2.3224316E2,1E0,4.7E1,1.5168E3,5.6E1,-3.3794785E2,2.2022E3,2.7E1,1.7E1,1E0,5E0,1E0,1E0,3.7467518E1,1.5259818E3,1E0,2E0,1E0,6.4E1,5.9E1,5.9E1,3E0,2.2802336E3,1.3147882E2,1E0,3E0,3.5E1,1E0,1.8554028E3,7.616834E-2,-7.0645846E-3,5.0794953E-3,-4.0625352E-2,-1.0564729E-2,-3.0863792E-2,4.492158E-3,3.297357E-2,-7.850691E-2,-8.857982E-3,2.975928E-3,-4.914271E-2,1.1627568E-2,-9.549188E-3,-4.536878E-3,-2.9447356E-2,-5.5859476E-2,-1.4151977E-3,-3.198174E-2,-5.4650392E-2,5.995251E-3,3.7646394E-2,-1.4036411E-2,-4.5701243E-2,-3.9241426E-2,-5.7893343E-2,-6.488451E-2,2.635387E-2,3.240011E-2,-3.967994E-2,-7.188055E-2,-4.4573497E-2,9.144887E-3,2.7782066E-2,5.9592884E-2,4.241332E-2,7.332983E-2,1.643913E-2,4.6651375E-2,7.621764E-2,-7.681123E-2,1.7580409E-2,3.3868868E-2,-1.9177062E-2,2.949283E-2,8.149228E-3,5.339356E-2,3.137936E-2,-2.0289427E-2,2.022526E-2,-1.6822878E-2,-4.754732E-2,2.9820755E-2,4.8294075E-2,1.2543934E-2,3.1537335E-2,6.509664E-3,7.668887E-2,-2.5524799E-2,1.475666E-3,-7.743953E-2,-2.314486E-2,-5.0240285E-3,-3.234493E-2],"split_indices":[7,3,3,37,0,37,0,22,38,1,7,38,38,1,37,72,30,23,3,0,0,3,37,30,22,23,14,0,0,22,38,37,5,0,7,72,0,5,0,7,3,1,37,37,30,22,38,7,3,72,28,72,0,1,1,1,3,7,38,38,1,23,3,0,0,0,0,0,0,0,0,0,0,0,0,0,0,0,0,0,0,0,0,0,0,0,0,0,0,0,0,0,0,0,0,0,0,0,0,0,0,0,0,0,0,0,0,0,0,0,0,0,0,0,0,0,0,0,0,0,0,0,0,0,0,0,0],"split_type":[0,0,0,0,0,0,0,0,0,0,0,0,0,0,0,0,0,0,0,0,0,0,0,0,0,0,0,0,0,0,0,0,0,0,0,0,0,0,0,0,0,0,0,0,0,0,0,0,0,0,0,0,0,0,0,0,0,0,0,0,0,0,0,0,0,0,0,0,0,0,0,0,0,0,0,0,0,0,0,0,0,0,0,0,0,0,0,0,0,0,0,0,0,0,0,0,0,0,0,0,0,0,0,0,0,0,0,0,0,0,0,0,0,0,0,0,0,0,0,0,0,0,0,0,0,0,0],"sum_hessian":[3.7386617E4,1.3483056E4,2.390356E4,7.8283335E3,5.6547227E3,1.2150809E4,1.1752752E4,3.0759475E3,4.7523857E3,1.2700931E3,4.3846294E3,4.829363E3,7.321446E3,4.0525356E3,7.7002163E3,7.0179767E2,2.37415E3,1.1526326E3,3.5997532E3,4.781284E2,7.919648E2,1.3355985E3,3.049031E3,2.8556814E3,1.9736814E3,1.2425508E3,6.078895E3,6.2598145E2,3.4265544E3,4.0585854E3,3.6416306E3,5.4057007E2,1.6122762E2,2.117269E3,2.568808E2,7.5220776E2,4.0042484E2,1.1932825E3,2.4064707E3,6.7667595E1,4.1046082E2,2.0347687E2,5.884879E2,4.351316E2,9.0046686E2,1.7074095E3,1.3416216E3,1.8597268E3,9.959546E2,1.3463549E3,6.2732654E2,6.937629E2,5.487879E2,4.0970205E3,1.9818744E3,3.1486963E2,3.111118E2,1.456218E3,1.9703363E3,5.479961E2,3.5105894E3,8.2086926E2,2.8207615E3,5.138022E2,2.6767866E1,3.031367E1,1.3091394E2,1.499473E3,6.177961E2,4.572435E1,2.1115645E2,7.310704E2,2.1137388E1,1.5789964E2,2.4252518E2,3.9182178E2,8.0146075E2,5.983216E2,1.808149E3,1.3663037E1,5.4004555E1,1.6647353E2,2.4398727E2,1.6033252E2,4.3144352E1,5.37072E2,5.1415867E1,2.0097252E2,2.3415906E2,8.960184E2,4.448508E0,1.1271003E2,1.5946995E3,3.668089E2,9.748127E2,6.6116156E2,1.1985653E3,3.6760074E2,6.283539E2,1.2611497E3,8.5205246E1,5.4386725E2,8.345928E1,6.074202E2,8.6342636E1,4.4964713E2,9.9140785E1,1.5937327E3,2.503288E3,7.9130426E2,1.1905701E3,6.4170265E1,2.5069936E2,2.588224E2,5.228939E1,4.9094156E2,9.652765E2,1.2403364E3,7.299998E2,9.921108E1,4.48785E2,1.2483118E3,2.2622776E3,5.1755676E2,3.0331247E2,2.2579673E3,5.627942E2],"tree_param":{"num_deleted":"0","num_feature":"79","num_nodes":"127","size_leaf_vector":"1"}},{"base_weights":[1.9674671E-4,-6.046572E-1,4.196478E-1,-9.056011E-1,-3.4060767E-1,1.8733126E-1,7.7671486E-1,-1.162607E0,-7.7252674E-1,-6.0647583E-1,-1.0736856E-1,-7.964987E-2,3.9887962E-1,6.4833903E-1,1.0947399E0,-1.3358794E0,-1.0686189E0,-9.4262236E-1,-5.8350354E-1,-3.8803953E-1,-1.2582192E0,6.815586E-1,-3.0843547E-1,1.5957657E-1,-8.215491E-1,1.1571693E0,2.0458741E-1,4.6790653E-1,8.110741E-1,1.0282073E0,1.2688526E0,-1.4577445E0,-1.2842462E0,-1.1604083E0,-9.490961E-1,-7.839014E-1,-1.4071904E0,2.8503306E-2,-7.600408E-1,-5.097887E-1,-2.643902E-1,-1.4643357E0,-7.533023E-1,1.3318229E0,-1.8243742E-1,5.5022514E-1,-3.8117838E-1,7.609653E-1,1.0308203E-1,-1.2969564E0,-7.8717224E-2,1.4348083E0,5.658355E-1,6.0770375E-1,3.8360536E-2,-6.778909E-1,6.0283047E-1,1.3222562E0,6.3402265E-1,1.1120012E0,9.08061E-1,1.2758768E0,-3.2242462E-2,-4.7165085E-2,-7.383937E-2,-6.53237E-2,-4.6416305E-2,-7.531964E-2,-5.4713763E-2,-2.8577128E-2,-5.4144043E-2,-3.03075E-2,-4.22059E-2,-7.392686E-2,-4.7412265E-2,7.073154E-2,-2.9493773E-2,-3.8616393E-2,7.017827E-3,-2.3090739E-2,-3.654945E-2,1.7766805E-2,-1.4785076E-2,-7.658259E-2,-1.1501261E-2,-5.146646E-2,-7.064079E-3,7.6885216E-2,-1.1566858E-2,4.0191106E-2,-1.2553525E-2,3.641139E-2,6.795605E-3,-2.6210938E-2,-1.3572282E-2,1.517415E-2,4.6342768E-2,-2.6589325E-3,1.4738614E-2,-7.384368E-2,1.963578E-2,-1.15962755E-2,1.7415473E-2,7.5410925E-2,1.4913417E-2,5.5813592E-2,1.8720485E-2,4.2788647E-2,1.7492034E-2,-4.203633E-3,1.3585016E-2,-6.793495E-2,4.723296E-2,2.3881646E-2,3.56254E-2,7.0961796E-2,3.554954E-2,5.5057544E-2,2.8649399E-2,6.3524954E-2,4.7498822E-2,3.030437E-2,4.959695E-2,6.479917E-2,4.544815E-2],"categories":[],"categories_nodes":[],"categories_segments":[],"categories_sizes":[],"default_left":[0,0,0,0,0,0,0,0,0,0,0,0,0,0,0,0,0,0,0,0,0,0,0,0,0,0,0,0,0,0,0,0,0,0,0,0,0,0,0,0,0,0,0,0,0,0,0,0,0,0,0,0,0,0,0,0,0,0,0,0,0,0,0,0,0,0,0,0,0,0,0,0,0,0,0,0,0,0,0,0,0,0,0,0,0,0,0,0,0,0,0,0,0,0,0,0,0,0,0,0,0,0,0,0,0,0,0,0,0,0,0,0,0,0,0,0,0,0,0,0,0,0,0,0,0],"id":8,"left_children":[1,3,5,7,9,11,13,15,17,19,21,23,25,27,29,31,33,35,37,39,41,43,45,47,49,51,53,55,57,59,61,63,65,67,69,71,73,75,77,79,81,83,85,87,89,91,93,95,97,99,101,103,105,107,109,111,113,115,117,119,121,123,-1,-1,-1,-1,-1,-1,-1,-1,-1,-1,-1,-1,-1,-1,-1,-1,-1,-1,-1,-1,-1,-1,-1,-1,-1,-1,-1,-1,-1,-1,-1,-1,-1,-1,-1,-1,-1,-1,-1,-1,-1,-1,-1,-1,-1,-1,-1,-1,-1,-1,-1,-1,-1,-1,-1,-1,-1,-1,-1,-1,-1,-1,-1],"loss_changes":[9.455233E3,1.2124199E3,1.8253955E3,2.4301465E2,5.041178E2,7.531212E2,3.5342773E2,3.8162354E1,1.5062183E2,5.4039636E2,6.8742426E2,1.0464708E3,1.0958081E3,1.811438E2,2.757544E1,3.4820557E0,1.6244507E1,1.812605E2,2.4091315E2,4.2724884E1,9.8105225E1,4.9475616E2,2.1589359E2,1.5141095E2,5.0759967E2,2.4827026E2,3.9688605E2,4.539931E2,2.932229E2,1.7203125E1,1.003064E1,1.0152588E0,3.5820312E0,1.8711182E1,3.4348755E1,1.9243164E1,1.9178833E1,4.29516E2,1.9253174E1,1.4874084E1,2.7553955E1,5.5805176E1,4.6885162E1,1.6201929E2,2.5846645E1,1.982022E1,4.9834076E1,2.8765274E1,1.2213934E2,2.6705322E2,3.6855232E1,8.563428E1,5.083136E1,1.1032025E2,1.1986633E2,3.4324677E2,3.571057E1,4.8485474E1,6.822815E1,2.6048218E1,1.836383E1,3.859497E0,0E0,0E0,0E0,0E0,0E0,0E0,0E0,0E0,0E0,0E0,0E0,0E0,0E0,0E0,0E0,0E0,0E0,0E0,0E0,0E0,0E0,0E0,0E0,0E0,0E0,0E0,0E0,0E0,0E0,0E0,0E0,0E0,0E0,0E0,0E0,0E0,0E0,0E0,0E0,0E0,0E0,0E0,0E0,0E0,0E0,0E0,0E0,0E0,0E0,0E0,0E0,0E0,0E0,0E0,0E0,0E0,0E0,0E0,0E0,0E0,0E0,0E0,0E0],"parents":[2147483647,0,0,1,1,2,2,3,3,4,4,5,5,6,6,7,7,8,8,9,9,10,10,11,11,12,12,13,13,14,14,15,15,16,16,17,17,18,18,19,19,20,20,21,21,22,22,23,23,24,24,25,25,26,26,27,27,28,28,29,29,30,30,31,31,32,32,33,33,34,34,35,35,36,36,37,37,38,38,39,39,40,40,41,41,42,42,43,43,44,44,45,45,46,46,47,47,48,48,49,49,50,50,51,51,52,52,53,53,54,54,55,55,56,56,57,57,58,58,59,59,60,60,61,61],"right_children":[2,4,6,8,10,12,14,16,18,20,22,24,26,28,30,32,34,36,38,40,42,44,46,48,50,52,54,56,58,60,62,64,66,68,70,72,74,76,78,80,82,84,86,88,90,92,94,96,98,100,102,104,106,108,110,112,114,116,118,120,122,124,-1,-1,-1,-1,-1,-1,-1,-1,-1,-1,-1,-1,-1,-1,-1,-1,-1,-1,-1,-1,-1,-1,-1,-1,-1,-1,-1,-1,-1,-1,-1,-1,-1,-1,-1,-1,-1,-1,-1,-1,-1,-1,-1,-1,-1,-1,-1,-1,-1,-1,-1,-1,-1,-1,-1,-1,-1,-1,-1,-1,-1,-1,-1],"split_conditions":[-1.4194203E1,-1.6550772E2,1.9099222E2,-3.4329263E2,1E0,3E0,3.963294E2,-4.9686502E2,1E0,1E0,1E0,2E0,1E0,1E0,5.768863E2,1E0,3E0,1E0,1E0,-8.1085594E1,1E0,1E0,3E0,6E0,1E0,1E0,1E1,1E0,1E0,7E0,4.18E2,5.555556E-1,1E0,1E0,5E0,1.6339186E3,1E0,1E0,9.1E1,1.8478643E3,5E0,1E0,1E0,1E0,1.7E1,5.9E1,-8.6688934E1,1.5948156E1,9.03324E1,1E0,1.3914188E2,1E0,7E0,7.6E1,1.0661516E2,1E0,2.6738995E2,1E0,3E0,1.55436E3,1E0,1.7400671E3,-3.2242462E-2,-4.7165085E-2,-7.383937E-2,-6.53237E-2,-4.6416305E-2,-7.531964E-2,-5.4713763E-2,-2.8577128E-2,-5.4144043E-2,-3.03075E-2,-4.22059E-2,-7.392686E-2,-4.7412265E-2,7.073154E-2,-2.9493773E-2,-3.8616393E-2,7.017827E-3,-2.3090739E-2,-3.654945E-2,1.7766805E-2,-1.4785076E-2,-7.658259E-2,-1.1501261E-2,-5.146646E-2,-7.064079E-3,7.6885216E-2,-1.1566858E-2,4.0191106E-2,-1.2553525E-2,3.641139E-2,6.795605E-3,-2.6210938E-2,-1.3572282E-2,1.517415E-2,4.6342768E-2,-2.6589325E-3,1.4738614E-2,-7.384368E-2,1.963578E-2,-1.15962755E-2,1.7415473E-2,7.5410925E-2,1.4913417E-2,5.5813592E-2,1.8720485E-2,4.2788647E-2,1.7492034E-2,-4.203633E-3,1.3585016E-2,-6.793495E-2,4.723296E-2,2.3881646E-2,3.56254E-2,7.0961796E-2,3.554954E-2,5.5057544E-2,2.8649399E-2,6.3524954E-2,4.7498822E-2,3.030437E-2,4.959695E-2,6.479917E-2,4.544815E-2],"split_indices":[6,6,6,6,38,38,6,6,38,37,37,37,37,38,6,76,38,37,37,6,23,22,50,50,23,22,50,23,37,37,0,15,53,23,37,5,69,22,38,5,50,72,69,72,50,1,6,6,6,72,6,72,50,1,6,72,6,69,50,5,38,5,0,0,0,0,0,0,0,0,0,0,0,0,0,0,0,0,0,0,0,0,0,0,0,0,0,0,0,0,0,0,0,0,0,0,0,0,0,0,0,0,0,0,0,0,0,0,0,0,0,0,0,0,0,0,0,0,0,0,0,0,0,0,0],"split_type":[0,0,0,0,0,0,0,0,0,0,0,0,0,0,0,0,0,0,0,0,0,0,0,0,0,0,0,0,0,0,0,0,0,0,0,0,0,0,0,0,0,0,0,0,0,0,0,0,0,0,0,0,0,0,0,0,0,0,0,0,0,0,0,0,0,0,0,0,0,0,0,0,0,0,0,0,0,0,0,0,0,0,0,0,0,0,0,0,0,0,0,0,0,0,0,0,0,0,0,0,0,0,0,0,0,0,0,0,0,0,0,0,0,0,0,0,0,0,0,0,0,0,0,0,0],"sum_hessian":[3.7266375E4,1.5260333E4,2.2006041E4,7.130777E3,8.129556E3,1.3332872E4,8.673169E3,2.429997E3,4.70078E3,3.798296E3,4.3312603E3,5.8944727E3,7.438399E3,6.181107E3,2.4920618E3,8.499154E2,1.5800818E3,2.4721697E3,2.2286099E3,2.846026E3,9.5226984E2,8.7918976E2,3.4520706E3,4.4578257E3,1.4366472E3,1.5161532E3,5.9222456E3,2.9330083E3,3.2480986E3,1.8080636E3,6.8399817E2,2.4483084E2,6.0508453E2,8.888034E2,6.912784E2,1.8446329E3,6.2753674E2,4.9912323E2,1.7294867E3,1.432458E3,1.413568E3,6.748739E2,2.7739597E2,5.01333E2,3.7785678E2,2.690951E2,3.1829753E3,3.8173694E2,4.0760886E3,8.755532E2,5.61094E2,1.0307677E3,4.853854E2,1.7282986E3,4.1939473E3,3.0856836E2,2.62444E3,8.339251E2,2.4141736E3,1.0603124E3,7.4775116E2,6.818288E2,2.1693518E0,1.0543131E1,2.342877E2,5.6700366E2,3.8080894E1,1.3913248E2,7.496709E2,1.8224303E2,5.0903534E2,4.695756E2,1.3750574E3,5.411838E2,8.6352936E1,1.5357945E2,3.455438E2,1.7063438E3,2.3142979E1,1.1796936E3,2.527644E2,6.748707E1,1.3460809E3,6.397431E2,3.5130814E1,1.907046E2,8.669135E1,4.4300214E2,5.833088E1,2.3887064E1,3.5396973E2,1.8769669E2,8.139841E1,1.3801392E3,1.8028362E3,1.0233968E2,2.7939728E2,2.2459631E3,1.8301255E3,7.914094E2,8.4143776E1,4.1327603E2,1.4781795E2,9.6792175E2,6.284596E1,1.2399936E2,3.6138605E2,8.796957E2,8.4860284E2,2.7510916E3,1.4428557E3,2.1747874E2,9.108962E1,1.2280115E3,1.3964285E3,7.185954E2,1.15329735E2,2.7701334E2,2.1371602E3,5.325316E2,5.2778076E2,1.6433733E2,5.834139E2,6.4400574E2,3.782305E1],"tree_param":{"num_deleted":"0","num_feature":"79","num_nodes":"125","size_leaf_vector":"1"}},{"base_weights":[2.095527E-3,-6.4960164E-1,3.5149375E-1,-9.6507365E-1,-4.6884316E-1,1.00033626E-1,7.0072865E-1,-1.2016338E0,-8.5064745E-1,-6.8701917E-1,-2.597196E-1,-1.7141931E-1,3.0576426E-1,5.5745435E-1,9.935139E-1,-1.2865467E0,-1.0693682E0,-9.985658E-1,-6.761106E-1,-4.8785743E-1,-1.2966893E0,4.5748422E-1,-4.4747832E-1,6.7708045E-2,-9.041968E-1,1.0688885E0,1.2140532E-1,3.7105483E-1,7.244637E-1,8.760538E-1,1.136536E0,-1.3119296E0,-1.0495538E0,-9.3014854E-1,-1.1560541E0,-8.706672E-1,-1.3687773E0,-1.6885915E-1,-8.3204776E-1,-5.190857E-1,1.4442651E-1,-1.4539688E0,-9.1999054E-1,1.3400378E0,-3.327329E-1,-1.8195705E-1,-5.2965164E-1,6.439603E-1,1.163539E-2,-1.3006846E0,-2.1994935E-1,1.3681442E0,4.6829545E-1,6.2590843E-1,-1.3038076E-2,-6.8789357E-1,5.112495E-1,1.273787E0,5.5008346E-1,7.4774617E-1,1.0005563E0,1.1420214E0,-3.619253E-1,-6.5739766E-2,-1.9057355E-3,1.2877981E-2,-5.5648398E-2,-3.708462E-2,-5.5677988E-2,-6.342267E-2,-4.874179E-2,-4.6267815E-2,-2.5283733E-2,-1.826002E-2,-6.955296E-2,6.9413E-2,-3.3365566E-2,-4.4489715E-2,-2.5358481E-2,-3.429472E-2,-2.1540703E-2,1.1602468E-2,-2.4030149E-2,-7.4522234E-2,-1.8823354E-2,-5.754568E-2,-3.1425737E-2,7.536114E-2,-1.6134493E-2,-2.8664961E-2,-7.272318E-3,2.161203E-2,-1.3236182E-2,-3.8548928E-2,-2.3127379E-2,-2.980782E-3,3.86632E-2,-7.978107E-3,8.737213E-3,-7.4051134E-2,1.5090845E-2,-1.3714152E-2,5.189243E-2,7.3703915E-2,1.0639267E-2,5.3591844E-2,1.4116704E-2,4.229359E-2,1.566276E-2,-7.813947E-3,8.977254E-3,-6.830805E-2,4.698639E-2,1.56009765E-2,3.0354256E-2,7.231393E-2,4.4614032E-2,-2.2853615E-3,2.988398E-2,-1.8109662E-2,4.159273E-2,6.471224E-2,4.393584E-2,5.4074354E-2,6.505693E-2,-7.2988816E-2,2.4667446E-2],"categories":[],"categories_nodes":[],"categories_segments":[],"categories_sizes":[],"default_left":[0,0,0,0,0,0,0,0,0,0,0,0,0,0,0,0,0,0,0,0,0,0,0,0,0,0,0,0,0,0,0,0,0,0,0,0,0,0,0,0,0,0,0,0,0,0,0,0,0,0,0,0,0,0,0,0,0,0,0,0,0,0,0,0,0,0,0,0,0,0,0,0,0,0,0,0,0,0,0,0,0,0,0,0,0,0,0,0,0,0,0,0,0,0,0,0,0,0,0,0,0,0,0,0,0,0,0,0,0,0,0,0,0,0,0,0,0,0,0,0,0,0,0,0,0,0,0],"id":9,"left_children":[1,3,5,7,9,11,13,15,17,19,21,23,25,27,29,31,33,35,37,39,41,43,45,47,49,51,53,55,57,59,61,63,65,67,69,71,73,75,77,79,81,83,85,87,89,91,93,95,97,99,101,103,105,107,109,111,113,115,117,119,121,123,125,-1,-1,-1,-1,-1,-1,-1,-1,-1,-1,-1,-1,-1,-1,-1,-1,-1,-1,-1,-1,-1,-1,-1,-1,-1,-1,-1,-1,-1,-1,-1,-1,-1,-1,-1,-1,-1,-1,-1,-1,-1,-1,-1,-1,-1,-1,-1,-1,-1,-1,-1,-1,-1,-1,-1,-1,-1,-1,-1,-1,-1,-1,-1,-1],"loss_changes":[8.422692E3,7.3573584E2,2.1145942E3,1.2624756E2,3.7438037E2,7.819467E2,4.2229004E2,1.5812012E1,8.1225586E1,4.8713794E2,5.648734E2,1.0578903E3,1.1204498E3,2.1049585E2,5.4621582E1,4.2001953E0,6.217407E0,8.001294E1,1.15211975E2,5.9894287E1,5.7230713E1,6.075383E2,7.242383E1,1.4709332E2,4.0269348E2,2.7788318E2,4.3520593E2,4.7564285E2,3.4126086E2,2.8359985E1,1.265686E1,2.9923096E0,8.135597E0,7.365906E0,6.2650757E0,2.5030212E1,9.299988E0,2.680412E2,2.046991E1,4.221704E1,7.963414E0,2.678003E1,1.9058075E1,1.14854675E2,2.0645222E1,4.0124214E1,4.0738953E1,3.67713E1,1.1590701E2,2.7216943E2,3.7608704E1,1.2621387E2,5.7709908E1,9.258429E1,1.3981026E2,4.149621E2,5.3802246E1,5.5264893E1,7.691675E1,8.4444214E1,3.184845E1,1.2890015E1,6.534343E0,0E0,0E0,0E0,0E0,0E0,0E0,0E0,0E0,0E0,0E0,0E0,0E0,0E0,0E0,0E0,0E0,0E0,0E0,0E0,0E0,0E0,0E0,0E0,0E0,0E0,0E0,0E0,0E0,0E0,0E0,0E0,0E0,0E0,0E0,0E0,0E0,0E0,0E0,0E0,0E0,0E0,0E0,0E0,0E0,0E0,0E0,0E0,0E0,0E0,0E0,0E0,0E0,0E0,0E0,0E0,0E0,0E0,0E0,0E0,0E0,0E0,0E0,0E0,0E0],"parents":[2147483647,0,0,1,1,2,2,3,3,4,4,5,5,6,6,7,7,8,8,9,9,10,10,11,11,12,12,13,13,14,14,15,15,16,16,17,17,18,18,19,19,20,20,21,21,22,22,23,23,24,24,25,25,26,26,27,27,28,28,29,29,30,30,31,31,32,32,33,33,34,34,35,35,36,36,37,37,38,38,39,39,40,40,41,41,42,42,43,43,44,44,45,45,46,46,47,47,48,48,49,49,50,50,51,51,52,52,53,53,54,54,55,55,56,56,57,57,58,58,59,59,60,60,61,61,62,62],"right_children":[2,4,6,8,10,12,14,16,18,20,22,24,26,28,30,32,34,36,38,40,42,44,46,48,50,52,54,56,58,60,62,64,66,68,70,72,74,76,78,80,82,84,86,88,90,92,94,96,98,100,102,104,106,108,110,112,114,116,118,120,122,124,126,-1,-1,-1,-1,-1,-1,-1,-1,-1,-1,-1,-1,-1,-1,-1,-1,-1,-1,-1,-1,-1,-1,-1,-1,-1,-1,-1,-1,-1,-1,-1,-1,-1,-1,-1,-1,-1,-1,-1,-1,-1,-1,-1,-1,-1,-1,-1,-1,-1,-1,-1,-1,-1,-1,-1,-1,-1,-1,-1,-1,-1,-1,-1,-1],"split_conditions":[-4.5419727E1,-2.3627817E2,1.6105905E2,-4.08854E2,1E0,1E0,3.505287E2,-1.5030544E2,1E0,1E0,1E0,1E0,1E0,1E0,4.691772E2,1E0,3E0,1E0,1E0,2.5406842E2,1E0,1E0,1.5328372E3,6E0,1E0,1E0,5E0,1E0,1E0,1E0,2.71E2,1.1E1,5.574355E-1,8E0,6E0,9.697034E1,3E0,1E0,3.5968945E1,-1.1622625E2,1E0,1E0,-5.9965652E1,1E0,-8.344914E1,4E0,-1.8384766E2,1E0,2.7046284E1,1E0,8.5714287E-1,1E0,7E0,5.9E1,5.0371265E1,1E0,3.9092438E1,1E0,-8.344914E1,1E0,2E0,6.4616724E2,5.231461E-1,-6.5739766E-2,-1.9057355E-3,1.2877981E-2,-5.5648398E-2,-3.708462E-2,-5.5677988E-2,-6.342267E-2,-4.874179E-2,-4.6267815E-2,-2.5283733E-2,-1.826002E-2,-6.955296E-2,6.9413E-2,-3.3365566E-2,-4.4489715E-2,-2.5358481E-2,-3.429472E-2,-2.1540703E-2,1.1602468E-2,-2.4030149E-2,-7.4522234E-2,-1.8823354E-2,-5.754568E-2,-3.1425737E-2,7.536114E-2,-1.6134493E-2,-2.8664961E-2,-7.272318E-3,2.161203E-2,-1.3236182E-2,-3.8548928E-2,-2.3127379E-2,-2.980782E-3,3.86632E-2,-7.978107E-3,8.737213E-3,-7.4051134E-2,1.5090845E-2,-1.3714152E-2,5.189243E-2,7.3703915E-2,1.0639267E-2,5.3591844E-2,1.4116704E-2,4.229359E-2,1.566276E-2,-7.813947E-3,8.977254E-3,-6.830805E-2,4.698639E-2,1.56009765E-2,3.0354256E-2,7.231393E-2,4.4614032E-2,-2.2853615E-3,2.988398E-2,-1.8109662E-2,4.159273E-2,6.471224E-2,4.393584E-2,5.4074354E-2,6.505693E-2,-7.2988816E-2,2.4667446E-2],"split_indices":[6,6,6,6,38,38,6,7,38,37,37,37,37,38,6,20,42,37,37,7,23,22,5,50,23,22,50,23,37,38,0,39,46,37,41,7,1,22,7,7,53,72,7,72,7,50,7,22,7,72,13,72,50,1,7,72,7,22,7,23,37,6,47,0,0,0,0,0,0,0,0,0,0,0,0,0,0,0,0,0,0,0,0,0,0,0,0,0,0,0,0,0,0,0,0,0,0,0,0,0,0,0,0,0,0,0,0,0,0,0,0,0,0,0,0,0,0,0,0,0,0,0,0,0,0,0,0],"split_type":[0,0,0,0,0,0,0,0,0,0,0,0,0,0,0,0,0,0,0,0,0,0,0,0,0,0,0,0,0,0,0,0,0,0,0,0,0,0,0,0,0,0,0,0,0,0,0,0,0,0,0,0,0,0,0,0,0,0,0,0,0,0,0,0,0,0,0,0,0,0,0,0,0,0,0,0,0,0,0,0,0,0,0,0,0,0,0,0,0,0,0,0,0,0,0,0,0,0,0,0,0,0,0,0,0,0,0,0,0,0,0,0,0,0,0,0,0,0,0,0,0,0,0,0,0,0,0],"sum_hessian":[3.6988004E4,1.2909102E4,2.4078902E4,4.70073E3,8.208371E3,1.39998545E4,1.0079048E4,1.5294026E3,3.1713276E3,4.0161191E3,4.192252E3,6.035902E3,7.9639526E3,6.7693657E3,3.3096821E3,9.261181E2,6.032844E2,1.7140038E3,1.4573237E3,3.0285718E3,9.8754736E2,8.6949695E2,3.3227551E3,4.5515137E3,1.4843883E3,1.5486725E3,6.4152803E3,3.2005007E3,3.5688647E3,1.8211489E3,1.4885332E3,8.324266E2,9.369155E1,2.359971E2,3.6728735E2,1.2763942E3,4.376096E2,3.4315384E2,1.1141699E3,2.8862024E3,1.423694E2,6.946549E2,2.928925E2,4.1042178E2,4.5907516E2,7.8605164E2,2.5367034E3,4.026847E2,4.148829E3,9.392425E2,5.4514575E2,1.0327898E3,5.158827E2,1.3490966E3,5.0661836E3,3.7372134E2,2.8267795E3,8.584179E2,2.7104468E3,9.003194E2,9.208296E2,1.4833411E3,5.1921077E0,8.3052594E2,1.9006183E0,4.1934385E0,8.949811E1,1.1888547E2,1.17111626E2,2.2298384E2,1.4430351E2,1.1087311E3,1.676631E2,9.882703E0,4.277269E2,8.277794E1,2.603759E2,9.4454065E2,1.6962932E2,9.964395E2,1.8897628E3,1.2541608E2,1.6953331E1,6.715386E2,2.3116344E1,1.617761E2,1.3111638E2,3.730097E2,3.7412094E1,2.0005145E2,2.590237E2,9.284455E1,6.932071E2,5.496181E2,1.9870853E3,6.2600044E1,3.4008466E2,2.0242338E3,2.1245952E3,8.4430426E2,9.4938255E1,5.2332153E2,2.1824236E1,9.4579456E2,8.699521E1,1.2039019E2,3.9549252E2,7.909371E2,5.581595E2,2.9053845E3,2.160799E3,2.639062E2,1.0981515E2,9.195043E2,1.9072753E3,5.89221E2,2.6919693E2,2.00515E2,2.509932E3,6.318537E1,8.3713403E2,2.6718073E2,6.5364886E2,1.0801915E3,4.0314954E2,1.9641209E0,3.2279868E0],"tree_param":{"num_deleted":"0","num_feature":"79","num_nodes":"127","size_leaf_vector":"1"}},{"base_weights":[2.1381653E-3,-5.2015734E-1,4.0611908E-1,-7.996397E-1,-2.533307E-1,2.1040228E-1,7.5953066E-1,-1.0630062E0,-6.655416E-1,5.719922E-1,-3.1367812E-1,5.346802E-1,7.397163E-2,6.456829E-1,1.0344882E0,-1.2627224E0,-9.940056E-1,-5.143629E-1,-8.202739E-1,7.62206E-1,3.5843882E-1,-1.1131372E-1,-4.8859304E-1,1.1538236E0,3.854175E-1,3.1384203E-1,-2.2944488E-1,7.915431E-1,4.8430428E-1,9.851378E-1,1.2505951E0,-1.2730955E0,-4.0658596E-1,-1.121181E0,-9.0163225E-1,5.2997416E-1,-6.5371954E-1,-7.269263E-1,-1.2513127E0,5.471756E-1,1.0151173E0,2.4332744E-1,8.912747E-1,8.020088E-1,-2.9988506E-1,-2.4608861E-1,-7.240761E-1,1.244787E0,2.5346762E-1,7.150336E-1,2.4326688E-1,9.473414E-1,1.6229925E-1,7.509894E-2,-3.352111E-1,1.314823E0,6.629964E-1,7.368894E-1,3.049729E-1,1.077148E0,8.4852433E-1,-5.984201E-2,1.2628015E0,-7.027979E-2,-6.079296E-2,2.379519E-2,-4.519983E-2,-4.996406E-2,-6.140058E-2,-3.8115066E-2,-5.267619E-2,5.1641595E-2,-3.7721273E-2,-4.0186528E-2,-2.6623277E-2,-3.799967E-2,-3.2768361E-3,-6.8725586E-2,-3.387996E-2,1.143034E-2,4.006388E-2,5.6892384E-2,3.286185E-2,-5.825765E-4,2.1316295E-2,5.9339672E-2,1.6831137E-2,6.565484E-2,-2.7998228E-2,-2.2223767E-2,-9.824662E-3,-2.095854E-2,-7.543047E-3,-3.1186352E-2,-5.2531183E-2,6.666764E-2,3.6129005E-2,6.614693E-2,3.4268522E-3,1.9314414E-2,4.0043067E-2,4.666312E-3,2.4137003E-2,6.028385E-2,3.0229544E-2,-9.012406E-3,1.2005544E-2,-5.2709E-3,1.4104809E-2,-2.2990052E-2,-1.3546279E-3,6.9046654E-2,3.562599E-2,2.5268614E-2,3.9372623E-2,5.198889E-2,3.176795E-2,4.36962E-3,2.3369387E-2,6.8192646E-2,5.0511133E-2,5.1398464E-2,3.5803307E-2,-2.9441223E-2,6.3589975E-2],"categories":[],"categories_nodes":[],"categories_segments":[],"categories_sizes":[],"default_left":[0,0,0,0,0,0,0,0,0,0,0,0,0,0,0,0,0,0,0,0,0,0,0,0,0,0,0,0,0,0,0,0,0,0,0,0,0,0,0,0,0,0,0,0,0,0,0,0,0,0,0,0,0,0,0,0,0,0,0,0,0,0,0,0,0,0,0,0,0,0,0,0,0,0,0,0,0,0,0,0,0,0,0,0,0,0,0,0,0,0,0,0,0,0,0,0,0,0,0,0,0,0,0,0,0,0,0,0,0,0,0,0,0,0,0,0,0,0,0,0,0,0,0,0,0],"id":10,"left_children":[1,3,5,7,9,11,13,15,17,19,21,23,25,27,29,31,33,35,37,39,41,43,45,47,49,51,53,55,57,59,61,63,65,67,69,71,73,75,77,79,81,83,85,87,89,91,93,95,97,99,101,103,105,107,109,111,113,115,117,119,121,-1,123,-1,-1,-1,-1,-1,-1,-1,-1,-1,-1,-1,-1,-1,-1,-1,-1,-1,-1,-1,-1,-1,-1,-1,-1,-1,-1,-1,-1,-1,-1,-1,-1,-1,-1,-1,-1,-1,-1,-1,-1,-1,-1,-1,-1,-1,-1,-1,-1,-1,-1,-1,-1,-1,-1,-1,-1,-1,-1,-1,-1,-1,-1],"loss_changes":[7.739436E3,1.1927856E3,1.4304353E3,2.7522363E2,4.0786823E2,5.889248E2,2.300752E2,3.504663E1,1.20742676E2,2.239708E1,2.6996545E2,3.638645E2,6.821288E2,1.2238257E2,2.1769531E1,5.456909E0,2.2044556E1,3.820291E2,1.0201831E2,1.5449127E1,1.6025078E1,6.095773E2,2.3346533E2,6.2358032E1,1.4872461E2,5.023405E2,1.3331883E2,1.8329431E2,1.1204706E2,2.121521E1,1.3378784E1,3.328125E0,4.6102266E0,9.472656E0,2.3364136E1,2.0055539E2,4.1667786E1,4.598889E1,3.1156677E1,1.2867905E1,5.140625E0,1.0230047E1,7.2499466E0,4.223861E2,4.3763184E1,3.3184288E1,6.7348145E1,3.1169678E1,1.4045504E1,2.669345E1,7.97337E1,8.871802E1,1.1265719E2,3.9919594E1,1.1790469E2,2.0474854E1,4.2759277E1,3.0965393E1,5.1241913E1,1.8736328E1,1.6216553E1,0E0,7.3425293E0,0E0,0E0,0E0,0E0,0E0,0E0,0E0,0E0,0E0,0E0,0E0,0E0,0E0,0E0,0E0,0E0,0E0,0E0,0E0,0E0,0E0,0E0,0E0,0E0,0E0,0E0,0E0,0E0,0E0,0E0,0E0,0E0,0E0,0E0,0E0,0E0,0E0,0E0,0E0,0E0,0E0,0E0,0E0,0E0,0E0,0E0,0E0,0E0,0E0,0E0,0E0,0E0,0E0,0E0,0E0,0E0,0E0,0E0,0E0,0E0,0E0,0E0],"parents":[2147483647,0,0,1,1,2,2,3,3,4,4,5,5,6,6,7,7,8,8,9,9,10,10,11,11,12,12,13,13,14,14,15,15,16,16,17,17,18,18,19,19,20,20,21,21,22,22,23,23,24,24,25,25,26,26,27,27,28,28,29,29,30,30,31,31,32,32,33,33,34,34,35,35,36,36,37,37,38,38,39,39,40,40,41,41,42,42,43,43,44,44,45,45,46,46,47,47,48,48,49,49,50,50,51,51,52,52,53,53,54,54,55,55,56,56,57,57,58,58,59,59,60,60,62,62],"right_children":[2,4,6,8,10,12,14,16,18,20,22,24,26,28,30,32,34,36,38,40,42,44,46,48,50,52,54,56,58,60,62,64,66,68,70,72,74,76,78,80,82,84,86,88,90,92,94,96,98,100,102,104,106,108,110,112,114,116,118,120,122,-1,124,-1,-1,-1,-1,-1,-1,-1,-1,-1,-1,-1,-1,-1,-1,-1,-1,-1,-1,-1,-1,-1,-1,-1,-1,-1,-1,-1,-1,-1,-1,-1,-1,-1,-1,-1,-1,-1,-1,-1,-1,-1,-1,-1,-1,-1,-1,-1,-1,-1,-1,-1,-1,-1,-1,-1,-1,-1,-1,-1,-1,-1,-1],"split_conditions":[-1.007497E0,-1.433497E2,2.1702916E2,-3.2584903E2,3E0,1E0,4.140464E2,-5.2199817E2,5E0,1E0,2E0,1E0,1E0,5E0,6.4616724E2,3.2558337E2,-2.01652E2,1E0,1E0,2.2222222E-1,1E0,1E0,1E0,1E0,4E0,1E0,2E0,1E0,1E0,7E0,2E-1,1E0,5.875E-1,1E0,1E0,1E0,-1.13553795E2,1.8487106E2,1E0,1E0,2.71E2,2E0,2E0,1E0,-5.0583855E1,-6.1917408E1,1E0,1E0,1E0,3E0,8.5758835E1,1E0,-7.45404E1,9.9722664E1,1E0,1E0,1.1342765E2,4E0,1.03060974E2,1E0,1E0,-5.984201E-2,-3.25606E2,-7.027979E-2,-6.079296E-2,2.379519E-2,-4.519983E-2,-4.996406E-2,-6.140058E-2,-3.8115066E-2,-5.267619E-2,5.1641595E-2,-3.7721273E-2,-4.0186528E-2,-2.6623277E-2,-3.799967E-2,-3.2768361E-3,-6.8725586E-2,-3.387996E-2,1.143034E-2,4.006388E-2,5.6892384E-2,3.286185E-2,-5.825765E-4,2.1316295E-2,5.9339672E-2,1.6831137E-2,6.565484E-2,-2.7998228E-2,-2.2223767E-2,-9.824662E-3,-2.095854E-2,-7.543047E-3,-3.1186352E-2,-5.2531183E-2,6.666764E-2,3.6129005E-2,6.614693E-2,3.4268522E-3,1.9314414E-2,4.0043067E-2,4.666312E-3,2.4137003E-2,6.028385E-2,3.0229544E-2,-9.012406E-3,1.2005544E-2,-5.2709E-3,1.4104809E-2,-2.2990052E-2,-1.3546279E-3,6.9046654E-2,3.562599E-2,2.5268614E-2,3.9372623E-2,5.198889E-2,3.176795E-2,4.36962E-3,2.3369387E-2,6.8192646E-2,5.0511133E-2,5.1398464E-2,3.5803307E-2,-2.9441223E-2,6.3589975E-2],"split_indices":[6,6,6,6,50,40,6,6,37,50,37,37,37,37,6,7,7,22,29,9,28,22,42,69,50,29,42,22,40,37,8,76,35,29,37,72,7,7,69,62,0,24,50,72,7,7,29,72,22,49,7,22,7,6,23,37,7,50,7,22,40,0,7,0,0,0,0,0,0,0,0,0,0,0,0,0,0,0,0,0,0,0,0,0,0,0,0,0,0,0,0,0,0,0,0,0,0,0,0,0,0,0,0,0,0,0,0,0,0,0,0,0,0,0,0,0,0,0,0,0,0,0,0,0,0],"split_type":[0,0,0,0,0,0,0,0,0,0,0,0,0,0,0,0,0,0,0,0,0,0,0,0,0,0,0,0,0,0,0,0,0,0,0,0,0,0,0,0,0,0,0,0,0,0,0,0,0,0,0,0,0,0,0,0,0,0,0,0,0,0,0,0,0,0,0,0,0,0,0,0,0,0,0,0,0,0,0,0,0,0,0,0,0,0,0,0,0,0,0,0,0,0,0,0,0,0,0,0,0,0,0,0,0,0,0,0,0,0,0,0,0,0,0,0,0,0,0,0,0,0,0,0,0],"sum_hessian":[3.667824E4,1.5996512E4,2.0681725E4,7.811994E3,8.1845176E3,1.3311504E4,7.3702207E3,2.6333035E3,5.1786904E3,5.5709534E2,7.627422E3,3.941101E3,9.370403E3,5.214482E3,2.155739E3,6.7173157E2,1.961572E3,2.6216113E3,2.557079E3,2.9329016E2,2.6380518E2,3.5369978E3,4.0904243E3,7.642505E2,3.1768506E3,5.233192E3,4.1372114E3,2.7368792E3,2.4776025E3,1.7594971E3,3.9624194E2,6.63209E2,8.522538E0,8.206293E2,1.1409427E3,3.0831317E2,2.313298E3,2.1040942E3,4.5298492E2,1.6022606E2,1.3306409E2,2.1813663E2,4.566856E1,6.0474335E2,2.9322544E3,2.0161766E3,2.0742478E3,6.937755E2,7.0475E1,9.5601984E2,2.2208308E3,1.00919006E3,4.224002E3,1.0665298E3,3.0706816E3,5.3791974E2,2.1989592E3,1.0274078E3,1.4501948E3,1.0472693E3,7.122278E2,1.4848026E0,3.9475714E2,1.9295827E2,4.7025073E2,3.0876923E0,5.4348454E0,3.881179E2,4.3251138E2,5.982151E2,5.427276E2,2.217078E2,8.660539E1,1.0315162E3,1.2817819E3,2.0037643E3,1.00329895E2,3.7175797E2,8.122697E1,7.193745E1,8.828862E1,9.746151E1,3.560258E1,9.1534424E1,1.266022E2,2.9050653E1,1.6617907E1,4.397577E2,1.6498563E2,1.2211771E3,1.7110773E3,7.143677E2,1.301809E3,1.5888876E3,4.8536008E2,5.9184576E2,1.01929726E2,9.482588E0,6.0992413E1,1.9906053E2,7.569593E2,1.3665724E3,8.5425824E2,5.740233E2,4.3516675E2,7.8165106E2,3.4423508E3,5.69967E2,4.965628E2,2.1861885E3,8.844933E2,4.8355142E2,5.4368324E1,9.7243115E2,1.2265281E3,2.5561348E2,7.717944E2,6.2048914E2,8.297057E2,1.9453056E2,8.5273865E2,2.9959595E2,4.1263187E2,1.597404E0,3.9315973E2],"tree_param":{"num_deleted":"0","num_feature":"79","num_nodes":"125","size_leaf_vector":"1"}},{"base_weights":[-1.4900307E-3,-6.114985E-1,3.126115E-1,-9.024149E-1,-4.499005E-1,8.570098E-2,6.3977677E-1,-1.1355911E0,-8.0124414E-1,-6.47765E-1,-2.58429E-1,-1.727207E-1,2.8306052E-1,5.0557315E-1,9.346116E-1,-1.2538456E0,-1.0584608E0,-9.3490213E-1,-6.419529E-1,-4.5517284E-1,-1.2545801E0,3.9840102E-1,-4.2705876E-1,4.4442456E-2,-8.491958E-1,9.9477214E-1,1.1624392E-1,3.2403576E-1,6.685836E-1,8.273399E-1,1.0805006E0,-1.3161814E0,-1.161637E0,-9.832228E-1,-1.206574E0,-1.3928583E0,-8.409234E-1,-2.0510042E-1,-7.766507E-1,-5.760143E-1,-3.4344354E-1,-1.4063684E0,-8.9375544E-1,1.2762588E0,-3.3191583E-1,-2.196386E-1,-5.1687235E-1,2.684331E-1,-6.624835E-2,-1.2576245E0,-1.5963963E-1,1.2983973E0,4.090968E-1,3.630306E-1,-3.7312053E-2,-6.8279785E-1,4.535689E-1,1.2114139E0,5.0449353E-1,9.326603E-1,7.0210207E-1,1.0865582E0,-3.8084614E-1,-6.607781E-2,-1.6932532E-2,1.1005434E-3,-5.862705E-2,-4.9801134E-2,1.55145E-2,-6.0632683E-2,6.2320293E-3,-7.2305344E-2,-3.0687565E-2,-3.5541397E-2,-4.7147512E-2,6.612941E-2,-3.3270452E-2,3.7384668E-4,-3.9782617E-2,-2.4047805E-2,-3.524589E-2,-8.978311E-3,-2.0300923E-2,-7.170835E-2,-8.45798E-3,-5.308013E-2,-2.4631014E-2,7.2078556E-2,-2.0809053E-2,-1.8323109E-2,4.219066E-2,-2.4695469E-2,-5.098466E-3,-2.7141914E-2,-7.572898E-3,3.3351642E-3,2.1494286E-2,-9.926128E-3,3.59893E-3,-7.1686625E-2,1.1559143E-2,-1.152186E-2,3.125819E-2,7.059707E-2,7.69111E-3,3.0342972E-2,-2.0381461E-3,2.9218083E-2,6.5013E-3,-7.067026E-3,7.0541548E-3,-6.6310726E-2,4.3504044E-2,4.386509E-2,2.1135822E-2,6.92698E-2,4.22572E-2,3.3819575E-2,1.8455831E-2,6.9837704E-2,4.180638E-2,1.6537948E-2,4.064853E-2,5.4502726E-2,-5.88316E-2,-5.3878345E-2,2.377521E-2],"categories":[],"categories_nodes":[],"categories_segments":[],"categories_sizes":[],"default_left":[0,0,0,0,0,0,0,0,0,0,0,0,0,0,0,0,0,0,0,0,0,0,0,0,0,0,0,0,0,0,0,0,0,0,0,0,0,0,0,0,0,0,0,0,0,0,0,0,0,0,0,0,0,0,0,0,0,0,0,0,0,0,0,0,0,0,0,0,0,0,0,0,0,0,0,0,0,0,0,0,0,0,0,0,0,0,0,0,0,0,0,0,0,0,0,0,0,0,0,0,0,0,0,0,0,0,0,0,0,0,0,0,0,0,0,0,0,0,0,0,0,0,0,0,0,0,0],"id":11,"left_children":[1,3,5,7,9,11,13,15,17,19,21,23,25,27,29,31,33,35,37,39,41,43,45,47,49,51,53,55,57,59,61,63,65,67,69,71,73,75,77,79,81,83,85,87,89,91,93,95,97,99,101,103,105,107,109,111,113,115,117,119,121,123,125,-1,-1,-1,-1,-1,-1,-1,-1,-1,-1,-1,-1,-1,-1,-1,-1,-1,-1,-1,-1,-1,-1,-1,-1,-1,-1,-1,-1,-1,-1,-1,-1,-1,-1,-1,-1,-1,-1,-1,-1,-1,-1,-1,-1,-1,-1,-1,-1,-1,-1,-1,-1,-1,-1,-1,-1,-1,-1,-1,-1,-1,-1,-1,-1],"loss_changes":[6.9695894E3,5.808291E2,1.782469E3,1.0322412E2,3.010393E2,7.232082E2,3.88604E2,1.0834106E1,6.501526E1,4.5629956E2,4.478852E2,9.020874E2,9.544004E2,1.9981384E2,4.7223145E1,1.465271E0,7.8778687E0,7.0857056E1,8.276886E1,3.9888794E1,5.0294434E1,5.301606E2,5.9814575E1,1.15286835E2,4.2005847E2,2.7091284E2,2.4687436E2,4.176427E2,3.1653748E2,2.2772095E1,1.1917725E1,1.1459961E0,2.8475952E0,9.329041E0,2.3330994E0,1.0871399E1,1.77948E1,2.3539453E2,1.605017E1,1.7120514E1,1.577211E1,2.248413E1,1.84272E1,1.0564136E2,1.8661446E1,3.1376396E1,2.1210632E1,5.0058044E1,5.691915E1,2.4600305E2,3.1048847E1,1.3037097E2,4.6520294E1,1.287851E2,7.455951E1,3.660014E2,3.670215E1,5.1450073E1,6.3414917E1,4.1917114E1,3.3300262E1,1.1525269E1,4.1549296E0,0E0,0E0,0E0,0E0,0E0,0E0,0E0,0E0,0E0,0E0,0E0,0E0,0E0,0E0,0E0,0E0,0E0,0E0,0E0,0E0,0E0,0E0,0E0,0E0,0E0,0E0,0E0,0E0,0E0,0E0,0E0,0E0,0E0,0E0,0E0,0E0,0E0,0E0,0E0,0E0,0E0,0E0,0E0,0E0,0E0,0E0,0E0,0E0,0E0,0E0,0E0,0E0,0E0,0E0,0E0,0E0,0E0,0E0,0E0,0E0,0E0,0E0,0E0,0E0],"parents":[2147483647,0,0,1,1,2,2,3,3,4,4,5,5,6,6,7,7,8,8,9,9,10,10,11,11,12,12,13,13,14,14,15,15,16,16,17,17,18,18,19,19,20,20,21,21,22,22,23,23,24,24,25,25,26,26,27,27,28,28,29,29,30,30,31,31,32,32,33,33,34,34,35,35,36,36,37,37,38,38,39,39,40,40,41,41,42,42,43,43,44,44,45,45,46,46,47,47,48,48,49,49,50,50,51,51,52,52,53,53,54,54,55,55,56,56,57,57,58,58,59,59,60,60,61,61,62,62],"right_children":[2,4,6,8,10,12,14,16,18,20,22,24,26,28,30,32,34,36,38,40,42,44,46,48,50,52,54,56,58,60,62,64,66,68,70,72,74,76,78,80,82,84,86,88,90,92,94,96,98,100,102,104,106,108,110,112,114,116,118,120,122,124,126,-1,-1,-1,-1,-1,-1,-1,-1,-1,-1,-1,-1,-1,-1,-1,-1,-1,-1,-1,-1,-1,-1,-1,-1,-1,-1,-1,-1,-1,-1,-1,-1,-1,-1,-1,-1,-1,-1,-1,-1,-1,-1,-1,-1,-1,-1,-1,-1,-1,-1,-1,-1,-1,-1,-1,-1,-1,-1,-1,-1,-1,-1,-1,-1],"split_conditions":[-5.028641E1,-2.413981E2,1.6105905E2,-4.227601E2,1E0,1E0,3.5746268E2,-5.5211456E2,1E0,1E0,1E0,1E0,1E0,1E0,4.822051E2,5E0,8E0,1E0,1E0,-1.3287894E2,1E0,1E0,1.5556617E3,1.5608148E3,1E0,1E0,1.5001157E3,1E0,1E0,2E0,2E0,7.196226E-1,6E0,5.7E1,1.21E2,1E0,6E0,1E0,2.857143E-1,8E0,1.5952637E3,1E0,1E0,1E0,2E0,-1.3977823E2,5.6E1,3.8882145E1,5.077915E1,1E0,1E0,1E0,1E0,6E1,6.996384E1,1E0,9.5E1,1E0,1.5063329E3,1E0,1E0,6E0,1.8629513E3,-6.607781E-2,-1.6932532E-2,1.1005434E-3,-5.862705E-2,-4.9801134E-2,1.55145E-2,-6.0632683E-2,6.2320293E-3,-7.2305344E-2,-3.0687565E-2,-3.5541397E-2,-4.7147512E-2,6.612941E-2,-3.3270452E-2,3.7384668E-4,-3.9782617E-2,-2.4047805E-2,-3.524589E-2,-8.978311E-3,-2.0300923E-2,-7.170835E-2,-8.45798E-3,-5.308013E-2,-2.4631014E-2,7.2078556E-2,-2.0809053E-2,-1.8323109E-2,4.219066E-2,-2.4695469E-2,-5.098466E-3,-2.7141914E-2,-7.572898E-3,3.3351642E-3,2.1494286E-2,-9.926128E-3,3.59893E-3,-7.1686625E-2,1.1559143E-2,-1.152186E-2,3.125819E-2,7.059707E-2,7.69111E-3,3.0342972E-2,-2.0381461E-3,2.9218083E-2,6.5013E-3,-7.067026E-3,7.0541548E-3,-6.6310726E-2,4.3504044E-2,4.386509E-2,2.1135822E-2,6.92698E-2,4.22572E-2,3.3819575E-2,1.8455831E-2,6.9837704E-2,4.180638E-2,1.6537948E-2,4.064853E-2,5.4502726E-2,-5.88316E-2,-5.3878345E-2,2.377521E-2],"split_indices":[6,6,6,6,38,38,6,6,38,37,37,37,37,38,6,38,37,23,37,6,23,22,5,5,23,22,5,23,37,37,21,46,38,38,1,72,42,22,15,42,5,57,69,72,28,6,38,6,6,72,15,72,69,1,6,72,49,22,5,22,38,24,3,0,0,0,0,0,0,0,0,0,0,0,0,0,0,0,0,0,0,0,0,0,0,0,0,0,0,0,0,0,0,0,0,0,0,0,0,0,0,0,0,0,0,0,0,0,0,0,0,0,0,0,0,0,0,0,0,0,0,0,0,0,0,0,0],"split_type":[0,0,0,0,0,0,0,0,0,0,0,0,0,0,0,0,0,0,0,0,0,0,0,0,0,0,0,0,0,0,0,0,0,0,0,0,0,0,0,0,0,0,0,0,0,0,0,0,0,0,0,0,0,0,0,0,0,0,0,0,0,0,0,0,0,0,0,0,0,0,0,0,0,0,0,0,0,0,0,0,0,0,0,0,0,0,0,0,0,0,0,0,0,0,0,0,0,0,0,0,0,0,0,0,0,0,0,0,0,0,0,0,0,0,0,0,0,0,0,0,0,0,0,0,0,0,0],"sum_hessian":[3.637286E4,1.2362677E4,2.4010182E4,4.413214E3,7.9494624E3,1.4178042E4,9.832139E3,1.3323099E3,3.0809038E3,3.9082937E3,4.0411687E3,6.1393413E3,8.038701E3,6.7585034E3,3.0736357E3,5.199219E2,8.123881E2,1.6725945E3,1.4083094E3,2.9680413E3,9.402525E2,8.2527545E2,3.2158933E3,4.6481265E3,1.491215E3,1.5254613E3,6.5132397E3,3.198957E3,3.5595461E3,1.7750889E3,1.2985469E3,3.0229047E2,2.176314E2,5.437923E2,2.685958E2,2.8244165E2,1.3901528E3,3.3249225E2,1.0758171E3,1.4238805E3,1.5441606E3,6.597976E2,2.8045493E2,3.7444107E2,4.5083438E2,9.727712E2,2.243122E3,1.5368259E3,3.1113005E3,9.3599506E2,5.552199E2,1.00383655E3,5.2162476E2,2.4977039E3,4.015536E3,3.6415854E2,2.8347986E3,8.2475885E2,2.7347874E3,9.6071533E2,8.143735E2,1.2934418E3,5.1051226E0,3.0028745E2,2.0030248E0,1.977282E0,2.156541E2,5.386917E2,5.1005945E0,2.6746335E2,1.132444E0,2.6357156E2,1.8870079E1,6.145282E2,7.756247E2,7.65528E1,2.5593944E2,2.5467573E1,1.0503496E3,8.222527E2,6.016278E2,4.2776285E2,1.1163978E3,6.4514276E2,1.4654805E1,1.9656125E2,8.389368E1,3.412564E2,3.3184654E1,4.3863434E2,1.2200042E1,2.91088E2,6.8168317E2,2.0938503E3,1.4927196E2,6.838236E2,8.5300226E2,1.5896616E3,1.521639E3,8.370224E2,9.8972694E1,5.099256E2,4.5294315E1,9.1302875E2,9.0807816E1,3.6209525E2,1.5952953E2,1.2801661E3,1.2175376E3,2.5365767E3,1.4789592E3,2.575795E2,1.06579025E2,1.9053424E2,2.6442642E3,5.57268E2,2.6749088E2,1.203112E3,1.5316753E3,1.6310356E2,7.9761176E2,1.8815392E2,6.262196E2,1.2919642E3,1.4775674E0,2.6724834E0,2.432639E0],"tree_param":{"num_deleted":"0","num_feature":"79","num_nodes":"127","size_leaf_vector":"1"}},{"base_weights":[-3.3449647E-3,-4.2596227E-1,2.614056E-1,-6.855975E-1,-2.5089046E-1,4.5222384E-1,4.561136E-2,-5.472439E-1,-8.9654595E-1,-4.5526573E-1,-5.9552655E-2,7.4347854E-1,2.7225885E-1,-1.9490352E-1,4.14439E-1,-6.6573787E-1,-1.2491426E-1,-1.0106941E0,-6.097091E-1,-1.1659291E0,-2.8718427E-1,6.1645526E-1,-2.2086757E-1,4.994983E-1,1.1488671E0,-4.1293752E-1,4.0985987E-1,-3.8824788E-1,2.03377E-3,5.6415224E-1,7.975786E-2,-8.846799E-1,-5.064053E-1,-3.883153E-1,8.146376E-2,-1.1567376E0,-9.08383E-1,-3.5909808E-1,-8.7749916E-1,-1.2975368E0,-1.0350918E-1,-4.7722363E-1,-4.5187294E-2,-1.5128703E-1,1.2583447E0,3.536034E-1,-2.7934122E-1,3.830197E-1,9.5765513E-1,1.2220316E0,5.7554746E-1,-1.153962E0,4.2092177E-1,2.8747055E-1,7.3261493E-1,-1.2246225E0,-2.4148493E-1,6.232933E-1,-1.862649E-1,4.5139682E-1,8.500735E-1,-8.765903E-2,4.7619516E-1,-3.2590654E-2,-6.430306E-2,7.14492E-3,-3.2569095E-2,-2.2377796E-2,7.7817724E-3,1.582252E-2,-1.0286207E-2,-6.1109036E-2,-4.6475217E-2,-5.5529565E-2,-3.9799295E-2,-2.463655E-2,1.2900365E-2,-4.7937326E-2,-1.8015603E-2,-3.1287845E-2,-6.918755E-2,2.6994636E-2,-2.161047E-2,-1.4385501E-2,-3.6599375E-2,1.0073314E-2,-1.8572606E-2,-1.3665187E-2,2.4410047E-2,6.81403E-2,5.044739E-3,3.239566E-2,7.165446E-4,-1.8146494E-2,8.672497E-3,3.0379254E-2,1.0363476E-2,4.3105938E-2,5.601392E-2,6.437666E-2,3.171894E-2,4.2216312E-2,-4.924513E-3,-6.874627E-2,2.1329165E-2,4.2937268E-3,3.675724E-2,3.5004802E-2,7.73666E-3,2.854909E-2,4.6389382E-2,-7.2733103E-3,-6.899944E-2,-6.5754303E-3,-3.0259987E-2,-3.0955232E-3,6.9734E-2,-4.4278963E-3,-2.856942E-2,1.7722065E-2,3.241869E-2,3.5144724E-2,5.1368512E-2,2.993937E-3,-2.4231056E-2,3.0709276E-2,-1.5990807E-2],"categories":[],"categories_nodes":[],"categories_segments":[],"categories_sizes":[],"default_left":[0,0,0,0,0,0,0,0,0,0,0,0,0,0,0,0,0,0,0,0,0,0,0,0,0,0,0,0,0,0,0,0,0,0,0,0,0,0,0,0,0,0,0,0,0,0,0,0,0,0,0,0,0,0,0,0,0,0,0,0,0,0,0,0,0,0,0,0,0,0,0,0,0,0,0,0,0,0,0,0,0,0,0,0,0,0,0,0,0,0,0,0,0,0,0,0,0,0,0,0,0,0,0,0,0,0,0,0,0,0,0,0,0,0,0,0,0,0,0,0,0,0,0,0,0,0,0],"id":12,"left_children":[1,3,5,7,9,11,13,15,17,19,21,23,25,27,29,31,33,35,37,39,41,43,45,47,49,51,53,55,57,59,61,63,65,67,69,71,73,75,77,79,81,83,85,87,89,91,93,95,97,99,101,103,105,107,109,111,113,115,117,119,121,123,125,-1,-1,-1,-1,-1,-1,-1,-1,-1,-1,-1,-1,-1,-1,-1,-1,-1,-1,-1,-1,-1,-1,-1,-1,-1,-1,-1,-1,-1,-1,-1,-1,-1,-1,-1,-1,-1,-1,-1,-1,-1,-1,-1,-1,-1,-1,-1,-1,-1,-1,-1,-1,-1,-1,-1,-1,-1,-1,-1,-1,-1,-1,-1,-1],"loss_changes":[4.0526416E3,6.3396265E2,9.1698474E2,1.6347119E2,3.258695E2,6.192788E2,9.272587E2,1.698302E2,7.218933E1,4.8099036E2,4.6964203E2,4.458037E2,6.8905505E2,2.4091687E2,2.0668494E2,9.203723E1,4.0537663E1,2.269336E1,4.233513E1,1.0758801E2,1.4990771E2,4.090837E2,1.16885605E2,1.5008215E2,7.0391846E1,7.558242E2,2.4016199E2,3.9160315E2,3.6690637E2,9.151349E1,8.475342E1,1.0341254E2,1.4475934E2,1.0623676E1,2.8315868E1,8.544678E0,2.0459839E1,2.7339226E1,1.2535217E1,3.883142E1,1.8421963E1,8.795029E1,1.15565865E2,2.9683977E1,5.4514343E1,3.210585E1,1.1951404E2,8.865326E1,7.9022217E0,5.7005615E1,3.517634E1,2.2672119E2,6.056823E1,2.4163351E2,5.222882E1,7.966797E1,1.0861371E2,3.856762E2,9.0519966E1,3.8852966E1,2.0285278E1,5.2635345E1,4.184002E1,0E0,0E0,0E0,0E0,0E0,0E0,0E0,0E0,0E0,0E0,0E0,0E0,0E0,0E0,0E0,0E0,0E0,0E0,0E0,0E0,0E0,0E0,0E0,0E0,0E0,0E0,0E0,0E0,0E0,0E0,0E0,0E0,0E0,0E0,0E0,0E0,0E0,0E0,0E0,0E0,0E0,0E0,0E0,0E0,0E0,0E0,0E0,0E0,0E0,0E0,0E0,0E0,0E0,0E0,0E0,0E0,0E0,0E0,0E0,0E0,0E0,0E0,0E0,0E0],"parents":[2147483647,0,0,1,1,2,2,3,3,4,4,5,5,6,6,7,7,8,8,9,9,10,10,11,11,12,12,13,13,14,14,15,15,16,16,17,17,18,18,19,19,20,20,21,21,22,22,23,23,24,24,25,25,26,26,27,27,28,28,29,29,30,30,31,31,32,32,33,33,34,34,35,35,36,36,37,37,38,38,39,39,40,40,41,41,42,42,43,43,44,44,45,45,46,46,47,47,48,48,49,49,50,50,51,51,52,52,53,53,54,54,55,55,56,56,57,57,58,58,59,59,60,60,61,61,62,62],"right_children":[2,4,6,8,10,12,